
 
-1.04509437084198	1.1132500171661377	0.3146926462650299	0.09444796293973923	-0.1426263153553009	0.2031194269657135	-1.4591068029403687	0.3030630648136139	-0.9290167093276978	0.6293745636940002	-1.320906639099121	0.5250749588012695	-2.2000927925109863	0.15743468701839447	0.20561835169792175	-0.09782624244689941	-0.13911278545856476	2.037795305252075	0.9464045763015747	1.6558899879455566	-0.6251124739646912	-1.519144058227539	0.49174684286117554	-0.2653134763240814	0.20445409417152405	
-0.054656099528074265	-2.107569456100464	0.40700337290763855	-0.9188723564147949	-0.009116618894040585	1.8443125486373901	0.860724925994873	-0.7816221117973328	1.8082549571990967	1.7957205772399902	0.18375632166862488	-0.33623987436294556	0.25294744968414307	1.160427212715149	-0.8174876570701599	0.3712192177772522	-0.26454997062683105	-0.24083957076072693	0.7876828908920288	1.4241714477539062	0.41761764883995056	0.4860169589519501	0.5505103468894958	-0.26014089584350586	-0.7020195722579956	
0.41050684452056885	2.7928977012634277	-0.9024938344955444	-0.7734901309013367	0.8510580062866211	-0.22377431392669678	0.3406868875026703	-0.4146946966648102	-1.087795376777649	1.567434549331665	-0.7968632578849792	-1.0505930185317993	0.3146856427192688	-0.1843307465314865	2.1736977100372314	-1.5452383756637573	-2.246690034866333	-1.2878849506378174	-1.3424516916275024	0.642659068107605	-2.261442184448242	0.851714551448822	-1.4243996143341064	-1.7660448551177979	-1.0002013444900513	
0.159517303109169	-0.09313870221376419	-1.241725206375122	-0.22505991160869598	-1.2642567157745361	-1.5219392776489258	0.6006815433502197	-1.0177711248397827	-0.6695441603660583	-0.7692344188690186	1.2531647682189941	0.7674844264984131	-0.17082476615905762	-0.7734792232513428	-0.27703848481178284	0.45696932077407837	-0.23994790017604828	1.8229986429214478	-0.3246857225894928	-2.474853992462158	0.5393238067626953	-0.38208210468292236	-2.0423684120178223	0.45867714285850525	0.5291470289230347	
0.038307372480630875	-1.6230164766311646	0.6492350697517395	0.07139331847429276	-0.6555337905883789	1.3470734357833862	2.8590636253356934	-0.30144640803337097	-0.7135556936264038	-0.5786160826683044	-0.4567374587059021	1.2724225521087646	-1.6497853994369507	2.2198784351348877	-0.3027208745479584	-1.463716745376587	1.0783822536468506	-0.5517792105674744	-0.024512317031621933	-0.17109215259552002	-1.4493306875228882	-0.36499208211898804	-0.004456966184079647	-0.55668705701828	0.26662108302116394	
0.1916416585445404	-1.3231449127197266	-0.05976230278611183	-0.6001991033554077	0.08692502975463867	1.2409883737564087	-1.1719675064086914	-1.3023465871810913	1.4644728899002075	-0.7819594740867615	-1.8841370344161987	1.0535552501678467	0.14456520974636078	-0.4118093252182007	1.5801254510879517	0.17531929910182953	0.6004197001457214	-0.7723641395568848	0.8751751780509949	-0.7479135990142822	0.763425886631012	-0.01935858465731144	-1.1325675249099731	0.3093964457511902	2.045382022857666	

 
-0.19746306538581848	-0.7488842010498047	0.7304040789604187	-0.14264556765556335	0.5171242952346802	0.33484208583831787	
 
0.455135703086853	-2.7687718868255615	0.6879590749740601	-0.20998473465442657	-0.49015435576438904	-3.3586325645446777	-0.03994736820459366	-1.4279937744140625	-0.4209446310997009	-1.649048089981079	-0.496645450592041	0.724418044090271	-1.6952439546585083	0.6061699986457825	-0.6206669807434082	-0.17620497941970825	-0.20786845684051514	1.0373692512512207	1.0511482954025269	-1.6007181406021118	2.3822264671325684	-0.8679961562156677	-1.6035361289978027	-0.2900291085243225	1.216485857963562	
0.3580067455768585	-0.36402440071105957	-1.8171474933624268	-1.0257982015609741	1.284292459487915	1.3483370542526245	0.5619516372680664	0.567983090877533	-0.5840676426887512	-1.8907241821289062	-0.6689051985740662	-0.5338533520698547	1.8463433980941772	0.8682389259338379	1.1268105506896973	1.0082073211669922	-0.9669193029403687	-0.5823288559913635	-0.778262197971344	0.8978016376495361	0.9844992160797119	-2.3511879444122314	0.6421386003494263	-0.355455607175827	1.2850269079208374	
-0.26172730326652527	-1.3117144107818604	-0.28003644943237305	1.0701597929000854	0.15410791337490082	-0.40398895740509033	-0.5306270718574524	1.0158886909484863	-0.9879246950149536	-0.7611345648765564	-0.13524621725082397	0.3390268087387085	1.0340999364852905	0.10720492154359818	-1.5521570444107056	0.7765294313430786	-0.9370706677436829	-1.1501436233520508	0.6272330284118652	0.39150628447532654	0.9590294361114502	2.4048056602478027	-0.2645280659198761	1.2702099084854126	-1.9575765132904053	
0.6582056879997253	-0.1135142520070076	0.4544062912464142	-1.5888155698776245	-0.9751051664352417	-0.5383195281028748	1.9581711292266846	-0.5187404751777649	0.40317776799201965	0.051730044186115265	-0.24783621728420258	1.6241748332977295	-0.14502258598804474	0.20593011379241943	0.45375290513038635	-0.1974194496870041	-0.8654191493988037	-0.295650452375412	-0.6702513694763184	-1.2881726026535034	-1.2972674369812012	0.21367396414279938	-1.6507813930511475	0.874566376209259	1.6031584739685059	
-0.4313255548477173	-1.448551058769226	-2.2935683727264404	0.13354450464248657	0.9853725433349609	-0.5299310088157654	-1.0849337577819824	-0.7629774212837219	0.23877866566181183	1.1452300548553467	-0.413188099861145	-0.0993984043598175	0.496088445186615	-0.6527417898178101	1.9880316257476807	-0.6846530437469482	0.24441370368003845	1.444501519203186	1.0491808652877808	0.9488590359687805	1.6162422895431519	1.9804781675338745	-0.2350296676158905	2.4739279747009277	-0.40967461466789246	
-0.16085484623908997	0.08688940107822418	0.6915673017501831	0.13091935217380524	0.07556381076574326	-0.1042424812912941	-0.02233492024242878	-0.08230987936258316	-0.1929427981376648	-2.0011398792266846	-0.14914514124393463	1.2071422338485718	-0.2471882402896881	0.8908792734146118	0.5720363855361938	-0.9531275629997253	0.5937115550041199	0.29058659076690674	1.7795106172561646	-0.9715012907981873	1.7122013568878174	-1.9574638605117798	-0.6371480822563171	0.47761350870132446	-0.4851522743701935	
0.838177502155304	-0.9859390258789062	-1.3105684518814087	2.915656566619873	1.3382924795150757	-2.776808023452759	-1.084409236907959	-0.20289266109466553	-1.0883172750473022	-0.2117498517036438	-0.6078887581825256	-1.3208720684051514	0.7299723029136658	-1.427927017211914	0.6879281997680664	1.10258948802948	2.060438871383667	-0.11327298730611801	0.25873881578445435	-0.3901962339878082	0.15084315836429596	-0.25368794798851013	0.3746180236339569	0.12429676204919815	-1.5197681188583374	
-1.4344770908355713	1.0644595623016357	0.3865016996860504	-1.4789016246795654	-0.8663304448127747	1.4444849491119385	-0.22468480467796326	-0.3026389181613922	0.821875274181366	1.7578239440917969	-0.5977591276168823	0.8410871028900146	0.23046378791332245	-1.8064064979553223	0.8160460591316223	-1.1485100984573364	-0.31541380286216736	0.7776172161102295	-0.3729133903980255	0.4917881488800049	-0.6682727336883545	-1.4726314544677734	-0.18003226816654205	1.148300290107727	0.6248001456260681	
-0.18507198989391327	-0.6719274520874023	0.696692705154419	-1.6245349645614624	0.4273863732814789	0.8524977564811707	-0.7311683893203735	1.3251020908355713	0.8291758894920349	-1.3655624389648438	1.0594406127929688	0.33756008744239807	0.8583452701568604	-0.1977592259645462	-0.9008826017379761	1.1630350351333618	-0.8007881045341492	-2.5566790103912354	0.835456132888794	1.6804205179214478	-0.6805025339126587	0.7193101644515991	0.12205664813518524	-1.3518565893173218	1.6538336277008057	
0.9628294706344604	0.8525720238685608	-0.2032628059387207	-1.4463452100753784	-0.6681265830993652	-1.332597255706787	0.34246042370796204	-1.6499947309494019	2.08872127532959	-0.046954404562711716	0.6050547957420349	1.4236323833465576	2.292206048965454	-0.3711085617542267	0.10154300928115845	-1.336818814277649	-0.5608199834823608	0.2086479365825653	-0.4955064356327057	1.1683825254440308	-1.7856007814407349	-0.6369830965995789	-0.08770469576120377	0.4858301281929016	-1.6308256387710571	
0.8771317005157471	-1.0472899675369263	-1.338178038597107	0.1395740956068039	-2.0091280937194824	-0.4398566484451294	1.0051416158676147	-0.5532228350639343	1.3708306550979614	-0.43631526827812195	0.5579392910003662	1.5196173191070557	0.27671781182289124	0.1568332016468048	1.2658836841583252	0.23381710052490234	-1.6407221555709839	-0.16497835516929626	-0.5651451349258423	0.03726066276431084	0.718083918094635	1.237148642539978	0.6570396423339844	0.5448397994041443	0.16203491389751434	
0.6408870220184326	0.8318535089492798	-1.2915892601013184	-0.44971543550491333	-0.8719035983085632	1.5614031553268433	2.262505292892456	0.18176434934139252	1.1240037679672241	0.009606920182704926	0.8475472927093506	-0.0842868760228157	0.8410044312477112	-0.0574926882982254	-1.9414381980895996	0.4090995788574219	1.125097632408142	-0.5461553931236267	-1.110245943069458	-0.6077179908752441	0.9743437767028809	-0.4850200116634369	0.00632550148293376	-1.0973730087280273	1.1223446130752563	
0.3769620656967163	0.011087102815508842	0.5422610640525818	-1.230386734008789	0.8368493318557739	-1.9794268608093262	-0.8377459645271301	0.7569887042045593	0.8160686492919922	-0.3443128168582916	0.28599849343299866	0.120785653591156	0.01552195567637682	0.01123004499822855	-0.4607129395008087	0.12022817879915237	0.14463533461093903	-0.8566104769706726	-0.645374596118927	0.13047993183135986	0.4563635289669037	0.4466983377933502	2.140099048614502	0.985914945602417	1.0989100933074951	
0.6941470503807068	-0.4274277091026306	-0.15682190656661987	1.150641679763794	0.9163227677345276	1.46247136592865	-0.5169649124145508	-0.45271632075309753	0.6965137124061584	-0.041893672198057175	-2.061556816101074	-0.8469383716583252	0.47947588562965393	2.1925764083862305	-1.4266492128372192	1.1071982383728027	1.2784700393676758	0.523543119430542	1.4198240041732788	-0.1337750256061554	-1.3059813976287842	-0.11385972797870636	-1.066694974899292	-0.36601632833480835	-0.050237130373716354	
2.0642623901367188	0.906511664390564	1.1267176866531372	-1.374747395515442	-0.3867935836315155	-1.787623405456543	-0.05610835924744606	0.26511630415916443	-0.4707246422767639	1.0217328071594238	-0.12308947741985321	-0.6757727861404419	0.11837372928857803	-1.0719218254089355	0.001156035577878356	-0.7622738480567932	0.14454986155033112	-1.14591383934021	-1.0759068727493286	0.6552301049232483	-0.06490345299243927	0.6733056902885437	0.6198194622993469	0.4927900731563568	0.8357520699501038	
0.7367496490478516	-0.3908615708351135	-1.5233131647109985	-0.7418909072875977	-0.21104924380779266	-0.05602989345788956	1.640843152999878	0.8504753112792969	0.5752270817756653	0.6980708241462708	1.2057952880859375	-0.5909819006919861	0.5623148679733276	-0.20354142785072327	-0.24803823232650757	0.440064400434494	-0.6294099688529968	-1.6914541721343994	-1.2907166481018066	0.04870343208312988	-1.8629168272018433	0.3594713509082794	-1.5742511749267578	0.4253210127353668	0.7582531571388245	
0.7907967567443848	-0.9745799899101257	-1.2219263315200806	-2.136333465576172	0.8737978935241699	0.12133065611124039	-1.4954339265823364	0.6028494834899902	-0.11897570639848709	0.7539978623390198	-0.0021775090135633945	0.0016072957077994943	-0.11986073106527328	0.7168183922767639	0.425435334444046	0.12697377800941467	0.2051270455121994	-1.0506796836853027	0.6176729798316956	0.9506250619888306	-0.987774133682251	0.4724677801132202	0.5147968530654907	-0.9606043100357056	-0.044384922832250595	
0.20373469591140747	0.2309144139289856	0.7594271302223206	-0.6920863389968872	-0.3743247389793396	-1.139060378074646	2.2179722785949707	0.5646969079971313	0.28970780968666077	-0.13961368799209595	-1.0318063497543335	-1.4186890125274658	0.7920401692390442	0.6963627338409424	-0.24318787455558777	2.7623379230499268	-0.4598439633846283	0.5451532006263733	0.6148515939712524	0.3465498387813568	-2.334571123123169	-1.1576582193374634	-0.7154895067214966	-1.0267622470855713	1.8043116331100464	
0.4364481568336487	0.9712021350860596	1.175069808959961	1.4043221473693848	0.5143625140190125	-0.04743627458810806	-1.3009181022644043	0.4178836941719055	0.4741969704627991	-0.9868727922439575	-0.6794929504394531	-0.4501032829284668	-0.7012438774108887	-0.6277734041213989	-0.3018433451652527	1.2919634580612183	0.510457456111908	0.21141932904720306	1.4682426452636719	0.21128462255001068	0.6722540855407715	0.07484947144985199	-0.124759241938591	-0.6412420272827148	0.459196537733078	
-1.3476134538650513	0.5268049240112305	-0.36772769689559937	1.5310406684875488	-1.0686383247375488	0.8464239835739136	2.300551652908325	0.7109366655349731	-1.014870285987854	0.5820329189300537	0.1069977879524231	-0.3418039083480835	-0.40945908427238464	0.5172225832939148	0.8463743925094604	1.1412137746810913	-1.1507437229156494	-2.0159285068511963	-1.6178627014160156	-0.5056989789009094	-1.0437442064285278	-0.5324397683143616	0.8696348667144775	0.9015417695045471	-1.1968467235565186	
1.0286275148391724	0.28476083278656006	-0.16894318163394928	0.3185219168663025	-2.3753411769866943	-0.6898190975189209	0.14517049491405487	-0.34665215015411377	-0.03290903940796852	0.3825245499610901	-0.886315107345581	-0.9099029898643494	-0.23742718994617462	-1.1227742433547974	0.030257992446422577	-0.5501366257667542	0.7196952700614929	1.4669265747070312	-1.1122337579727173	-0.023062482476234436	-0.10335177928209305	0.3152652680873871	0.24620571732521057	-1.59237539768219	0.017038075253367424	
1.4824293851852417	0.16990292072296143	0.6762726902961731	2.2120237350463867	-0.13941191136837006	-1.8193613290786743	0.609323263168335	1.007093071937561	-0.2892100512981415	0.14277899265289307	0.2657209634780884	0.41885337233543396	0.2579866945743561	0.08665566146373749	2.233654737472534	0.16732357442378998	-0.22311900556087494	-0.5346897840499878	-0.0790635272860527	0.45566871762275696	-0.11794400215148926	-0.8466174006462097	2.929551601409912	0.6168806552886963	2.0926883220672607	
-0.3381771445274353	-0.8044607639312744	-0.524253785610199	2.6752474308013916	-0.9666422009468079	0.3344893753528595	-1.1919405460357666	-0.36890125274658203	1.0800397396087646	1.0512028932571411	-0.3450874090194702	-0.4388497471809387	1.8312790393829346	0.2610799968242645	-1.046698808670044	0.0014642244204878807	-2.4538216590881348	1.6290562152862549	1.7524020671844482	0.1388019323348999	0.7149167656898499	-0.4463185966014862	1.2942436933517456	1.2463983297348022	0.9719640612602234	
0.5297733545303345	-0.6217902898788452	0.45919835567474365	-0.33007150888442993	1.7923136949539185	0.8349208831787109	0.8921494483947754	0.4672544598579407	-0.1248137429356575	-0.028550252318382263	1.7029200792312622	0.670665979385376	-1.6612764596939087	0.2543386220932007	0.09051673859357834	-0.3172212243080139	-0.6458694934844971	-0.17823956906795502	-3.7319834232330322	1.5557160377502441	-0.6065099835395813	-0.1890150010585785	0.8826059103012085	-1.1412835121154785	-0.10591305792331696	
1.0741455554962158	1.136755347251892	0.43837982416152954	-0.5779447555541992	-1.2673612833023071	-0.6370012760162354	-1.068838119506836	-0.074774831533432	0.6285812258720398	1.3621399402618408	0.07573781162500381	-0.7781731486320496	0.40314096212387085	-0.9458728432655334	-0.9310851693153381	0.22485241293907166	-0.9844573140144348	-1.1521755456924438	0.4681985378265381	-0.12462262809276581	0.12912701070308685	0.051821038126945496	0.3422348201274872	-0.22971774637699127	-1.6388920545578003	
-0.7162027955055237	1.5856696367263794	1.6681848764419556	0.5086274147033691	-0.9554932117462158	0.2755228877067566	-0.6676201820373535	0.20539328455924988	-0.4372982680797577	-0.35648778080940247	-0.06725902110338211	0.7505202889442444	0.34795770049095154	0.5398747324943542	0.2955818176269531	-0.4399935007095337	-0.25460371375083923	-0.36231744289398193	-0.38968053460121155	0.7906861305236816	-0.33910852670669556	0.05668281763792038	-0.3217218816280365	0.34285178780555725	-1.1143743991851807	
0.913153350353241	-1.0191978216171265	0.6720548272132874	-0.8945695757865906	0.4204363226890564	-1.2528746128082275	1.3818150758743286	0.8741273283958435	1.209913969039917	1.1590698957443237	0.3882026970386505	0.6318871378898621	0.7130551338195801	-1.118511438369751	1.0299829244613647	1.3830195665359497	-0.2548491954803467	0.04373953118920326	-1.1841157674789429	0.9673587679862976	0.15807345509529114	0.7846202850341797	1.3945354223251343	-2.2842049598693848	-0.15733365714550018	
0.8916909098625183	-1.0888460874557495	-0.331278920173645	-0.01010899804532528	0.7986722588539124	0.38821491599082947	-0.4411565363407135	0.08435988426208496	-1.4609781503677368	0.9904600381851196	0.026357918977737427	0.08157907426357269	-0.2548085153102875	-0.2889910340309143	0.5083162188529968	-0.7029322981834412	0.2057744413614273	0.6534715890884399	0.6722671389579773	-1.483987808227539	-0.6940997242927551	1.2741165161132812	-1.2066060304641724	-0.44490018486976624	-1.098701000213623	
1.5447474718093872	-0.8848248720169067	2.3282485008239746	-0.5884383916854858	0.24632041156291962	-0.3413334786891937	-0.4239461123943329	0.8575018048286438	-0.8782082796096802	0.24635690450668335	-0.8188702464103699	1.5282573699951172	0.2202315330505371	0.7228275537490845	-1.2740916013717651	1.555160403251648	1.540156364440918	1.06092369556427	-2.4113898277282715	0.40491965413093567	-2.5377635955810547	-0.2947809398174286	0.029657937586307526	-0.35445886850357056	0.36453741788864136	
-1.6437302827835083	-1.3257362842559814	0.1944100707769394	1.3294322490692139	1.4532171487808228	-1.2106913328170776	-0.8333008885383606	0.14042378962039948	1.3904578685760498	-0.2728290557861328	-1.5093164443969727	-1.3797646760940552	1.6087331771850586	-0.8726241588592529	-0.05477606877684593	-0.15423482656478882	1.1822022199630737	-0.5417754054069519	-1.5686652660369873	-2.135439872741699	-0.46416670083999634	1.0504577159881592	-0.4914708137512207	1.141092300415039	-1.574621319770813	
-1.4120279550552368	0.3284628987312317	-1.446381688117981	-1.4799864292144775	-0.48163676261901855	-0.9154068231582642	-1.313058853149414	-0.423164039850235	0.08285194635391235	0.14048831164836884	1.20068359375	-0.9034052491188049	0.5560688376426697	-0.9016477465629578	-0.9943640828132629	-0.7969802021980286	0.4697921574115753	-0.04429549723863602	-1.5321351289749146	-1.6994154453277588	-0.8401660323143005	-0.09675326198339462	-1.1358221769332886	0.1926424503326416	0.763531506061554	
0.052680134773254395	1.6740877628326416	0.22336935997009277	-1.545097827911377	0.8358604311943054	2.500450849533081	0.48083120584487915	0.043841298669576645	0.5882871150970459	0.4972151815891266	-0.2361399382352829	-0.6096417903900146	-0.8699705004692078	-0.10047847032546997	-2.6053664684295654	-0.719851016998291	-1.3280668258666992	-0.1757715791463852	-1.6884750127792358	-1.6159369945526123	-0.8832298517227173	1.4064722061157227	0.956093430519104	-0.32774272561073303	-0.17238135635852814	
-0.4851769208908081	0.15464238822460175	0.10822594910860062	1.1715850830078125	0.2984256148338318	-1.1951156854629517	-1.7258081436157227	0.28745293617248535	0.2601169943809509	1.0632661581039429	-1.4331750869750977	0.6857618093490601	-0.7651579976081848	1.942047357559204	0.08366918563842773	-0.10556434094905853	-0.13785606622695923	0.13451191782951355	0.9749552011489868	0.600787878036499	0.004004729446023703	0.750830888748169	-0.8829541802406311	-1.0055809020996094	-0.6047562956809998	
0.15072935819625854	-0.0759446918964386	0.47444435954093933	0.8437988758087158	-1.3526418209075928	-0.9402811527252197	-0.0007219727849587798	0.31951990723609924	-1.4950023889541626	1.1045087575912476	1.3822047710418701	0.42133116722106934	1.4085543155670166	0.4198005497455597	0.39910629391670227	-1.678821086883545	-0.8760957717895508	0.5855197310447693	1.0538980960845947	0.5755630731582642	0.40151458978652954	-2.0503525733947754	-0.22966741025447845	-0.9734880328178406	1.3621320724487305	
-0.7130932807922363	0.15413835644721985	-0.2504751682281494	0.7177305221557617	1.4616190195083618	-0.8431401252746582	1.0025312900543213	-0.30646374821662903	0.553318977355957	1.969264030456543	-0.11855149269104004	-1.4762355089187622	1.3897781372070312	-1.7201238870620728	-0.36580023169517517	-0.9350685477256775	-0.41061854362487793	-0.06398732960224152	-0.7651147842407227	0.8955067992210388	2.9074013233184814	0.20797424018383026	0.33402591943740845	-0.46679139137268066	0.762547492980957	
0.18000678718090057	0.9253144860267639	-1.5113699436187744	1.0447394847869873	2.3711514472961426	-0.8970705270767212	0.1672056019306183	-0.2730763554573059	-0.3663092851638794	-1.8888136148452759	-1.254451870918274	-1.3833866119384766	0.16908679902553558	-0.11699255555868149	-0.998137354850769	0.043969716876745224	-1.7755712270736694	1.2199825048446655	-0.19653479754924774	-0.9118710160255432	-0.1457110345363617	0.005488479044288397	-0.12035570293664932	0.3925459086894989	0.5110535025596619	
-0.2683528661727905	-0.42679959535598755	0.46089181303977966	-0.5466536283493042	-0.6895054578781128	-1.1396881341934204	-0.1280849725008011	0.9698280692100525	-2.9482269287109375	-1.156211256980896	0.09682121127843857	0.04926525056362152	0.9714898467063904	0.599943220615387	0.9763345122337341	0.5351950526237488	-1.1169739961624146	0.18342624604701996	-1.2199207544326782	-0.688683807849884	0.04423585161566734	-0.855812132358551	1.2028377056121826	1.1493964195251465	-0.6968449950218201	
-0.4227275550365448	-2.5128252506256104	1.706710934638977	-0.044221121817827225	3.071092128753662	-2.4256556034088135	1.1247974634170532	0.1799081563949585	-1.3736354112625122	0.30087244510650635	-0.233607679605484	0.399734765291214	1.4320873022079468	-0.3495778739452362	-0.3168209195137024	-0.6816840171813965	0.8239532709121704	1.438456654548645	-1.6785367727279663	1.533774495124817	-0.41002777218818665	0.08433286100625992	0.9882365465164185	-1.1648166179656982	-0.4170956313610077	
-0.10343059152364731	-2.278481960296631	-0.012978036887943745	0.23206005990505219	-0.024124113842844963	0.030309712514281273	1.0468899011611938	-0.6525582075119019	0.719540536403656	2.1328017711639404	-2.006751298904419	-0.12643927335739136	1.2390732765197754	-0.09505274146795273	1.1673455238342285	-0.14366485178470612	-0.4647049009799957	-1.2429924011230469	-1.317125916481018	0.3698441684246063	-0.7945395112037659	0.5008610486984253	1.134729266166687	0.5520490407943726	0.6765912175178528	
1.465269923210144	0.5165533423423767	0.3466622829437256	-2.5258023738861084	-0.18319572508335114	1.4742693901062012	2.0786843299865723	-1.217061161994934	0.16515661776065826	-0.5334132313728333	-0.4264732003211975	-1.1397570371627808	-1.6255513429641724	0.48421379923820496	0.31466206908226013	-1.6859323978424072	0.13305452466011047	1.2145965099334717	0.7087823748588562	-1.1441036462783813	-0.3697361946105957	0.0397372841835022	0.0046238889917731285	-0.42080193758010864	-1.7524458169937134	
-0.46304070949554443	1.3658913373947144	-0.9155941605567932	-2.4236350059509277	-0.48250097036361694	-0.5574773550033569	1.8737314939498901	-1.5913573503494263	-0.7549806833267212	0.7115299701690674	-0.7458524107933044	0.39995384216308594	-0.8001894950866699	-0.5027475953102112	-1.3282262086868286	-0.34893086552619934	-1.8616836071014404	0.6940291523933411	0.6208799481391907	-0.6994432210922241	0.6149942874908447	1.5970181226730347	1.164586067199707	2.081904649734497	1.530879259109497	
0.2809239625930786	0.3268652856349945	1.4633903503417969	0.04244682192802429	0.2095360904932022	-0.008465204387903214	1.299187421798706	0.05753903090953827	-0.2218330055475235	0.4376755356788635	-0.5544447898864746	0.946753978729248	0.40234434604644775	-1.170471429824829	1.2282527685165405	1.3629893064498901	0.6966556906700134	1.3446897268295288	0.41956982016563416	1.0201783180236816	0.9326678514480591	-0.280036598443985	-1.4048216342926025	0.7180925011634827	1.8723599910736084	
-0.6165472269058228	-0.3449980616569519	0.10009535402059555	-0.5205515623092651	-0.40079474449157715	-0.47726890444755554	1.8606458902359009	1.1914536952972412	-0.6389153003692627	-0.573542594909668	0.02301950193941593	-0.4326937794685364	0.780969500541687	1.8900575637817383	0.9752388596534729	1.0154235363006592	0.2667014002799988	-0.827639102935791	-0.7575387954711914	-0.5930680632591248	0.589004635810852	-1.194344401359558	-0.9780672788619995	-2.212784767150879	0.3197256922721863	
-0.5764292478561401	-0.6015140414237976	1.2142211198806763	-0.12153123319149017	-0.06156625598669052	-1.2960282564163208	-1.3852826356887817	0.6236284971237183	-1.3557147979736328	-0.5193692445755005	-1.173328161239624	-0.2561292052268982	-1.9926328659057617	-0.4390108585357666	-1.2009683847427368	0.7451263070106506	0.1296607106924057	0.3580561876296997	0.6426517367362976	1.2750552892684937	-1.1965584754943848	-0.20157867670059204	-2.73167085647583	-0.35810062289237976	0.2626180350780487	
0.1586160957813263	1.665447473526001	-0.2615456283092499	1.0741126537322998	-0.5213058590888977	0.3767789304256439	0.20977923274040222	0.76301509141922	-0.015409599989652634	-0.9060166478157043	0.36001986265182495	0.34644874930381775	-0.8041021823883057	0.7278704643249512	0.3940688669681549	0.631952166557312	-1.2653578519821167	1.32486093044281	-2.2878222465515137	1.9209957122802734	0.35559260845184326	-0.48925748467445374	1.1528960466384888	-1.260056972503662	2.232875108718872	
-0.05572989583015442	-0.25885799527168274	-1.13785719871521	0.8201373219490051	-1.3636835813522339	0.2236490398645401	0.7412327527999878	-0.9821711778640747	-0.259777694940567	1.622736930847168	-0.6387236714363098	-0.5845406651496887	1.1319106817245483	-1.3494641780853271	3.145448923110962	1.9890249967575073	-0.051716431975364685	0.3203492760658264	0.8910108804702759	0.6803697347640991	1.5620254278182983	1.120432734489441	-0.4841805398464203	0.16356897354125977	0.10273601114749908	
0.700986385345459	-1.1408096551895142	0.45221683382987976	0.3129279911518097	-0.2554182708263397	0.6634533405303955	1.8162556886672974	0.5403589606285095	0.8558832406997681	-1.7165098190307617	-0.15095072984695435	-2.0692265033721924	-1.1749128103256226	-0.4842585027217865	0.7093896865844727	0.6633975505828857	0.6637557744979858	-2.281343460083008	0.5694020390510559	0.19408312439918518	-0.9070541262626648	0.16585209965705872	0.9604296088218689	-0.3948599696159363	0.9403598308563232	
0.32681453227996826	-0.6282832622528076	-1.3347142934799194	0.08103854954242706	1.484031081199646	-0.6916744112968445	-0.26642274856567383	-0.40883249044418335	-0.25566786527633667	-0.8932109475135803	0.9722193479537964	0.2788808345794678	-0.34881776571273804	0.9294899702072144	1.6475552320480347	-0.834226131439209	-0.2842128574848175	-0.3622932434082031	-0.13590997457504272	0.7512663006782532	0.529301643371582	-0.2991304397583008	-0.8504804372787476	-0.17635244131088257	1.105345606803894	
-1.2538353204727173	1.6395236253738403	-0.0452529713511467	0.7486893534660339	1.339805006980896	0.407059907913208	-0.4161626696586609	-0.4566006362438202	0.06578788161277771	0.6451740860939026	0.6992234587669373	-0.2318044751882553	0.08438750356435776	-0.5717502236366272	0.7603324055671692	-0.13400807976722717	-1.5476256608963013	-0.33782216906547546	-0.024916645139455795	-1.1587791442871094	0.6406456232070923	0.6309903860092163	-0.17605601251125336	-0.9582999348640442	-0.9719221591949463	
0.7323238253593445	0.3082067668437958	-1.6035664081573486	-1.117344856262207	-0.3539259433746338	-1.9254307746887207	0.5919596552848816	-0.5458632707595825	-0.3611029088497162	0.40578600764274597	-1.0010571479797363	1.2647461891174316	0.5432055592536926	-0.6803204417228699	-0.8467553853988647	-0.11919059604406357	1.2363158464431763	-2.1250290870666504	-0.12399513274431229	-0.7131848335266113	-1.010172963142395	0.5992555022239685	-1.1956590414047241	0.1315162181854248	-0.5086022615432739	
0.8858186602592468	0.2581392228603363	0.3412631154060364	-0.7639981508255005	0.7662383317947388	0.074518583714962	-0.13834376633167267	-1.8689186573028564	-1.4845046997070312	0.21848700940608978	-0.11345155537128448	-0.5587955713272095	-0.15697507560253143	0.040644291788339615	-0.44099879264831543	-1.7957950830459595	1.3194777965545654	-1.2008440494537354	0.05092571675777435	-0.5881030559539795	-0.854049026966095	0.5061172246932983	-0.421331524848938	-3.2824251651763916	-0.905002772808075	
0.17390254139900208	-1.0590128898620605	0.5073531270027161	1.1451964378356934	-0.5964388847351074	-1.856645941734314	1.6332054138183594	0.16081108152866364	-1.0629132986068726	-0.15689213573932648	1.320060133934021	-0.2685146629810333	0.25554198026657104	0.06680905818939209	0.3428596258163452	-1.8709138631820679	-1.5578020811080933	-1.3223278522491455	0.41934773325920105	-0.6162446737289429	1.011551856994629	1.0167183876037598	-0.2554541230201721	-0.2581959068775177	-0.7300335764884949	
2.2145588397979736	0.33336469531059265	0.8037965893745422	-1.4642692804336548	2.2740731239318848	-0.9275326132774353	-0.4346487820148468	1.6210825443267822	-0.9780313968658447	1.3358213901519775	0.13802611827850342	0.26408886909484863	0.4345499575138092	0.2992546558380127	-0.2966519594192505	-1.8596405982971191	-0.5759992003440857	1.7755370140075684	0.6896658539772034	-2.1928842067718506	-0.1449148803949356	-0.15966638922691345	-0.5754016637802124	1.2924168109893799	2.3330860137939453	
-0.6313173770904541	-1.9737129211425781	0.618484377861023	-0.4882221221923828	-1.0571774244308472	-0.07900580018758774	-0.1776828169822693	1.4279834032058716	1.4488581418991089	1.8162157535552979	0.6673150062561035	0.20322519540786743	0.07719538360834122	-1.2774947881698608	-0.17310775816440582	0.9753525257110596	0.0873188003897667	2.276724100112915	1.0460608005523682	0.016971802338957787	1.3870456218719482	0.5381196141242981	-0.11823990941047668	-0.2938328981399536	0.7928889989852905	
-0.5662156939506531	0.07912280410528183	0.1986982673406601	-0.11513883620500565	0.2998250126838684	1.5583834648132324	-1.660372018814087	0.5727863311767578	-0.42018404603004456	1.8178116083145142	-0.1762443482875824	1.453456163406372	-0.6043835878372192	0.6974115967750549	-0.2601228356361389	0.6970745325088501	-1.860865592956543	-0.3471958041191101	-0.987480878829956	0.5146793723106384	1.9573951959609985	0.3272841274738312	1.260543704032898	-0.43952879309654236	-0.37270766496658325	
-1.0532780885696411	0.7015959620475769	2.089872360229492	0.04364316910505295	0.31305015087127686	0.25309571623802185	0.03015141747891903	0.747480571269989	0.5697145462036133	0.031142691150307655	-1.008423924446106	-1.0574465990066528	-0.05550546199083328	0.8103115558624268	-0.4138511121273041	-0.4906153678894043	1.335561990737915	-0.2709806561470032	-0.821445882320404	-1.6763652563095093	-0.028005659580230713	-0.17522992193698883	1.2007427215576172	-0.42271482944488525	1.4137901067733765	
-0.2598177194595337	1.2075824737548828	0.7854651212692261	-0.9857195019721985	2.063824415206909	0.7051610350608826	-0.7478855848312378	1.209642767906189	0.8314235806465149	3.1278765201568604	0.47626185417175293	0.8235538601875305	1.1619676351547241	-0.4255198836326599	-0.6732723712921143	0.8013603687286377	0.38616707921028137	1.2773921489715576	-0.05963567644357681	-0.4747177064418793	-0.47184473276138306	-1.980186104774475	0.6386669278144836	1.0831761360168457	-0.540248692035675	
1.538921594619751	1.0681407451629639	-0.5110619068145752	1.6259645223617554	0.7654061913490295	-0.14645938575267792	-0.13522541522979736	-0.14339597523212433	-0.24847933650016785	-1.772594690322876	0.32792964577674866	-0.12758135795593262	0.7242972254753113	0.5380008816719055	0.9645843505859375	-0.8416398167610168	0.6243374943733215	-1.0097157955169678	-0.085645392537117	-0.9448142051696777	-1.1943691968917847	-0.2644346356391907	-1.0607954263687134	0.2653193473815918	-0.5034509301185608	
-0.30766063928604126	-1.194041132926941	-0.32134273648262024	-0.0009904992766678333	0.896069347858429	-0.928041934967041	-1.3183451890945435	-0.806381106376648	-0.3424338102340698	0.021716171875596046	-0.7840132117271423	0.38076192140579224	0.9393945336341858	-0.8825505971908569	0.9037362337112427	-0.30828922986984253	-1.2211135625839233	1.051160216331482	-0.9653800129890442	-0.6548964381217957	-0.14455744624137878	-0.30814415216445923	0.9526811838150024	-0.27974992990493774	-0.3620879650115967	
0.04092882573604584	-1.3135955333709717	-0.19440098106861115	0.6225831508636475	-0.7043372392654419	0.7843568325042725	-0.4794743061065674	0.616595447063446	1.4638895988464355	-1.7399866580963135	0.620936930179596	-0.41236135363578796	-1.5343626737594604	-0.1323690116405487	0.061456192284822464	-0.2255723476409912	-1.512345552444458	0.3316928446292877	-1.0593879222869873	0.9233599901199341	-0.8847191333770752	0.17291200160980225	-1.6881271600723267	1.2981171607971191	1.5080573558807373	
0.10251165926456451	-0.5222293138504028	1.0280426740646362	1.4080613851547241	0.45437508821487427	0.6879541277885437	-0.40990033745765686	0.9679834246635437	-0.16670329868793488	0.23132149875164032	-0.1728897988796234	1.733190894126892	0.038372378796339035	-0.6702922582626343	1.5218724012374878	0.847204864025116	-0.43022528290748596	-1.276140570640564	-0.5689881443977356	-0.4250502586364746	0.9826580882072449	1.2426944971084595	1.043750524520874	0.24062541127204895	0.34949418902397156	
0.8749116063117981	1.6284046173095703	1.6586261987686157	-2.1045501232147217	-1.1537597179412842	0.41048896312713623	-0.8577313423156738	-0.651340126991272	1.9214155673980713	0.24127428233623505	1.4989373683929443	-0.008815380744636059	-0.35973474383354187	-1.0174930095672607	-2.029899835586548	-2.047454357147217	0.7558202743530273	-0.9462465047836304	0.16789111495018005	1.911678433418274	0.1337706446647644	0.43795379996299744	-0.6733808517456055	0.33888673782348633	1.3329150676727295	
-0.8443149328231812	-1.1001349687576294	1.5948463678359985	-1.4030429124832153	-0.10895241051912308	0.04877282306551933	-1.3548014163970947	0.9779441952705383	0.5341604351997375	1.4646044969558716	-1.7305959463119507	1.6472736597061157	-0.07597745954990387	1.4407265186309814	0.5966758728027344	-0.24436968564987183	-0.671651303768158	-0.24722182750701904	1.3229538202285767	1.6150486469268799	-0.07052653282880783	-1.425787091255188	0.9754854440689087	1.1401938199996948	0.5027378797531128	
-0.0727393627166748	-1.0543675422668457	-1.672446370124817	-0.9462311267852783	-0.7916319966316223	0.8752816915512085	-0.8741768002510071	-0.5759503245353699	0.10278207808732986	0.36659252643585205	0.30566054582595825	-1.175310730934143	-0.9587138295173645	-0.21077346801757812	0.7509943842887878	0.9585813283920288	1.0782278776168823	1.8847657442092896	0.9955132007598877	-0.4232768416404724	-0.6422857046127319	-0.6691884994506836	-0.4229785203933716	0.15449264645576477	-0.09535009413957596	
-1.860136866569519	0.6335718631744385	-1.8165687322616577	1.5922951698303223	-0.1962701380252838	0.3138468265533447	0.4020458459854126	-0.25356751680374146	0.6821796894073486	-0.5816853046417236	0.8040501475334167	3.2878963947296143	-2.365912675857544	-2.1646230220794678	1.0575298070907593	0.3051447868347168	0.31661680340766907	-0.3317931592464447	0.5624536871910095	1.101243019104004	-0.17184190452098846	-0.09745921939611435	-0.26992011070251465	-0.9977343082427979	0.7405825257301331	
0.44696664810180664	-0.7116738557815552	-0.5372533202171326	0.703011691570282	-0.7333509922027588	0.29707756638526917	0.9587506651878357	-0.2466745376586914	-0.24767039716243744	-1.8212790489196777	-0.19848883152008057	0.5487208962440491	0.12210022658109665	0.6034038066864014	0.7792637944221497	0.17971959710121155	1.7759069204330444	-1.3097094297409058	-1.0111815929412842	-0.38364729285240173	-0.8058892488479614	-1.3385274410247803	-0.36231479048728943	0.2663109004497528	1.5773473978042603	
-0.25652429461479187	0.2690030038356781	-0.008718167431652546	1.7297917604446411	0.6114757061004639	0.5417448878288269	-0.9629676342010498	-1.454749584197998	0.667858898639679	-0.45147547125816345	0.9141227006912231	-1.8306312561035156	-1.6845333576202393	-1.2872192859649658	-1.3234379291534424	-1.340205430984497	0.6929278373718262	-1.1164319515228271	0.3059052526950836	0.8478749990463257	0.6572971940040588	0.800237774848938	-0.3353028893470764	-0.7603491544723511	-1.1374633312225342	
-1.170228362083435	0.05951567739248276	0.2021636962890625	0.26703500747680664	0.5626590251922607	0.5181146264076233	0.14642538130283356	-0.9192066788673401	0.6277655959129333	2.3849055767059326	1.4002633094787598	-0.12938609719276428	-0.5680540800094604	-0.22725296020507812	0.20306260883808136	-0.26032909750938416	-0.5439774990081787	-0.9869143962860107	0.3042409420013428	-1.3029930591583252	0.16963842511177063	-0.13344722986221313	2.174849033355713	-1.3235657215118408	-2.7667057514190674	
0.5702165365219116	-1.1548632383346558	-1.3045707941055298	0.11974356323480606	-0.7531874179840088	-0.7637327313423157	0.018199531361460686	1.3946001529693604	-0.17321869730949402	-1.0540167093276978	0.6216162443161011	2.0311834812164307	-1.058972954750061	1.4795823097229004	1.1723674535751343	0.37970513105392456	-0.9439332485198975	-0.03958549350500107	-0.6274793148040771	-0.8820889592170715	-0.2792820334434509	0.06095540151000023	-0.5448436737060547	-0.48534977436065674	0.7735051512718201	
1.5473617315292358	-0.8222586512565613	0.0014588197227567434	-1.338914394378662	-0.28478333353996277	-0.33490195870399475	-0.13486264646053314	-0.7889049649238586	-0.40458545088768005	-0.21492736041545868	-1.855015754699707	0.06591687351465225	-0.4320448338985443	-0.442516565322876	-0.6123426556587219	2.4737558364868164	1.1338975429534912	-0.4816335141658783	-0.2745247483253479	-0.803655207157135	0.35446107387542725	0.3229835331439972	-1.9019402265548706	-1.1895897388458252	-0.8370176553726196	
1.7764486074447632	0.1850271075963974	0.13843660056591034	-1.645417332649231	-0.3084683418273926	-0.9644291400909424	1.8837329149246216	0.12898847460746765	-0.5900418162345886	-1.138262152671814	0.8195120692253113	0.4818129539489746	-2.1011083126068115	-2.603787899017334	0.5256049036979675	-0.4408538043498993	-0.3369500935077667	1.051422119140625	0.20386666059494019	0.013781070709228516	-0.21398548781871796	-1.0692541599273682	-0.39036956429481506	0.9911825656890869	0.39904946088790894	
0.35605916380882263	-1.5843510627746582	-0.4663676917552948	0.1823965609073639	-0.15273182094097137	-0.0011510251788422465	-0.8861581087112427	0.0625278428196907	0.3405359387397766	-1.269794225692749	1.9674656391143799	-0.08678850531578064	-0.08635551482439041	2.0101521015167236	0.45515623688697815	-2.0312843322753906	0.8948436975479126	1.108770489692688	-1.1221719980239868	1.048110842704773	-0.5782255530357361	1.5629165172576904	0.38239195942878723	0.8778601288795471	-0.24262122809886932	
-0.9440693855285645	0.5785163640975952	-0.2645323872566223	-1.1767419576644897	-0.6076096892356873	-0.7366747260093689	1.401611566543579	0.45354700088500977	1.8099230527877808	0.38999778032302856	-0.8637644052505493	0.7734517455101013	0.9203380942344666	0.3913429379463196	-1.5912775993347168	-1.8849165439605713	-0.3898078501224518	-0.22268527746200562	1.0238826274871826	0.17218925058841705	-1.8076833486557007	0.9975679516792297	-1.0819681882858276	-0.3038570284843445	0.49810513854026794	
-0.2847903370857239	0.5678631067276001	0.37818244099617004	0.4667402505874634	-0.8401564359664917	-1.4016718864440918	1.2803773880004883	-0.4863359332084656	-2.0139193534851074	0.36341771483421326	0.5697053074836731	-1.2787262201309204	-0.16528303921222687	0.21607764065265656	1.5342329740524292	-0.7594382762908936	1.6722631454467773	-1.0846468210220337	-0.674561619758606	-0.11442789435386658	-0.7211600542068481	1.0073281526565552	-2.268977642059326	-1.6177345514297485	-0.028937745839357376	
-0.6358454823493958	0.20056773722171783	-0.23993906378746033	-0.38829857110977173	3.3602986335754395	0.047511711716651917	0.04833679646253586	1.6340237855911255	-0.2690793573856354	0.5799576044082642	0.5698954463005066	-1.777091145515442	-0.7220888733863831	-0.820411205291748	2.824223279953003	0.4519304931163788	2.4053237438201904	-0.39598381519317627	-0.831355094909668	1.0867176055908203	-0.14972913265228271	0.8083938956260681	0.05078479275107384	-0.5010875463485718	1.0861326456069946	
-0.3077433109283447	1.5191078186035156	0.5335813164710999	-2.40840220451355	-0.6954823732376099	-0.5654699802398682	0.2584579586982727	-0.5197280645370483	-0.4768015146255493	-1.2565765380859375	0.8775743246078491	-1.2254365682601929	1.2771518230438232	-1.2280207872390747	0.6716282367706299	-0.8608830571174622	0.7582820057868958	0.17299649119377136	0.8611918091773987	0.8361021876335144	0.15207478404045105	0.8081839084625244	1.8101650476455688	0.12251382321119308	-1.7155641317367554	
0.708687961101532	0.8866636157035828	1.1041618585586548	1.0388069152832031	-0.7756444811820984	-0.3137739300727844	-0.9046683311462402	0.6496143341064453	-0.9674100279808044	-1.2902371883392334	-0.38719651103019714	-0.5086479783058167	0.7084071040153503	-0.4537268579006195	1.267533540725708	-1.05402410030365	-0.17702621221542358	0.2598278224468231	-1.385275959968567	1.9489390850067139	-1.5156391859054565	-0.31245025992393494	0.9094246029853821	0.30368471145629883	0.9772868156433105	
-2.2795870304107666	-2.0395166873931885	0.09098000824451447	-2.0287327766418457	-0.9519307613372803	1.9663373231887817	0.5567673444747925	0.6225037574768066	0.36561650037765503	-1.0088156461715698	-0.5021913647651672	2.0033342838287354	2.1851298809051514	-0.029109317809343338	-0.2760728597640991	-0.39437028765678406	1.1984472274780273	-0.7353871464729309	-1.6079682111740112	-0.5701386332511902	0.30294349789619446	-0.2578340172767639	1.7716881036758423	-1.1529406309127808	0.24901534616947174	
-0.09928244352340698	-0.39994966983795166	-0.22566480934619904	-1.1271859407424927	-0.5667316913604736	-1.0408209562301636	-0.6752956509590149	1.2090140581130981	1.174670934677124	0.017859023064374924	0.24498972296714783	0.09216370433568954	0.6693304777145386	-0.9742177724838257	0.886472761631012	-0.5765522122383118	0.04100554436445236	-0.40774276852607727	0.5457655787467957	-0.15795719623565674	1.022817850112915	-1.3668591976165771	-0.26478835940361023	-0.33291417360305786	0.3174457252025604	
3.337592124938965	0.781640887260437	-1.3570764064788818	-0.3041708171367645	-0.4729200005531311	1.5145708322525024	0.6729975938796997	0.8022099733352661	0.9615723490715027	0.9950286149978638	0.0015782078262418509	-0.32103005051612854	0.24115389585494995	-1.5890283584594727	0.7762422561645508	-1.7838956117630005	1.544486165046692	-0.27503013610839844	0.4170307219028473	0.4084918200969696	-0.6930767297744751	1.4255845546722412	-3.7423715591430664	-0.10963492840528488	0.12166940420866013	
-0.06960933655500412	1.3064162731170654	-0.40149980783462524	0.7111297845840454	0.07228945195674896	1.5456700325012207	0.33277377486228943	-0.9167907238006592	-1.3269498348236084	0.48274168372154236	0.8221865296363831	0.22768643498420715	-0.04799315333366394	1.4117058515548706	0.2899981141090393	0.8988995552062988	0.679061770439148	-0.2620526850223541	0.14886951446533203	-0.8567103743553162	0.6550582647323608	-1.9421589374542236	0.7372368574142456	-2.0438380241394043	0.38229888677597046	
0.3078823685646057	0.5242028832435608	-0.984885573387146	1.289842128753662	0.7544674277305603	-0.11618304997682571	-0.25610223412513733	0.850677490234375	-1.2073649168014526	0.7443033456802368	0.6464755535125732	1.7496674060821533	-0.5796025395393372	2.0734946727752686	0.6008830666542053	-0.4959633946418762	-1.3837449550628662	0.3341800272464752	0.07293907552957535	0.5873245596885681	0.18349608778953552	1.187686562538147	-0.5562126040458679	-1.3049421310424805	-1.245993733406067	
-0.4560241401195526	-1.0232752561569214	0.46105632185935974	-0.03867414966225624	-0.7917740345001221	0.17816610634326935	0.7426043152809143	-0.7880203723907471	-0.8497042059898376	0.3277604579925537	0.36428120732307434	0.01946280710399151	-0.5288652777671814	-1.4367625713348389	-0.05788971483707428	-0.8594971895217896	-1.8940879106521606	-2.271385669708252	-1.2573975324630737	0.13982225954532623	-0.8086433410644531	0.4205453097820282	-0.1210547685623169	2.4203238487243652	-0.7066482901573181	
-2.0302488803863525	0.312237024307251	0.5478813052177429	-0.5635154843330383	0.16909363865852356	2.504659414291382	0.21829111874103546	-1.505690336227417	0.46270573139190674	1.536069631576538	1.084778070449829	-0.6743179559707642	-1.3008021116256714	-0.11185810714960098	-0.6200871467590332	-0.13994914293289185	1.1688761711120605	-0.8420355916023254	-0.11662265658378601	-0.5676565170288086	1.0738615989685059	0.42264747619628906	0.16926202178001404	-0.3085888624191284	0.5229405760765076	
0.9179118275642395	0.6651414632797241	0.16184256970882416	-1.114566445350647	-0.8131604194641113	-0.13135996460914612	0.11323200166225433	-0.9215456247329712	-0.32526469230651855	-1.827298879623413	-0.713796079158783	-0.41272082924842834	1.1887816190719604	0.7057965993881226	-0.8287197947502136	-1.2737133502960205	-0.08872958272695541	-1.4743341207504272	0.4536878168582916	0.97939532995224	-1.0387914180755615	-1.5679054260253906	-0.46031561493873596	0.5222868323326111	-0.5066186189651489	
0.8231228590011597	-0.4587401747703552	-0.2819616198539734	0.6469771862030029	-1.0704084634780884	0.0440109483897686	0.47298046946525574	0.0016535340109840035	-0.21205885708332062	-0.44446444511413574	1.955009937286377	0.5686154961585999	1.091089129447937	-0.0269694272428751	-1.3243998289108276	1.3129504919052124	-0.1468600034713745	0.2589873671531677	-0.19311194121837616	1.00751531124115	0.47855478525161743	1.3257654905319214	1.2736115455627441	0.48622408509254456	0.084882952272892	
-1.298954963684082	0.036354389041662216	-0.8412114381790161	0.6677058935165405	-0.4612284004688263	0.1858704537153244	0.8390830755233765	1.5757849216461182	-0.88070148229599	-0.25463566184043884	-1.6231471300125122	-0.3731555640697479	0.8048163652420044	0.884096622467041	-1.0909607410430908	-0.9722793102264404	2.095118284225464	0.07483486086130142	0.5205226540565491	-1.2643300294876099	-0.018011102452874184	0.7948310971260071	1.0600147247314453	0.5172540545463562	-0.1859576255083084	
1.4895473718643188	0.1971377730369568	0.5711955428123474	-0.8974047899246216	0.2436186671257019	0.061941783875226974	0.40438392758369446	-1.3626660108566284	-0.16688773036003113	-0.07884571701288223	1.6363047361373901	1.3106917142868042	-1.032191514968872	-0.7943663001060486	0.5781697630882263	-0.041091013699769974	1.388587474822998	0.9223700165748596	-1.219305157661438	-2.074455738067627	-1.0725597143173218	0.4940973222255707	0.21905264258384705	-1.442519187927246	-0.3806705176830292	
0.48794203996658325	-1.254534363746643	0.4688941538333893	0.37167584896087646	-0.19844505190849304	-0.4567975699901581	0.015902157872915268	0.012224492616951466	-1.2037826776504517	0.1974644809961319	0.4494430124759674	0.03365107998251915	-0.9856265783309937	0.6165896654129028	-1.791088342666626	1.2050062417984009	-0.8771976828575134	1.481086254119873	-0.14092367887496948	-0.816402792930603	-0.5899538993835449	0.8850700259208679	-0.8061250448226929	-2.250983715057373	-0.35080426931381226	
2.338033676147461	-0.4242676794528961	0.954551637172699	0.25915250182151794	-0.37422114610671997	-0.8694787621498108	1.3021248579025269	-0.9448077082633972	-1.076961636543274	1.1882044076919556	-0.3064410388469696	0.6803542375564575	-1.97568941116333	0.403210312128067	-0.6169599294662476	-1.756210207939148	-0.6394716501235962	-1.3071755170822144	1.7071154117584229	-0.15581150352954865	-0.618251621723175	2.711871862411499	-1.133533000946045	-0.07344374805688858	0.11319765448570251	
-0.8012406229972839	-0.7919057607650757	0.9768832921981812	0.816977858543396	1.8180440664291382	1.1080026626586914	2.0530331134796143	0.5493280291557312	-0.9546979069709778	-0.5715678334236145	0.001380170346237719	-0.2305050790309906	1.0608137845993042	1.1593576669692993	0.19600503146648407	1.1783770322799683	0.34133008122444153	1.5544588565826416	-0.9394357800483704	-0.09224168211221695	-0.773612916469574	0.7839205861091614	0.7634478211402893	0.001436567516066134	-0.5331043004989624	
-0.135422945022583	1.4662095308303833	0.7862929701805115	-1.2195676565170288	0.6602912545204163	-1.7156388759613037	-0.747377336025238	-1.0468062162399292	2.124140739440918	-0.6557400822639465	0.7296129465103149	1.101660132408142	0.2605634927749634	-0.31135526299476624	-0.23019297420978546	0.7008105516433716	-0.37659087777137756	-1.1875898838043213	0.043311070650815964	0.05571989342570305	-0.9659249782562256	-0.9857299327850342	0.011722030118107796	1.024006724357605	-0.3459921181201935	
-1.189802646636963	0.5550769567489624	-0.3061327040195465	-0.13079901039600372	-1.6041159629821777	1.2413467168807983	0.9731892347335815	-1.4062272310256958	-0.4862567186355591	-0.8124128580093384	2.0328211784362793	1.668586015701294	0.5023491382598877	-0.7918180823326111	0.008611468598246574	0.3533465266227722	-0.070253886282444	-0.4664808213710785	-0.59447181224823	-0.7547875642776489	-0.7343244552612305	3.5516762733459473	0.5389080047607422	-1.4131501913070679	0.31306326389312744	
0.11855096369981766	-0.7951293587684631	0.6507464051246643	3.091573476791382	3.2736878395080566	-0.4558897316455841	1.378823161125183	-0.9847166538238525	1.0766546726226807	-0.13056644797325134	-0.14067351818084717	0.18811054527759552	0.3281133770942688	-0.23582595586776733	1.4932804107666016	-0.6011173129081726	1.955891728401184	2.159421682357788	-0.4070628583431244	0.0898907259106636	0.5050843954086304	0.27917352318763733	1.3968267440795898	-0.7614820599555969	0.538910984992981	
0.7270427942276001	-0.8534703254699707	-0.8679118752479553	0.36193493008613586	0.7020741701126099	-0.5539579391479492	1.8802591562271118	-0.531070351600647	-0.17834430932998657	-0.3828575015068054	-1.9138270616531372	0.8540146350860596	1.069465160369873	1.4031033515930176	1.9445960521697998	-0.6968132257461548	-1.4523403644561768	1.0961284637451172	-1.3381339311599731	-1.2956284284591675	1.3318169116973877	0.13242080807685852	1.2538131475448608	2.0065932273864746	-0.6009035706520081	
0.01636531576514244	-1.0852422714233398	0.029839523136615753	0.7171432971954346	-0.8652474880218506	-0.45770424604415894	2.7276930809020996	1.5243147611618042	0.5433003306388855	-0.7849945425987244	0.3344939053058624	1.8154232501983643	0.32408082485198975	1.2161362171173096	1.356387972831726	-0.9679725766181946	-0.2568190097808838	0.24993003904819489	-0.17164884507656097	-2.185168743133545	0.7861274480819702	-0.28255799412727356	-0.24954862892627716	0.8701556324958801	0.572455644607544	

 
-1.377917766571045	0.083543561398983	0.4268531799316406	0.31421828269958496	-0.8163751363754272	0.7740769982337952	-0.26685675978660583	-1.0344998836517334	1.8150138854980469	1.494598150253296	0.14034706354141235	-1.5483331680297852	0.16585135459899902	0.5323471426963806	-0.5969988703727722	-0.5392828583717346	
 
-3.1620442867279053	-0.015164296142756939	0.6168153285980225	0.4792702794075012	0.8004934191703796	-1.757741928100586	-1.5713905096054077	-0.5861325860023499	-2.359130382537842	-1.3563891649246216	0.2741111218929291	0.3182377219200134	0.8652037978172302	-0.5956653356552124	-0.5726777911186218	0.7862868905067444	-1.581315040588379	-0.21230629086494446	-1.2591320276260376	0.6265897154808044	-0.8722021579742432	-1.0669056177139282	1.1040019989013672	-1.1431411504745483	-0.2264365404844284	
0.5021523833274841	0.3330416679382324	-0.010940279811620712	-0.06651698797941208	-1.2433955669403076	-0.17999495565891266	0.4363565146923065	-1.1987080574035645	-0.0477420873939991	0.029389919713139534	1.4271533489227295	0.4084080159664154	-0.24747511744499207	1.4110071659088135	-0.02759065292775631	0.2689637243747711	0.34646642208099365	-0.34350332617759705	1.0396850109100342	1.8137881755828857	0.5284740328788757	0.5524189472198486	-0.6504814028739929	-1.4925700426101685	0.8531646728515625	
-0.5120724439620972	0.8236542344093323	0.36106204986572266	-1.6964951753616333	0.6543389558792114	0.7967116236686707	-0.023649124428629875	-0.6092326641082764	-1.2238831520080566	-0.36509427428245544	0.0019225800642743707	0.11388280242681503	-0.016499202698469162	-1.9863101243972778	0.8081742525100708	0.7601824998855591	1.0481290817260742	-0.08463609963655472	0.03746916353702545	-0.7765420079231262	-0.4768369495868683	-1.1411186456680298	-0.2317887544631958	-0.5828449726104736	-0.6349168419837952	
0.6938976049423218	1.5440056324005127	0.170842707157135	0.012851153500378132	-2.1131603717803955	0.7797338366508484	-0.9338058829307556	-0.7348289489746094	0.36049389839172363	1.077361822128296	0.8992168307304382	1.2730069160461426	-0.4651525914669037	0.9853451251983643	-0.2742755115032196	0.06759734451770782	-2.204097032546997	1.3195855617523193	-0.4260994791984558	-0.6090639233589172	-0.7025482654571533	0.5725868344306946	-0.0645471066236496	0.35753291845321655	0.9816009402275085	
1.0954688787460327	-0.603854238986969	1.0233513116836548	1.5892385244369507	0.6154252886772156	-0.3282921016216278	1.1486202478408813	-0.3563814163208008	0.8654894232749939	-0.9906708598136902	-2.448712110519409	-0.6995052695274353	0.06056039035320282	-2.3811771869659424	-0.28270843625068665	0.1522081196308136	-1.404934048652649	1.55412757396698	1.2780221700668335	0.6904516220092773	-0.03281933441758156	0.11141310632228851	0.38974735140800476	1.400787115097046	0.12217818945646286	
0.011178111657500267	0.9598352909088135	1.0929876565933228	0.27552101016044617	0.037828147411346436	-0.060303475707769394	0.7251501679420471	0.5399571061134338	0.6331189274787903	1.532403588294983	-1.1381070613861084	0.9486185312271118	-1.4768457412719727	0.8443973064422607	0.47265374660491943	-0.3116247057914734	0.041626665741205215	-0.3170405328273773	-1.8307238817214966	1.7729228734970093	2.705942153930664	2.0176074504852295	0.3529982268810272	0.5823936462402344	-1.5923770666122437	
-0.21907418966293335	1.852397084236145	-2.099306106567383	-2.406858205795288	0.5548427104949951	-0.13810639083385468	-0.13486279547214508	0.1939963847398758	0.7666349411010742	-0.8245261311531067	-0.694278359413147	-0.9579855799674988	1.954992651939392	1.4051517248153687	-0.40176793932914734	-0.6029508113861084	1.8221570253372192	-1.3041675090789795	0.15392586588859558	-0.14097510278224945	0.01467712502926588	0.7723905444145203	-0.2642735540866852	-0.2762948274612427	-1.1798208951950073	
-2.908308982849121	0.7187955975532532	0.5573009252548218	0.5665737390518188	-0.3311632573604584	-0.2277136892080307	-0.985908567905426	-0.0991092398762703	-2.223212480545044	1.94231116771698	0.07750896364450455	-2.0909385681152344	0.9034244418144226	-1.0410573482513428	-0.24884596467018127	-0.7437734007835388	-0.5598650574684143	-0.4511025846004486	-2.0183749198913574	0.5408650040626526	-0.7222421169281006	-0.14927208423614502	-0.6643624305725098	-0.9783161878585815	-0.08985819667577744	
-1.9602022171020508	0.5399877429008484	0.45408159494400024	2.334641933441162	0.09318321198225021	1.5189107656478882	0.31635916233062744	0.3169808089733124	-1.8654170036315918	1.529701828956604	0.94736647605896	0.5693711042404175	0.6435839533805847	-0.244231179356575	-0.3418356478214264	-1.1053123474121094	1.0586092472076416	1.0847680568695068	-0.4772517681121826	0.7288920283317566	-0.09045325964689255	-1.481518030166626	1.4460951089859009	-1.1249648332595825	-0.3573802411556244	
-1.564467430114746	-0.5634782910346985	-0.17491433024406433	0.1329532116651535	-2.4241044521331787	-1.0301170349121094	-1.7702082395553589	-1.0805166959762573	0.5830856561660767	-0.3944767713546753	-0.3211285173892975	1.052541971206665	-1.5755300521850586	-0.6741355657577515	0.6997647285461426	0.49711862206459045	0.1270219385623932	-0.28669440746307373	-0.034613337367773056	-0.667695164680481	0.47794023156166077	1.0959938764572144	0.8419743776321411	-0.7484971284866333	-0.8541461825370789	
1.5369536876678467	0.33106890320777893	0.5732938647270203	0.6412070393562317	-1.5896031856536865	-1.219627022743225	-1.0227820873260498	-0.7636675834655762	-0.2638658285140991	-0.8640936613082886	0.6601325273513794	0.10232854634523392	1.0504050254821777	0.3029720187187195	0.3393728733062744	1.3128944635391235	1.6657094955444336	1.3858792781829834	-0.7871453166007996	1.3493046760559082	0.3434671461582184	-0.3576622009277344	0.24911773204803467	-0.8719515204429626	-0.25106164813041687	
0.06168186292052269	-1.8638019561767578	0.041107162833213806	-0.2677185833454132	-1.0318398475646973	0.61134272813797	-1.3230575323104858	0.12270178645849228	2.035291910171509	-1.6209683418273926	0.020371412858366966	0.16699732840061188	-0.3403143286705017	1.102211594581604	-0.20731742680072784	0.7409271597862244	-0.15149518847465515	1.6155074834823608	1.0514525175094604	1.0532386302947998	0.045967068523168564	0.33918410539627075	-1.2759695053100586	-0.0724513903260231	1.418308138847351	
-0.36226290464401245	-0.33811289072036743	0.9211478233337402	1.0221720933914185	-1.110076665878296	0.01080283522605896	-0.9465471506118774	-1.2148065567016602	0.2963867783546448	-1.7019140720367432	-0.6384721994400024	3.4727282524108887	0.8387143015861511	0.7831579446792603	-0.14858929812908173	0.8856248259544373	-1.1827315092086792	-0.445156991481781	-0.15341302752494812	0.14579784870147705	-0.48096534609794617	-0.2905992865562439	-0.02268003672361374	0.3107564151287079	-0.12245919555425644	
-0.8601787686347961	-1.602003574371338	-0.1577645093202591	-0.20876282453536987	-0.0846746638417244	-0.606758713722229	-0.016942735761404037	0.35227951407432556	1.0282138586044312	-0.12312950938940048	1.4125980138778687	-1.6948721408843994	0.27098849415779114	0.264468789100647	0.8677708506584167	0.40987879037857056	-0.6355082392692566	1.0444812774658203	0.6057001948356628	0.4334931969642639	0.661414384841919	1.4645733833312988	0.9031762480735779	0.0036184547934681177	0.9299535751342773	
0.004688933491706848	-0.49252715706825256	1.2930625677108765	0.6624894142150879	-0.9898892045021057	-0.016897765919566154	-0.755193293094635	1.0018471479415894	-0.567086935043335	0.646511971950531	0.6895434260368347	0.38582390546798706	0.601683497428894	-1.3221629858016968	-0.31696340441703796	1.061484694480896	0.2834565341472626	0.036886755377054214	0.10357838124036789	0.8151794672012329	0.6250582933425903	-0.7227253913879395	0.28607770800590515	1.0235275030136108	-1.685343623161316	
0.24414533376693726	-0.007916760630905628	0.6087365746498108	-0.03335300087928772	0.4926486313343048	-2.035898447036743	-0.29882290959358215	0.5770060420036316	-0.2803986370563507	0.311034619808197	-0.183792382478714	-1.6893843412399292	0.12635092437267303	1.169727087020874	0.10156115889549255	-1.110516905784607	0.11901099979877472	0.7436099052429199	-0.003142006229609251	-0.2657073438167572	-1.5861663818359375	0.19258740544319153	-0.6205152273178101	0.08410587161779404	1.6762727499008179	
1.103966236114502	0.9877217411994934	-1.1329504251480103	-0.3629038631916046	0.558673620223999	2.14764666557312	-1.0065178871154785	-0.1547837257385254	-0.03792744129896164	-0.18567703664302826	0.39844995737075806	-2.282639741897583	0.0143576106056571	-0.2517774701118469	-0.12263921648263931	-1.070382833480835	1.2971835136413574	-0.1528806835412979	0.3315957188606262	0.7963365912437439	0.4050760865211487	-0.9084703922271729	0.6925055384635925	-0.6799691915512085	0.11297443509101868	
-0.42403632402420044	-0.3708266615867615	0.381206750869751	0.6037055850028992	0.19695696234703064	0.36275362968444824	0.7716475129127502	1.6113272905349731	-0.39184024930000305	-0.28088462352752686	0.5127583146095276	1.9940544366836548	0.21764913201332092	-0.9898311495780945	-0.17313885688781738	-1.6149616241455078	0.23469725251197815	-0.2783229649066925	-0.14576531946659088	-2.9323794841766357	0.38089460134506226	-1.7857228517532349	0.385610431432724	-0.5302942991256714	-2.2782464027404785	
0.6632104516029358	0.6967904567718506	1.563493251800537	-0.4763646721839905	0.32820257544517517	-1.8933387994766235	0.2396409511566162	1.2103201150894165	-1.1318849325180054	0.8085277676582336	-0.1541270613670349	1.2575448751449585	-1.2119218111038208	-0.618921160697937	1.3022499084472656	0.4897707998752594	-0.018369853496551514	-0.37045955657958984	0.9997388124465942	-0.0037531056441366673	2.3596742153167725	-0.08015266060829163	0.16838690638542175	-0.40240541100502014	0.35315418243408203	
-0.8759127259254456	0.15305456519126892	0.7974368333816528	-0.811935544013977	0.7139478921890259	-0.06938280910253525	-0.2160404771566391	0.0370202511548996	-0.7055013179779053	-0.3847566843032837	-1.293508768081665	-0.4367806613445282	-1.2132070064544678	1.4900786876678467	-0.5603677034378052	0.4254962205886841	-0.09564366191625595	1.31080162525177	-0.03442683070898056	1.604105830192566	1.08528733253479	1.6620444059371948	-2.092893123626709	1.597015142440796	-1.1070162057876587	
0.2787030041217804	-0.10546327382326126	1.1800366640090942	-0.41972580552101135	0.14895892143249512	-0.7170218825340271	-0.30819186568260193	-1.002171516418457	-0.0033342037349939346	0.5133230686187744	-0.41456493735313416	0.4008461833000183	0.8906483054161072	0.39918118715286255	-1.2918757200241089	-1.600248098373413	-0.7287264466285706	-0.8512017726898193	-0.3675413429737091	-0.11458484828472137	-0.6830567717552185	-0.9665474891662598	0.3402768075466156	1.936163067817688	-1.020264744758606	
-0.22242656350135803	-0.3735094964504242	0.8106343150138855	-0.011971808038651943	-0.3746787905693054	-1.6023519039154053	-2.0683207511901855	0.03936661407351494	1.5279048681259155	-0.9023261070251465	0.9572429060935974	0.49619796872138977	-0.6342957615852356	1.2453926801681519	0.32355359196662903	-1.165116310119629	-0.6859621405601501	-0.3626827001571655	-1.0991655588150024	-0.5145000219345093	1.656567096710205	-0.3210073709487915	-0.07103004306554794	-1.0417510271072388	-0.41046980023384094	
0.619814395904541	-1.0968258380889893	2.5636465549468994	3.156607151031494	-1.5086485147476196	0.7417206168174744	2.557832956314087	1.0585675239562988	1.3951157331466675	-0.22272929549217224	0.9824874997138977	0.8741170167922974	0.43144655227661133	0.4594680666923523	-0.1033063679933548	-0.979755163192749	-0.18778955936431885	-1.3499131202697754	1.739456057548523	-1.0588337182998657	-0.8760904669761658	0.6156217455863953	0.9287754893302917	-0.2365889698266983	0.516582190990448	
0.9448679685592651	-0.5980152487754822	-0.19087716937065125	0.6578894257545471	-0.17403544485569	0.5512619614601135	-0.22279290854930878	-1.5402706861495972	1.1372535228729248	-0.7406085729598999	-0.9879659414291382	-1.0558596849441528	0.3275466561317444	0.22819675505161285	0.2805052101612091	0.7409598231315613	0.10199637711048126	-0.8684507608413696	0.7194257378578186	0.02368183061480522	1.0103905200958252	-1.735830545425415	-0.37223392724990845	-0.7473357915878296	-0.24109476804733276	
1.3739243745803833	0.5164437294006348	-0.5274849534034729	1.1735886335372925	0.388681560754776	0.3133520781993866	-0.5717265009880066	0.5703669190406799	0.041397470980882645	0.6838617920875549	-1.9803333282470703	-0.31271353363990784	-1.099412202835083	0.07041186839342117	1.6471713781356812	1.6535667181015015	0.8888177871704102	-0.958227813243866	0.23785044252872467	0.46115678548812866	-0.9345454573631287	0.3033531904220581	0.9342392086982727	0.8811526298522949	-0.7808666229248047	
0.9040563702583313	0.7474138736724854	1.0380052328109741	-0.08949826657772064	1.4927774667739868	-0.6468156576156616	-1.458457112312317	0.1377328634262085	-0.8099355697631836	-0.5080467462539673	-0.3212016522884369	1.3392599821090698	0.08920881152153015	-1.6158406734466553	1.2485222816467285	-0.2993449568748474	-0.33892378211021423	-1.5003082752227783	-0.025377552956342697	0.7825648784637451	-0.26350516080856323	-0.09897789359092712	0.2494800090789795	1.5608655214309692	-1.0292677879333496	
-0.036276329308748245	-2.800715684890747	0.1479509025812149	-1.4164206981658936	-0.3206078112125397	0.34990882873535156	-0.657905638217926	-0.42439594864845276	-0.638862133026123	0.7738692760467529	-0.3117208182811737	1.0204590559005737	0.09985840320587158	-1.6893844604492188	-1.391306757926941	0.4857359528541565	0.38639339804649353	1.2554779052734375	0.6053985357284546	-0.6622185111045837	0.5905174016952515	1.4748121500015259	-0.8529404401779175	-0.37548497319221497	0.3899111747741699	
-1.4665932655334473	0.4773182272911072	-1.47305166721344	0.7272409796714783	-1.9049235582351685	0.9899859428405762	-0.34507742524147034	-0.370351105928421	-0.3354002833366394	1.1582289934158325	0.4672207236289978	1.0159509181976318	2.031632661819458	0.055250201374292374	-0.37654539942741394	-0.6593058109283447	0.363960862159729	0.4459141194820404	-0.05985501781105995	0.455279141664505	-1.1211351156234741	-0.5385275483131409	-2.34898042678833	0.25297775864601135	0.3207724988460541	
-0.22259894013404846	0.2738213539123535	-0.725249171257019	-0.7575429081916809	0.7160940766334534	0.6647529602050781	-1.2260913848876953	-1.135927677154541	-0.6387651562690735	-0.6027145385742188	0.6663146018981934	0.9984657168388367	0.16594013571739197	1.5142498016357422	-0.2670280337333679	-0.7753487825393677	1.0037167072296143	1.600533127784729	0.05346434935927391	-1.0391628742218018	1.084622859954834	1.549612283706665	-0.7037653923034668	1.4931535720825195	-0.759487509727478	
-1.0342334508895874	1.4500329494476318	1.1717259883880615	0.665230393409729	0.4504842758178711	-0.511134922504425	-0.44353416562080383	0.26984328031539917	1.1284888982772827	-0.4688611626625061	0.06386134773492813	0.8345730304718018	-0.33716005086898804	-0.3333110809326172	-0.041839491575956345	-1.3755465745925903	1.675402283668518	0.7506280541419983	-1.1397653818130493	0.8749908804893494	-0.026221632957458496	0.8018456101417542	0.2448829561471939	0.3207002282142639	0.6723364591598511	
-0.2066502422094345	0.8333031535148621	2.261139392852783	0.3829125463962555	0.7650162577629089	-1.1909226179122925	-0.8782840967178345	0.8760004639625549	0.06481156498193741	-0.7909864187240601	-0.3607710301876068	1.7831032276153564	-0.3827097713947296	-0.21390630304813385	-0.220522940158844	0.8833240866661072	-1.1053379774093628	0.515269935131073	1.10831618309021	0.021751385182142258	1.582336664199829	1.1923362016677856	-0.1266229748725891	-2.642568826675415	0.059443455189466476	
0.4951014518737793	0.40392932295799255	1.1608662605285645	-1.4578367471694946	-1.4854612350463867	2.24770188331604	1.1637868881225586	-1.6933801174163818	-0.32648903131484985	0.8105838298797607	-1.183799386024475	0.9146360754966736	-0.07220497727394104	-0.3283047080039978	0.065907321870327	-1.7524977922439575	1.9016598463058472	0.3040751814842224	0.8136540651321411	-0.4156573414802551	1.5546369552612305	0.8183443546295166	-0.2631489932537079	0.25876566767692566	-0.19707156717777252	
0.12475111335515976	-1.3099515438079834	0.06746836006641388	1.528486728668213	2.4056036472320557	-0.5078041553497314	0.6927151083946228	0.18556462228298187	-0.413644015789032	0.7845313549041748	-0.6877185106277466	-0.7891390919685364	-1.6911649703979492	0.5494101047515869	1.4296517372131348	-1.4240752458572388	-1.588881492614746	0.5491354465484619	0.24523207545280457	-1.7074859142303467	-0.7359679937362671	0.08813536912202835	0.7210729122161865	0.39118584990501404	1.5470200777053833	
0.735771894454956	-0.22687466442584991	-0.4283044934272766	1.3703337907791138	-0.1394362896680832	1.6262938976287842	1.7564958333969116	0.7230480909347534	-0.191245436668396	-0.39879322052001953	-0.6348935961723328	-0.2269550859928131	-0.1012444868683815	-0.00045672242413274944	1.4857969284057617	0.03476841375231743	2.2210214138031006	-0.06772831827402115	1.9238306283950806	-1.2384867668151855	-1.4666242599487305	-0.92099928855896	0.8265880346298218	1.138685703277588	0.514474093914032	
-1.0572571754455566	0.3122965395450592	-0.8553096055984497	-1.1988098621368408	0.6266724467277527	1.1276506185531616	-1.2416713237762451	-0.8991819620132446	1.139905333518982	-1.362998127937317	-0.780154287815094	0.3904667794704437	1.3301564455032349	-0.9558843970298767	0.15487253665924072	1.4854947328567505	1.652331829071045	1.143637776374817	0.7277079224586487	-0.9091477990150452	1.514577031135559	0.8558037281036377	0.7189311981201172	0.1871301829814911	0.40660783648490906	
-0.2144833356142044	-0.48017850518226624	-0.00129520776681602	0.009784677997231483	-1.6216415166854858	-1.7270582914352417	0.3961775600910187	0.14651165902614594	0.5246655941009521	2.9647421836853027	1.767067790031433	0.5212339162826538	-0.663043737411499	1.529786467552185	-0.08833599835634232	0.531510055065155	0.7415065765380859	-1.1807488203048706	-1.4083009958267212	-1.542542576789856	-0.6590847373008728	-0.06581313163042068	-0.13119982182979584	-0.482237845659256	-0.562528133392334	
1.0847036838531494	1.072616457939148	-0.21179987490177155	-0.08799150586128235	-1.4317771196365356	-0.7590451240539551	1.6489918231964111	-0.5181217789649963	-0.37868183851242065	-0.8696023225784302	2.2760603427886963	1.133984088897705	0.8933196067810059	-0.6893715858459473	-0.42835533618927	-0.9358611106872559	-1.9018229246139526	0.5141743421554565	-0.30747559666633606	-0.3343409597873688	0.5349282622337341	0.7402230501174927	0.1634811908006668	-0.09981665760278702	-0.06357020884752274	
0.22410918772220612	-0.8156067728996277	0.14545708894729614	-0.3552117347717285	-2.2943801879882812	-0.5457503199577332	0.23822347819805145	1.1642365455627441	1.2002674341201782	0.8533944487571716	1.5357621908187866	0.07405643910169601	0.033951062709093094	-1.0217348337173462	-0.8237015604972839	-1.9960732460021973	0.7074771523475647	-0.6873911619186401	0.4071081578731537	-0.08589288592338562	1.5644235610961914	-0.4043300747871399	0.4820762872695923	-0.5179435610771179	1.777881383895874	
-0.5936875939369202	-0.6145911812782288	-0.5207101106643677	-1.0981664657592773	-0.4784899950027466	0.346444308757782	-0.43288135528564453	1.486994743347168	0.05209748074412346	1.6786502599716187	-1.1342869997024536	0.2733319103717804	1.5157448053359985	-1.2038367986679077	0.6231175661087036	-0.1145009696483612	-0.42878952622413635	-0.15472786128520966	-0.8570867776870728	-1.531318187713623	2.0576303005218506	-0.48857393860816956	0.23066385090351105	-0.1256180852651596	0.3632594048976898	
0.5027146935462952	1.7044733762741089	-1.6383475065231323	0.7345010042190552	-0.8000253438949585	0.3046517074108124	0.8889191746711731	-1.0377174615859985	-1.875925898551941	-1.1506843566894531	0.5795365571975708	-0.1477130502462387	1.5631963014602661	0.42610231041908264	-0.23129327595233917	0.641562283039093	0.18679127097129822	0.7682948708534241	2.1766510009765625	1.1881120204925537	0.1417258381843567	0.9244864583015442	-2.070943832397461	-0.7201312184333801	-0.04048291966319084	
-1.5546143054962158	1.6304388046264648	-1.1648684740066528	-0.24308863282203674	-0.39169925451278687	-0.7442467212677002	-0.29719746112823486	1.6213914155960083	-0.6298210024833679	-0.7697092890739441	-1.0109429359436035	-0.11180172115564346	-0.07820248603820801	1.1965183019638062	0.948684811592102	0.4529262185096741	-0.35063567757606506	0.6261370182037354	-0.15645179152488708	-0.6875265836715698	-0.011096548289060593	0.029525773599743843	-0.6819535493850708	-0.09847167879343033	0.8160540461540222	
2.6816961765289307	0.7812196612358093	-0.19843395054340363	0.26687926054000854	0.720748782157898	-0.36730271577835083	0.1423061639070511	1.6907546520233154	-0.23174437880516052	-1.5048056840896606	-0.6511136293411255	1.2300657033920288	0.21899493038654327	-0.3729950785636902	1.026518702507019	0.6380944848060608	2.3357784748077393	0.6720529198646545	-1.7373911142349243	-0.5137686133384705	0.12806569039821625	0.5333843231201172	-1.0742663145065308	-0.3335101306438446	0.7345622777938843	
-1.521571159362793	-1.9457439184188843	1.0809334516525269	0.2214643657207489	0.28232213854789734	-0.3534834682941437	-1.0004210472106934	0.03651333600282669	-0.806188702583313	-0.7896817922592163	0.4709145426750183	0.39914146065711975	-0.37246260046958923	0.009166764095425606	1.6517678499221802	-0.5782636404037476	-0.018060870468616486	1.864790678024292	-1.4377343654632568	-0.3366731107234955	0.16264469921588898	0.4751743972301483	0.363253116607666	-0.04003085941076279	0.7837100625038147	
-0.1319790780544281	0.10861685127019882	-0.20244967937469482	-0.5255119800567627	0.7155589461326599	-1.101112961769104	0.9571385383605957	1.3270890712738037	1.9250797033309937	-0.6535783410072327	0.7507723569869995	-0.33686670660972595	-0.1731269657611847	-0.18238741159439087	1.5839983224868774	-0.10174781829118729	-1.3587669134140015	-0.5492404103279114	-1.002814531326294	0.39751532673835754	1.1993958950042725	0.2923891842365265	1.7820484638214111	-1.9440118074417114	-2.903797149658203	
0.33690911531448364	1.77182936668396	1.9233547449111938	-1.2603176832199097	0.73060142993927	-0.8741881847381592	-0.21376663446426392	-0.5604864358901978	-1.958337664604187	-0.6270980834960938	0.5467112064361572	-0.10649825632572174	-0.6930179595947266	1.7250443696975708	0.22157712280750275	2.015227794647217	0.015052646398544312	-1.5314650535583496	0.4780227541923523	-0.495684415102005	0.155284121632576	0.3801162540912628	2.4333832263946533	-0.1141744926571846	-0.8872110843658447	
-0.45076605677604675	0.42376524209976196	0.6486790180206299	-0.2773984372615814	1.3450297117233276	1.0127440690994263	-0.5152364373207092	0.7025101780891418	0.3041290044784546	0.9018083810806274	-1.0105160474777222	-1.1976685523986816	0.6392526626586914	-0.8148081302642822	1.0378881692886353	2.2104127407073975	0.8548407554626465	1.1227041482925415	0.676586925983429	0.13971130549907684	0.5930607914924622	0.07071267068386078	0.8844907283782959	-1.451176404953003	0.07350645214319229	
-0.5185548067092896	-0.5450317859649658	-1.7203376293182373	-1.482067584991455	0.13473139703273773	-0.2874985337257385	-0.6601467728614807	0.1659443974494934	0.941150963306427	-0.13917960226535797	-1.9778484106063843	0.9046793580055237	0.14380964636802673	-0.8868820667266846	0.24448561668395996	-1.316472053527832	0.6102277040481567	0.6575224995613098	0.5714825987815857	-1.3173714876174927	0.6338484287261963	1.5917694568634033	1.2372404336929321	-2.5182173252105713	0.7365483641624451	
0.060781579464673996	-1.0701959133148193	1.850698709487915	-1.4847909212112427	-0.33608323335647583	0.23760254681110382	-1.2797929048538208	-1.3811724185943604	-0.47275030612945557	0.3178173899650574	0.09158782660961151	-2.0916154384613037	0.2148834764957428	-1.281081199645996	0.6035680770874023	1.2069098949432373	-0.20701153576374054	0.03306279703974724	1.3749722242355347	0.6857906579971313	0.2562142312526703	1.8557054996490479	-1.1559189558029175	0.6175143122673035	0.6430010199546814	
0.22552141547203064	0.7614414095878601	0.1201290711760521	1.0333847999572754	-0.3534625768661499	-1.2774263620376587	-0.6183381080627441	-0.839813232421875	0.6853489875793457	-0.12602069973945618	-0.33903470635414124	-0.5800594091415405	0.46125084161758423	1.099478840827942	0.5274835228919983	-0.02584172412753105	-1.0225147008895874	-0.9286107420921326	1.309790849685669	-2.970616340637207	-0.9892216324806213	-1.3487167358398438	-0.6132548451423645	-0.4534676671028137	-0.0003806401800829917	
0.36921876668930054	-0.07327476888895035	0.10751227289438248	-0.1848745495080948	0.05923471227288246	-0.36125826835632324	0.3773750960826874	-0.5745692849159241	-1.1752686500549316	-0.9851874113082886	0.756706953048706	-2.9270589351654053	-0.8473793268203735	0.035437844693660736	-0.5534439086914062	-0.943708598613739	-0.24211926758289337	-2.1810126304626465	-3.065549612045288	1.3306676149368286	-2.0586721897125244	-0.88212651014328	0.6449311971664429	-0.4032450020313263	0.07340070605278015	
-0.024625184014439583	-0.4944342076778412	1.6195162534713745	0.6132235527038574	0.11240052431821823	1.7907079458236694	0.33607256412506104	-0.06523694097995758	0.3085472881793976	0.8385787606239319	-0.5665934681892395	-1.2512460947036743	-0.37676745653152466	0.10836675763130188	0.1955636739730835	-0.07732866704463959	-0.842276394367218	0.7827820181846619	-0.33761224150657654	0.4156571328639984	0.5543941259384155	0.4359099864959717	0.09039059281349182	-0.8043921589851379	0.3137246072292328	
-0.1657247543334961	1.1848528385162354	-1.6486738920211792	0.10864221304655075	0.9559372067451477	0.0658821389079094	-0.68645840883255	-0.9095607995986938	0.7298898696899414	1.0456219911575317	1.1722996234893799	-1.3462899923324585	-1.0841028690338135	0.10817545652389526	-0.026521647348999977	0.023376090452075005	0.3118637502193451	0.538552463054657	-1.0023210048675537	-1.8951932191848755	-0.8222581744194031	-0.8085852861404419	0.46738356351852417	-0.1026812493801117	0.5891073942184448	
-0.6303741335868835	0.608580470085144	1.0622076988220215	-1.4570246934890747	-1.0476711988449097	0.639707088470459	-0.5449100136756897	-0.2913055121898651	0.7791649699211121	0.09638585150241852	-0.019143030047416687	-0.6728428602218628	-0.7129790186882019	-1.1656591892242432	-0.8777136206626892	1.9634757041931152	-0.8295359015464783	-1.3044397830963135	0.5473232269287109	-0.7049357295036316	0.4352570176124573	-0.12829181551933289	1.1437833309173584	0.9653083682060242	-0.9829246401786804	
-0.20156139135360718	-0.6738869547843933	0.2165299355983734	-1.0093615055084229	-0.6068785786628723	0.17136524617671967	-0.401517778635025	0.48758891224861145	-0.24638140201568604	-1.2274789810180664	-0.6966099143028259	-1.07486891746521	0.3263643682003021	0.5991569757461548	1.0858540534973145	0.9368680119514465	-0.8840506672859192	1.1580044031143188	0.3803028464317322	-0.21820175647735596	0.8925780057907104	-0.9513627290725708	0.010422277264297009	1.163392424583435	-0.3714238107204437	
0.26572349667549133	-0.5983699560165405	0.17631679773330688	-0.3646583557128906	-0.5953848958015442	-0.3551766276359558	0.7042102813720703	-0.49516761302948	-0.36048170924186707	0.05599508807063103	0.7783234119415283	0.7114970684051514	-1.3235692977905273	0.031206222251057625	1.2786463499069214	-0.8913284540176392	-0.23824599385261536	-0.9600362777709961	0.9730526804924011	0.9896840453147888	-0.3507704734802246	0.011375430040061474	0.6444244980812073	0.5739345550537109	0.4901353716850281	
0.031346842646598816	0.21189728379249573	0.5855287909507751	0.946417510509491	0.6814106702804565	2.061708688735962	1.037650227546692	-0.2568236291408539	-1.1454756259918213	-0.768233597278595	0.20969656109809875	-1.5121345520019531	-1.113984227180481	0.6415177583694458	0.48269689083099365	-0.19784463942050934	-0.1603291779756546	-1.190240740776062	0.43240442872047424	-0.41171154379844666	0.34196755290031433	1.0661793947219849	-1.1450306177139282	0.6813448667526245	0.47403454780578613	
2.0984246730804443	1.129110336303711	-0.47414278984069824	-0.8698540329933167	-1.0288565158843994	-0.34013956785202026	1.3296363353729248	0.5536084175109863	0.6847584247589111	-0.6257961392402649	-0.7544165253639221	-1.0470235347747803	0.22292645275592804	-0.5420103669166565	-0.38139286637306213	0.5783793926239014	1.1865787506103516	0.7636286616325378	0.5037322640419006	-1.1534123420715332	-0.730047881603241	0.7834547758102417	0.9460039138793945	0.45833224058151245	-0.8595658540725708	
-0.8595943450927734	-0.47574707865715027	1.163930058479309	-1.8682578802108765	-0.54294353723526	0.7307432293891907	0.2714862525463104	0.1717911809682846	-0.9565455317497253	0.6586692929267883	-0.5711913704872131	0.026281341910362244	-0.4991057813167572	0.08761830627918243	-1.92742121219635	-2.0433409214019775	0.8111787438392639	0.19733449816703796	-0.37417346239089966	-0.032316021621227264	-0.4571477770805359	0.7305188775062561	-0.16342897713184357	-0.037074510008096695	0.5633454322814941	
1.5004090070724487	-2.1210086345672607	-0.35792282223701477	-1.3795336484909058	1.1779485940933228	-0.13806603848934174	1.0141605138778687	-0.2544519007205963	1.7609992027282715	0.6119858026504517	-0.40611889958381653	1.9414923191070557	-0.8425662517547607	-0.2201632261276245	1.0490679740905762	1.164667010307312	0.4070284068584442	-0.1482655107975006	0.5007106065750122	-1.0614399909973145	-0.0007989874575287104	1.5402655601501465	0.4733450412750244	-1.087895154953003	1.913573980331421	
-0.175690695643425	-0.9940879940986633	-0.1010461375117302	0.08151984959840775	0.4481293261051178	0.3246498107910156	-0.16363322734832764	0.416582852602005	-0.7429476380348206	-0.6850125193595886	-0.29868751764297485	0.3346739113330841	0.33628541231155396	0.6169392466545105	-1.709914207458496	0.1361004114151001	0.6368347406387329	0.5752819776535034	0.7863608598709106	0.28020912408828735	0.20425881445407867	-0.40746280550956726	-0.6347572207450867	-0.3568865954875946	0.0672561451792717	
-0.9153327345848083	0.3996953070163727	2.879155158996582	-1.8929415941238403	1.5143707990646362	-0.5710726380348206	0.1833886355161667	0.4746859669685364	1.2386759519577026	-0.4785897433757782	0.9471487998962402	0.041340261697769165	0.7812593579292297	0.7116631865501404	2.3731448650360107	-0.42991989850997925	1.1920087337493896	0.6981825232505798	0.7083501815795898	0.14112210273742676	-0.7754086256027222	-0.9284650087356567	0.47560518980026245	-0.1718217134475708	-2.139716863632202	
-0.7821409106254578	1.5562026500701904	1.7612420320510864	1.0615179538726807	-1.0893758535385132	-0.45583170652389526	-0.5870046019554138	-1.0787571668624878	-0.07393135875463486	0.5955809354782104	-0.4904443919658661	-0.9933221936225891	-0.23313628137111664	0.7622295022010803	-0.24440807104110718	-0.5115643739700317	0.30810654163360596	-0.997170090675354	1.3074058294296265	0.05593457445502281	0.036993928253650665	0.6018514633178711	-1.2719861268997192	-1.0270576477050781	-0.4449707865715027	
0.8765920400619507	-0.8949556350708008	1.0240428447723389	0.6966186165809631	0.6560772657394409	0.7252559065818787	0.32877904176712036	0.02743176929652691	0.06781233847141266	-0.6567884087562561	-0.8955848813056946	-0.8378517627716064	-0.062115319073200226	-0.8281447291374207	-0.5182992815971375	-0.8909021019935608	-1.308121681213379	2.639350414276123	-0.49793991446495056	0.813101053237915	-1.1455482244491577	-1.4934630393981934	-1.4264395236968994	-0.6325037479400635	0.47707894444465637	
-0.06988116353750229	0.2004937380552292	0.0775199756026268	0.9008616805076599	1.6459475755691528	-0.3481208384037018	1.0177747011184692	-0.35071539878845215	0.2292640507221222	2.3562397956848145	0.8497067093849182	0.18961603939533234	-1.3871220350265503	-0.248970627784729	-1.1765586137771606	0.8939909934997559	1.3383630514144897	1.8811506032943726	-0.49695947766304016	-0.4445374011993408	0.8094452619552612	0.046567030251026154	0.8058825731277466	1.7414058446884155	-1.1449767351150513	
-0.3772045075893402	0.10776077210903168	1.1842526197433472	-0.9905931949615479	0.19161635637283325	0.638373613357544	0.7422619462013245	-0.03166921064257622	-0.5566290020942688	0.648169755935669	1.9879379272460938	2.0505080223083496	-0.48762810230255127	0.3657001256942749	0.8905944228172302	0.6880658268928528	-0.7113021016120911	-0.013110596686601639	-0.7912814021110535	0.12451045215129852	0.11445365846157074	0.34592655301094055	-2.3013477325439453	-0.033626411110162735	1.7542688846588135	
-0.43334344029426575	-0.8391296863555908	-0.2739829123020172	-1.2052347660064697	-0.3354950547218323	-0.731153666973114	1.1151695251464844	-1.0237294435501099	0.2938758432865143	-0.2980474531650543	1.1724295616149902	-0.8061516284942627	-1.1566976308822632	0.7540543675422668	1.2458444833755493	-0.07470803707838058	-0.4615241289138794	0.1957874745130539	-0.5784866213798523	0.03028956428170204	1.1274901628494263	0.07688520103693008	-1.3542300462722778	-1.5654445886611938	1.0075454711914062	
0.3731226325035095	0.24952515959739685	-0.1718934178352356	-0.15381793677806854	-1.7305808067321777	-0.5556256771087646	0.6207578182220459	1.1648913621902466	-1.5856906175613403	0.8307278156280518	-0.18309783935546875	0.3970344066619873	0.859178364276886	0.6954578161239624	-0.2782890498638153	0.6229234933853149	0.10703250765800476	-0.24867652356624603	0.06631092727184296	-0.7784572243690491	1.9073107242584229	-0.061263736337423325	0.051417820155620575	1.937753438949585	-1.2513813972473145	
-0.11833988130092621	0.9906774163246155	-0.8801924586296082	-0.11521100997924805	0.39597079157829285	-1.3806737661361694	-1.6522847414016724	-0.732810378074646	-0.9368799924850464	-1.5162084102630615	0.1989574134349823	-0.864035427570343	-0.49974605441093445	0.5442359447479248	-0.07636682689189911	2.2716498374938965	1.2599778175354004	3.026683807373047	0.1918712705373764	0.7885964512825012	-0.736006498336792	-1.8609933853149414	0.07675540447235107	0.3426613509654999	1.2326308488845825	
-0.31207457184791565	-0.45229724049568176	1.9437278509140015	-1.0511537790298462	1.3335074186325073	1.7202062606811523	-0.5359030961990356	-0.2424522191286087	-1.696128487586975	2.5002169609069824	-0.8001485466957092	-1.538020372390747	0.28628042340278625	-1.8829084634780884	1.1834033727645874	-1.621549129486084	-1.5181514024734497	-0.8694115281105042	0.9047683477401733	-1.0961532592773438	1.7346737384796143	0.7192028164863586	-0.49883222579956055	-0.08934489637613297	-0.9070955514907837	
-1.7942155599594116	-1.4441683292388916	-0.07623261213302612	-1.235277533531189	-0.14540323615074158	0.6639854907989502	0.9959216117858887	0.2189352810382843	-0.09016305953264236	-1.1252909898757935	-1.1176984310150146	0.2700592577457428	-0.7756898999214172	0.18258418142795563	-0.12257891893386841	0.05878845602273941	1.5815407037734985	-1.255523681640625	-1.1630350351333618	-0.669857382774353	0.2905713617801666	-0.746215283870697	0.19683262705802917	-0.1650536060333252	-0.9639102816581726	
-0.8702030777931213	-1.236185908317566	0.31719815731048584	-0.006983922328799963	-0.600404679775238	-0.058304090052843094	-1.3554222583770752	0.2892102301120758	0.06168869882822037	-0.15980741381645203	0.48062238097190857	0.5013861060142517	1.1673593521118164	0.34266650676727295	0.27314186096191406	0.22462162375450134	-1.0664520263671875	0.7056751251220703	2.0012223720550537	-0.08959745615720749	1.131725788116455	-0.8072800040245056	-0.5802409648895264	-0.01221274584531784	0.3560076057910919	
0.2977748513221741	1.1187766790390015	0.9585283398628235	1.083426594734192	0.2449542135000229	-0.041172757744789124	0.4240988492965698	0.6727431416511536	-0.77945876121521	-1.6185263395309448	0.9062615036964417	1.6371283531188965	-0.04183811694383621	-2.4187490940093994	-1.3645188808441162	-0.6093031167984009	0.6582804322242737	-0.03955644741654396	0.09305822104215622	1.8442959785461426	0.22555933892726898	0.05008483678102493	1.2002674341201782	0.5760303139686584	0.6361578702926636	
-0.6365781426429749	0.589897871017456	-0.5808826684951782	0.05738639086484909	-1.0412886142730713	0.4032743275165558	-0.8564997911453247	1.4174712896347046	0.28289759159088135	0.42720937728881836	-1.0603621006011963	0.8488308787345886	0.14952638745307922	0.07259029150009155	0.6045019626617432	0.4177633225917816	-2.3500962257385254	-0.5170116424560547	0.5104424357414246	-1.5960456132888794	0.48113781213760376	-0.2028619349002838	2.0368752479553223	-0.5331225991249084	-0.31057852506637573	
2.6759486198425293	-1.6544123888015747	-2.279099702835083	1.5404404401779175	-0.13100826740264893	0.35917362570762634	0.8180394768714905	1.5304754972457886	-2.306455612182617	-0.40299633145332336	-0.6003438830375671	-1.0952774286270142	0.43081212043762207	0.30358293652534485	-0.16061533987522125	-0.05306212976574898	-1.05876886844635	0.021646875888109207	0.9358815550804138	1.0920301675796509	0.5391349196434021	0.24225005507469177	-0.4555407166481018	0.3380846381187439	-0.032310325652360916	
-0.637556254863739	-0.2706993818283081	0.29527899622917175	1.0352216958999634	0.1060982495546341	-0.03162921965122223	0.48076915740966797	0.3242836892604828	0.6504396796226501	1.3273859024047852	0.3908548355102539	0.18376782536506653	0.6789820194244385	-0.5211113095283508	-0.8646566271781921	0.3517381250858307	1.069843053817749	-0.2699030041694641	0.852966845035553	-0.3639666736125946	-0.06817888468503952	-0.5590775012969971	0.9893022775650024	-0.5547571778297424	0.3613235652446747	
-1.8074392080307007	-0.9340675473213196	0.6537410616874695	0.35148128867149353	0.6276829242706299	-0.3119911551475525	2.2159740924835205	2.5652413368225098	0.844841480255127	2.0568923950195312	-0.2179291993379593	0.05880466103553772	-1.2565168142318726	-0.016529764980077744	0.11040262877941132	-0.642413318157196	-0.45393285155296326	-0.17788377404212952	-0.11709918081760406	-0.3203940689563751	1.005556344985962	-1.876601219177246	-0.7617921829223633	1.071460485458374	0.18669584393501282	
1.1363765001296997	-0.6480816602706909	-1.3149312734603882	-2.4205265045166016	1.1298176050186157	0.1827009618282318	0.20105193555355072	2.0078508853912354	-1.1090058088302612	-0.33488520979881287	0.2675308287143707	1.1735999584197998	-0.09546973556280136	-1.1941547393798828	0.5695195198059082	1.5188930034637451	-0.34328433871269226	1.410280466079712	0.5801383852958679	-0.960929811000824	1.4546078443527222	0.6117528676986694	-1.3371143341064453	0.25517532229423523	1.3061916828155518	
-1.9164814949035645	0.13965179026126862	-0.14366276562213898	-1.7995295524597168	0.45396721363067627	-0.4499025344848633	1.6705137491226196	-0.18075786530971527	-0.8102471828460693	1.2062253952026367	-1.1118005514144897	-0.2790517210960388	-1.4468951225280762	0.388967365026474	1.4659746885299683	-0.7285704016685486	-0.33856073021888733	-0.7472134232521057	0.588294267654419	-1.1232576370239258	2.0239980220794678	0.489924818277359	-0.2657924294471741	-0.16384044289588928	0.5020361542701721	
0.4589254558086395	-0.4832799434661865	-0.689708411693573	1.4022014141082764	-0.021957816556096077	-0.1389348804950714	-0.30336570739746094	-1.8492488861083984	0.4897027313709259	0.2312978357076645	-0.7588790059089661	1.5439958572387695	0.9401376843452454	0.9874407649040222	0.09971065074205399	-0.10096613317728043	-0.047034114599227905	-2.1133413314819336	1.3592052459716797	-1.0429929494857788	0.6139652132987976	-2.1493639945983887	-0.43439507484436035	0.9181392192840576	1.6013389825820923	
-1.8341435194015503	0.43534666299819946	0.13400286436080933	0.13664527237415314	0.17866374552249908	-1.5373601913452148	-0.04759260639548302	0.15017421543598175	-0.4312184154987335	-0.474112331867218	-0.7689501047134399	-1.1855543851852417	-0.09599757194519043	-0.1794877052307129	-0.06904808431863785	1.538895845413208	0.5911707878112793	-0.3963029086589813	1.5321073532104492	0.6531754732131958	0.8336557745933533	-0.19104091823101044	-1.7382689714431763	1.3163541555404663	0.1525702327489853	
2.1785385608673096	0.6549215316772461	0.5774638652801514	-1.066117286682129	1.1646654605865479	-1.4508711099624634	0.40938952565193176	0.14312592148780823	-0.4546440541744232	-0.2700839340686798	0.3601953685283661	0.8217911124229431	0.9887223839759827	0.11142139881849289	0.11545628309249878	-1.350982427597046	1.200194001197815	1.157320499420166	0.018691029399633408	2.2405877113342285	-1.5452759265899658	0.554497480392456	-0.8155047297477722	-1.017640471458435	1.272806167602539	
1.0109461545944214	0.38439175486564636	-0.4590504467487335	0.21718762814998627	1.167203426361084	-1.1796081066131592	0.7070181369781494	-1.2193129062652588	-0.7896744608879089	-2.360602378845215	-0.5807799100875854	-0.7437624335289001	-0.42446377873420715	-0.06810767948627472	-1.2212517261505127	-0.41585999727249146	0.3381253778934479	0.7753679156303406	0.5340858697891235	-0.7190003991127014	0.17836670577526093	1.4952086210250854	-0.4467276930809021	-1.600061297416687	2.16409969329834	
1.1812161207199097	-0.5226786136627197	1.0728005170822144	-1.4735527038574219	0.15612325072288513	1.2107391357421875	-0.2971256375312805	0.5911294221878052	-4.059412479400635	-1.5752328634262085	2.6014392375946045	-0.21604308485984802	-0.22300449013710022	0.3508758246898651	-0.7168552875518799	-0.07508799433708191	-0.7332995533943176	0.9327710866928101	1.4149178266525269	-2.9574646949768066	-1.1760731935501099	-0.22737494111061096	-1.8255960941314697	0.37187403440475464	0.5090380907058716	
-0.3685370981693268	-1.0108197927474976	0.1954040229320526	-1.386501669883728	-1.7398375272750854	1.5481847524642944	0.26078784465789795	0.17499111592769623	0.08146890252828598	0.9570627808570862	-0.44657596945762634	0.9850208759307861	0.7665190100669861	-0.47473666071891785	-0.3968319594860077	-0.1556730568408966	0.12706750631332397	-1.6317466497421265	1.1477595567703247	0.23906871676445007	1.8325550556182861	-0.9447462558746338	0.9317524433135986	-0.606228232383728	0.37829461693763733	
-0.13961240649223328	1.3786933422088623	0.02660444565117359	-0.7510365843772888	0.7979808449745178	-0.20122259855270386	0.33370617032051086	-0.9517652988433838	0.8474333882331848	-0.32607609033584595	0.7613754868507385	0.13835299015045166	1.5266379117965698	-0.4970051050186157	-1.6243394613265991	-0.22093674540519714	0.6856474280357361	-1.5370430946350098	-0.5168707370758057	-0.8564677834510803	0.3202986419200897	0.7857059836387634	0.696806788444519	-0.6365506052970886	-0.029175153002142906	
-0.1899385005235672	-0.47261521220207214	-1.1375104188919067	0.3855282962322235	-0.12201770395040512	0.2122068852186203	-2.5489614009857178	-1.7415879964828491	-0.4946492612361908	0.7421730756759644	-1.1242953538894653	1.4611892700195312	-0.4992673099040985	0.6492823958396912	-2.194397449493408	1.6589101552963257	0.76961350440979	0.1341942399740219	-0.6931927800178528	2.2604293823242188	0.4643692970275879	-1.03617525100708	-1.1418609619140625	0.41295284032821655	0.5654129385948181	
0.5662092566490173	0.32268577814102173	0.8577759861946106	-0.35362106561660767	1.7789753675460815	0.08623304218053818	-0.3359071910381317	1.565931797027588	-0.07860440015792847	-1.4250150918960571	1.1017919778823853	0.06347878277301788	1.1922359466552734	-1.3564403057098389	-0.40328651666641235	0.16667932271957397	0.33589014410972595	-0.19938254356384277	-1.9197273254394531	0.14648279547691345	-0.3822222054004669	-0.9154468774795532	1.290153980255127	-0.9028818011283875	-1.7626371383666992	
0.3602477014064789	0.6442597508430481	-1.8264381885528564	-1.2720803022384644	0.39566460251808167	-1.2993820905685425	0.31950870156288147	0.702392578125	0.9061222076416016	0.029437053948640823	1.4807556867599487	0.09784866124391556	-1.2592742443084717	-0.9593762755393982	0.883121132850647	0.1917351484298706	-0.16344623267650604	-0.15803547203540802	-0.4598713219165802	-1.6674222946166992	-0.5449087619781494	-0.7521904706954956	0.5806339979171753	-1.2105141878128052	-1.8998472690582275	
0.9098964333534241	-0.46396344900131226	-0.3811708688735962	0.9403362274169922	-1.9879240989685059	0.5204126834869385	-1.5846811532974243	-1.2529809474945068	0.6626889705657959	0.1655043661594391	1.8562006950378418	0.7054160237312317	2.502265214920044	-1.1442513465881348	0.4296109676361084	0.8896533250808716	-0.06196599826216698	-0.2747015655040741	0.603973388671875	0.06615046411752701	-3.2276368141174316	-0.7675334215164185	1.1932257413864136	0.39475929737091064	-0.4848408102989197	
-0.3930777311325073	-0.7751262187957764	-1.5184434652328491	-0.23730939626693726	1.343570590019226	0.7195850610733032	0.9780580997467041	0.696428120136261	0.4696381986141205	-0.263673335313797	1.1867766380310059	1.4759528636932373	1.0950528383255005	-2.202305793762207	-1.6254321336746216	-1.117411494255066	-1.4045323133468628	-0.8153244256973267	0.08263994008302689	-2.0358870029449463	-2.5533742904663086	1.2543760538101196	-0.06298663467168808	-0.0904451385140419	0.9301140308380127	
-1.9933933019638062	-0.6032417416572571	1.7416988611221313	1.1756998300552368	0.7774518728256226	-1.0214115381240845	-0.4217275083065033	0.8085325956344604	1.0603519678115845	-1.5743296146392822	1.25253164768219	-0.023677730932831764	-0.20403796434402466	-0.6963658332824707	-0.5361164212226868	-0.07601720094680786	0.5305438041687012	1.363197684288025	-0.5639435052871704	1.5258424282073975	1.1897292137145996	-0.7689788341522217	-0.015847615897655487	0.09959243983030319	-0.001856100047007203	
0.3105127811431885	1.4917292594909668	-0.5650987029075623	-0.6836456060409546	-0.941288948059082	0.12678620219230652	-1.892044186592102	1.4059572219848633	-0.1698269098997116	0.26714247465133667	0.2051083743572235	-0.3459438979625702	-0.23859579861164093	-0.352603018283844	0.9753703474998474	1.7432630062103271	0.2605140507221222	-0.38000813126564026	-1.737760305404663	0.45546889305114746	-0.39604151248931885	-0.3063545227050781	0.818276584148407	-0.45534080266952515	0.5183813571929932	
-1.0344078540802002	0.11250793188810349	1.5262222290039062	-0.16302154958248138	0.2950056493282318	-2.128890037536621	-0.9293105006217957	-0.8834066987037659	-0.8816060423851013	0.18984289467334747	0.9636939764022827	-2.035778284072876	-1.4536685943603516	-0.013668136671185493	-0.8912277817726135	-0.37221044301986694	-0.14574182033538818	0.8080225586891174	-1.2312593460083008	-1.3789405822753906	-1.0432348251342773	1.0968079566955566	0.6426163911819458	-2.359741449356079	0.8946993947029114	
-1.130078911781311	-0.2379201501607895	-0.48960113525390625	0.49074241518974304	-0.4484861195087433	-1.7579286098480225	-0.38967061042785645	0.9407356977462769	-0.9343110918998718	0.574561595916748	-0.6439908742904663	-0.45892247557640076	1.0457359552383423	-0.22828422486782074	-0.21750496327877045	-1.017015814781189	-0.806977391242981	1.750604271888733	-0.763717532157898	0.20685870945453644	-0.5304933786392212	-1.6915490627288818	-0.062361232936382294	0.589458167552948	-1.8164831399917603	
-0.11862808465957642	-1.3987538814544678	0.13605022430419922	-0.00578521192073822	-1.286889910697937	0.6452382802963257	0.3447663187980652	-0.1404433697462082	0.7465251684188843	0.25345250964164734	-0.27561381459236145	0.25779351592063904	-0.5068150162696838	-1.1756094694137573	0.3141525089740753	-0.4767484664916992	1.1110073328018188	1.5115584135055542	-1.446393370628357	-0.7275274395942688	0.058994125574827194	-0.5664629340171814	1.1750125885009766	0.7156149744987488	-1.415790319442749	
1.3379240036010742	1.2375259399414062	0.4627208411693573	-0.9315949082374573	0.2200731635093689	-0.47696834802627563	-0.9386176466941833	1.392261266708374	-1.548897624015808	-1.1791568994522095	1.1614633798599243	-0.9061298370361328	1.3593205213546753	1.307134747505188	1.328088402748108	-0.7345237135887146	-0.11845863610506058	0.5923620462417603	-0.6390212774276733	0.640225350856781	-0.5343106985092163	0.8021089434623718	-0.9129884839057922	-0.7799112796783447	1.1337898969650269	
1.7403899431228638	1.1091336011886597	0.034746408462524414	-0.7597454786300659	-1.5844016075134277	1.5794589519500732	-1.4645791053771973	-0.1770179271697998	-1.0912320613861084	1.9249567985534668	-0.5552863478660583	1.149748682975769	-0.12493324279785156	1.333590030670166	-0.6807712316513062	1.271022915840149	0.3235560953617096	0.349801242351532	-1.2903802394866943	1.53758704662323	-0.5071091651916504	-0.6567053198814392	-0.30164799094200134	-0.2970675826072693	-0.7584894895553589	
-0.8299812078475952	-0.5009734034538269	0.09877067059278488	-0.6135073900222778	1.0089950561523438	-1.1762773990631104	1.4400914907455444	1.2487163543701172	-1.329230785369873	-1.6745833158493042	1.4146569967269897	0.5759390592575073	0.4959205389022827	-0.0031508291140198708	-0.4150460660457611	0.5827947854995728	-0.3670189380645752	-2.054997205734253	0.95390385389328	-0.7757164835929871	1.5939232110977173	0.11387275159358978	0.4129946827888489	-1.3338730335235596	-0.6359883546829224	
0.9440924525260925	0.8164515495300293	0.6605677604675293	1.0527533292770386	2.0637423992156982	0.13794222474098206	-1.871727705001831	0.782368540763855	-0.21737678349018097	-1.578126072883606	1.4044991731643677	1.3874397277832031	0.5795331001281738	-0.5059583187103271	0.24891957640647888	-0.3265816569328308	0.4308987259864807	0.5806235074996948	0.8754489421844482	-1.2233304977416992	0.33047962188720703	-0.901469349861145	0.44609534740448	0.18800261616706848	0.42140108346939087	
0.10926181077957153	-0.610349714756012	1.6741502285003662	-1.411083459854126	1.3103495836257935	-0.7828161716461182	1.8835402727127075	-0.24010542035102844	1.3133628368377686	-1.9820681810379028	1.1667629480361938	-0.22103650867938995	2.652273654937744	-0.7774662971496582	0.11783722788095474	0.2910977303981781	0.5790579319000244	0.31978994607925415	-0.04261557012796402	-1.6864736080169678	1.0864826440811157	1.128648042678833	-0.9289122223854065	-0.010977829806506634	-1.8503286838531494	
