
 
-0.025840915739536285	0.017024526372551918	-0.008187629282474518	0.011413970030844212	0.004372044932097197	0.005522025749087334	0.0046427082270383835	-0.005902199074625969	-0.012014312669634819	-0.011433054693043232	0.005544285289943218	0.004739574622362852	0.0013968695420771837	-0.0338163860142231	0.00486121978610754	-0.013094001449644566	-0.0005196256679482758	-0.027619805186986923	0.01943381503224373	-0.005039730574935675	-0.012657885439693928	0.0050942557863891125	0.006585522089153528	-0.011117855086922646	0.04762250557541847	
0.028251152485609055	-0.01682068035006523	-0.016550172120332718	-0.01497645117342472	-0.01488752756267786	-0.015262044034898281	-8.164143946487457e-05	0.001474600750952959	0.012920553795993328	0.018152328208088875	0.003881502663716674	-0.012085353955626488	0.06439570337533951	-0.011748560704290867	-0.017815519124269485	-0.015340620651841164	0.000796506938058883	0.0033294246532022953	0.019857103005051613	-0.005565179046243429	0.02895417809486389	0.01457656268030405	-0.0028179988730698824	0.004341071005910635	-0.002171862404793501	
0.03540554270148277	0.0023156581446528435	0.013487942516803741	0.004600796848535538	0.016312481835484505	0.00782740768045187	-0.02479090541601181	0.050816066563129425	0.0004921493818983436	-0.02518630400300026	0.012822411023080349	0.007114211097359657	0.016327382996678352	-0.008273021318018436	0.014769583940505981	-0.013953073881566525	0.012085624039173126	-0.024744194000959396	0.0033975110854953527	0.0010930176358669996	-0.01230031717568636	0.012778160162270069	0.018919924274086952	0.005575245711952448	-0.025268180295825005	
-0.009693284519016743	0.0473695769906044	-0.02470962144434452	0.005937244743108749	-0.007744457572698593	0.032376762479543686	0.02304772287607193	-0.012319359928369522	0.03076094575226307	-0.022204428911209106	-0.025110367685556412	-0.018364330753684044	0.015856502577662468	-0.009233440272510052	-0.01717921905219555	0.017550762742757797	0.0015041903825476766	0.009407063946127892	-0.009844022803008556	-0.031222978606820107	0.029874315485358238	-0.0025574741885066032	-0.00478676613420248	0.021244969218969345	-0.00780876912176609	
0.03153008222579956	-0.009205532260239124	0.008891314268112183	-0.001025081262923777	-0.03616659715771675	0.021601784974336624	-0.015204204246401787	0.00724137295037508	-0.008303027600049973	0.01886158250272274	0.020894555374979973	-0.031346894800662994	0.0052521731704473495	-0.03189511597156525	0.02796361595392227	-0.02414160966873169	-0.0024116700515151024	0.0027015020605176687	0.0031525809317827225	-0.010944441892206669	0.025026142597198486	0.01648261584341526	0.03618714585900307	0.025481251999735832	-0.004353244788944721	
-0.012687090784311295	-0.006810616236180067	-2.9155382435419597e-05	0.014852311462163925	-0.003160380758345127	0.01541370339691639	0.007688426878303289	-0.016543401405215263	-0.0045950403437018394	0.0034999260678887367	0.02160472422838211	-0.005866406951099634	-0.04957377910614014	-0.00527753634378314	-0.0019144712714478374	0.00838477909564972	0.008822840638458729	-0.007772570941597223	0.0033496941905468702	0.018138019368052483	0.005719802342355251	0.022973159328103065	0.01312559936195612	-0.0085839182138443	0.012772687710821629	

 
0.0	0.0	0.0	0.0	0.0	0.0	

 
-0.007968228310346603	0.015815628692507744	0.018713176250457764	0.0178079754114151	-0.01818600855767727	-0.001650130609050393	-0.021230194717645645	-0.05790715292096138	-0.006871376186609268	-0.008412160910665989	-0.0050533306784927845	0.03261732682585716	-0.00929776020348072	0.047989729791879654	0.01577325165271759	-0.022922959178686142	0.024841539561748505	0.026618868112564087	0.02684066630899906	0.0164097361266613	-0.028780918568372726	-0.01899007521569729	0.009113065898418427	-0.029583506286144257	0.0063055395148694515	
0.0019198699155822396	-0.02246052213013172	0.001173751545138657	0.02992098778486252	-0.018712719902396202	0.03243401274085045	-0.0285851638764143	-0.002001082757487893	0.03053605929017067	-0.052860066294670105	0.013937552459537983	0.023013059049844742	0.0047684707678854465	0.014925939962267876	-0.026330767199397087	0.003676164895296097	0.014722743071615696	0.028535062447190285	-0.01855742745101452	0.034909382462501526	0.013361174613237381	-0.013310168869793415	-0.003587847575545311	0.05013727396726608	0.01485015731304884	
0.054181549698114395	0.04770928621292114	-0.020095081999897957	-0.010032972320914268	0.05561176314949989	-0.012295019812881947	0.03371894732117653	0.019357945770025253	0.00750913517549634	-0.006609455682337284	-0.04125150293111801	0.023624727502465248	0.008997328579425812	0.008394768461585045	-0.021626818925142288	-0.013786998577415943	-0.010848396457731724	-0.0368817001581192	-0.009910257533192635	0.045429475605487823	-0.028459277004003525	-0.011876605451107025	-0.005612748675048351	0.013658451847732067	-0.01721840538084507	
0.04123243689537048	0.0486687496304512	0.047517694532871246	-0.00251400307752192	-0.0028233216144144535	-0.01744573563337326	-0.008183817379176617	-0.002588941715657711	-0.016354529187083244	-0.015069464221596718	0.021090080961585045	-0.025596873834729195	-0.023763582110404968	0.04389288276433945	-0.00881409551948309	0.0007039477932266891	-0.007224031258374453	-0.009220783598721027	0.00989456009119749	0.015764007344841957	0.02627132274210453	-0.0020086809527128935	0.019231101498007774	-0.004771128296852112	0.028568221256136894	
0.014691286720335484	-0.03510373830795288	-0.015160495415329933	0.018705565482378006	-0.0015433961525559425	-0.027947358787059784	0.02292260155081749	0.0039863442070782185	-0.002863566391170025	-0.032576777040958405	-0.032055098563432693	0.065476194024086	-0.018024682998657227	0.0556640625	-0.04991469904780388	0.011775459162890911	-0.022205539047718048	-0.013080851174890995	0.0022984265815466642	0.001277251518331468	0.013094963505864143	-0.021773988381028175	-0.031127985566854477	-0.003283150726929307	0.045576851814985275	
-0.011998937465250492	0.031138041988015175	0.022659093141555786	0.01897498220205307	-0.00760598573833704	-0.00721988920122385	-0.006978041958063841	0.029028896242380142	-0.028829826042056084	-0.004436597228050232	0.0007639637333340943	-0.010473392903804779	-0.011107011698186398	0.040876179933547974	-0.0010876673040911555	0.005240213125944138	-0.04039736092090607	-0.005610330030322075	-0.010892929509282112	-0.0007743085152469575	-0.0025905179791152477	-0.037066977471113205	-0.0035425759851932526	0.027551626786589622	0.03317023068666458	
0.05964631214737892	-0.0018064065370708704	0.008383031003177166	-0.031939368695020676	-0.001908093341626227	-0.056479088962078094	0.028882253915071487	0.010123169049620628	0.03263967111706734	0.005828648339956999	-0.020076964050531387	-0.005126214120537043	-0.004296605475246906	-0.03915800526738167	0.02915976196527481	-0.0005927859456278384	0.02542492188513279	-0.024125702679157257	-0.004349981434643269	-0.04634896665811539	-0.0024015570525079966	0.004602999892085791	-0.02390667051076889	0.02544834092259407	-0.03702840209007263	
-0.05210338532924652	0.029196878895163536	-0.0024766188580542803	0.03246975317597389	-0.0008452896145172417	-0.00839170627295971	-0.00870330911129713	-0.02293122559785843	0.04129321500658989	-0.0044241095893085	0.00280371168628335	0.043470121920108795	0.016072414815425873	-0.001334607950411737	-0.03279658406972885	-0.0104396753013134	0.03540525585412979	-0.045413434505462646	-0.027864187955856323	-0.03679703548550606	-0.009124457836151123	-0.027453789487481117	0.03468165174126625	0.017704864963889122	0.014261424541473389	
0.006058058235794306	0.016713164746761322	0.01248613465577364	-0.0066511728800833225	-0.018394630402326584	0.03261784464120865	-0.034308016300201416	-0.00495985196903348	-0.0497145839035511	0.005254378542304039	-0.02059813402593136	0.008664565160870552	-0.005303326062858105	0.023844487965106964	-0.02156934142112732	0.02126913145184517	-0.01991974748671055	-0.0015463507734239101	-0.02175801992416382	0.01596726104617119	0.010046318173408508	0.01377315353602171	0.02175164967775345	0.0024801173713058233	0.005139621905982494	
-0.005562600214034319	0.014021671377122402	0.011213981546461582	-0.04315993934869766	0.027858536690473557	0.05217593163251877	-0.000596292782574892	0.0018225815147161484	-0.012857969850301743	0.04860643297433853	0.01141202263534069	-0.06643036752939224	0.0017056310316547751	-0.07426145672798157	-0.006164733786135912	-0.0496344156563282	0.03948536887764931	0.030222205445170403	0.01713990978896618	-0.0024508980568498373	-0.0013616852229461074	0.020763076841831207	0.03363341838121414	0.014537908136844635	0.007918529212474823	
0.037972476333379745	0.003826731815934181	0.007130830083042383	0.02200073003768921	0.0003412146761547774	0.0029033287428319454	-0.011232058517634869	0.023186497390270233	-0.02113032341003418	0.03891781345009804	0.011311006732285023	0.026656299829483032	-0.020658154040575027	-0.02912343479692936	0.002927894704043865	0.010149868205189705	0.020299522206187248	-0.02452404424548149	-0.04604272171854973	0.010608521290123463	0.007050924934446812	0.025691647082567215	0.029566286131739616	0.02102077007293701	-0.0028651938773691654	
-0.03850436955690384	0.005656735971570015	-0.05073155462741852	0.005478858947753906	-0.0023990608751773834	-0.009584959596395493	0.006053900346159935	0.04695367068052292	0.025466134771704674	-0.033529818058013916	0.01302451640367508	-0.03487037494778633	-0.06368092447519302	0.02057546190917492	0.0014069381868466735	0.04162983596324921	0.053736720234155655	0.00205542822368443	0.004172502551227808	-0.027110569179058075	-0.000736102694645524	0.04562312364578247	-0.011618887074291706	0.02673155441880226	-0.0017823852831497788	
0.010426630266010761	-0.007578772027045488	0.0028082916978746653	0.022837186232209206	0.05192245543003082	0.01177345123142004	0.018516801297664642	-0.01606237143278122	-0.03530573472380638	0.017944686114788055	0.006064011715352535	0.0752154290676117	0.0023234763648360968	-0.0009409270132891834	0.027423787862062454	-0.02024211920797825	-0.01836906559765339	-0.021281225606799126	-0.022541752085089684	-0.0037693390622735023	-0.03464155271649361	-0.03981148824095726	5.182753739063628e-05	-0.014418989419937134	0.007766664959490299	
1.3319619029061869e-05	-0.03228503838181496	-0.04835302755236626	-0.0001256919204024598	-0.028108226135373116	0.03760698810219765	-0.018304012715816498	-0.0030773149337619543	-0.028619414195418358	0.02307826280593872	0.005546574015170336	-0.010775859467685223	0.02124077081680298	-0.04446922987699509	-0.0027488418854773045	0.0344385989010334	-0.03521980345249176	-0.0070785838179290295	-0.0072933463379740715	0.003559898119419813	0.028568897396326065	0.04883056506514549	0.04939959943294525	0.0025349364150315523	0.0007834034622646868	
-0.04508833959698677	-0.019280750304460526	0.03823816031217575	-0.017947057262063026	0.0042997426353394985	0.03595443814992905	-0.018412288278341293	0.05407555401325226	0.02572506107389927	0.026924973353743553	-0.027216358110308647	-0.01827348954975605	0.016168182715773582	-0.03441481664776802	-0.038621846586465836	-0.017328640446066856	-0.009602625854313374	0.007429079618304968	-0.029651012271642685	0.03966273367404938	0.005224838387221098	0.019919756799936295	-0.03420524299144745	0.04276326671242714	-0.06528008729219437	
0.03307079151272774	0.017416324466466904	0.011039220727980137	0.018998615443706512	0.002646825974807143	0.0012919815490022302	0.03635833039879799	-0.01934746652841568	0.0013966836268082261	-0.07295456528663635	-0.021638358011841774	-0.013863833621144295	0.01478369627147913	0.010869655758142471	-0.004967227578163147	0.014279223047196865	-0.019783925265073776	-0.040488578379154205	0.020504362881183624	-0.03210051730275154	-0.030540985986590385	-0.012468731962144375	0.04230622574687004	-0.011255565099418163	0.0008983977604657412	
0.02868415229022503	0.0010853619314730167	-0.01371073443442583	-0.0006409464403986931	-0.012616567313671112	-0.0016741087893024087	-0.07301005721092224	-0.012265020981431007	0.00023933587362989783	-0.014565307646989822	-0.020981842651963234	0.044809307903051376	-0.022140178829431534	-0.034737229347229004	0.02213200367987156	-0.009160093031823635	0.004855067934840918	0.023302355781197548	0.0003855834365822375	0.05779820680618286	-0.04224829375743866	0.01874086633324623	0.05255080759525299	-0.0206961277872324	-0.026178404688835144	
0.005832725204527378	0.022179333493113518	-0.05034458264708519	-0.009420588612556458	0.011424507945775986	0.031698308885097504	0.026028523221611977	-0.029538145288825035	0.016403768211603165	-0.012291979044675827	0.026759643107652664	0.00921865925192833	0.001431433716788888	-0.02102956734597683	0.06510712206363678	0.035061199218034744	-0.014065240509808064	0.018415948376059532	-0.02644127421081066	0.00880448054522276	-0.0027446493040770292	-0.0006842009606771171	0.0016458909958600998	0.017743680626153946	-0.0022060456685721874	
0.043451305478811264	0.050318822264671326	0.01628035679459572	0.020731860771775246	-0.022729482501745224	-0.02360953949391842	-0.027348412200808525	0.03592231869697571	-0.01162934210151434	-0.00344507466070354	0.007241658866405487	0.006956080440431833	-0.02368716523051262	-0.06483859568834305	-0.05875151976943016	0.029931066557765007	-0.007173615507781506	-0.015368197113275528	-0.004479421768337488	-0.03470909222960472	0.018241500481963158	0.03759409114718437	0.02357104979455471	-0.027704229578375816	0.04732364043593407	
8.452944894088432e-05	0.05326679348945618	0.03164787217974663	0.009440693072974682	0.030369620770215988	0.008827066980302334	0.011297670193016529	-0.0049919914454221725	-0.03781358152627945	0.014592221938073635	0.017783531919121742	-0.005631487350910902	-0.002811016049236059	-0.010223772376775742	-0.02902924083173275	0.015263782814145088	-0.03150882199406624	-0.010771211236715317	0.006997399963438511	0.008176958188414574	-0.002159117953851819	0.0497494675219059	-0.0379156731069088	-0.0015699637588113546	0.004989881068468094	
-0.030806785449385643	0.011740854009985924	-0.04055246338248253	-0.011745168827474117	-0.03284400701522827	-0.014347710646688938	-0.014901408925652504	-0.004519808571785688	0.042079925537109375	-0.019280292093753815	-0.008873735554516315	-0.08343487977981567	-0.043711915612220764	-0.02837059274315834	0.004068607464432716	-0.023258596658706665	-0.0011088623432442546	0.04820900037884712	0.02440464124083519	0.03461313247680664	0.018464066088199615	0.019720934331417084	-0.010689519345760345	-0.008381296880543232	-0.011473776772618294	
-0.01465892419219017	0.02416888251900673	0.007892416790127754	0.014694180339574814	-0.023275278508663177	-0.00623353524133563	-0.005339702125638723	-0.023971714079380035	0.036821987479925156	0.035967182368040085	0.004667523317039013	-0.010221483185887337	-0.033656325191259384	-0.009352349676191807	0.012423470616340637	0.04282340407371521	-0.006941893603652716	-0.01762465015053749	0.0019623918924480677	-0.001775703625753522	-0.0626668632030487	-0.0017977958777919412	-0.007670641411095858	-0.02272612601518631	-0.03252580389380455	
-0.017416294664144516	0.03165600076317787	-0.022329382598400116	-0.07864939421415329	0.030831823125481606	-0.010139841586351395	-0.039405111223459244	-0.012350394390523434	-0.02828933857381344	0.0033171442337334156	0.0016121210064738989	0.030206628143787384	0.014116021804511547	0.035738032311201096	0.00959551241248846	-0.039144743233919144	-0.006496306974440813	-0.04907499998807907	0.0048043616116046906	-0.014897901564836502	0.015604917891323566	-0.0025036497972905636	0.03073609620332718	0.024650417268276215	-0.002631882671266794	
0.007902626879513264	-0.007978743873536587	0.006532581057399511	-0.015023010782897472	-0.005093872081488371	-0.015945574268698692	0.021600665524601936	-0.006098732817918062	0.02175333723425865	0.016886906698346138	0.006000951398164034	-0.013951439410448074	0.04615354910492897	-0.0044358824379742146	0.019337106496095657	0.006708820816129446	-0.02583450637757778	0.015981819480657578	-0.009315995499491692	-0.018691617995500565	-0.008728032931685448	-0.004931009840220213	0.02426905930042267	-0.037637580186128616	-0.05153220146894455	
0.01664751023054123	-0.004862545058131218	-0.025278432294726372	0.0019098067423328757	0.00889559369534254	-0.018280554562807083	-0.03782012686133385	-0.06826306134462357	-0.009834549389779568	-0.038086723536252975	0.04637179896235466	-0.011073851957917213	0.003082886803895235	-0.020316461101174355	-0.02064288593828678	0.00207029702141881	0.01893681101500988	0.040248945355415344	0.0053811646066606045	-0.0011930580949410796	0.016740867868065834	-0.001325067481957376	0.007229889277368784	0.0035940499510616064	-0.014152780175209045	
-0.037085529416799545	0.03887509927153587	-0.04706241935491562	0.025822823867201805	-0.03185545653104782	-0.03784748539328575	-0.010736937634646893	0.018006086349487305	0.04837069287896156	0.006159891374409199	-0.030480293557047844	0.02598903886973858	-0.05386326462030411	0.03084968402981758	-0.003755672136321664	0.005813804920762777	0.0037800725549459457	0.046458180993795395	0.009671398438513279	-0.005432049743831158	-0.002156598959118128	0.01458863727748394	-0.006925682071596384	-0.035200085490942	0.06093471497297287	
-0.00927479937672615	0.006171040702611208	-0.05221565440297127	0.045639049261808395	-0.006725782062858343	-0.012755968607962132	-0.033119671046733856	0.030336502939462662	0.030892765149474144	0.00538416625931859	0.025411130860447884	-0.03850007802248001	0.02128550224006176	-0.03527593985199928	-0.018519600853323936	0.04633351415395737	0.023197557777166367	0.019418470561504364	-0.00035476716584526	0.0019396439893171191	0.0020112497732043266	-0.0016362990718334913	0.001175678800791502	0.0010522030061110854	0.023779990151524544	
0.044946469366550446	-0.007162634748965502	0.028557252138853073	-0.009328740648925304	0.012321610935032368	-0.03603154420852661	-0.01129710953682661	-0.017097627744078636	-0.004527299199253321	0.007690144702792168	-0.006333805155009031	-0.03149999678134918	-0.01959020271897316	0.005023897625505924	-0.06747022271156311	0.004175384528934956	0.05067114904522896	-0.0054997047409415245	-0.024909088388085365	0.04140134155750275	0.012360296212136745	0.03896069526672363	0.03820568695664406	0.025141267105937004	-0.013106811791658401	
0.025267669931054115	-0.022326568141579628	0.004016268998384476	0.028389813378453255	-0.014134319499135017	-4.1643157601356506e-05	0.03023121878504753	-0.057018257677555084	0.0015709097497165203	-0.02136780135333538	-0.01947311870753765	0.013358917087316513	0.00786224752664566	0.02322755753993988	0.022530345246195793	-0.02367503009736538	0.016534168273210526	-0.012031315825879574	-0.033217765390872955	-0.02893981710076332	-0.020485686138272285	-0.015592566691339016	-0.01324907224625349	0.026449885219335556	-0.03662298619747162	
0.01725132018327713	0.037989478558301926	-0.008668103255331516	-0.0028522100765258074	0.009508969262242317	0.0051469043828547	-0.025051690638065338	0.04082425311207771	0.0062076193280518055	0.004527994431555271	-0.001879810355603695	-0.014760306105017662	0.012022361159324646	-0.061606280505657196	-0.018177809193730354	0.02281091921031475	0.04121273383498192	0.02364114299416542	0.01795690692961216	-0.0014672689139842987	0.03765993192791939	-0.03836981579661369	-0.0018976826686412096	0.014489742927253246	0.005052193533629179	
0.010159286670386791	0.04300863668322563	0.015755247324705124	0.006878784392029047	-0.018553996458649635	-0.0018144961213693023	0.007204863242805004	-0.02232217974960804	-0.03158066049218178	-0.00029923429246991873	0.012764019891619682	-0.02170553244650364	-0.03351253271102905	0.009310160763561726	-0.029190046712756157	-0.00831384677439928	0.026399744674563408	-0.024087680503726006	-0.03144073113799095	0.01009629387408495	0.023287560790777206	0.0035764069762080908	1.136003356805304e-05	-0.04114806279540062	0.02091803401708603	
-0.022852588444948196	0.01621287316083908	0.05240688845515251	-0.03873932734131813	-0.0210436824709177	-0.00961786974221468	-0.014625154435634613	-0.010139575228095055	-0.016040533781051636	0.006837832275778055	0.029271705076098442	0.0006865576724521816	0.0010429677786305547	0.014239507727324963	0.020537380129098892	-0.025082645937800407	-0.01775939017534256	-0.024217575788497925	-0.014068321324884892	0.0011708007659763098	-0.03890576213598251	0.011281080543994904	0.02365046925842762	-0.016274984925985336	-0.0019479980692267418	
0.016006600111722946	-0.06758266687393188	-0.03945203870534897	-0.0023836265318095684	-0.03240683302283287	-0.047844044864177704	-0.0010570997837930918	-0.04234275594353676	0.006641102954745293	-0.0009015313116833568	0.00019923823128920048	0.024978775531053543	0.01459646224975586	0.007220419589430094	0.014548474922776222	0.02227817103266716	0.03613361343741417	-0.024269651621580124	0.017867058515548706	-0.002328084548935294	0.025884108617901802	-0.03477060794830322	0.019068362191319466	-0.010781642980873585	0.04840458557009697	
0.0005562315345741808	-0.026704933494329453	0.020017104223370552	0.037373483180999756	-0.004529837518930435	0.03118235617876053	0.010463252663612366	-0.03298007324337959	-0.04438120499253273	0.009376510977745056	0.013621323741972446	0.011407260783016682	0.011536309495568275	0.009028719738125801	-0.002763898577541113	0.003154157195240259	0.03651056066155434	0.03410276770591736	0.03232049569487572	0.018478306010365486	0.019628552719950676	0.007339508272707462	-0.01980418898165226	-0.00013140466762706637	-0.01311185210943222	
0.021716728806495667	-0.026030106469988823	-0.01808384247124195	0.005560761783272028	-0.010642060078680515	0.04159983992576599	-0.04123532027006149	0.009078879840672016	-0.05358795076608658	-0.03443867713212967	0.053520508110523224	-0.031413484364748	-0.006909387651830912	0.025769740343093872	0.0061250426806509495	-0.019318241626024246	-0.04469447210431099	0.003122792113572359	0.003805518615990877	0.009564551524817944	0.0323856957256794	-0.0020371510181576014	0.03295578807592392	0.06678692996501923	0.03564087301492691	
0.0038716746494174004	-0.030796457082033157	-0.013476983644068241	-0.03270556032657623	0.039398469030857086	-0.019330905750393867	0.014719950035214424	0.036321427673101425	-0.022549666464328766	0.028847066685557365	0.010063680820167065	0.002889302559196949	0.011733641847968102	0.03732090815901756	0.001406351337209344	0.015811458230018616	0.03410475328564644	-0.020968081429600716	-0.01034226082265377	0.018857037648558617	-0.016834164038300514	-0.005122205708175898	0.003771914169192314	0.0250919871032238	0.009841949678957462	
0.006323421839624643	0.035098861902952194	0.006668744143098593	0.04236013442277908	0.029439540579915047	0.010724972002208233	0.004488150589168072	0.015319829806685448	0.004893748089671135	-0.06504563987255096	-0.024176092818379402	0.0434156097471714	-0.008285495452582836	0.024208540096879005	-0.02401629276573658	0.04876682907342911	-0.006346843671053648	-0.020627539604902267	-0.019689951092004776	0.03444863110780716	-0.0006104762433096766	0.003192074364051223	0.02603675238788128	-0.019015418365597725	0.00390974385663867	
0.03622206300497055	0.023963307961821556	-0.006001344416290522	0.009344164282083511	0.025506876409053802	0.028132105246186256	-0.02377311885356903	-0.02559986338019371	0.020393282175064087	0.0676402747631073	0.004690159577876329	-0.009697354398667812	-0.00484481081366539	0.009180017746984959	-0.0024255847092717886	0.01727445423603058	-0.028333468362689018	-0.028444522991776466	0.015402908436954021	-0.011694379150867462	-0.016337642446160316	-0.043776385486125946	-0.02296440303325653	0.02507958747446537	-0.018328089267015457	
0.006619596853852272	-0.0042116097174584866	0.01964390277862549	0.012279180809855461	-0.013051707297563553	-0.021530328318476677	-0.009098175913095474	0.035091083496809006	0.0541117899119854	-0.03202866017818451	0.007118131034076214	-0.03135083243250847	-0.060014452785253525	0.008373072370886803	-0.03177739679813385	-0.04358576610684395	-0.013847790658473969	0.006068437825888395	0.02133670262992382	-0.06022408977150917	0.0019263022113591433	-0.012464025057852268	0.0014764181105419993	-0.027168022468686104	-0.06906144320964813	
-0.028572630137205124	-0.010841181501746178	0.029289262369275093	0.015750737860798836	0.03994925692677498	0.052877504378557205	-0.07643049210309982	0.014809989370405674	0.0008960355771705508	-0.038319654762744904	0.00633831275627017	-0.017966115847229958	-0.018671276047825813	-0.01195556204766035	-0.025194387882947922	-0.001395030994899571	-0.0011345873354002833	-0.02159585990011692	-0.015062589198350906	-0.05734547600150108	-0.00474046403542161	0.0041878302581608295	-0.01726486347615719	0.02156795561313629	-0.004721595905721188	
-0.014944208785891533	-0.008970736525952816	0.02463500015437603	0.0191474799066782	0.012098092585802078	-0.01884886622428894	0.0017363934312015772	-0.00929568987339735	0.0022535480093210936	-0.01812940090894699	-0.00441359169781208	-0.0023555306252092123	0.04210111126303673	-0.013742598704993725	-0.01802367903292179	0.026308925822377205	-0.02887304499745369	-0.00837390124797821	0.010521175339818	0.0023508784361183643	-0.017452986910939217	-0.024704942479729652	-0.03747635334730148	0.024450920522212982	0.014192580245435238	
-0.044599369168281555	-0.007512347307056189	0.026649076491594315	-0.01299598440527916	-0.010538757778704166	-0.010237638838589191	-0.006637390237301588	-0.019984805956482887	-0.04639974609017372	-0.0146047193557024	0.0006031805532984436	0.006042905617505312	-0.004605207126587629	0.011453197337687016	0.028312750160694122	-0.0006372366915456951	-0.015164163894951344	-0.005916357971727848	-0.055185988545417786	0.04061145335435867	-0.0007899745251052082	-0.009902946650981903	0.021090064197778702	-0.06345388293266296	0.023260997608304024	
0.05036935210227966	-0.00032467968412674963	-0.0009577527525834739	0.011218572966754436	0.07363434880971909	0.013608441688120365	0.00788062158972025	0.016329623758792877	0.009599690325558186	0.026069480925798416	-0.01657821051776409	-0.036846328526735306	0.009530371986329556	-0.04207852855324745	0.015399353578686714	0.013428089208900928	0.02314191497862339	0.0029420796781778336	0.0003178899933118373	0.0025168589781969786	-0.01429081428796053	-0.012916233390569687	0.00979290809482336	0.03682711720466614	-0.023885255679488182	
-0.016303109005093575	0.04633301496505737	0.030209658667445183	0.013630174100399017	-0.014153778553009033	-0.0030424047727137804	-0.04410975053906441	-0.013062236830592155	0.05423511192202568	0.017893629148602486	0.06792990118265152	-0.014858769252896309	0.004548659548163414	-0.04786881059408188	0.09920141845941544	-0.03910639137029648	0.02382824756205082	0.04899609833955765	0.03191850334405899	0.01454406138509512	-0.03471629321575165	-0.008374693803489208	-0.013721423223614693	0.011539056897163391	-0.013273445889353752	
0.05049765110015869	-0.015352001413702965	-0.01864091120660305	0.0047665550373494625	0.038017548620700836	0.00834179949015379	0.008916632272303104	-0.007677328772842884	-0.005640198942273855	-0.024465665221214294	0.02904810756444931	-0.015091785229742527	-0.005502461921423674	0.003888630075380206	0.01944766566157341	-0.004767129663378	0.0005938585964031518	0.004766129422932863	0.0114093953743577	0.014315256848931313	-0.0007286308100447059	0.03139866888523102	0.019544657319784164	0.006147910375148058	0.00828955601900816	
-0.02992597036063671	-0.02990722469985485	-0.00019947854161728173	0.019450902938842773	-0.057377882301807404	0.010984213091433048	-0.0334823913872242	0.03964106738567352	-0.013215123675763607	0.006827869452536106	0.015986764803528786	-0.025598006322979927	0.02041512541472912	0.002338944235816598	-0.039023786783218384	0.006234130822122097	-0.012140507809817791	0.019818659871816635	-0.016328543424606323	-0.006577354855835438	-0.029921527951955795	0.033847469836473465	-0.04791584238409996	0.051385585218667984	-0.0001725204347167164	
-0.02090488374233246	0.02394912950694561	0.02317364141345024	-0.008922981098294258	0.0012856373796239495	0.00476820720359683	-0.03169414401054382	-0.002982181031256914	0.0035206624306738377	-0.006921079475432634	0.013609491288661957	-0.003469297895208001	0.016041308641433716	-0.019334178417921066	-0.005330448038876057	-0.036591608077287674	0.009656146168708801	-0.005978122353553772	0.011482780799269676	0.023559408262372017	0.015245660208165646	-0.00550473015755415	0.00866836216300726	0.00020587020844686776	0.04605591669678688	
0.06799959391355515	-0.010538529604673386	-0.02647036500275135	-0.0241821501404047	0.010507962666451931	0.005672342609614134	0.01666215807199478	-0.014431077055633068	0.05453995242714882	0.02377443015575409	0.0156288780272007	0.0519099161028862	-0.01479208841919899	-0.0061971815302968025	0.029251251369714737	0.0021062628366053104	0.020247753709554672	-0.008645758032798767	-0.02572123520076275	-0.036622416228055954	-0.0002768449776340276	0.0005390962469391525	0.01336768176406622	0.030139070004224777	-0.00012598464672919363	
-0.009226793423295021	-0.01811397075653076	-0.0060408334247767925	0.03536068648099899	0.0034211899619549513	0.05679828301072121	0.009910575114190578	-0.057735998183488846	-0.014464491978287697	-0.0006627175607718527	0.0072218384593725204	-0.02119036763906479	-0.003049745224416256	-0.005919069983065128	0.03756704181432724	0.0029769600369036198	-0.016707278788089752	0.04536643996834755	-0.00975099764764309	0.02866256609559059	-0.028554122895002365	-0.03756009787321091	0.011280090548098087	-0.00023866354604251683	0.06284820288419724	
-0.017400454729795456	-0.0007566946442238986	0.0003031059168279171	0.017635071650147438	0.0031022189650684595	0.046998027712106705	0.039117150008678436	-0.00396293681114912	0.01220346987247467	-0.025263993069529533	0.033344369381666183	-0.026101863011717796	0.05140886828303337	0.058370064944028854	-0.0022280721459537745	-0.0035915779881179333	-0.012146254070103168	-0.0018017933471128345	-0.003821601625531912	-0.02037692256271839	-0.012707085348665714	-0.024065736681222916	-0.015850797295570374	0.02587028220295906	-0.0038823201321065426	
0.05843234062194824	0.015759333968162537	0.03160599246621132	-0.016619324684143066	0.019248168915510178	0.019278040155768394	0.013823731802403927	0.039019469171762466	0.047846533358097076	0.018912529572844505	-0.051703184843063354	-0.009882574900984764	0.021678011864423752	0.003685127478092909	0.025712253525853157	-0.006857137195765972	-0.05698411166667938	-0.03221669793128967	-0.008174076676368713	-0.003531375667080283	-0.0361478254199028	0.014894369058310986	-0.028708547353744507	-0.020586980506777763	-0.022428065538406372	
0.0018106437055394053	0.005091405473649502	0.0015196747845038772	0.02422218769788742	0.02014232985675335	0.003301094751805067	-0.013361255638301373	-0.030496131628751755	-0.006973602343350649	-0.024367637932300568	0.001573361223563552	0.010272258892655373	0.035732317715883255	0.007927747443318367	0.004999549128115177	0.009687860496342182	-0.01787027344107628	0.000584274937864393	0.00882862601429224	-0.009100919589400291	0.0034043085761368275	-0.00687714759260416	-0.020072536543011665	-0.021110203117132187	0.06962614506483078	
-0.03911764919757843	-0.016544658690690994	0.019709104672074318	-0.0321936272084713	0.0011473370250314474	0.027172982692718506	0.02491966262459755	-0.05501319468021393	0.059532906860113144	-0.016902981325984	0.028313761577010155	-0.0405985526740551	0.027971891686320305	0.060755759477615356	0.03125530108809471	0.019329089671373367	0.017374148592352867	0.008834194391965866	0.01232233177870512	0.0035034422762691975	0.02734922431409359	0.004909921903163195	0.0167836956679821	0.00523919053375721	0.0108922328799963	
-0.00933247059583664	-0.023364046588540077	0.004953433759510517	0.002336294623091817	0.011058156378567219	0.014189698733389378	0.026184702292084694	-0.001108539174310863	-0.031003553420305252	-0.026731060817837715	-0.02441363036632538	0.02402862347662449	0.022446025162935257	0.020390523597598076	-0.008372711017727852	-0.01942596212029457	-0.022033389657735825	-0.05251828208565712	0.04181566834449768	-0.011493956670165062	-0.0027516603004187346	-0.04478919878602028	0.009170662611722946	0.02471705712378025	-0.033447250723838806	
-0.00428935419768095	0.004447666462510824	0.0190791804343462	0.04099150747060776	0.03231683000922203	0.02098267525434494	-0.009001885540783405	0.017369508743286133	-0.04107844829559326	0.03106629103422165	0.021716831251978874	-0.0234809760004282	-0.011236181482672691	0.0642569437623024	-0.009419525042176247	-0.022179869934916496	-0.00874235201627016	0.006759710609912872	0.025270871818065643	0.021989163011312485	-0.0009728038567118347	-0.00849668588489294	-0.0013541816733777523	0.023836128413677216	0.01552886888384819	
0.01989719085395336	-0.004406865686178207	-0.006134707015007734	-0.024111375212669373	0.014521852135658264	-0.003258943324908614	0.015122598968446255	-0.033221252262592316	-0.0463123545050621	-0.021068831905722618	0.02212771214544773	0.006522772368043661	0.003136944957077503	-0.06276940554380417	0.03674307465553284	-0.008106842637062073	0.009311683475971222	-0.03618727624416351	0.01686619222164154	0.015387504361569881	0.02895955927670002	-0.020517582073807716	-0.005810714792460203	0.0017138844123110175	0.0438682958483696	
-0.02628197893500328	-0.04939678683876991	-0.025236187502741814	-0.015101481229066849	-0.0032054258044809103	-0.005135240498930216	-0.016605667769908905	0.003635396948084235	0.04628206416964531	-0.02187112718820572	-0.011091385968029499	-0.025567077100276947	0.006227658595889807	-0.030920743942260742	-0.003389333840459585	-0.01171391736716032	-0.04253502935171127	0.02727091684937477	0.01594049111008644	-0.05190228298306465	0.0030211948323994875	-0.041972145438194275	0.004415506962686777	-0.03278052806854248	-0.024714212864637375	
0.02271348237991333	-0.012442844919860363	0.019009334966540337	0.0257081501185894	-0.010311943478882313	0.00025844108313322067	0.03067420981824398	-0.0017911790637299418	0.015848170965909958	-0.018017152324318886	-0.006287955678999424	0.03145803138613701	0.00424183951690793	0.03809019923210144	-0.04058290272951126	-0.017803525552153587	0.025965385138988495	-0.05953870341181755	0.01501698512583971	-0.004011248238384724	-0.002324793953448534	0.027522679418325424	0.02440427429974079	0.03018132597208023	-0.02331630140542984	
-0.008783676661550999	0.011198051273822784	-0.05279049649834633	-0.011584225110709667	-0.04279114305973053	-0.025961462408304214	0.0043272580951452255	0.001548632513731718	0.022917382419109344	0.014965299516916275	-0.0014637866988778114	0.038047321140766144	-0.03395863249897957	-0.03670911490917206	-0.009026629850268364	0.0010987530695274472	-0.031209031119942665	0.006266267970204353	0.0498359240591526	-0.03156960383057594	-0.011653347872197628	-0.008851908147335052	-0.027395375072956085	-0.03785888850688934	0.00297746155411005	
-0.028981801122426987	-0.02613784745335579	-0.00858901347965002	-0.005873989313840866	0.02647918090224266	0.023805994540452957	-0.0302444938570261	0.03661366179585457	0.016205115243792534	-0.00922580249607563	0.01177590899169445	-0.01331979501992464	-0.018895592540502548	-0.0015370495384559035	0.03392994776368141	0.041927553713321686	0.03666314855217934	0.003998375032097101	0.034133270382881165	-0.002824111608788371	0.014852030202746391	-0.02129657007753849	-0.0021054015960544348	-0.023097116500139236	0.0028659706003963947	
0.023633698001503944	-0.03296880051493645	-0.01425901334732771	-0.04530913755297661	0.007255287375301123	0.06310849636793137	0.0017757612513378263	0.02274780161678791	-0.02539702132344246	0.02328549139201641	0.020008347928524017	-0.002899015787988901	-0.019620627164840698	0.01928003318607807	-0.0025683343410491943	-0.017568150535225868	0.014033849351108074	0.009959397837519646	-0.03313490003347397	-0.004929129499942064	-0.01506398618221283	-0.0058516934514045715	-0.03427042439579964	-0.011951051652431488	-0.04491061344742775	
0.01895442046225071	-0.006666780915111303	0.01453794352710247	-0.0026568248867988586	0.057518135756254196	0.024612149223685265	-0.08782505244016647	-0.0031527515966445208	0.0006191935972310603	-0.017948094755411148	-0.014571650885045528	3.815517629845999e-05	-0.01893872767686844	-0.006303798872977495	-0.004278885666280985	-0.013373175635933876	0.0002666018845047802	0.0077738650143146515	0.017441902309656143	-0.028907673433423042	-0.03612811863422394	-0.012637480162084103	0.04780871048569679	0.009584782645106316	0.0025630206800997257	
-0.0017641455633565784	0.028817497193813324	0.005721151828765869	0.028333386406302452	-0.03595530986785889	0.03196854889392853	0.01896626316010952	-0.04958615079522133	-0.01213586051017046	-0.01317052822560072	0.06861899048089981	0.028702115640044212	-0.0012219134951010346	-0.02252373844385147	0.0009373991633765399	-0.036779291927814484	0.014743653126060963	0.056603219360113144	-0.016225777566432953	-0.039315540343523026	0.015583088621497154	-0.006556736305356026	0.04330464079976082	0.0015784502029418945	0.0007343620527535677	
-0.026724958792328835	0.014032365754246712	0.012714170850813389	-0.01108530629426241	0.05246470868587494	-0.014909382909536362	-0.02266869880259037	0.008914804086089134	-0.006494317669421434	-0.03156042844057083	-0.022003943100571632	0.01759047992527485	-0.005078914575278759	0.05201791226863861	0.04099520668387413	0.0024065282195806503	0.00176059000659734	-0.01972063258290291	0.028956018388271332	0.052243225276470184	0.008468115702271461	0.009489470161497593	0.008024326525628567	-0.01155101228505373	-0.0438515767455101	
-0.02375638857483864	0.021400602534413338	-0.012731634080410004	-0.04847878962755203	0.01845616102218628	-0.014133657328784466	-0.029941238462924957	0.007463427260518074	-0.009267756715416908	-0.01810452714562416	-0.04842936620116234	-0.06454706937074661	-0.03249359875917435	-0.013669001869857311	0.00017105310689657927	0.026120604947209358	0.021963080391287804	0.014030379243195057	-0.006175623275339603	0.003081489820033312	0.032117970287799835	0.0284341499209404	0.028136620298027992	0.024344563484191895	-0.014658559113740921	
-0.012890580110251904	-0.014899800531566143	0.04172873869538307	-0.038954269140958786	-0.017734428867697716	-0.018174126744270325	0.0016088431002572179	-0.039984557777643204	0.008581604808568954	-0.023549668490886688	0.015872346237301826	0.018530797213315964	0.013261218555271626	0.04290781915187836	0.014462773688137531	-0.02537454478442669	0.028467170894145966	0.06161651015281677	0.006451478693634272	-0.0060906135477125645	0.018898876383900642	-0.01645256020128727	-0.007786192931234837	-0.009098385460674763	0.015336288139224052	
-0.00022900354815647006	-0.029038548469543457	-0.0040088677778840065	-0.009531875140964985	0.027827627956867218	-0.010591276921331882	0.021494554355740547	-0.015672288835048676	-0.05049449950456619	-0.0914861410856247	-0.005788275972008705	-0.03891115263104439	0.01808212138712406	0.07540939003229141	0.040739480406045914	0.02738012745976448	-0.02231459692120552	0.00395819079130888	-0.018750810995697975	-0.017977707087993622	-0.01324540376663208	0.013913680799305439	0.050795722752809525	0.00601393636316061	0.008619384840130806	
0.025868939235806465	-0.043288521468639374	-0.03692719340324402	0.006191704422235489	0.06007284298539162	0.010248162783682346	-0.05450941622257233	0.02633991464972496	-0.03649378940463066	0.0032250615768134594	0.012783899903297424	-0.003782616462558508	0.030533121898770332	0.024395864456892014	-0.00046467705396935344	-0.005783230531960726	-0.02701759897172451	0.04380405694246292	0.04435216262936592	0.06070593744516373	-0.01891770213842392	-0.016598138958215714	0.02081974409520626	-0.008829597383737564	0.02808346413075924	
0.01084601879119873	-0.0030873825307935476	-0.005361731164157391	-0.013326897285878658	-6.264192779781297e-05	-0.04988575726747513	0.014049454592168331	-0.010029722936451435	-0.0719812661409378	0.028614332899451256	-0.010480660945177078	-0.02473890595138073	0.0002895752841141075	-0.004678814671933651	-0.0034133458975702524	-0.0305697713047266	0.03520677238702774	-0.0067796180956065655	-0.003373884130269289	0.01837279461324215	-0.027272965759038925	-0.01114901714026928	0.006421301513910294	0.0047443159855902195	0.010125736705958843	
0.04708294942975044	-0.055230267345905304	0.005184425972402096	0.01117705274373293	-0.00634050602093339	0.01964857615530491	0.033144135028123856	-0.036603182554244995	0.002447160892188549	0.017258359119296074	-0.04696350172162056	-0.02814077027142048	0.04634934663772583	-0.04500598832964897	0.004264539573341608	0.012758994475007057	0.04210570082068443	-0.0005306494422256947	0.02203359082341194	-0.01967247575521469	0.019610470160841942	-0.0038231625221669674	-0.02940705046057701	0.03574126958847046	-0.03629129007458687	
0.03555839881300926	0.02622697874903679	-0.010511637665331364	0.02271927334368229	0.036460358649492264	-0.0596151128411293	-0.009870014153420925	-0.028580160811543465	0.05611885339021683	0.023097995668649673	-0.017192108556628227	-0.034427762031555176	0.04789410158991814	-0.009307445026934147	0.04577979817986488	-0.03498375043272972	0.06569160521030426	0.013395012356340885	0.00985011924058199	0.01094078179448843	0.04329124465584755	-0.006814979948103428	-0.05747086927294731	0.013481836766004562	0.05895230546593666	
0.0054074362851679325	-0.02041778899729252	0.024630598723888397	0.024632778018712997	0.001960077788680792	0.01591654308140278	-0.011401421390473843	0.007965470664203167	-0.011997859925031662	-0.012733068317174911	0.0029413250740617514	-0.02307143434882164	-0.03032243438065052	-0.053223397582769394	-0.041312262415885925	0.021853558719158173	-0.030096929520368576	0.01693165861070156	0.010551624931395054	-0.01571456901729107	-0.039934977889060974	-0.003695799270644784	0.003930264618247747	0.024970768019557	0.014986233785748482	
-0.02565852180123329	-0.006941650528460741	-0.010346776805818081	0.032492540776729584	0.0176878422498703	0.029648181051015854	0.013504981063306332	-0.011857442557811737	-0.021328143775463104	0.0020889751613140106	-0.0009495532722212374	-0.026285843923687935	0.0005925701698288321	0.0008687324589118361	0.002685555489733815	0.0017880192026495934	0.006694819312542677	0.0052207219414412975	0.0476824976503849	-0.03064187988638878	0.013833703473210335	0.037024348974227905	-0.03712484613060951	-0.012257419526576996	-0.005074308253824711	
0.005745410453528166	0.030000975355505943	0.017645003274083138	-0.014310107566416264	0.03366423025727272	-0.04038335010409355	0.013477964326739311	-0.024017686024308205	0.02014329470694065	0.009978434070944786	-0.057516731321811676	-0.012649301439523697	-0.007235254626721144	-0.003705108305439353	-0.010953256860375404	0.009149770252406597	-0.05215086787939072	0.028990143910050392	0.013631495647132397	-0.014613548293709755	0.03855567425489426	-0.010437438264489174	-0.03556132689118385	-0.02481340616941452	0.025876730680465698	
-0.06016559153795242	-0.007171937730163336	-0.020413070917129517	-0.04088633880019188	0.04888210445642471	-0.034862879663705826	0.005715545266866684	-0.004797000903636217	-0.03199215605854988	0.01138204988092184	-0.026678595691919327	-0.003536313772201538	0.008852961473166943	-0.03235704451799393	-0.0009336145594716072	0.0069727483205497265	-0.028329530730843544	-0.04333607107400894	-0.005116957705467939	-0.02983403392136097	0.02232826128602028	-0.0628097876906395	-0.005567682906985283	0.0662563219666481	-0.02688612788915634	
-0.004949607886373997	-5.346107718651183e-05	-0.01938634179532528	-0.010599308647215366	-0.00025963730877265334	0.028304550796747208	0.009934148751199245	-0.04354117438197136	-0.00530885998159647	0.010347158648073673	0.004587749019265175	0.06119824945926666	-0.03249705582857132	-0.013691081665456295	0.038065340369939804	0.017079878598451614	-0.031651683151721954	-0.02161078341305256	-0.0004867215466219932	0.030580755323171616	0.0313461534678936	-0.0037659420631825924	-0.03617249056696892	0.023359784856438637	-0.0639304593205452	
-0.034964509308338165	0.039022501558065414	0.061759818345308304	0.01710679940879345	0.02744017168879509	-0.0006697210483253002	-0.02212277241051197	0.00726532144472003	-0.0025387569330632687	-0.020699696615338326	-0.009568991139531136	-0.009918903931975365	-0.026405831798911095	0.023945678025484085	-0.03803011029958725	-0.012341069988906384	0.0094533059746027	0.013407878577709198	-0.004220760893076658	-0.012887267395853996	-0.02776278182864189	0.008129890076816082	0.03556382283568382	-0.004599393345415592	0.00511545967310667	
-0.013219489715993404	0.04610517993569374	-0.05945364758372307	-0.01996530033648014	-0.047780510038137436	-0.0014452332397922873	0.01320195384323597	0.004466554149985313	-0.03667056933045387	0.008665531873703003	0.006138172000646591	-0.018743500113487244	-0.018709449097514153	-0.044394899159669876	0.010503482073545456	0.020327940583229065	0.019134417176246643	0.05675452947616577	0.012197652831673622	0.009339461103081703	0.022749464958906174	-0.0071923136711120605	0.011137274093925953	0.021084649488329887	0.026801465079188347	
-0.017469272017478943	-0.005579753778874874	0.02278427593410015	-0.022229261696338654	-0.021780192852020264	0.021621283143758774	-0.06438085436820984	-0.00246460665948689	-0.04197144880890846	0.03039497882127762	0.006213086657226086	-0.02318866364657879	-0.017841903492808342	0.04144568368792534	0.00982606876641512	0.017670726403594017	-0.0025520266499370337	-0.004096688237041235	-0.01998264156281948	0.04856538772583008	0.023899083957076073	-0.04876677691936493	0.0016348507488146424	-0.008761794306337833	0.047241393476724625	
0.05279822647571564	-0.020301157608628273	-0.010693337768316269	-0.02555650658905506	0.020997053012251854	-0.04586929827928543	-0.00712442584335804	0.021036870777606964	-0.04665360972285271	0.018545862287282944	0.017773613333702087	0.0002560412394814193	-0.0052655646577477455	-0.013832276687026024	0.02970840223133564	-0.005052989814430475	-0.014572035521268845	0.01030382327735424	-0.01014536153525114	-0.039738673716783524	-0.023364584892988205	-0.0572364404797554	0.048336826264858246	0.00508498540148139	0.006284718401730061	
-0.007473569829016924	-0.01776421256363392	0.008611205965280533	-0.018428143113851547	0.022203613072633743	0.029286418110132217	-0.008725357241928577	-0.017297210171818733	0.03142794221639633	0.05533189699053764	0.0002719736366998404	0.032136350870132446	-0.011053966358304024	-0.005450040567666292	-0.03215892240405083	0.0035039514768868685	-0.07856576144695282	-0.04251827299594879	0.029910197481513023	0.03688261657953262	-0.012068623676896095	0.01110260933637619	0.003181545529514551	-0.000877178565133363	0.011149073950946331	
0.0007003335631452501	-0.09371426701545715	0.00573150347918272	0.00498738931491971	0.0228745024651289	0.026086105033755302	0.008329172618687153	0.004903972148895264	0.015507169999182224	0.014113110490143299	-0.022766243666410446	-0.024763839319348335	-0.004625850822776556	0.040732547640800476	0.01571067050099373	0.052706580609083176	-0.021053951233625412	0.02444002404808998	-0.042119480669498444	0.021340059116482735	0.0028640790842473507	-0.0022008297964930534	0.0005659619928337634	0.04301637411117554	-0.023594489321112633	
-0.038231123238801956	-0.01266180444508791	0.021574847400188446	0.009774880483746529	-0.0023788190446794033	-0.031205767765641212	-0.01167348399758339	0.0045759668573737144	0.012605763971805573	0.07239492982625961	0.041237443685531616	0.016679681837558746	-0.03156410902738571	0.001408861018717289	0.04453142732381821	-0.004162515513598919	0.010086901485919952	-0.005579435266554356	-0.012122061103582382	0.028923146426677704	-0.0046247150748968124	-0.05539226159453392	-0.02042865939438343	0.021438678726553917	0.04600081220269203	
0.00274942209944129	-0.030748723074793816	-0.005235882475972176	-0.0599304661154747	-0.02989266999065876	-0.033596765249967575	-0.0050027756951749325	0.00044250008068047464	-0.05342840030789375	0.04311702027916908	0.01824173890054226	0.031911902129650116	-0.013577982783317566	-0.03634266555309296	0.03785699978470802	0.057853031903505325	-0.032973479479551315	0.00021668682165909559	-0.04615873098373413	0.012967206537723541	-0.03176696226000786	-0.03231475502252579	-0.015656033530831337	0.01566515862941742	0.0226544588804245	
0.01634397730231285	-0.0012664810055866838	-0.02913266234099865	0.004106257576495409	-0.02409897744655609	0.04500133916735649	0.011612583883106709	-0.029309052973985672	0.03351651504635811	-0.000196637527551502	0.01750994473695755	-0.02004583552479744	-0.01489664800465107	0.024465888738632202	0.011563252657651901	0.018710805103182793	0.012711437419056892	-0.013965011574327946	0.04962175339460373	-0.017482414841651917	0.01544175948947668	-0.004193885251879692	0.024983089417219162	0.011321734637022018	0.03601884841918945	
0.006872543133795261	-0.04760172590613365	-0.026489684358239174	-0.01921946555376053	0.03055378794670105	0.015115881338715553	-0.01824924349784851	0.05966077372431755	0.03652549535036087	0.028049536049365997	-0.03126433491706848	-0.02046487107872963	-0.02052397094666958	-0.005564532242715359	0.027040529996156693	-0.005206099711358547	-0.020897073671221733	-0.08291308581829071	-0.014109005220234394	0.03528199717402458	0.020941894501447678	-0.033193934708833694	-0.00443793972954154	0.03368629515171051	-0.03630886971950531	
-0.012466199696063995	-0.018577447161078453	-0.006272311322391033	-0.009244338609278202	-0.014447030611336231	0.01872699335217476	-0.010895566083490849	-0.054879624396562576	0.011557635851204395	-0.0068230535835027695	0.01502074021846056	-0.022212058305740356	0.0051058619283139706	0.052007097750902176	-0.0023803391959518194	0.0333251953125	0.01840403862297535	-0.03854439780116081	0.013564391992986202	0.039824362844228745	-0.050810299813747406	0.021748503670096397	0.022654028609395027	-0.001458657206967473	-0.029381727799773216	
0.01982424035668373	0.000517177686560899	-0.010989801026880741	-0.062237318605184555	0.06216990575194359	-0.05963791906833649	-0.013585316948592663	0.02280500717461109	-0.024102814495563507	-0.012808372266590595	0.04789154604077339	-0.038676127791404724	0.00013418053276836872	-0.017009036615490913	0.007657719310373068	0.025490030646324158	0.01729743741452694	0.026247115805745125	-0.04474342241883278	0.013112286105751991	0.037531815469264984	-0.0033012221101671457	-0.011340462602674961	0.0013329978100955486	0.011626080609858036	
0.022174185141921043	0.009334657341241837	0.0380619615316391	-0.003267137333750725	-0.01863253302872181	0.027353165671229362	0.02190997637808323	0.014671046286821365	0.03436762094497681	-0.026458147913217545	-0.02987796999514103	-0.028009098023176193	0.013302895240485668	0.012902765534818172	0.047378893941640854	0.004690147470682859	-0.029265062883496284	0.06682953238487244	0.022873738780617714	0.04145234078168869	0.01679881662130356	-0.03159073367714882	0.01217921543866396	0.03767683729529381	-0.04466633126139641	
0.036084260791540146	-0.016291357576847076	-0.033965546637773514	0.011598162353038788	0.02423541247844696	0.00161187001504004	-0.004508554469794035	-0.043580781668424606	0.02510295808315277	-0.011813705787062645	0.021071186289191246	0.008441115729510784	-0.017544858157634735	-0.01382889598608017	0.00144966843072325	-0.010007642209529877	-0.0007324935286305845	-0.031389232724905014	0.031032182276248932	0.01698494330048561	-0.013932086527347565	-0.007255867123603821	0.0068206763826310635	-0.0014896541833877563	0.029520338401198387	
0.03355513513088226	-0.012998910620808601	0.011012176983058453	0.014911589212715626	0.013408660888671875	-0.007616305723786354	-0.04274013638496399	0.006412183865904808	0.04592983424663544	0.0025912874843925238	0.002489241771399975	-0.03854088485240936	-0.05663224682211876	0.021416500210762024	-0.04326678067445755	0.00044423193321563303	-0.011940661817789078	0.0018757240613922477	-0.030355459079146385	0.046807415783405304	-0.006079643499106169	-0.05187811702489853	0.020291363820433617	0.009680844843387604	-0.05048741027712822	
0.02059861086308956	-0.07478372752666473	0.02927970699965954	-0.015155973844230175	-0.019484341144561768	0.04281222075223923	-0.0038524053525179625	0.020375970751047134	-0.03894241154193878	-0.005560539197176695	0.025732461363077164	-0.010457233525812626	0.004916245583444834	-0.043861377984285355	-0.04661555588245392	0.0014443437103182077	0.04490341618657112	0.024425413459539413	-0.013105003163218498	-0.006995168514549732	-0.008392889983952045	0.012987824156880379	-0.007706169039011002	-0.0014075597282499075	-0.0001826128427637741	
0.0005381423397921026	0.0017710247775539756	-0.03948121517896652	0.022394100204110146	-0.026651520282030106	-0.01718050241470337	-0.03525647148489952	0.011298934929072857	-0.008425107225775719	0.027741752564907074	-0.03472219035029411	0.03908662870526314	0.019477689638733864	0.020025189965963364	0.03180340304970741	0.010025911033153534	0.025254005566239357	0.005841707810759544	0.05246078595519066	0.007602317724376917	0.040530264377593994	0.06764481961727142	0.0563981868326664	0.03544655814766884	0.03619817644357681	
0.047446295619010925	-0.018821610137820244	0.04092355817556381	-0.0110319210216403	-0.008784717880189419	0.006565216463059187	0.04347844421863556	-0.015133559703826904	-0.04460885003209114	-0.02322022058069706	-0.018836993724107742	-0.03015386499464512	0.002782727126032114	0.0333489291369915	-0.057070087641477585	-0.0006678341887891293	-0.008287475444376469	0.02923697419464588	0.023953666910529137	0.00039923208532854915	-0.048163458704948425	0.013714914210140705	-0.026809407398104668	-0.021461395546793938	0.014731025323271751	
0.06703303754329681	-0.03720221295952797	-0.020122354850172997	-0.009623313322663307	-0.024792997166514397	-0.019758636131882668	0.004967964254319668	0.009911751374602318	0.00417192280292511	0.03159055486321449	0.045893918722867966	0.03910624608397484	-0.055381517857313156	0.0001494096650276333	0.016008634120225906	-0.02568933367729187	0.02258560247719288	-0.007750762160867453	7.348431972786784e-05	-0.005003207828849554	-0.022393478080630302	0.0009467312484048307	-0.04082609713077545	4.5082349970471114e-05	0.012597748078405857	
-0.00871765986084938	-0.014810777269303799	0.04453209787607193	-0.0427422933280468	0.006134258583188057	0.029390905052423477	-0.012022354640066624	0.004999632015824318	-0.018963543698191643	0.013683459721505642	0.013878253288567066	0.03747091814875603	-0.019051561132073402	-0.05113276466727257	-0.004049492534250021	0.020721297711133957	0.013256142847239971	0.005815834738314152	-0.0032201597932726145	-0.005308161489665508	0.042417414486408234	0.022245436906814575	-0.020609457045793533	0.0002554577949922532	0.027064239606261253	

 
0.0	0.0	0.0	0.0	0.0	0.0	0.0	0.0	0.0	0.0	0.0	0.0	0.0	0.0	0.0	0.0	

 
-0.009295918978750706	0.01136708352714777	-0.0811980590224266	-0.15712545812129974	0.09411107003688812	0.06785386055707932	0.006407913751900196	0.021587850525975227	0.017159979790449142	-0.08726311475038528	0.006260453257709742	0.04338467866182327	0.09459248930215836	0.06985320895910263	0.037580788135528564	0.08115345984697342	0.012484569102525711	-0.005865813232958317	-0.012707837857306004	0.031033793464303017	-0.0335625484585762	0.027728945016860962	-0.0693814605474472	0.008855542168021202	0.02021796442568302	
-0.15515798330307007	-0.03894669935107231	0.04283273592591286	-0.08802700787782669	0.07266975939273834	-0.08737049996852875	0.03351419419050217	0.03553970530629158	-0.0840325728058815	0.03431536629796028	-0.04166703298687935	0.005137824919074774	0.0488160066306591	0.0016705316957086325	0.0067015960812568665	0.083420529961586	0.0005800329963676631	0.027110613882541656	-0.10659144073724747	0.004115631803870201	0.06912961602210999	-0.02995217964053154	0.007847811095416546	0.0625697672367096	-0.00946689024567604	
0.007663681171834469	0.0409306176006794	-0.0381014421582222	0.06981206685304642	0.0034658601507544518	-0.060408566147089005	-0.07935164868831635	-0.007273817900568247	0.017483828589320183	0.09941159188747406	0.09335502237081528	-0.05070725455880165	0.06367179751396179	-0.03369864076375961	0.08672995120286942	0.08329307287931442	-0.034811295568943024	0.04575449228286743	0.04731462895870209	0.038555681705474854	-0.12076588720083237	-0.12117575854063034	0.011362100020051003	-0.050611354410648346	-0.1525745540857315	
-0.008459975942969322	0.16236016154289246	0.011741923168301582	0.019463136792182922	-0.026333868503570557	0.006173324305564165	-0.0037277734372764826	0.00951709970831871	-0.029203660786151886	-0.04623178765177727	0.01281482633203268	-0.00416688434779644	0.046895116567611694	0.03737957775592804	0.004605545662343502	-0.028526760637760162	-0.04678374156355858	0.08497276902198792	-0.022275464609265327	0.030317671597003937	0.06642016768455505	0.054341595619916916	-0.07044963538646698	-0.0666336864233017	-0.025314070284366608	
-0.009991995990276337	0.04568830505013466	0.00453606154769659	0.024686656892299652	-0.1063605472445488	0.06093220040202141	-0.06317853182554245	0.04384162649512291	0.0515211783349514	0.011415798217058182	0.03355333209037781	-0.07421834766864777	-0.05923793464899063	-0.06726814806461334	-0.0033970007207244635	-0.14058133959770203	-0.05150409787893295	0.023402782157063484	0.01293924916535616	0.03441769629716873	-0.03555406630039215	-0.0670372024178505	0.02153499238193035	0.06162017583847046	-0.011994201689958572	
-0.028370192274451256	0.04662138596177101	-0.01610502228140831	0.039537496864795685	0.10747465491294861	-0.05686875432729721	0.08814483135938644	0.05522066354751587	-0.02681124582886696	-0.07515127211809158	-0.01396027859300375	-0.021998198702931404	-0.08264721930027008	-0.027805382385849953	0.025370752438902855	-0.05357284098863602	0.06969637423753738	-0.0800403580069542	-0.0453200526535511	0.09714445471763611	0.035046350210905075	-0.021570773795247078	-0.059228505939245224	0.04737269878387451	0.002638216596096754	
0.09213422983884811	-0.012117509730160236	0.0054709697142243385	-0.017662668600678444	-0.013327797874808311	0.09701381623744965	0.09167913347482681	-0.05019938200712204	-0.03479750081896782	-0.0739738941192627	-0.02761729620397091	-0.009172199293971062	0.015191382728517056	-0.00744139589369297	-0.09282614290714264	0.0442064106464386	0.0160506758838892	0.059143051505088806	-0.013958510011434555	0.014712992124259472	-0.03525226563215256	0.12523898482322693	-0.06725338101387024	0.04115821793675423	0.0008097245590761304	
0.09908503293991089	0.09759441763162613	-0.010276933200657368	0.043355900794267654	0.09311732649803162	0.01102517545223236	-0.058427970856428146	0.023674074560403824	-0.09044955670833588	0.016596635803580284	0.14156091213226318	-0.03053399734199047	-0.008679388090968132	0.08593951910734177	-0.0036402372643351555	0.05585657060146332	-0.04122323915362358	-0.01054295338690281	0.02139808051288128	-0.09992757439613342	0.006652131211012602	-0.11435827612876892	-0.11654281616210938	0.004353631287813187	-0.0014187984634190798	
-0.0816846713423729	0.007719085551798344	-0.10875053703784943	0.08424025028944016	0.008028436452150345	0.07760924100875854	0.08990698307752609	-0.1455577164888382	-0.04182732105255127	0.0658964142203331	-0.05214332044124603	-0.03650857135653496	0.03381543606519699	-0.017024027183651924	-0.04004158079624176	-0.024349775165319443	0.051121216267347336	0.004013483878225088	0.04878158122301102	-0.027226589620113373	-0.019789760932326317	0.036583323031663895	-0.06018620729446411	0.04982593283057213	0.011148999445140362	
-0.02849062718451023	0.03679728880524635	-0.0707310289144516	-0.02765706181526184	0.044636063277721405	0.0004885517410002649	-0.0848667100071907	-0.0016772522358223796	0.10963742434978485	-0.0022307513281702995	0.022617986425757408	0.0511324442923069	0.012349313125014305	-0.07720229029655457	0.01434672437608242	-0.10562603920698166	-0.08077351748943329	-0.03523218259215355	0.04185061901807785	-0.007997486740350723	-0.0075879390351474285	0.14204493165016174	-0.01872708648443222	0.02789452113211155	0.015260327607393265	
-0.047042783349752426	0.010638228617608547	-0.08072252571582794	0.06596796214580536	-0.01201577577739954	-0.07163279503583908	-0.02130279317498207	0.02242826297879219	0.05882452055811882	0.09641899168491364	0.004381721839308739	-0.014239668846130371	-0.08539526909589767	-0.11692003160715103	0.009350648149847984	-0.03556900843977928	-0.11687052994966507	0.0716816782951355	0.0137557964771986	-0.05607123672962189	0.024202516302466393	-0.030516980215907097	-0.035406798124313354	-0.0194963738322258	0.10723444819450378	
-0.022846322506666183	-0.0060640196315944195	-0.006590144708752632	0.016152791678905487	0.011402791365981102	-0.08503010869026184	-0.02370843105018139	0.09538168460130692	0.06905199587345123	-0.15261438488960266	-0.05311153829097748	-0.03289840370416641	0.035125017166137695	0.008343806490302086	0.009176214225590229	-0.06308445334434509	-0.054897379130125046	-0.03106215037405491	0.008487365208566189	0.014356590807437897	0.13496004045009613	0.049303632229566574	0.032060083001852036	-0.0778319239616394	0.09138289093971252	
-0.046479567885398865	-0.046903375536203384	-0.06011318042874336	0.012579874135553837	0.046249400824308395	-0.12091599404811859	-0.0746217891573906	-0.010318117216229439	-0.08102266490459442	-0.02178281918168068	-0.015934227034449577	0.07996581494808197	-0.004226862918585539	0.18964296579360962	0.014247884042561054	-0.03942846134305	-0.047632619738578796	-0.058913011103868484	-0.024750329554080963	0.04845651239156723	5.9893627621931955e-05	0.010749884881079197	0.03195225074887276	0.008767295628786087	0.007169155869632959	
0.026742298156023026	0.11606217920780182	0.03066960722208023	0.08360311388969421	0.03504978120326996	0.0002449318999424577	0.007273957598954439	-0.004572947975248098	-0.0013110028812661767	0.00664146663621068	-0.11560862511396408	0.0021535621490329504	0.07165262848138809	-0.032479915767908096	-0.12028072774410248	-0.018239429220557213	0.03077854961156845	-0.02210313081741333	-0.014169628731906414	0.015416430309414864	0.03925326466560364	0.0003595184243749827	0.04166235029697418	-0.0648680105805397	0.08790074288845062	
-0.052516233175992966	-0.10922910273075104	-0.02715458534657955	0.013819269835948944	0.0030684354715049267	0.06703614443540573	0.040855634957551956	-0.08157911151647568	-0.03742613270878792	0.04190857708454132	0.1227971538901329	-0.027357282117009163	-0.02148202247917652	0.09311869740486145	0.11189821362495422	0.10951582342386246	0.03608608618378639	-0.07783449441194534	0.05819910392165184	0.06425875425338745	-0.07022009789943695	-0.12943978607654572	0.10876577347517014	0.12960858643054962	-0.14235030114650726	
-0.06074611097574234	-0.030015794560313225	-0.029430823400616646	0.10106946527957916	0.08726157248020172	0.11723505705595016	-0.03905842453241348	0.10497049987316132	0.07671725004911423	0.1062685176730156	0.03837979584932327	-0.028273919597268105	0.007973629981279373	0.0004873997822869569	0.00987546518445015	0.017804758623242378	-0.035745058208703995	-0.016702575609087944	-0.03883707895874977	-0.0641704797744751	0.1627325862646103	-0.01891998201608658	0.03977985680103302	0.04868604242801666	0.018831517547369003	
-0.02593434602022171	0.04660652205348015	0.061487771570682526	0.046330519020557404	-0.09042106568813324	-0.06740526109933853	-0.07908819615840912	0.06965015828609467	0.07668735831975937	0.009537551552057266	0.005905897356569767	-0.05124557018280029	-0.026736918836832047	0.039889320731163025	0.007980892434716225	0.027030745521187782	-0.060291264206171036	0.06066758930683136	-0.02075117640197277	0.05802689492702484	-0.11860862374305725	0.09029199928045273	-0.03744572028517723	0.004319929517805576	0.003761943429708481	
-0.05141438916325569	0.054217055439949036	-0.09941121190786362	-0.014597739093005657	-0.022277669981122017	0.07023267447948456	-0.05961674451828003	-0.023715790361166	-0.01964876987040043	0.025608547031879425	-0.01728948950767517	0.09678859263658524	-0.0636395514011383	-0.016845788806676865	0.04905429854989052	-0.07163766026496887	0.08163941651582718	-0.06189483404159546	-0.04118912294507027	-0.0396914966404438	-0.045155566185712814	-0.05744355171918869	-0.15506085753440857	0.06153164803981781	0.030524464324116707	
0.07650361210107803	0.08840984851121902	0.010144042782485485	0.030359536409378052	0.07403426617383957	0.05405842885375023	-0.051251765340566635	-0.020446132868528366	-0.1685713231563568	0.05074398219585419	-0.05112900212407112	0.10274196416139603	0.042159005999565125	0.014190063811838627	-0.0352986641228199	-0.15372204780578613	-0.03602643311023712	0.12765802443027496	-0.0030576621647924185	0.002096384996548295	-0.019931191578507423	0.02677062340080738	-0.00860375352203846	-0.10844071954488754	0.10930515080690384	
0.029337959364056587	0.036277517676353455	0.05578476935625076	0.07124800980091095	0.03635270148515701	0.07214919477701187	-0.0018147713271901011	-0.042688410729169846	-0.05790144205093384	0.048795755952596664	-0.03390048071742058	0.03997378051280975	-0.0031757280230522156	-0.06569495797157288	-0.13792532682418823	-0.006534941960126162	0.04537201672792435	-0.07587099075317383	-0.02997080236673355	0.002601157408207655	-0.059709932655096054	-0.1233886107802391	-0.07061288505792618	0.02462822012603283	0.07117827981710434	
-0.05368387699127197	0.060217928141355515	0.05431528761982918	0.11908083409070969	-0.12108219414949417	0.02543582394719124	-0.04287751391530037	0.06486137211322784	0.024025021120905876	-0.14859409630298615	0.0049830228090286255	-0.005738619714975357	0.011651918292045593	-0.0370321087539196	-0.05493059381842613	-0.0036920346319675446	0.07490786910057068	-0.037727322429418564	-0.049016568809747696	0.17154060304164886	0.09284919500350952	0.10564829409122467	0.03667670115828514	-0.05664962902665138	-0.06377194821834564	
-0.03501571714878082	-0.014519439078867435	-0.09446636587381363	-0.014197397977113724	0.056597817689180374	0.033216021955013275	0.1119411364197731	0.07201716303825378	0.019604690372943878	-0.030255485326051712	-0.029477156698703766	-0.03868423029780388	0.005198391620069742	0.05265967175364494	-0.17616060376167297	-0.1355263888835907	-0.054516322910785675	0.06891626119613647	0.0031704995781183243	0.014813367277383804	0.10956799238920212	-0.004593810997903347	-0.023804612457752228	-0.0005949077312834561	-0.06525786966085434	
0.06752519309520721	0.02466481551527977	0.026604995131492615	-0.07663512974977493	0.11524851620197296	0.03711186349391937	-0.11982373893260956	0.08661574870347977	-0.08441658318042755	0.09695447981357574	-0.11592660844326019	-0.1456238031387329	-0.09159434586763382	-0.08896006643772125	-0.14619094133377075	0.043253932148218155	0.025289632380008698	0.06378542631864548	0.008378582075238228	0.02028542384505272	0.052276611328125	-0.012459896504878998	0.046303536742925644	0.09597679227590561	-0.10775566101074219	
0.07232736796140671	0.06896677613258362	-0.0021373010240495205	-0.057206571102142334	0.06770988553762436	0.04319847375154495	0.06799574196338654	-0.01646145060658455	-0.05485902354121208	0.07040820270776749	0.08789036422967911	0.016793427988886833	-0.045838113874197006	0.06645716726779938	-0.09690743684768677	0.01306306105107069	0.08935181796550751	0.02167302370071411	-0.01509056892246008	0.03291325271129608	-0.048000629991292953	0.0692804604768753	-0.04131719470024109	-0.07868444919586182	-0.030662894248962402	
-0.039580825716257095	0.15094219148159027	-0.023748036473989487	-0.08717862516641617	-0.007998851127922535	0.04893769323825836	-0.08455611020326614	0.09141724556684494	-0.07931523025035858	0.01505736168473959	-0.014283484779298306	-0.0009197854669764638	-0.03011316806077957	0.014012705534696579	0.0009924436453729868	0.010908780619502068	0.04931133612990379	0.02556057646870613	-0.06063571572303772	0.05319138988852501	0.084315724670887	-0.06455226987600327	0.11422175914049149	0.14008958637714386	-0.023895934224128723	
-0.0457705557346344	0.02767486311495304	-0.03721975162625313	0.07645992189645767	0.006870409473776817	-0.03961178660392761	0.07317158579826355	-0.008680315688252449	0.04439258947968483	0.0027714648749679327	0.08965607732534409	0.008521887473762035	-0.04192982614040375	0.016510317102074623	-0.05860598012804985	-0.01294377539306879	-0.0611664280295372	0.04140187427401543	0.04349268600344658	0.11199294775724411	0.0204874649643898	-0.04909087345004082	-0.008890435099601746	-0.03055569902062416	0.022292843088507652	
0.01366973202675581	-0.03955374285578728	-0.0683782547712326	0.01616770401597023	0.025558872148394585	-0.03523612022399902	0.04596840962767601	-0.07761003822088242	0.040141839534044266	-0.03783014416694641	-0.011143743991851807	0.061207365244627	0.057223882526159286	-0.09253227710723877	-0.09123710542917252	0.024224450811743736	-0.07364282011985779	-0.10631144791841507	0.007446275558322668	-0.06320187449455261	0.003665694734081626	0.04489174112677574	0.05617941915988922	0.06975232064723969	-0.012709704227745533	
-0.045489758253097534	-0.05508391931653023	0.06928925961256027	-0.04333655536174774	0.07574740797281265	-0.015174416825175285	-0.001634974149055779	0.03709746524691582	-0.017031623050570488	-0.07237277179956436	0.024487392976880074	-0.04652252420783043	-0.07374615222215652	0.0859089344739914	0.032480865716934204	-0.02562398463487625	-0.02736988477408886	-0.062349751591682434	0.08284694701433182	-0.14351032674312592	0.06583605706691742	0.10813137888908386	0.03262640908360481	0.07348152995109558	-0.08490758389234543	
0.0733647570014	0.011928398162126541	-0.015803257003426552	0.020973052829504013	0.04641921445727348	-0.005034725181758404	0.06691988557577133	-0.06616628170013428	0.0556817501783371	0.012190214358270168	0.14658012986183167	-0.05551862344145775	-0.007543517742305994	-0.03326653316617012	0.012180673889815807	0.07376862317323685	-0.1454966813325882	-0.09573247283697128	-0.14322079718112946	0.054753001779317856	-0.008098279125988483	0.0650663822889328	0.09611640870571136	-0.04424695298075676	-0.04084455221891403	
0.017695577815175056	-0.012035139836370945	0.032766856253147125	0.06272713840007782	0.00011713623098330572	-0.11072301119565964	0.07012912631034851	0.04070506617426872	-0.020632194355130196	-0.008056770078837872	0.05247269570827484	0.1173858493566513	-0.1179652288556099	0.08560927212238312	0.03816266357898712	0.00789947435259819	0.016165059059858322	0.017659325152635574	0.020049501210451126	-0.0008797942427918315	0.083515964448452	0.10582586377859116	-0.056276511400938034	-0.011843935586512089	-0.02982301265001297	
-0.0290709026157856	0.010164057835936546	-0.05075757950544357	-0.04583779349923134	0.05617295205593109	0.04413369297981262	-0.012449150905013084	-0.03110319934785366	-0.04689427465200424	-0.06938636302947998	-0.030753489583730698	-0.0743117555975914	0.04550092667341232	-0.09469926357269287	0.05781668424606323	0.03316487371921539	-0.062477000057697296	0.03747791424393654	0.04858109727501869	0.022352958098053932	-0.02370968833565712	-0.044977203011512756	0.01979307271540165	-0.02242426387965679	-0.1265343874692917	
0.04655241593718529	0.013756824657320976	0.01947587914764881	0.047255370765924454	0.04320796579122543	0.029760340228676796	-0.030410410836338997	-0.0330251045525074	0.04288368672132492	-0.007680560927838087	0.013463417068123817	-0.04244847968220711	0.07217726111412048	0.04117926210165024	-0.0557701475918293	0.15901224315166473	0.04390875622630119	0.05503174662590027	0.10749500244855881	-0.1029496043920517	-0.010071948170661926	-0.06626936793327332	-0.00911551434546709	0.07535109668970108	-0.044218603521585464	
-0.04965999722480774	0.11767245829105377	0.05442836508154869	0.02603178471326828	-0.04216368496417999	-0.03061714768409729	-0.00460625346750021	0.028597570955753326	0.021719729527831078	0.05024657025933266	-0.0556211993098259	-0.056785669177770615	-0.13467013835906982	0.02187773771584034	-0.09553377330303192	0.017351854592561722	0.10015032440423965	-0.09178034961223602	0.009654262103140354	-0.07096374034881592	0.01266756933182478	-0.085093654692173	0.02241593599319458	-0.06149929761886597	0.0735711008310318	
-0.020241614431142807	0.028026530519127846	-0.05708863213658333	0.020179828628897667	-0.014504601247608662	-0.01721431314945221	-0.1663716584444046	-0.019272146746516228	-0.07689724117517471	0.04181220754981041	0.014532551169395447	-0.015811974182724953	-0.007459266111254692	-0.015420528128743172	-0.0182882621884346	0.018634295091032982	0.08158984780311584	0.07247436791658401	0.04362983629107475	0.056180190294981	0.2246469408273697	-0.04440702870488167	0.014888128265738487	-0.031023595482110977	-0.062176723033189774	
-0.0035083238035440445	-0.009273945353925228	-0.03342851623892784	-0.1711525321006775	-0.07998993992805481	0.02218155935406685	-0.0737963393330574	-0.06148455664515495	-0.10259070247411728	0.01776725985109806	-0.21720464527606964	0.11274592578411102	0.0037052726838737726	0.037222880870103836	0.006709862034767866	0.022829215973615646	-0.05424764007329941	-0.06306178122758865	-0.034636490046978	0.03027815744280815	0.014425567351281643	-0.05679182708263397	0.07479415088891983	0.061218760907649994	0.060850322246551514	
0.0437963604927063	0.014638185501098633	-0.002284091664478183	0.009951732121407986	0.054151758551597595	0.003904287936165929	0.03085564449429512	0.02158363349735737	0.0880250483751297	0.15282529592514038	-0.054191961884498596	0.16251853108406067	-0.0018802573904395103	-0.019000088796019554	-0.0029723453335464	0.010468530468642712	-0.04064612835645676	0.006616734433919191	0.003220148617401719	-0.0019537112675607204	0.07179493457078934	0.057884395122528076	-0.016558151692152023	-0.06467767804861069	0.04985205456614494	
0.039157718420028687	-0.04894524812698364	0.06630485504865646	-0.03350762650370598	-0.14627113938331604	-0.00354163465090096	0.08070657402276993	0.03697526454925537	-0.1274954229593277	-0.0010244754375889897	0.004495310131460428	0.07410959154367447	0.06266926974058151	-0.05897728353738785	-0.010303656570613384	0.04723569378256798	-0.11754243820905685	-0.014218431897461414	-0.09507567435503006	0.024499772116541862	0.048171304166316986	0.03108219988644123	0.03099661134183407	-0.05838773399591446	-0.03996916115283966	
-0.03004627302289009	0.05119495466351509	-0.015371734276413918	0.029752621427178383	0.056827887892723083	-0.036580249667167664	-0.047561559826135635	0.0037212183233350515	0.030736206099390984	-0.1181650310754776	-0.06449731439352036	0.017403440549969673	-0.03815104439854622	-0.00912120845168829	-0.02484804578125477	-0.10731644928455353	0.032420266419649124	0.087703175842762	-0.08183944970369339	-0.08727570623159409	-0.11433161050081253	-0.010577802546322346	0.06735645234584808	-0.18358133733272552	0.08992204070091248	
-0.00624176487326622	-0.01542686764150858	-0.11859752982854843	-0.01720857433974743	0.1347276270389557	0.10545457899570465	0.11244048923254013	0.0029713765252381563	0.03269946575164795	-0.046238984912633896	-0.03656988590955734	0.0002068703033728525	-0.0641259029507637	0.03962932899594307	-0.13348044455051422	0.0716463103890419	-0.08332467824220657	0.013855860568583012	0.0016992319142445922	-0.05955185368657112	-0.06516366451978683	0.006648077163845301	-0.008432208560407162	0.06850821524858475	-0.03950216621160507	
-0.02966010570526123	0.0033779009245336056	0.06717893481254578	0.019391968846321106	0.0027957537677139044	0.10251547396183014	-0.035412367433309555	0.0679393857717514	0.10744787007570267	0.014888565056025982	0.027552755549550056	0.04727157577872276	0.1313212662935257	-0.057042378932237625	-0.027494026347994804	0.03456858545541763	-0.025963766500353813	0.021120639517903328	0.010544642806053162	0.06657064706087112	-0.01585378870368004	0.009222907945513725	0.013998220674693584	0.061197664588689804	-0.04151276871562004	
-0.018442129716277122	0.024329856038093567	0.01581631600856781	-0.010532576590776443	-0.03971138969063759	-0.011409148573875427	-0.006845581810921431	-0.017524847760796547	-0.0975775495171547	-0.003969160374253988	-0.08903104811906815	-0.023779787123203278	-0.0281841978430748	-0.01760868728160858	-0.10035403072834015	0.06373509019613266	-0.025252878665924072	0.026229823008179665	0.0463796891272068	0.004081833641976118	-0.0032773478887975216	0.11559620499610901	0.002904517576098442	-0.08048994094133377	0.039798010140657425	
-0.11257652193307877	0.11863404512405396	-0.029365751892328262	-0.16323140263557434	-0.04086429998278618	-0.04054384306073189	-0.03583179786801338	0.04335923492908478	0.019565805792808533	0.08854706585407257	-0.026522109284996986	-0.025334380567073822	0.028058690950274467	0.026948124170303345	-0.08216436952352524	-0.019207095727324486	0.06280405819416046	0.06385616958141327	0.08881819248199463	0.07070698589086533	-0.059647951275110245	0.024786867201328278	0.03148537129163742	0.03092629462480545	-0.048196375370025635	
0.019644655287265778	0.041831113398075104	0.03938673064112663	0.03637142851948738	-0.04565935581922531	-0.08879420161247253	0.10364837944507599	-0.0009869904024526477	0.11356590688228607	-0.058556269854307175	0.013864792883396149	0.027718864381313324	0.08117417246103287	-0.1079033762216568	0.0021523265168070793	0.04156388342380524	-0.015878591686487198	-0.09663859009742737	0.04250390827655792	-0.07554063946008682	-0.06253174692392349	-0.051096897572278976	-0.16733747720718384	0.008239665068686008	-0.031907230615615845	
-0.02470521442592144	0.09401062875986099	-0.029635032638907433	-0.00339498626999557	0.07124964147806168	0.02528238669037819	0.013799034059047699	-0.02869720570743084	-0.03229684755206108	0.01920527033507824	0.014442347921431065	-0.05818135291337967	0.030728206038475037	-0.10449071228504181	-0.002735814778134227	0.07894787192344666	-0.031090376898646355	-0.0849556177854538	0.008349568583071232	-0.08643226325511932	0.024005264043807983	0.04001855477690697	0.004546062555164099	0.0037340475246310234	0.04784093797206879	
-0.06389599293470383	-0.017557093873620033	0.002697115298360586	0.022905457764863968	-0.033799659460783005	-0.05845518037676811	0.011616206727921963	0.09253518283367157	0.048838503658771515	0.03458378091454506	-0.08727483451366425	0.07298322021961212	0.11804993450641632	0.007959025911986828	0.001359436777420342	0.06715337932109833	-0.09582357108592987	0.0002994028909597546	-0.04285654053092003	-0.009907220490276814	0.10721254348754883	-0.01472607534378767	0.09544692188501358	-0.09831786900758743	0.047778744250535965	
-0.11845727264881134	-0.12248916923999786	-0.0027273627929389477	-0.011798328720033169	-0.10949479043483734	-0.010638740845024586	-0.06710631400346756	0.08843664079904556	0.059202004224061966	-0.04831065237522125	-0.07227721810340881	-0.04617609828710556	0.027593478560447693	-0.08326918631792068	-0.023892804980278015	-0.0023873045574873686	-0.00031889259116724133	0.013864152133464813	-0.04102937877178192	0.1676425039768219	-0.0464833565056324	0.0067284004762768745	-0.03739339858293533	-0.002730187028646469	-0.06384365260601044	
-0.055731937289237976	0.04922210052609444	-0.018343335017561913	-0.1517128199338913	0.07464172691106796	-0.007455655373632908	0.014083165675401688	0.12944158911705017	0.031642355024814606	0.11630398780107498	-0.050124213099479675	0.06386163830757141	0.048249952495098114	-0.045505374670028687	-0.112762451171875	0.015938719734549522	-0.07691334933042526	0.056478895246982574	-0.05648627504706383	-0.08312234282493591	-0.08451530337333679	-0.1173650398850441	0.06150396168231964	0.05036734789609909	0.021078767254948616	
0.06704903393983841	-0.02900685742497444	-0.009371791034936905	-0.02161087468266487	0.0696209967136383	-0.05293205380439758	-0.021096115931868553	0.035318147391080856	0.02734542079269886	-0.06343967467546463	0.05109037831425667	0.00146020099055022	-0.03763579577207565	0.14127439260482788	0.1074572429060936	0.06891977787017822	-0.0031887085642665625	-0.016070181503891945	-0.023118827491998672	-0.048213664442300797	-0.07814520597457886	0.009093435481190681	-0.06564223021268845	-0.06576555222272873	-0.10000813752412796	
0.08282449096441269	-0.06632807850837708	-0.031676508486270905	0.07861309498548508	-0.06980951875448227	-0.04580644890666008	0.028218720108270645	-0.0037174997851252556	0.0854458436369896	-0.06379369646310806	0.021805020049214363	0.05441807210445404	-0.04487038031220436	-0.06947970390319824	0.06062750890851021	0.07537524402141571	0.02780616655945778	0.0491972416639328	-0.08265455812215805	0.08917821198701859	-0.09460844099521637	-0.03218492120504379	0.07133995741605759	-0.12352541089057922	0.05070953816175461	
0.012444620952010155	-0.0015377948293462396	0.020596330985426903	-0.014714985154569149	-0.03382832184433937	0.022171473130583763	-0.007033633533865213	0.0033939327113330364	-0.041966747492551804	-0.056004758924245834	0.006222791038453579	-0.01129164919257164	0.02733658440411091	-0.0051864804700016975	0.04572626203298569	0.04583826661109924	0.10091865807771683	-0.04460884630680084	0.009007417596876621	-0.035627782344818115	0.024088602513074875	-0.023720942437648773	0.03625636175274849	0.030593307688832283	-0.018676696345210075	
0.08160236477851868	-0.047032490372657776	-0.05852124094963074	0.047145478427410126	0.08048836886882782	-0.06206488236784935	-0.0487588495016098	0.13231223821640015	0.016332805156707764	0.09160381555557251	0.05786050856113434	0.003993729595094919	0.0008011190802790225	-0.0005323408986441791	-0.052985839545726776	-0.011918553151190281	0.03536886349320412	0.05353230983018875	-0.04727720841765404	-0.07944749295711517	0.08812239021062851	-0.03634507209062576	0.05076734721660614	0.05198584124445915	-0.08441245555877686	
0.0014234788250178099	-0.06230158358812332	0.014444731175899506	-0.06874742358922958	0.005441846325993538	-0.03593897819519043	0.025720996782183647	-0.051534559577703476	0.04426603391766548	0.08557789772748947	0.04963452368974686	-0.11646939814090729	0.010393091477453709	0.04334908723831177	0.12130635231733322	-0.07527055591344833	0.045044105499982834	0.0845869854092598	0.02294628694653511	-0.0070552583783864975	0.0429975800216198	-0.04419051855802536	0.05611279606819153	0.008681431412696838	-0.06463427096605301	
-0.025563521310687065	0.0011244495399296284	-0.09714869409799576	0.024164440110325813	0.03991084545850754	0.04156308248639107	0.05178516358137131	0.08910946547985077	0.05070983245968819	-0.07401464134454727	-0.0596669502556324	-0.09086579084396362	0.018841320648789406	-0.09315134584903717	0.031224912032485008	0.02320828102529049	0.018613383173942566	-0.027820920571684837	-0.07145856320858002	-0.0012942510657012463	0.09665484726428986	-0.05755796656012535	-0.0560690201818943	-0.0551205612719059	0.09745848923921585	
-0.03107963502407074	-0.03879496455192566	0.04143586382269859	0.0887705385684967	0.04026975855231285	-0.015967102721333504	-0.0556100532412529	-0.061469629406929016	0.04633091390132904	-0.060116227716207504	-0.04377801716327667	0.08884977549314499	-0.05539153516292572	-0.0945628210902214	-0.0340261310338974	0.01248399168252945	0.014067175798118114	0.04536272957921028	-0.0742284506559372	0.06982427835464478	0.020976144820451736	0.04511012136936188	0.09814273566007614	0.018515966832637787	-0.04079897701740265	
-0.029256731271743774	0.02510124258697033	0.04983449727296829	-0.04969969764351845	-0.10032279789447784	0.1514257937669754	0.08597924560308456	-0.008524520322680473	-0.011760853230953217	-0.002031277632340789	-0.10965360701084137	0.03241562098264694	-0.06048288196325302	0.1046784296631813	-0.04314263164997101	-0.04984752833843231	-0.038279011845588684	-0.045649681240320206	-0.07618358731269836	-0.04605100303888321	-0.010672692209482193	-0.02709195390343666	-0.10287967324256897	-0.0035017146728932858	0.029551010578870773	
-0.013258963823318481	-0.03555698320269585	0.0847700834274292	-0.05008808895945549	0.06694957613945007	-0.015429590828716755	0.07102470099925995	0.0693327859044075	-0.037058085203170776	0.019609756767749786	-0.0013123344397172332	0.019103266298770905	0.0659128949046135	-0.19448518753051758	0.028995631262660027	0.047086961567401886	0.010843005031347275	0.10227929800748825	0.07261800020933151	0.026580117642879486	-0.01435121800750494	0.030832439661026	-0.0011234261328354478	0.011544058099389076	0.05656122788786888	
0.06497164815664291	0.039021991193294525	-0.03542117401957512	0.05461879074573517	0.07067450135946274	-0.02530142478644848	0.1321641355752945	0.058415450155735016	-0.02343829534947872	-0.059884414076805115	0.004754545632749796	0.05365457013249397	-0.1603744924068451	-0.001334698055870831	0.0003687220741994679	-0.007761885412037373	-0.09008916467428207	0.02215842716395855	0.06576017290353775	-0.017870325595140457	-0.02282606065273285	-0.03418055549263954	0.03797585889697075	-0.07661303132772446	0.05564062297344208	
-0.12524369359016418	-0.03714839741587639	0.0012932964600622654	0.15222668647766113	0.007914535701274872	0.020584633573889732	-0.002157534472644329	-0.05838698893785477	-0.019589239731431007	0.045533858239650726	-0.05501711368560791	-0.005163565278053284	0.05922037735581398	0.009323084726929665	0.05048872530460358	0.04630633816123009	-0.03209700062870979	0.03975607454776764	0.008779199793934822	0.06481636315584183	0.010477188043296337	-0.07290222495794296	0.0903710350394249	0.038250867277383804	0.04076968505978584	
-0.012618127278983593	-0.04419061914086342	0.04936027154326439	0.005795276258140802	0.05946309119462967	-0.05512435361742973	0.01476423442363739	8.351861470146105e-05	-0.050450559705495834	0.11007024347782135	0.011859924532473087	0.05607571825385094	-0.030530009418725967	-0.17826636135578156	0.06790777295827866	-0.05130339786410332	0.0014677601866424084	-0.046750038862228394	-0.006245292257517576	-0.014275926165282726	-0.10673819482326508	0.07460236549377441	-0.024206306785345078	0.08222083747386932	0.055217426270246506	
0.08141066879034042	0.001429484342224896	0.025411052629351616	-0.058575741946697235	-0.0709078386425972	-0.03910870850086212	-0.043537210673093796	0.08561629056930542	0.027036726474761963	-0.014241908676922321	-0.03125012665987015	-0.014181258156895638	-0.015994645655155182	-0.049545176327228546	-0.006448314059525728	-0.03130992501974106	0.03707952797412872	-0.15793997049331665	0.06222294643521309	-0.044102493673563004	0.07833051681518555	0.01864018104970455	0.018854273483157158	-0.0035189029294997454	-0.016116157174110413	
-0.0266495980322361	-0.04643702507019043	-0.03813595697283745	0.04327554628252983	-0.06908469647169113	-0.10189707577228546	-0.09842610359191895	0.03630123287439346	-0.10211865603923798	-0.06630243360996246	-0.02401813678443432	0.15077127516269684	-0.04000665992498398	-0.031364575028419495	0.03012881986796856	-0.07335853576660156	0.001872776192612946	-0.15719516575336456	0.018384790048003197	-0.06037414073944092	0.048049550503492355	-0.16632859408855438	-0.08491627126932144	-0.00622492516413331	-0.016429366543889046	
-0.018405236303806305	-0.0791618824005127	0.008152185007929802	0.08192368596792221	-0.06669110804796219	0.05657906457781792	-0.05913080647587776	0.06790482997894287	0.06082913652062416	-0.003498552832752466	0.014240153133869171	0.03894462436437607	0.02289300598204136	-0.13608533143997192	0.060740526765584946	0.10465464740991592	-0.02574663981795311	-0.05938144773244858	0.11138610541820526	0.03294730558991432	-0.005614313762634993	0.006237315014004707	0.07901045680046082	0.05692395567893982	-0.057614389806985855	
0.06943916529417038	0.07352787256240845	0.0032936008647084236	0.03148040547966957	-0.011026349849998951	0.1005202904343605	0.009569215588271618	-0.009205973707139492	-0.011299521662294865	0.03581635281443596	-0.031789232045412064	0.07106169313192368	0.046915628015995026	0.06882452219724655	0.0071715000085532665	0.07035405933856964	0.04439675807952881	0.0016632846090942621	0.048875536769628525	0.02745957486331463	-0.08702731877565384	0.06275645643472672	0.04192950576543808	0.03156118467450142	-0.0801834985613823	
0.06658393144607544	0.011488980613648891	0.06585441529750824	-0.005233955569565296	0.006119870580732822	-0.10710320621728897	-0.11658808588981628	0.11800454556941986	-0.012323311530053616	0.06650111079216003	-0.03033435344696045	0.09773135185241699	0.039753999561071396	-0.04072881117463112	-0.09611421823501587	-0.0017838531639426947	0.05297363921999931	-0.09356680512428284	-0.031715720891952515	0.16895189881324768	-0.06505565345287323	-0.018794670701026917	-0.025237321853637695	0.008376133628189564	-0.022312289103865623	
-0.03698969632387161	0.007952776737511158	-0.03389238938689232	-0.02269337698817253	0.036149874329566956	-0.09676633775234222	-0.043079737573862076	0.035430051386356354	-0.04617251083254814	0.009508662857115269	-0.0017801555804908276	-0.04378683492541313	0.027762360870838165	0.06587176024913788	0.01281446497887373	0.015169566497206688	-0.14990383386611938	0.012248157523572445	0.08528255671262741	-0.03985816240310669	-0.002670148853212595	0.15147702395915985	-0.046423159539699554	0.00786594022065401	-0.053176023066043854	
-0.027824409306049347	-0.02155156247317791	-0.008494299836456776	0.008804067969322205	0.029162241145968437	0.012999536469578743	-0.008024637587368488	-0.06631624698638916	-0.05254498869180679	0.06075252592563629	0.04365750402212143	0.051108237355947495	-0.0033803090918809175	0.05069393664598465	-0.06908057630062103	0.002529323799535632	-0.021740779280662537	-0.027189388871192932	-0.015007193200290203	0.08771850913763046	-0.02096816711127758	-0.018202457576990128	0.022744229063391685	0.09369143843650818	0.07365686446428299	
0.09503297507762909	0.09137354046106339	-0.05970297381281853	0.06514284014701843	-0.035700589418411255	-0.060749415308237076	0.048632554709911346	0.013361905701458454	0.0014656626153737307	0.02826840803027153	0.06655535101890564	-0.05196113511919975	0.048503488302230835	-0.00997124519199133	-0.06031131371855736	0.03381285443902016	0.033104006201028824	-0.019097017124295235	0.05795976147055626	0.012102282606065273	0.06862423568964005	-0.02289470285177231	-0.09086398780345917	0.00958635751157999	0.11763729155063629	
-0.02646227926015854	0.08011982589960098	0.13032016158103943	-0.04877321422100067	0.030771419405937195	0.0426887609064579	-0.05245553329586983	0.019538331776857376	-0.007680467329919338	-0.08655500411987305	0.008742746897041798	0.004902479238808155	-0.0068842885084450245	0.02567104622721672	0.016428953036665916	0.0855037197470665	0.02863333746790886	-0.07199114561080933	0.04124673083424568	0.01711163856089115	-0.03763647750020027	-0.07578213512897491	0.052209071815013885	0.035362400114536285	0.010441970080137253	
0.03431637957692146	0.050537027418613434	-0.014431288465857506	-0.054714784026145935	0.006558670662343502	-0.0549902506172657	-0.024036727845668793	0.0575786717236042	-0.014676136896014214	-0.02627040073275566	0.009405739605426788	0.005058188922703266	0.0832311362028122	-0.009220235981047153	-0.058007143437862396	-0.04870222881436348	-0.04170706868171692	-0.013367013074457645	0.04039192944765091	0.04449127987027168	0.02339252643287182	-0.0034715398214757442	0.025554992258548737	0.0762837678194046	-0.0756053626537323	
0.08222389966249466	-0.07526015490293503	-0.01041142363101244	-0.08500220626592636	0.03272748365998268	0.06675487756729126	0.06440301239490509	-0.039397165179252625	0.03956327214837074	-0.055295467376708984	0.05662599951028824	-0.10693157464265823	-0.05214313045144081	0.07051651179790497	-0.12037701904773712	-0.0901622623205185	0.09640643000602722	-0.062287360429763794	-0.01692214235663414	-0.04445706307888031	-0.0861191526055336	0.11801477521657944	-0.03607906028628349	0.041305914521217346	0.0572768934071064	
0.0523463599383831	0.07554909586906433	-0.05134204030036926	0.07459398359060287	-0.033965155482292175	-0.02178509719669819	0.035389494150877	-0.04225436598062515	0.10059512406587601	-0.05855949595570564	-0.05764325335621834	0.07942187041044235	-0.012256240472197533	0.011262085288763046	0.05776076391339302	-0.08549518138170242	-0.03022501803934574	-0.028676507994532585	0.012139387428760529	-0.06467777490615845	0.07608187198638916	-0.031103424727916718	0.018124818801879883	-0.07116290926933289	0.12184217572212219	
-0.10308725386857986	-0.059575632214546204	0.01764896884560585	-0.10194193571805954	0.00890397746115923	0.004470941610634327	-0.024157341569662094	-0.05563204735517502	0.0592484325170517	0.040122419595718384	-0.0349227599799633	0.10045214742422104	-0.06151028349995613	0.07180652022361755	-0.07614085078239441	0.07328164577484131	-0.02559884451329708	0.034718096256256104	-0.07010135054588318	0.003062003757804632	0.0181506909430027	-0.003535051364451647	0.009561598300933838	-0.04914076626300812	0.01155008189380169	
0.05413457006216049	-0.015487117692828178	-0.1410132795572281	0.038929447531700134	-0.10161465406417847	0.0154997194185853	-0.010481510311365128	-0.18192747235298157	0.05507770553231239	0.01754736714065075	-0.09078826010227203	-0.012849604710936546	-0.01237485557794571	-0.09601108729839325	-0.027435896918177605	0.037022192031145096	0.007406579330563545	-0.026542678475379944	-0.020846521481871605	-0.11642484366893768	-0.10972217470407486	0.04140760749578476	-0.10457423329353333	-0.1168949156999588	-0.012617227621376514	
0.023229055106639862	0.07214348763227463	0.03319685161113739	-0.01690092496573925	-0.05696595832705498	0.02975957654416561	0.07561661303043365	-0.008165400475263596	0.1440330147743225	-0.02703881822526455	0.009227147325873375	0.05416083335876465	-0.054801810532808304	-0.04907850921154022	-0.007137242238968611	-0.03173647075891495	-0.09479651600122452	-0.028439238667488098	0.01742974855005741	0.05260121822357178	-0.00812746211886406	-0.1251162737607956	-0.023757241666316986	0.03027566522359848	-0.016678228974342346	
0.021367566660046577	0.0828656330704689	0.09218376129865646	-0.0330575555562973	-0.21535319089889526	-0.0532243438065052	-0.1209140494465828	0.03181859105825424	0.02248821035027504	0.044701021164655685	0.025333914905786514	0.08314503729343414	0.07286033034324646	0.10392311960458755	-0.06653547286987305	-0.0009293486946262419	0.04119645059108734	0.009875291958451271	-0.008022855035960674	-0.03564517945051193	-0.061577409505844116	0.007048358675092459	-0.06805403530597687	-0.009165479801595211	0.0020836754702031612	
-0.013200490735471249	-0.02487279288470745	0.049331989139318466	0.06463206559419632	-0.13085216283798218	0.01784021407365799	-0.04313470423221588	0.029330605641007423	0.004540569148957729	0.007419876288622618	0.10924854874610901	0.04573119804263115	0.13304737210273743	-0.06357767432928085	0.0034779130946844816	-0.029801126569509506	-0.0015432407381013036	-0.02636382170021534	0.03484450280666351	0.01051256898790598	-0.06923731416463852	0.05485684797167778	0.026470568031072617	0.02435135655105114	0.08614207059144974	
0.019188378006219864	0.020531589165329933	0.0010338315041735768	0.07743573933839798	-0.11991028487682343	0.0379699245095253	0.044801339507102966	-0.05755157396197319	0.011991115286946297	0.0034410031512379646	0.10339262336492538	0.07182753831148148	-0.04906897991895676	0.0077150012366473675	-0.1164717748761177	-0.022231919690966606	-0.06968413293361664	0.0401482880115509	-0.034706927835941315	-0.01621689461171627	0.028376933187246323	-0.09814340621232986	0.02028297632932663	0.0018492619274184108	-0.007474290207028389	
0.011860950849950314	0.040495261549949646	-0.04483092203736305	0.00814175046980381	-0.152084082365036	-0.019278371706604958	0.029341667890548706	0.044191982597112656	0.06796538084745407	-0.03865525498986244	-0.01221370231360197	-0.02487305924296379	-0.04462564364075661	-0.002249351469799876	0.048289816826581955	-0.017954126000404358	-0.041930753737688065	0.02132229134440422	0.0016168584115803242	0.07495547831058502	-0.06719321012496948	0.10885248333215714	-0.022314535453915596	-0.07425792515277863	-0.01379390899091959	
-0.004093475174158812	0.04249392822384834	-0.01962372474372387	0.046268489211797714	-0.12156185507774353	-0.006403006613254547	-0.15689480304718018	-0.19645684957504272	0.1250709444284439	0.10007631033658981	0.02536982111632824	0.0034221678506582975	0.05776538327336311	-0.040240298956632614	0.05677662789821625	0.0698912963271141	-0.003927089739590883	-0.05108896642923355	-0.010996806435286999	0.06649275124073029	-0.020420700311660767	-0.06821960210800171	-0.07557658106088638	-0.012067732401192188	-0.03883906081318855	
0.15675419569015503	-0.0013571460731327534	0.008434186689555645	0.01423508021980524	-0.062380291521549225	0.028704557567834854	0.0281472560018301	0.04656665027141571	-0.011959170922636986	-0.030985040590167046	-0.046963855624198914	0.03445672243833542	0.05978069826960564	0.03059118241071701	-0.011811090633273125	-0.06965270638465881	-0.02453504502773285	-0.06143106892704964	-0.06850023567676544	-0.1083180233836174	-0.07133281230926514	0.06481052190065384	-0.046577632427215576	-0.05102739855647087	0.002514668507501483	
0.18461862206459045	0.03507193922996521	-0.060228556394577026	-0.07138053327798843	0.044516582041978836	0.037554360926151276	-0.15806494653224945	-0.09729328751564026	0.012419044971466064	-0.04558476433157921	0.05851951241493225	-0.020237749442458153	0.0023185359314084053	0.06251160800457001	0.06905940920114517	-0.04011552780866623	-0.030616817995905876	0.0782177597284317	0.07608217000961304	0.0410730317234993	-0.11915479600429535	-0.16062766313552856	-0.046606048941612244	0.11277200281620026	-0.021997256204485893	
-0.1251068264245987	-0.13498088717460632	-0.014717326499521732	-0.07844876497983932	-0.001207797322422266	0.00239804619923234	-0.0760277807712555	-0.13065938651561737	0.07284726947546005	-0.04567895829677582	0.08890073746442795	-0.061394378542900085	0.014769691042602062	-0.10774481296539307	-0.04442021623253822	0.05479138717055321	-0.11532919108867645	-0.03321848809719086	0.05583135411143303	-0.0766381323337555	0.14553752541542053	-0.020472703501582146	0.07872313261032104	-0.0909389927983284	-0.12291962653398514	
-0.05418059602379799	0.01571395806968212	-0.06661111861467361	-0.020204950124025345	-0.0653972253203392	-0.03440587967634201	-0.07868517190217972	0.026943545788526535	0.0005664811469614506	0.038870669901371	0.04393894225358963	0.10980458557605743	0.005740645807236433	-0.18947985768318176	-0.09921790659427643	0.052822429686784744	0.020352978259325027	-0.04283361881971359	0.11153458058834076	0.014878756366670132	-0.004755797330290079	0.03094620443880558	0.012083622626960278	0.061790529638528824	0.011482324451208115	
0.005733790807425976	-0.024864256381988525	0.06017204001545906	0.04388805106282234	-0.0396692268550396	0.011081250384449959	-0.003776304656639695	0.06949003785848618	0.13014012575149536	0.00760732963681221	-0.03918059170246124	-0.11051839590072632	-0.013418883085250854	0.05308862030506134	-0.0959058552980423	0.11431889981031418	0.010520934127271175	-0.0028041426558047533	-0.03502318263053894	0.030615393072366714	-0.07529415190219879	0.009371110238134861	-0.03849335014820099	-0.0317874513566494	0.003180095227435231	
-0.020013941451907158	0.045173998922109604	-0.03717096894979477	-0.04791877046227455	-0.0001316667185164988	-0.010053956881165504	-0.046037305146455765	-0.029171263799071312	0.044312868267297745	0.027748551219701767	0.11038573831319809	-0.026367245241999626	0.048308856785297394	-0.032730329781770706	0.03911028802394867	0.03801237419247627	0.062204498797655106	0.02298492006957531	0.07462018728256226	-0.06445996463298798	0.05423825606703758	0.035067103803157806	-0.02948104217648506	0.02619771473109722	0.008385020308196545	
-0.09796164184808731	0.140720933675766	0.09521395713090897	-0.0051195682026445866	0.024082818999886513	0.021555235609412193	-0.03597670793533325	-0.011619129218161106	-0.06340636312961578	0.010980801656842232	0.035148296505212784	0.045543372631073	0.09194111824035645	0.01150349248200655	0.0067839534021914005	-0.024565141648054123	-0.008853074163198471	0.04299068823456764	0.12395419925451279	-0.020282752811908722	-0.014634907245635986	0.003825691295787692	-0.03105601668357849	-0.09532076120376587	-0.026282237842679024	
-0.01958967186510563	0.02613593079149723	0.03924236819148064	-0.03778478503227234	-0.09105746448040009	0.021324649453163147	-0.02621685154736042	0.08729567378759384	-0.06574426591396332	0.05071660503745079	-0.046211834996938705	0.14111123979091644	0.033047448843717575	-0.02067398838698864	-0.022065509110689163	0.02662070281803608	-0.035891275852918625	0.06536127626895905	-0.01587744429707527	-0.1158878430724144	0.03959651291370392	0.02950911410152912	-0.024729140102863312	-0.08484133332967758	-0.10142023861408234	
