	
 
-0.02582068182528019	0.017044570297002792	-0.008175522089004517	0.011410937644541264	0.004354560282081366	0.005560277029871941	0.0046731531620025635	-0.0058884588070213795	-0.012023771181702614	-0.011462369002401829	0.005583622958511114	0.004763308446854353	0.0013977274065837264	-0.03384140878915787	0.004816882777959108	-0.013075555674731731	-0.0005218120058998466	-0.027645200490951538	0.01938754692673683	-0.005097794346511364	-0.012678234837949276	0.005052603781223297	0.006527234334498644	-0.011185615323483944	0.047555431723594666	
0.028258923441171646	-0.01682119630277157	-0.016564153134822845	-0.015002609230577946	-0.014917836524546146	-0.01524739433079958	-7.83933573984541e-05	0.0014619056601077318	0.012893171980977058	0.018118388950824738	0.0038971591275185347	-0.012084413319826126	0.06437920778989792	-0.011780151166021824	-0.017853714525699615	-0.015332727693021297	0.0007871472043916583	0.0033032530918717384	0.019818678498268127	-0.0056076133623719215	0.028947560116648674	0.014551111496984959	-0.0028572394512593746	0.004294371698051691	-0.002217551227658987	
0.03540140390396118	0.002316691679880023	0.013494190759956837	0.004610072821378708	0.016321226954460144	0.007827645167708397	-0.024785974994301796	0.0508248396217823	0.000502179260365665	-0.02517811581492424	0.012825376354157925	0.007119949907064438	0.01633511856198311	-0.008265231736004353	0.014775233343243599	-0.013949910178780556	0.012089395895600319	-0.024739911779761314	0.0034017444122582674	0.0010961208026856184	-0.012298236601054668	0.01277900580316782	0.01892017014324665	0.005575796589255333	-0.02526768669486046	
-0.00966753251850605	0.04739617183804512	-0.024695103988051414	0.0059294975362718105	-0.007773119956254959	0.0324290469288826	0.02308778464794159	-0.012304713949561119	0.030741918832063675	-0.022251369431614876	-0.025056667625904083	-0.018334977328777313	0.015851981937885284	-0.009274851530790329	-0.017246689647436142	0.017574205994606018	0.0014968588948249817	0.009366256184875965	-0.009914121590554714	-0.03130827471613884	0.029842393472790718	-0.0026191393844783306	-0.004871622193604708	0.02114672213792801	-0.007905465550720692	
0.031553059816360474	-0.009184489957988262	0.008897005580365658	-0.0010466785170137882	-0.03621218353509903	0.021662620827555656	-0.015159884467720985	0.007253384683281183	-0.008333651348948479	0.01879601739346981	0.020963186398148537	-0.03130967915058136	0.005244739353656769	-0.03195143863558769	0.02787180431187153	-0.024108069017529488	-0.002419418888166547	0.0026475682388991117	0.003058001399040222	-0.011061565019190311	0.02498670667409897	0.016399171203374863	0.0360698476433754	0.025345515459775925	-0.004487170372158289	
-0.01269054226577282	-0.006818822119385004	-4.145554703427479e-05	0.014840898104012012	-0.0031664976850152016	0.01540419552475214	0.007676975801587105	-0.016555095091462135	-0.004602727014571428	0.003499354235827923	0.021594110876321793	-0.005875955335795879	-0.049580302089452744	-0.005278759635984898	-0.0019088622648268938	0.008379342034459114	0.008820814080536366	-0.007770031224936247	0.003356968518346548	0.018149446696043015	0.005725106690078974	0.02298351749777794	0.013139856047928333	-0.008568234741687775	0.012788088992238045	

 
3.2498969630978536e-06	-3.056074433516187e-07	1.68313889048477e-07	3.6332589843368623e-06	3.856352577713551e-06	-3.3510661978652934e-07	

 
-0.008030449040234089	0.01577092334628105	0.01872074417769909	0.017844026908278465	-0.01818559505045414	-0.001673440565355122	-0.021223293617367744	-0.0578746497631073	-0.006851400248706341	-0.008423595689237118	-0.004987908061593771	0.032685548067092896	-0.009250402450561523	0.04801113158464432	0.01578115113079548	-0.022868206724524498	0.024882804602384567	0.026642683893442154	0.02686399035155773	0.01643245480954647	-0.02879227325320244	-0.019002432003617287	0.009113536216318607	-0.029553627595305443	0.00634186714887619	
0.0018963884795084596	-0.022494373843073845	0.0011365789687260985	0.029907038435339928	-0.018678104504942894	0.032332658767700195	-0.028702134266495705	-0.00209660897962749	0.03050081431865692	-0.052843667566776276	0.013857975602149963	0.022931788116693497	0.004700898192822933	0.014881349168717861	-0.026351604610681534	0.003715506987646222	0.0147620914503932	0.028549417853355408	-0.01858077384531498	0.03488333895802498	0.013435221277177334	-0.013244534842669964	-0.003552237758412957	0.05013339966535568	0.014845804311335087	
0.05427737906575203	0.047812432050704956	-0.020046178251504898	-0.01005103625357151	0.05561196804046631	-0.012252876535058022	0.03374658152461052	0.019350063055753708	0.007499903440475464	-0.00656143669039011	-0.04132925346493721	0.0235165823251009	0.008891363628208637	0.008347543887794018	-0.021587388589978218	-0.013922498561441898	-0.011007015593349934	-0.037022531032562256	-0.009997752495110035	0.04541519284248352	-0.02849634364247322	-0.01191377080976963	-0.005655093118548393	0.013608449138700962	-0.01724572665989399	
0.04123995080590248	0.04870995879173279	0.04754002019762993	-0.002578609623014927	-0.002903015585616231	-0.017415368929505348	-0.00817498192191124	-0.0026445649564266205	-0.0164644755423069	-0.015127991326153278	0.021123679354786873	-0.02560819312930107	-0.023834779858589172	0.043801628053188324	-0.008855137042701244	0.0006806792225688696	-0.00726180849596858	-0.009274640120565891	0.009833735413849354	0.015713388100266457	0.02625068835914135	-0.0020092371851205826	0.019237736240029335	-0.004790869541466236	0.028519492596387863	
0.014624928124248981	-0.03516247496008873	-0.015176260843873024	0.018725506961345673	-0.001528281020000577	-0.02806214429438114	0.02281869947910309	0.003918887581676245	-0.0029085164424031973	-0.03260605037212372	-0.03207409754395485	0.0654551312327385	-0.0180661678314209	0.05559490993618965	-0.04995504766702652	0.011829212307929993	-0.02217576839029789	-0.013102632015943527	0.002239809138700366	0.0012458444107323885	0.013133100233972073	-0.021747617051005363	-0.031122447922825813	-0.0032877542544156313	0.04559118673205376	
-0.012051933445036411	0.031078387051820755	0.022630847990512848	0.018984727561473846	-0.00759594002738595	-0.007295249495655298	-0.007060595788061619	0.028961850330233574	-0.028882602229714394	-0.0044732061214745045	0.000769434031099081	-0.010470514185726643	-0.011120995506644249	0.040838297456502914	-0.0011253071716055274	0.005289657972753048	-0.04033965617418289	-0.0055698673240840435	-0.010875904001295567	-0.0007788585498929024	-0.002575131133198738	-0.03704094514250755	-0.0035115403588861227	0.027590924873948097	0.03319968283176422	
0.059591956436634064	-0.0018530762754380703	0.008369463495910168	-0.03192557394504547	-0.001873682253062725	-0.05652141943573952	0.028906522318720818	0.01020126324146986	0.032727133482694626	0.005886500235646963	-0.0200058463960886	-0.0050020888447761536	-0.004172386135905981	-0.03908592090010643	0.029165897518396378	-0.0004974782350473106	0.025519296526908875	-0.02406410686671734	-0.004338120110332966	-0.04636474698781967	-0.0023779086768627167	0.004620261490345001	-0.02388431876897812	0.025474704802036285	-0.037000637501478195	
-0.05211430788040161	0.02914009615778923	-0.002577200997620821	0.032369546592235565	-0.000920924823731184	-0.008496611379086971	-0.008875861763954163	-0.023106496781110764	0.04117833822965622	-0.004466408863663673	0.0026550840120762587	0.04330608993768692	0.0159608181566	-0.0013657411327585578	-0.03277422860264778	-0.010497752577066422	0.0353713184595108	-0.04541971907019615	-0.027848610654473305	-0.03678913787007332	-0.00912407971918583	-0.02745249681174755	0.03466087207198143	0.017678620293736458	0.01424175314605236	
0.00605378020554781	0.01671861857175827	0.012505839578807354	-0.006611952558159828	-0.0183780025690794	0.032603662461042404	-0.03433923423290253	-0.005020866170525551	-0.04978035017848015	0.005188947077840567	-0.020712835714221	0.008486982434988022	-0.005505295470356941	0.02368823066353798	-0.02165624126791954	0.02105814404785633	-0.020189939066767693	-0.0017875523772090673	-0.021890705451369286	0.015934957191348076	0.00988764874637127	0.013606560416519642	0.02163011208176613	0.0024426442105323076	0.0051490748301148415	
-0.005582065787166357	0.014009639620780945	0.01119122002273798	-0.04316060617566109	0.027859263122081757	0.052214305847883224	-0.0005931244231760502	0.0017637390410527587	-0.012928742915391922	0.04854202643036842	0.01147469226270914	-0.06647174060344696	0.0015772907063364983	-0.0743878036737442	-0.006236819550395012	-0.049657270312309265	0.039358049631118774	0.030058473348617554	0.017031077295541763	-0.002466921228915453	-0.0014286612858995795	0.020660236477851868	0.0335366353392601	0.014491853304207325	0.007941555231809616	
0.03788907825946808	0.0036935473326593637	0.006981788668781519	0.021897347643971443	0.0003082109906245023	0.0027206921949982643	-0.011422662064433098	0.02303551323711872	-0.021204153075814247	0.03891117125749588	0.011204160749912262	0.02656916156411171	-0.020721731707453728	-0.029155200347304344	0.0029071257449686527	0.01014576107263565	0.020266812294721603	-0.024590151384472847	-0.04611533135175705	0.010546953417360783	0.007032555993646383	0.025612803176045418	0.029460737481713295	0.020947908982634544	-0.002870256779715419	
-0.038571253418922424	0.005591834895312786	-0.050808120518922806	0.005405086558312178	-0.0024363070260733366	-0.009686844423413277	0.005950850434601307	0.04686323180794716	0.0254034623503685	-0.03354794159531593	0.012999811209738255	-0.034900203347206116	-0.0637085810303688	0.020550277084112167	0.0013943016529083252	0.04166311025619507	0.053757619112730026	0.002062545157968998	0.004156650509685278	-0.02712646685540676	-0.0007444131770171225	0.04560297727584839	-0.01163781713694334	0.02670980989933014	-0.0017783716320991516	
0.010454023256897926	-0.007518005091696978	0.002869419055059552	0.022857561707496643	0.05188430845737457	0.011817342601716518	0.018567586317658424	-0.01605302467942238	-0.03534836322069168	0.017879018560051918	0.006084783002734184	0.07522229105234146	0.0022857014555484056	-0.0009961760370060802	0.027380431070923805	-0.02020581066608429	-0.018380198627710342	-0.02132561057806015	-0.02257416769862175	-0.0037797470577061176	-0.03460020199418068	-0.03982013836503029	3.9943999581737444e-05	-0.014406878501176834	0.007797576487064362	
-1.3264403605717234e-05	-0.032325174659490585	-0.048364587128162384	-7.834780990378931e-05	-0.028019458055496216	0.03759776055812836	-0.018280990421772003	-0.0030144290067255497	-0.028546446934342384	0.02312633953988552	0.005501841194927692	-0.010762941092252731	0.021297480911016464	-0.04443411901593208	-0.002756538800895214	0.03433467075228691	-0.035259172320365906	-0.007086091674864292	-0.007314594462513924	0.003527645952999592	0.028516938909888268	0.048794496804475784	0.04934500902891159	0.0024764174595475197	0.0007477381150238216	
-0.04510779306292534	-0.01933511719107628	0.03815988823771477	-0.018003137782216072	0.004303711000829935	0.03590385243296623	-0.01848745159804821	0.054018355906009674	0.025731122121214867	0.02700831927359104	-0.027253542095422745	-0.018280014395713806	0.016216805204749107	-0.03432554379105568	-0.03852235898375511	-0.017373373731970787	-0.009569450281560421	0.007532054558396339	-0.029544534161686897	0.03972470760345459	0.005111896898597479	0.019892800599336624	-0.034171078354120255	0.04279342293739319	-0.06528522074222565	
0.033108923584222794	0.017415929585695267	0.010980775579810143	0.018917929381132126	0.002609826857224107	0.0012766508152708411	0.036296289414167404	-0.019416512921452522	0.0013659850228577852	-0.072913758456707	-0.021723879501223564	-0.01396760530769825	0.014752058312296867	0.010910166427493095	-0.004887828603386879	0.014182963408529758	-0.019865935668349266	-0.040472179651260376	0.0205699410289526	-0.03204096853733063	-0.030626853927969933	-0.012505634687840939	0.04233197495341301	-0.011231073178350925	0.0009027781779877841	
0.028671007603406906	0.0011005215346813202	-0.01366865262389183	-0.0005878722877241671	-0.012575610540807247	-0.001660920330323279	-0.07296030968427658	-0.012208512052893639	0.0002643865591380745	-0.014569777995347977	-0.021040990948677063	0.044788897037506104	-0.022138463333249092	-0.034742143005132675	0.02212543785572052	-0.009243947453796864	0.0047837174497544765	0.02325531654059887	0.0003660029615275562	0.05779649317264557	-0.042287133634090424	0.018661053851246834	0.0524805523455143	-0.020731166005134583	-0.02618241496384144	
0.005837991833686829	0.022202864289283752	-0.05031321942806244	-0.009399041533470154	0.011436265893280506	0.03171844407916069	0.02606358379125595	-0.02949097380042076	0.016433564946055412	-0.012292822822928429	0.026724040508270264	0.009184298105537891	0.0014246057253330946	-0.02101953700184822	0.06510575860738754	0.03501276299357414	-0.014143000356853008	0.018356436863541603	-0.026472799479961395	0.008784878998994827	-0.002744188066571951	-0.0007239580154418945	0.0016022325726225972	0.01770433411002159	-0.002228088676929474	
0.04350484907627106	0.05037751793861389	0.01628442108631134	0.020719291642308235	-0.022722644731402397	-0.023558465763926506	-0.027344055473804474	0.03589845821261406	-0.011613842099905014	-0.0033975159749388695	0.007238244172185659	0.006935278419405222	-0.023672310635447502	-0.06476341187953949	-0.058672744780778885	0.02992277964949608	-0.0071676019579172134	-0.01532632764428854	-0.004412614740431309	-0.03466859087347984	0.018260672688484192	0.03762022405862808	0.02359916642308235	-0.027677318081259727	0.04733125492930412	
-9.401775969308801e-06	0.05321186035871506	0.031643643975257874	0.009412123821675777	0.030307946726679802	0.008807363919913769	0.011316760443150997	-0.0049882736057043076	-0.03788940981030464	0.014477803371846676	0.017797088250517845	-0.005627068225294352	-0.002854337450116873	-0.01030533667653799	-0.02909114584326744	0.015242518857121468	-0.031552232801914215	-0.010827279649674892	0.006963459774851799	0.008192573674023151	-0.0022021273616701365	0.049709971994161606	-0.03794626519083977	-0.0015865698223933578	0.005002292338758707	
-0.03081328235566616	0.01164220180362463	-0.040661007165908813	-0.011832129210233688	-0.032904841005802155	-0.01446331012994051	-0.015030210837721825	-0.004600577987730503	0.04200811684131622	-0.019353153184056282	-0.008955949917435646	-0.0834878608584404	-0.04375206306576729	-0.02846488170325756	0.003941203933209181	-0.02328811213374138	-0.001122612738981843	0.04815415292978287	0.024280879646539688	0.03449082374572754	0.018424643203616142	0.019678695127367973	-0.010772046633064747	-0.008487788960337639	-0.011523261666297913	
-0.014582800678908825	0.024127446115016937	0.00782849919050932	0.014652751386165619	-0.023347914218902588	-0.006267113611102104	-0.005416697822511196	-0.023975279182195663	0.036839332431554794	0.03590850159525871	0.004616861697286367	-0.010238388553261757	-0.03360568732023239	-0.009347183629870415	0.012343830429017544	0.04281206429004669	-0.006915512960404158	-0.01760285720229149	0.0018937026616185904	-0.0018799136159941554	-0.06266532093286514	-0.0017866637790575624	-0.007692674640566111	-0.02282068133354187	-0.03260374069213867	
-0.01741025596857071	0.031676121056079865	-0.022364776581525803	-0.07874629646539688	0.030727190896868706	-0.010107225738465786	-0.03942414000630379	-0.012438512407243252	-0.028398675844073296	0.0032180394046008587	0.0015954753616824746	0.030134662985801697	0.014040191657841206	0.03570158779621124	0.00957304984331131	-0.03920290246605873	-0.006557284388691187	-0.049099404364824295	0.004802381619811058	-0.014907780103385448	0.015557346865534782	-0.0025266886223107576	0.03072529286146164	0.024613142013549805	-0.0026776501908898354	
0.007898898795247078	-0.007989632897078991	0.006500377785414457	-0.015055318363010883	-0.005138047970831394	-0.01592179574072361	0.021591825410723686	-0.006130750756710768	0.021734850481152534	0.016857421025633812	0.005990181118249893	-0.013983329758048058	0.046130452305078506	-0.004428860265761614	0.019343560561537743	0.00667990930378437	-0.02586708404123783	0.015972653403878212	-0.009311509318649769	-0.018692798912525177	-0.008744210936129093	-0.004951038397848606	0.02426757849752903	-0.037647660821676254	-0.05156056210398674	
0.016620943322777748	-0.004859974607825279	-0.025243252515792847	0.0019369561923667789	0.008896629326045513	-0.018300505355000496	-0.037796881049871445	-0.06822777539491653	-0.00982558075338602	-0.03810003399848938	0.046368733048439026	-0.011028213426470757	0.0031226035207509995	-0.020305346697568893	-0.020657338201999664	0.002117631258442998	0.01900733821094036	0.04028791934251785	0.005388012155890465	-0.0012106149224564433	0.016839860007166862	-0.0012432312360033393	0.007263886276632547	0.003601222764700651	-0.01416182890534401	
-0.03708162158727646	0.03882986307144165	-0.04711107537150383	0.02582802250981331	-0.03180435299873352	-0.037848494946956635	-0.010781477205455303	0.017962438985705376	0.0483655221760273	0.006182326003909111	-0.030541975051164627	0.025922559201717377	-0.05389750376343727	0.030840355902910233	-0.003754332661628723	0.005671562626957893	0.0036858473904430866	0.046434760093688965	0.009678814560174942	-0.0054229130037128925	-0.0023075363133102655	0.014506214298307896	-0.006933602504432201	-0.0351799875497818	0.060958538204431534	
-0.009253144264221191	0.006164615973830223	-0.052253879606723785	0.04560324177145958	-0.006734716240316629	-0.012732269242405891	-0.03316621854901314	0.030263317748904228	0.030869795009493828	0.005427621304988861	0.025416040793061256	-0.03855584189295769	0.021220065653324127	-0.03528929129242897	-0.018475070595741272	0.046263862401247025	0.023113476112484932	0.019370434805750847	-0.00035544982529245317	0.00197350000962615	0.0018322529504075646	-0.0017779316985979676	0.0011264708591625094	0.0010638921521604061	0.02381061390042305	
0.04500941187143326	-0.007125952746719122	0.028514644131064415	-0.009405108168721199	0.012271612882614136	-0.03596114739775658	-0.011291639879345894	-0.017175594344735146	-0.004607588984072208	0.00766563368961215	-0.0063055879436433315	-0.031551919877529144	-0.01967797800898552	0.004967411048710346	-0.06747838854789734	0.0041457051411271095	0.050553347915410995	-0.005590460728853941	-0.02493412047624588	0.04141397029161453	0.012256919406354427	0.038793954998254776	0.03811534121632576	0.025132091715931892	-0.013075863011181355	
0.02525590918958187	-0.022351883351802826	0.003996253479272127	0.028396224603056908	-0.014112655073404312	-5.150820652488619e-05	0.03020981140434742	-0.057050999253988266	0.0015418882248923182	-0.021370351314544678	-0.01954956166446209	0.013306288979947567	0.007821323350071907	0.02319778874516487	0.022526815533638	-0.023793663829565048	0.016450267285108566	-0.012070546858012676	-0.03322448208928108	-0.02893093414604664	-0.020591165870428085	-0.015685277059674263	-0.013292464427649975	0.026457898318767548	-0.03659067302942276	
0.01725958287715912	0.03799356147646904	-0.00868283025920391	-0.00287072267383337	0.009514139965176582	0.005142152309417725	-0.025041257962584496	0.040821172297000885	0.006186645943671465	0.004514990374445915	-0.001933053252287209	-0.014793068170547485	0.012008987367153168	-0.06161000579595566	-0.018180133774876595	0.02275029942393303	0.041141945868730545	0.02360674925148487	0.017957815900444984	-0.001460416940972209	0.03763267397880554	-0.038427792489528656	-0.00193284812849015	0.014493690803647041	0.005072486586868763	
0.010269355028867722	0.04312833771109581	0.01584901288151741	0.006936055142432451	-0.018550749868154526	-0.0017155868699774146	0.007279254030436277	-0.022273177281022072	-0.0315561480820179	-0.00031468100496567786	0.012751881964504719	-0.0217153187841177	-0.03350319713354111	0.009322984144091606	-0.02919008955359459	-0.008322068490087986	0.026419954374432564	-0.024050824344158173	-0.03142246603965759	0.010088076815009117	0.023311296477913857	0.003620280884206295	4.890479613095522e-05	-0.04115091636776924	0.020874032750725746	
-0.023000195622444153	0.016095638275146484	0.052340950816869736	-0.0387716144323349	-0.02104719914495945	-0.009620733559131622	-0.014597398228943348	-0.010099326260387897	-0.01600460521876812	0.006866101175546646	0.02931283973157406	0.0007130040321499109	0.0010535871842876077	0.014262504875659943	0.020577777177095413	-0.02511301264166832	-0.01781574636697769	-0.024261310696601868	-0.014053812250494957	0.0012391707859933376	-0.03895360231399536	0.011237269267439842	0.02363707683980465	-0.016235079616308212	-0.0018716901540756226	
0.015869464725255966	-0.0677523985505104	-0.03961106017231941	-0.002493343548849225	-0.032435763627290726	-0.04809093475341797	-0.0012990343384444714	-0.04253099113702774	0.006531206890940666	-0.0009225655230693519	7.30575411580503e-05	0.024889986962080002	0.014553905464708805	0.00722503662109375	0.014587104320526123	0.022263692691922188	0.036138031631708145	-0.024250589311122894	0.017918158322572708	-0.002258342457935214	0.025856170803308487	-0.0348193421959877	0.01903061755001545	-0.010755849070847034	0.0484873503446579	
0.0005645452765747905	-0.026765359565615654	0.01992928236722946	0.03728420287370682	-0.004598978441208601	0.031093137338757515	0.010337061248719692	-0.03308692201972008	-0.044451598078012466	0.009359951131045818	0.013538890518248081	0.011322610080242157	0.011469931341707706	0.008992866612970829	-0.002734304405748844	0.0031571865547448397	0.03649964556097984	0.034067727625370026	0.03229355067014694	0.018514065071940422	0.019624216482043266	0.00729318056255579	-0.01988961175084114	-0.0001907397381728515	-0.013093393296003342	
0.02164982259273529	-0.026072733104228973	-0.018115360289812088	0.0055372207425534725	-0.01065957359969616	0.041617508977651596	-0.04123900830745697	0.00906092394143343	-0.05359755456447601	-0.03444669023156166	0.053488537669181824	-0.031484030187129974	-0.00696227652952075	0.025767792016267776	0.006161920726299286	-0.019369574263691902	-0.04474784433841705	0.0031162016093730927	0.003853939240798354	0.009657161310315132	0.03235146775841713	-0.00206113513559103	0.03295697644352913	0.0668182522058487	0.03570518270134926	
0.003850352019071579	-0.0308140367269516	-0.013488774187862873	-0.03270625323057175	0.03938968852162361	-0.019277403131127357	0.014764959923923016	0.036363743245601654	-0.022509800270199776	0.028871161863207817	0.010059632360935211	0.0028689049649983644	0.011726444587111473	0.03732788562774658	0.001431710785254836	0.015802685171365738	0.034084923565387726	-0.020974108949303627	-0.0103415846824646	0.018879709765315056	-0.016835374757647514	-0.005119121167808771	0.003783345455303788	0.025098903104662895	0.009858808480203152	
0.0063417996279895306	0.03519326075911522	0.006791063584387302	0.0424230694770813	0.029426448047161102	0.01081855595111847	0.0046358415856957436	0.015404392033815384	0.004872634541243315	-0.0650968924164772	-0.02406908944249153	0.043463509529829025	-0.008351695723831654	0.024115651845932007	-0.02403322607278824	0.04880879446864128	-0.006393930409103632	-0.020702658221125603	-0.019684208557009697	0.03452532738447189	-0.000674290640745312	0.0031334806699305773	0.02605813927948475	-0.01891866885125637	0.003976818174123764	
0.036113280802965164	0.02380092442035675	-0.0061319004744291306	0.009318762458860874	0.025543488562107086	0.028016818687319756	-0.023855429142713547	-0.02557317540049553	0.020497772842645645	0.06771795451641083	0.00463067414239049	-0.009674753062427044	-0.004747055005282164	0.00923947524279356	-0.0024501800071448088	0.01733427681028843	-0.02825615555047989	-0.028422201052308083	0.01532730832695961	-0.011775425635278225	-0.016262611374258995	-0.04374873265624046	-0.023019880056381226	0.02501441165804863	-0.018300285562872887	
0.006588541436940432	-0.004262486472725868	0.01957506127655506	0.012248650193214417	-0.013035421259701252	-0.021669073030352592	-0.009284360334277153	0.034925974905490875	0.05403740331530571	-0.032033246010541916	0.0069333892315626144	-0.031514834612607956	-0.060056962072849274	0.008436724543571472	-0.03170345723628998	-0.04373614862561226	-0.013913922011852264	0.0061302268877625465	0.021431388333439827	-0.060188934206962585	0.0019200301030650735	-0.012407699599862099	0.0015295344637706876	-0.027192607522010803	-0.06912941485643387	
-0.02854096330702305	-0.010835868306457996	0.02922714315354824	0.01569528318941593	0.039966482669115067	0.05286217853426933	-0.07655906677246094	0.014638761058449745	0.0008206306374631822	-0.038279756903648376	0.006265243515372276	-0.01813945733010769	-0.018780438229441643	-0.011924074031412601	-0.025122273713350296	-0.0014906045980751514	-0.0012124240165576339	-0.02153833396732807	-0.014951685443520546	-0.05732446536421776	-0.004798334091901779	0.004216376226395369	-0.01717545837163925	0.021568898111581802	-0.004825846757739782	
-0.015095066279172897	-0.009078500792384148	0.02461603656411171	0.019195418804883957	0.01214730367064476	-0.01894715055823326	0.0017224653856828809	-0.009249282069504261	0.0022857487201690674	-0.01813262514770031	-0.004391140770167112	-0.0023273425176739693	0.04207708314061165	-0.013820556923747063	-0.01807275228202343	0.026391061022877693	-0.02887977659702301	-0.008456936106085777	0.010468742810189724	0.0023976732045412064	-0.017475521191954613	-0.024785008281469345	-0.037521298974752426	0.024508070200681686	0.014305204153060913	
-0.044663287699222565	-0.0075423140078783035	0.026644118130207062	-0.012998075224459171	-0.010534294880926609	-0.010259526781737804	-0.006628917995840311	-0.019951315596699715	-0.046368878334760666	-0.014578824862837791	0.0006482006283476949	0.00605129636824131	-0.004636451136320829	0.011415233835577965	0.028297165408730507	-0.0005556967225857079	-0.015137472189962864	-0.00593511713668704	-0.05519699305295944	0.04062439501285553	-0.0008003889815881848	-0.009925071150064468	0.021103860810399055	-0.0634060725569725	0.023313239216804504	
0.05031721293926239	-0.00036935636308044195	-0.0009884302271530032	0.011155002750456333	0.07354960590600967	0.01352379284799099	0.00784463994204998	0.01629709266126156	0.009522412903606892	0.025991877540946007	-0.016581593081355095	-0.0368184819817543	0.009513798169791698	-0.04214424267411232	0.015351626090705395	0.013478627428412437	0.023165160790085793	0.0028936294838786125	0.0002537837717682123	0.0025007445365190506	-0.01422639936208725	-0.012909682467579842	0.009746070951223373	0.03681832551956177	-0.023819999769330025	
-0.016178177669644356	0.04643625393509865	0.03030669316649437	0.013767002150416374	-0.014023683033883572	-0.003014212241396308	-0.044144291430711746	-0.01308684516698122	0.054268524050712585	0.01793668419122696	0.06785061210393906	-0.014944607391953468	0.0045111230574548244	-0.04787669703364372	0.09917295724153519	-0.039192695170640945	0.02379482425749302	0.048995330929756165	0.0318777896463871	0.01444349717348814	-0.03476666286587715	-0.008368415758013725	-0.013719774782657623	0.011455037631094456	-0.013419365510344505	
0.050493985414505005	-0.015357854776084423	-0.01862797886133194	0.004854612052440643	0.0381355956196785	0.008445942774415016	0.009032943286001682	-0.007530515547841787	-0.0054218401201069355	-0.02425101026892662	0.02914007566869259	-0.015038680285215378	-0.005423532333225012	0.004028908908367157	0.01957600750029087	-0.0047741238959133625	0.0005523724830709398	0.0047792005352675915	0.011464903131127357	0.01433897390961647	-0.0008176647825166583	0.03134847432374954	0.01955719105899334	0.006134748924523592	0.008200278505682945	
-0.029956579208374023	-0.02994919940829277	-0.00028702098643407226	0.019427670165896416	-0.05728546902537346	0.01103312335908413	-0.03347005695104599	0.03960307314991951	-0.013172873295843601	0.006968299858272076	0.016062607988715172	-0.025613466277718544	0.020370760932564735	0.002383857499808073	-0.0389363169670105	0.006226780358701944	-0.012216007336974144	0.01979857124388218	-0.01626361906528473	-0.006547659169882536	-0.03001289814710617	0.03378697484731674	-0.04784519970417023	0.05149205029010773	-0.00018007804465014488	
-0.020835276693105698	0.02398952655494213	0.02321331948041916	-0.008855984546244144	0.0013648372841998935	0.004725523293018341	-0.031731512397527695	-0.0029918160289525986	0.0035456016194075346	-0.006864954251796007	0.013563071377575397	-0.0034832083620131016	0.01602419652044773	-0.019364269450306892	-0.005344127304852009	-0.036606498062610626	0.009645672515034676	-0.0060315607115626335	0.011386492289602757	0.02345559559762478	0.015225854702293873	-0.005527568981051445	0.008615802973508835	0.00011958061077166349	0.04595522582530975	
0.06801975518465042	-0.01050126738846302	-0.026437299326062202	-0.02416297048330307	0.010551003739237785	0.0056534637697041035	0.016642116010189056	-0.014462265186011791	0.054491300135850906	0.02375495806336403	0.015618427656590939	0.0518978089094162	-0.014824612997472286	-0.006248777266591787	0.0292148869484663	0.002085266634821892	0.020227128639817238	-0.008689755573868752	-0.02577945590019226	-0.03668767213821411	-0.00030607671942561865	0.0005131720681674778	0.013337284326553345	0.030114512890577316	-0.00016574996698182076	
-0.00922534242272377	-0.01816800981760025	-0.0061105238273739815	0.03533434495329857	0.003426995826885104	0.05680037662386894	0.009850404225289822	-0.05778753384947777	-0.014462603256106377	-0.0006429030327126384	0.007217838894575834	-0.021227698773145676	-0.0030345392879098654	-0.005872043780982494	0.03756280615925789	0.002938196063041687	-0.01672733947634697	0.04540674015879631	-0.009730319492518902	0.028598828241229057	-0.02857573702931404	-0.037540536373853683	0.011320367455482483	-0.0002509531914256513	0.06279067695140839	
-0.017377929762005806	-0.0006732877227477729	0.00038776182918809354	0.017672281712293625	0.003129359567537904	0.04695548862218857	0.039149247109889984	-0.003930897451937199	0.012200409546494484	-0.02525191195309162	0.033322304487228394	-0.026095448061823845	0.05139370262622833	0.05836887285113335	-0.0021675569005310535	-0.0035997829400002956	-0.01218603365123272	-0.0018537122523412108	-0.003795544384047389	-0.020277926698327065	-0.01275941263884306	-0.024160128086805344	-0.015935910865664482	0.02587035484611988	-0.00383298983797431	
0.05843684449791908	0.01588146574795246	0.031741172075271606	-0.016592027619481087	0.01920919120311737	0.019352780655026436	0.013999156653881073	0.03917399048805237	0.04789501428604126	0.018919426947832108	-0.05170118063688278	-0.009782667271792889	0.021750152111053467	0.003694166662171483	0.025730008259415627	-0.006877171341329813	-0.05694467946887016	-0.03221650794148445	-0.008173694834113121	-0.0034584205131977797	-0.03614305332303047	0.014889433048665524	-0.028745483607053757	-0.020550694316625595	-0.022290701046586037	
0.0016839313320815563	0.005090729799121618	0.0016514842864125967	0.02429479919373989	0.020132223144173622	0.0032137795351445675	-0.013318044133484364	-0.030362144112586975	-0.006929518189281225	-0.024380598217248917	0.0014918987872079015	0.01031409204006195	0.03580222278833389	0.007902518846094608	0.004979496356099844	0.00964415818452835	-0.017847388982772827	0.0005424180999398232	0.008718057535588741	-0.009097767062485218	0.0034351241774857044	-0.006860894616693258	-0.020177878439426422	-0.021227294579148293	0.06968824565410614	
-0.03914545848965645	-0.016512185335159302	0.01979110948741436	-0.03212558478116989	0.0011707021621987224	0.027139393612742424	0.024935713037848473	-0.05495544895529747	0.059587154537439346	-0.016861865296959877	0.02827546000480652	-0.04062628373503685	0.02800264209508896	0.06083555892109871	0.031344663351774216	0.01924566924571991	0.017293144017457962	0.008819189853966236	0.012359406799077988	0.0035504470579326153	0.027262084186077118	0.004834976978600025	0.01673574559390545	0.0051956032402813435	0.01088105607777834	
-0.009334437549114227	-0.0233754999935627	0.004983903840184212	0.00238232035189867	0.011070247739553452	0.014142650179564953	0.026129242032766342	-0.0011113971704617143	-0.03097953088581562	-0.026722848415374756	-0.02443956956267357	0.023985031992197037	0.022458955645561218	0.020429503172636032	-0.008341237902641296	-0.0194551944732666	-0.022076647728681564	-0.052523691207170486	0.04180584475398064	-0.011497964151203632	-0.002788974205031991	-0.04482492804527283	0.009142742492258549	0.024648508056998253	-0.03349706530570984	
-0.004236679989844561	0.004478004761040211	0.019078470766544342	0.0409720279276371	0.03228432685136795	0.021024519577622414	-0.009010211564600468	0.017330419272184372	-0.04111466184258461	0.031046057119965553	0.02170409820973873	-0.0235371645539999	-0.011270935647189617	0.06427349895238876	-0.009373260661959648	-0.022226059809327126	-0.008785638958215714	0.006765784230083227	0.02531547285616398	0.02202320098876953	-0.0009907146450132132	-0.00848888698965311	-0.001341510214842856	0.023833245038986206	0.015503461472690105	
0.019874630495905876	-0.00439148023724556	-0.006106853019446135	-0.02408810704946518	0.014544920064508915	-0.003255665535107255	0.01517103798687458	-0.03318288177251816	-0.04631641134619713	-0.021095333620905876	0.02217610739171505	0.0065787481144070625	0.0031426409259438515	-0.06281118094921112	0.036699969321489334	-0.008053608238697052	0.009323342703282833	-0.0362238734960556	0.016834530979394913	0.015403112396597862	0.02897094562649727	-0.02052760310471058	-0.005822828505188227	0.0017190519720315933	0.04389263689517975	
-0.026382649317383766	-0.049462102353572845	-0.025270171463489532	-0.015101379714906216	-0.0031586543191224337	-0.005205940455198288	-0.016616828739643097	0.0036562462337315083	0.04631480202078819	-0.021819036453962326	-0.011112571693956852	-0.025525275617837906	0.006275706924498081	-0.03090217150747776	-0.0033888649195432663	-0.011671032756567001	-0.04246010631322861	0.02730344794690609	0.015918005257844925	-0.05194143205881119	0.0030958710703998804	-0.04191827401518822	0.004403654020279646	-0.03282581642270088	-0.024725235998630524	
0.022638235241174698	-0.012500559911131859	0.01897997409105301	0.025677228346467018	-0.010314236395061016	0.00017311707779299468	0.030650215223431587	-0.001767672598361969	0.015864362940192223	-0.017997262999415398	-0.0063516441732645035	0.031488124281167984	0.004302622750401497	0.03811536729335785	-0.040582042187452316	-0.017802292481064796	0.02605529874563217	-0.05947958305478096	0.014992370270192623	-0.004069280344992876	-0.0022844108752906322	0.02760397642850876	0.024424122646450996	0.030127214267849922	-0.023379333317279816	
-0.008798735216259956	0.011200923472642899	-0.052777260541915894	-0.011588335037231445	-0.04280112311244011	-0.025947216898202896	0.004351570270955563	0.00156008405610919	0.022889940068125725	0.014927094802260399	-0.0014391967561095953	0.03804571181535721	-0.033979423344135284	-0.03673580288887024	-0.009023050777614117	0.0010978274513036013	-0.031216541305184364	0.006267842836678028	0.049850381910800934	-0.03153157979249954	-0.011673906818032265	-0.00881359912455082	-0.02734319679439068	-0.037852004170417786	0.0029467304702848196	
-0.028981056064367294	-0.026134708896279335	-0.008567282930016518	-0.005865600425750017	0.026466887444257736	0.023818399757146835	-0.03023676574230194	0.036630675196647644	0.016202373430132866	-0.00925554521381855	0.011784179136157036	-0.01332554779946804	-0.018895931541919708	-0.0015360747929662466	0.03393670544028282	0.04192177206277847	0.036665868014097214	0.004005360882729292	0.03413742780685425	-0.0028124703094363213	0.014831452630460262	-0.021274065598845482	-0.002075553871691227	-0.02309620939195156	0.002835923805832863	
0.02362639084458351	-0.0330219492316246	-0.01431494951248169	-0.045347101986408234	0.0072469268925487995	0.06309416890144348	0.0017400671495124698	0.02270406112074852	-0.025430556386709213	0.023279329761862755	0.02002793736755848	-0.0029148845933377743	-0.01966414600610733	0.01925632730126381	-0.002537922700867057	-0.017527861520648003	0.014028489589691162	0.009946012869477272	-0.03310002014040947	-0.004847205709666014	-0.015051331371068954	-0.00586608937010169	-0.034266501665115356	-0.01190921850502491	-0.044874157756567	
0.018965760245919228	-0.006638281978666782	0.014536071568727493	-0.002684216946363449	0.05747152864933014	0.02460017241537571	-0.08782739192247391	-0.003162468085065484	0.0006025088368915021	-0.017969835549592972	-0.014603132382035255	3.7371639336925e-05	-0.018940752372145653	-0.0063466159626841545	-0.0043501402251422405	-0.013353943824768066	0.0003272401518188417	0.007811966817826033	0.017410200089216232	-0.028965096920728683	-0.03604536131024361	-0.012521892786026001	0.04790433123707771	0.009639847092330456	0.002612749580293894	
-0.0017457931535318494	0.028953323140740395	0.00590638117864728	0.02850223332643509	-0.035846613347530365	0.03199939429759979	0.019081003963947296	-0.04947694018483162	-0.012083571404218674	-0.013184238225221634	0.06863794475793839	0.028774777427315712	-0.0011661838507279754	-0.02252676524221897	0.0008903240086510777	-0.036798957735300064	0.01476839929819107	0.05660819634795189	-0.01629308983683586	-0.039431970566511154	0.01558329351246357	-0.006512510124593973	0.04331236332654953	0.001496223034337163	0.0006106771761551499	
-0.026824817061424255	0.014049330726265907	0.012820238247513771	-0.010962219908833504	0.05258814990520477	-0.014973092824220657	-0.022626303136348724	0.008994114585220814	-0.006443687714636326	-0.03153573349118233	-0.022035013884305954	0.01764369197189808	-0.004995493218302727	0.052065979689359665	0.04099345579743385	0.002372486051172018	0.001819029450416565	-0.019610745832324028	0.02901410683989525	0.05220654234290123	0.008421499282121658	0.009546567685902119	0.008131975308060646	-0.011513068340718746	-0.04390835016965866	
-0.023779865354299545	0.02138524316251278	-0.012716799974441528	-0.048453640192747116	0.018479781225323677	-0.014195907860994339	-0.029958520084619522	0.007480777334421873	-0.009272990748286247	-0.018131326884031296	-0.048461318016052246	-0.0645250454545021	-0.03247586265206337	-0.013716176152229309	9.926634083967656e-05	0.026164257898926735	0.022042499855160713	0.014090074226260185	-0.006166601087898016	0.0030776190105825663	0.03219291567802429	0.028546016663312912	0.028267601504921913	0.024463491514325142	-0.014580355025827885	
-0.012906059622764587	-0.014917602762579918	0.04173191636800766	-0.03896186873316765	-0.017744790762662888	-0.018210573121905327	0.0015796992229297757	-0.03999380022287369	0.008554434403777122	-0.023586519062519073	0.015853367745876312	0.01851545460522175	0.013251637108623981	0.042876143008470535	0.01441465225070715	-0.025347966700792313	0.028498029336333275	0.06165764480829239	0.006492072716355324	-0.0060676890425384045	0.018939591944217682	-0.016394583508372307	-0.007698539644479752	-0.008993891067802906	0.015412850305438042	
-0.00019163092656526715	-0.028996137902140617	-0.003993563819676638	-0.00954192504286766	0.02782122790813446	-0.010558104142546654	0.02150365151464939	-0.015667855739593506	-0.050480157136917114	-0.09145823121070862	-0.005826596636325121	-0.03893701359629631	0.018108045682311058	0.07546503841876984	0.040798839181661606	0.027317281812429428	-0.0223073847591877	0.004026474896818399	-0.01868360862135887	-0.01794148050248623	-0.013275526463985443	0.013953818939626217	0.05086555704474449	0.006051079835742712	0.00860687531530857	
0.025796320289373398	-0.043352141976356506	-0.03696257993578911	0.0061667910777032375	0.060037367045879364	0.010243556462228298	-0.05451583489775658	0.026311833411455154	-0.03653921186923981	0.003176964120939374	0.01284878607839346	-0.003781537525355816	0.030469316989183426	0.024337533861398697	-0.00048510124906897545	-0.005743978079408407	-0.02707153558731079	0.043717965483665466	0.04432078078389168	0.060738496482372284	-0.018937965855002403	-0.01666855625808239	0.020765341818332672	-0.00882121454924345	0.02813488245010376	
0.010795247741043568	-0.0031683542765676975	-0.005414459854364395	-0.013322954066097736	-3.636693872977048e-05	-0.04997437447309494	0.013942490331828594	-0.010103805921971798	-0.07200845330953598	0.028592100366950035	-0.01053436566144228	-0.024804087355732918	0.00022276875097304583	-0.004731542430818081	-0.0034705009311437607	-0.030545704066753387	0.03517862781882286	-0.006862083449959755	-0.003453298471868038	0.01831737905740738	-0.027218112722039223	-0.011204598471522331	0.006303394678980112	0.004670067224651575	0.010123822838068008	
0.04709972068667412	-0.05528387427330017	0.005116953980177641	0.011161254718899727	-0.006322626024484634	0.019638078287243843	0.033097874373197556	-0.03664660453796387	0.002439031843096018	0.017255684360861778	-0.046949099749326706	-0.028127707540988922	0.046327222138643265	-0.04504093527793884	0.004225549753755331	0.012846296653151512	0.04216231033205986	-0.000578415987547487	0.021946577355265617	-0.019740920513868332	0.019730189815163612	-0.003800559788942337	-0.029516039416193962	0.035624291747808456	-0.03634548559784889	
0.03552628681063652	0.02618720754981041	-0.010568084195256233	0.022661374881863594	0.03642013669013977	-0.05958433076739311	-0.009900450706481934	-0.02866246923804283	0.05604957044124603	0.023067045956850052	-0.017166947945952415	-0.0344906710088253	0.04780184105038643	-0.009352815337479115	0.045789822936058044	-0.0350019596517086	0.06563334912061691	0.013346086256206036	0.00984493363648653	0.010978815145790577	0.04327862709760666	-0.006835950538516045	-0.05750013142824173	0.01347040943801403	0.05896880105137825	
0.005400539375841618	-0.020434368401765823	0.02459409087896347	0.024593766778707504	0.0019335428951308131	0.015938252210617065	-0.011393407359719276	0.007941074669361115	-0.012028957717120647	-0.012744816951453686	0.0029534120112657547	-0.02307259663939476	-0.030344165861606598	-0.05324771627783775	-0.04130346328020096	0.021852748468518257	-0.030094748362898827	0.016925517469644547	0.010542402043938637	-0.015695493668317795	-0.03994124010205269	-0.0036901680286973715	0.003923430107533932	0.02496001124382019	0.014996897429227829	
-0.025687064975500107	-0.006982138846069574	-0.010415618307888508	0.03242778033018112	0.01765804924070835	0.02959951013326645	0.013430767692625523	-0.011940523982048035	-0.021379901096224785	0.0020676138810813427	-0.0009418470435775816	-0.026294486597180367	0.0005888552987016737	0.000885975023265928	0.002720673568546772	0.0018286381382495165	0.00672191521152854	0.005254953633993864	0.04773249104619026	-0.03057640790939331	0.013838391751050949	0.03701267018914223	-0.03710748627781868	-0.012205606326460838	-0.0050186412408947945	
0.0057832831516861916	0.03007555939257145	0.017742959782481194	-0.01424912828952074	0.03366976976394653	-0.04044202342629433	0.013441652059555054	-0.02404140494763851	0.020107798278331757	0.009938728995621204	-0.057604819536209106	-0.012744775973260403	-0.0073462617583572865	-0.0038100800011307	-0.01102761086076498	0.009135986678302288	-0.052175186574459076	0.028932439163327217	0.013560550287365913	-0.014664573594927788	0.038624294102191925	-0.01038426999002695	-0.03556522727012634	-0.024853503331542015	0.025847502052783966	
-0.06011992320418358	-0.007104749791324139	-0.020311264321208	-0.04078042134642601	0.048944275826215744	-0.034775055944919586	0.005853272974491119	-0.004618959501385689	-0.031844399869441986	0.011450325138866901	-0.02667052298784256	-0.003494021249935031	0.008918698877096176	-0.03231807425618172	-0.0009378378163091838	0.006891517899930477	-0.028412802144885063	-0.04343454912304878	-0.005236551631242037	-0.02995176613330841	0.022278500720858574	-0.0628768652677536	-0.005684571340680122	0.06611257046461105	-0.027005426585674286	
-0.00498372595757246	-0.0001061681323335506	-0.01937505044043064	-0.01051553338766098	-0.00017353336443193257	0.02828294225037098	0.009905715472996235	-0.04349569231271744	-0.005231339950114489	0.010389105416834354	0.004593384452164173	0.061214566230773926	-0.03244399279356003	-0.013657979667186737	0.03806399181485176	0.017067644745111465	-0.031630247831344604	-0.021596617996692657	-0.0005303901853039861	0.030504999682307243	0.031343262642621994	-0.0037132934667170048	-0.03615623712539673	0.02329791523516178	-0.06402913480997086	
-0.034941501915454865	0.03906237706542015	0.061798106878995895	0.017134886234998703	0.02746548131108284	-0.0007328042993322015	-0.022203143686056137	0.0071944440715014935	-0.0025765320751816034	-0.020718108862638474	-0.00962106417864561	-0.010011094622313976	-0.0264903511852026	0.02388976514339447	-0.038068726658821106	-0.012335576117038727	0.009429649449884892	0.013365880586206913	-0.004280938301235437	-0.01294099260121584	-0.027699481695890427	0.008158784359693527	0.03554580360651016	-0.004649339709430933	0.005076759494841099	
-0.013206890784204006	0.046105287969112396	-0.05944138020277023	-0.019935626536607742	-0.04775070771574974	-0.0014957565581426024	0.013105347752571106	0.004370410926640034	-0.036738451570272446	0.0086213955655694	0.0061157941818237305	-0.018804363906383514	-0.018778126686811447	-0.04446283355355263	0.010447417385876179	0.020344514399766922	0.019148262217640877	0.05676022544503212	0.01218227669596672	0.009317397139966488	0.02277095429599285	-0.007159706670790911	0.011160901747643948	0.02108958549797535	0.026798030361533165	
-0.017348967492580414	-0.0055587743408977985	0.022724827751517296	-0.022304220125079155	-0.021839365363121033	0.021696066483855247	-0.06442391127347946	-0.002552168443799019	-0.04204969108104706	0.030340321362018585	0.006196837406605482	-0.023286454379558563	-0.017936279997229576	0.04139215499162674	0.009838973172008991	0.017628788948059082	-0.0026105318684130907	-0.004140777513384819	-0.019991392269730568	0.04861489683389664	0.02391299605369568	-0.0487603060901165	0.00161867612041533	-0.008764559403061867	0.04727592691779137	
0.05270633101463318	-0.02024284191429615	-0.010571252554655075	-0.025474511086940765	0.021016938611865044	-0.0458679273724556	-0.007034457754343748	0.021122848615050316	-0.046610958874225616	0.01853867992758751	0.01783997379243374	0.00032528943847864866	-0.005260032135993242	-0.013861355371773243	0.029656274244189262	-0.004998698830604553	-0.014555989764630795	0.010262924246490002	-0.010219039395451546	-0.039812661707401276	-0.02336604706943035	-0.057206083089113235	0.04836973920464516	0.005059604998677969	0.006214328575879335	
-0.007623821496963501	-0.017772790044546127	0.008710342459380627	-0.018327908590435982	0.022239524871110916	0.029125161468982697	-0.008688462898135185	-0.01714613102376461	0.03155999258160591	0.055375371128320694	0.00022649113088846207	0.03225857391953468	-0.010887551121413708	-0.005342982243746519	-0.0321534238755703	0.0035613307263702154	-0.07841452956199646	-0.04240742325782776	0.0299247857183218	0.036807671189308167	-0.011978881433606148	0.011211729608476162	0.0032019573263823986	-0.0009722788818180561	0.011000115424394608	
0.0004897717153653502	-0.09384728968143463	0.005784512497484684	0.005120529793202877	0.02300236001610756	0.02584218792617321	0.008249687030911446	0.005007364321500063	0.015654774382710457	0.014247520826756954	-0.0229173731058836	-0.02472040429711342	-0.004490897059440613	0.040845148265361786	0.015802601352334023	0.05267416685819626	-0.02090798132121563	0.024595316499471664	-0.04205009341239929	0.02134285867214203	0.0028683270793408155	-0.0020777711179107428	0.000701804761774838	0.04307137057185173	-0.02364528365433216	
-0.03825988620519638	-0.012631378136575222	0.02165820263326168	0.009853949770331383	-0.0023461238015443087	-0.031221503391861916	-0.011673087254166603	0.004617470316588879	0.012655922211706638	0.07239693403244019	0.041224509477615356	0.016654573380947113	-0.03157131373882294	0.001387830707244575	0.044494036585092545	-0.004202165175229311	0.01009694766253233	-0.005552755668759346	-0.012152054347097874	0.02887309156358242	-0.004651133436709642	-0.055291056632995605	-0.020319081842899323	0.021440258249640465	0.045925576239824295	
0.002746604150161147	-0.030778653919696808	-0.005214552860707045	-0.059890273958444595	-0.029881225898861885	-0.033577751368284225	-0.005011885892599821	0.0004556728235911578	-0.053423263132572174	0.04310266301035881	0.018239837139844894	0.03189622983336449	-0.013592486269772053	-0.03639421612024307	0.03781003877520561	0.05783325806260109	-0.03296975791454315	0.00022480430197902024	-0.04619605094194412	0.01291210949420929	-0.03179028257727623	-0.032285477966070175	-0.015598231926560402	0.015695801004767418	0.022628357633948326	
0.016321981325745583	-0.0013232766650617123	-0.029161835089325905	0.004147616680711508	-0.024008426815271378	0.04496970772743225	0.011599614284932613	-0.029262464493513107	0.0336138978600502	-0.00010998509969795123	0.01746203750371933	-0.02008114568889141	-0.01488986425101757	0.02447386085987091	0.011528000235557556	0.018639348447322845	0.012671038508415222	-0.013968168757855892	0.04960097000002861	-0.017539136111736298	0.015396397560834885	-0.004178361035883427	0.025035986676812172	0.011362052522599697	0.03603003919124603	
0.006925872061401606	-0.04754611477255821	-0.026485459879040718	-0.019278163090348244	0.030485849827528	0.015141925774514675	-0.01824941672384739	0.059650685638189316	0.036537595093250275	0.028119979426264763	-0.031229320913553238	-0.020462367683649063	-0.020525328814983368	-0.005510099697858095	0.02716316282749176	-0.005160624627023935	-0.020924706012010574	-0.08298533409833908	-0.01415152009576559	0.035280611366033554	0.020926116034388542	-0.033264197409152985	-0.004538076464086771	0.03360644727945328	-0.03635818511247635	
-0.012498830445110798	-0.018520792946219444	-0.006203530356287956	-0.009254288859665394	-0.01453347783535719	0.018758265301585197	-0.010814012959599495	-0.05485052987933159	0.011480018496513367	-0.006956377066671848	0.015078620053827763	-0.022173073142766953	0.005089897662401199	0.05196516588330269	-0.002383172744885087	0.0334114246070385	0.018422182649374008	-0.038562338799238205	0.01360669732093811	0.03997169807553291	-0.0507088229060173	0.02174391970038414	0.0225853081792593	-0.0014735455624759197	-0.029306204989552498	
0.019745154306292534	0.0005493942881003022	-0.010868391953408718	-0.06215141713619232	0.06216065213084221	-0.05963031202554703	-0.013511626049876213	0.022880351170897484	-0.024111494421958923	-0.012883459217846394	0.04796399921178818	-0.038624297827482224	9.16681092348881e-05	-0.01713549718260765	0.007548121735453606	0.025595055893063545	0.017355145886540413	0.026187213137745857	-0.044850464910268784	0.013083094730973244	0.037629056721925735	-0.0032533458434045315	-0.011398638598620892	0.0012515234993770719	0.011621546000242233	
0.022165384143590927	0.009315497241914272	0.03805264085531235	-0.003262282581999898	-0.018614990636706352	0.02733425423502922	0.021910056471824646	0.014728193171322346	0.03447907790541649	-0.026324568316340446	-0.02983432076871395	-0.027996467426419258	0.013313543051481247	0.012935950420796871	0.04742216318845749	0.00473028002306819	-0.029293881729245186	0.06675417721271515	0.02279215306043625	0.041400231420993805	0.01677127182483673	-0.03163417428731918	0.012106919661164284	0.03759971261024475	-0.04469843581318855	
0.03607305511832237	-0.016311869025230408	-0.03396911174058914	0.011619486846029758	0.024256471544504166	0.0016195843927562237	-0.004511283244937658	-0.04355168715119362	0.02517871744930744	-0.011712598614394665	0.021113375201821327	0.008445527404546738	-0.01755310222506523	-0.013834944926202297	0.0014624187024310231	-0.009988119825720787	-0.0007278482662513852	-0.03142213448882103	0.0309572983533144	0.016912758350372314	-0.013980784453451633	-0.007264138665050268	0.006813106592744589	-0.0015211973804980516	0.029492702335119247	
0.03351294994354248	-0.012937645427882671	0.011115901172161102	0.014962887391448021	0.01338160503655672	-0.007555496878921986	-0.042616840451955795	0.006499393377453089	0.04592099040746689	0.0025276795495301485	0.0026139349211007357	-0.03842867910861969	-0.056596577167510986	0.0213918536901474	-0.04329831525683403	0.0005518104881048203	-0.01187326479703188	0.0018800190882757306	-0.030373984947800636	0.04680059850215912	-0.006001763045787811	-0.0518447607755661	0.020268434658646584	0.00964620616286993	-0.05050184205174446	
0.020533911883831024	-0.07492083311080933	0.029167167842388153	-0.015169266611337662	-0.01943167671561241	0.04263238236308098	-0.003995335195213556	0.020327890291810036	-0.03890025243163109	-0.005510894116014242	0.025587618350982666	-0.010527927428483963	0.004931042902171612	-0.04382136091589928	-0.046608876436948776	0.0013891196576878428	0.044892292469739914	0.024449972435832024	-0.013079539872705936	-0.006981888320297003	-0.008416522294282913	0.013000843115150928	-0.007677342742681503	-0.0013876380398869514	-0.00017160655988845974	
0.0005805175169371068	0.0017122436547651887	-0.03959168866276741	0.022347306832671165	-0.026613252237439156	-0.017196469008922577	-0.035390209406614304	0.01115461252629757	-0.00845708791166544	0.027809452265501022	-0.034931328147649765	0.03886418417096138	0.019358962774276733	0.020050203427672386	0.03188764303922653	0.009734414517879486	0.025046812370419502	0.005792665760964155	0.0525197759270668	0.007655976805835962	0.04034403711557388	0.06755384057760239	0.05642345920205116	0.0355117991566658	0.03623342514038086	
0.04754384234547615	-0.018826117739081383	0.04079220071434975	-0.011153818108141422	-0.008804448880255222	0.006608814932405949	0.04336714372038841	-0.015323878265917301	-0.044708944857120514	-0.02318347990512848	-0.018917646259069443	-0.030352843925356865	0.002616673009470105	0.03333429619669914	-0.056973833590745926	-0.0008371078292839229	-0.008488279767334461	0.029146669432520866	0.02399650402367115	0.0004790901148226112	-0.04831276088953018	0.013596238568425179	-0.026815054938197136	-0.021403372287750244	0.014763684943318367	
0.06691115349531174	-0.0373053215444088	-0.020186180248856544	-0.009628557600080967	-0.024766096845269203	-0.019878186285495758	0.00489928899332881	0.0098779471591115	0.004154362715780735	0.03157830610871315	0.045830611139535904	0.039049599319696426	-0.055432211607694626	0.00011643150355666876	0.01601608470082283	-0.025753404945135117	0.022507859393954277	-0.007805773988366127	7.232139614643529e-05	-0.004955558106303215	-0.022438807412981987	0.0009079279261641204	-0.040833331644535065	6.043574830982834e-05	0.012623551301658154	
-0.008774187415838242	-0.014837049879133701	0.04451368376612663	-0.04276122897863388	0.006136908661574125	0.02929963730275631	-0.012073387391865253	0.004977927543222904	-0.018985509872436523	0.013670862652361393	0.013851640745997429	0.037437137216329575	-0.0190762709826231	-0.05114472657442093	-0.004040138330310583	0.020744463428854942	0.013250373303890228	0.005808404181152582	-0.0032153839711099863	-0.005284864921122789	0.042430054396390915	0.02225063554942608	-0.020603828132152557	0.00025740047567524016	0.027062926441431046	

 
-9.960425813915208e-05	0.00014926274889148772	2.4676315661054105e-05	5.7307253882754594e-05	5.084949225420132e-05	7.00355158187449e-05	4.000695116701536e-05	-3.4880924886238063e-06	-2.520888483559247e-05	-2.0703597328974865e-05	-6.749886961188167e-05	4.340749728726223e-05	1.8074513718602248e-05	0.00014895149797666818	-1.3654121175932232e-05	9.135905565926805e-05	

 
-0.009308039210736752	0.011364937759935856	-0.08124396950006485	-0.15714317560195923	0.0941353514790535	0.06787920743227005	0.0064415354281663895	0.021613629534840584	0.01716228388249874	-0.0872018113732338	0.006268571130931377	0.04338239133358002	0.09457913041114807	0.06981916725635529	0.03756316006183624	0.0811362937092781	0.012497121468186378	-0.005894641857594252	-0.012648490257561207	0.03098243474960327	-0.033578164875507355	0.02770838886499405	-0.0693492740392685	0.008856246247887611	0.02020813710987568	
-0.1551489681005478	-0.03891269862651825	0.04288654401898384	-0.08803960680961609	0.07262850552797318	-0.08738280832767487	0.03348555043339729	0.035545945167541504	-0.08401370048522949	0.03430364653468132	-0.04168088734149933	0.005185944493860006	0.04886220023036003	0.0016757118282839656	0.006708214059472084	0.08340968191623688	0.0005834930343553424	0.027066323906183243	-0.10652265697717667	0.004101762548089027	0.06915315985679626	-0.029937967658042908	0.00786189828068018	0.06257461756467819	-0.009497126564383507	
0.007654659915715456	0.0408819317817688	-0.03813925385475159	0.06973403692245483	0.003431019140407443	-0.0603751540184021	-0.07933828234672546	-0.007159319706261158	0.01748730055987835	0.09941402822732925	0.09338107705116272	-0.05074499174952507	0.06373317539691925	-0.03372936695814133	0.08677055686712265	0.08327382802963257	-0.03487459570169449	0.04579809308052063	0.047299861907958984	0.03855627030134201	-0.12079562991857529	-0.12124402821063995	0.011303645558655262	-0.050660379230976105	-0.1525772362947464	
-0.008449867367744446	0.1623789221048355	0.011758994311094284	0.019467290490865707	-0.02635844051837921	0.006146606989204884	-0.0037231692112982273	0.009503562934696674	-0.029236823320388794	-0.046223193407058716	0.012812416069209576	-0.004125922918319702	0.0468745082616806	0.037376731634140015	0.004647100809961557	-0.028503866866230965	-0.04676533490419388	0.08487478643655777	-0.022265486419200897	0.030322778970003128	0.0664362907409668	0.0543445348739624	-0.07050853967666626	-0.06663678586483002	-0.025330999866127968	
-0.009989384561777115	0.045696403831243515	0.004534368868917227	0.024698380380868912	-0.10636374354362488	0.060917776077985764	-0.06318367272615433	0.04382645711302757	0.051530029624700546	0.011385046876966953	0.03354634344577789	-0.07421904057264328	-0.05918608233332634	-0.06728123128414154	-0.0033867827150970697	-0.14057588577270508	-0.05149640887975693	0.023434948176145554	0.012910271063446999	0.034456390887498856	-0.035542555153369904	-0.06700493395328522	0.02151460014283657	0.06163311377167702	-0.011996051296591759	
-0.028374262154102325	0.046638090163469315	-0.016077406704425812	0.03953097388148308	0.10748714953660965	-0.05686354264616966	0.08814220130443573	0.05516522377729416	-0.02686065249145031	-0.07518912851810455	-0.013935787603259087	-0.021922998130321503	-0.0825795829296112	-0.027738047763705254	0.025377539917826653	-0.0535653792321682	0.06970648467540741	-0.08004119992256165	-0.045329317450523376	0.09718575328588486	0.03503771126270294	-0.021595366299152374	-0.05925825238227844	0.04741116985678673	0.0026239855214953423	
0.09215149283409119	-0.012094968929886818	0.00548548623919487	-0.01769407093524933	-0.013339675962924957	0.09702861309051514	0.0916166827082634	-0.05014577880501747	-0.03478553146123886	-0.07391789555549622	-0.02761167287826538	-0.009238269180059433	0.01514147873967886	-0.007532209623605013	-0.09278620034456253	0.044167228043079376	0.016001416370272636	0.05907058343291283	-0.013992376625537872	0.014708236791193485	-0.0352533794939518	0.12524136900901794	-0.0672735944390297	0.04111272469162941	0.0008202104363590479	
0.0990816280245781	0.097611203789711	-0.010277315974235535	0.043350666761398315	0.0931248739361763	0.01100613921880722	-0.05842364579439163	0.023650068789720535	-0.09048274159431458	0.01660320721566677	0.14161741733551025	-0.03048974648118019	-0.008628382347524166	0.0859256461262703	-0.0036133446265012026	0.055903080850839615	-0.041217006742954254	-0.010459676384925842	0.02138163521885872	-0.09990018606185913	0.0066556562669575214	-0.11434239894151688	-0.11652591079473495	0.004349482711404562	-0.001418704749085009	
-0.0816873088479042	0.007721052039414644	-0.10876384377479553	0.08423878252506256	0.00803939439356327	0.07761433720588684	0.08992122858762741	-0.14553728699684143	-0.0417969711124897	0.0659407302737236	-0.05215033143758774	-0.03651939705014229	0.033813826739788055	-0.017098436132073402	-0.04003310576081276	-0.02436363883316517	0.05114557966589928	0.004048576578497887	0.04875790327787399	-0.027213402092456818	-0.019784003496170044	0.03663076087832451	-0.06018377095460892	0.04985292628407478	0.011145064607262611	
-0.028477653861045837	0.036784298717975616	-0.07078038901090622	-0.027691243216395378	0.044603876769542694	0.0005264365463517606	-0.08488412201404572	-0.001643260708078742	0.10967104136943817	-0.002257545245811343	0.022639160975813866	0.05103772133588791	0.012385835871100426	-0.07719969004392624	0.014341308735311031	-0.10566473007202148	-0.08088713139295578	-0.03522486239671707	0.041800957173109055	-0.007991652004420757	-0.0076390658505260944	0.14196622371673584	-0.01878703013062477	0.027860939502716064	0.015246476978063583	
-0.04706106334924698	0.010581554844975471	-0.08073339611291885	0.06591970473527908	-0.012013922445476055	-0.07161395251750946	-0.021277781575918198	0.022540627047419548	0.05879782885313034	0.09645014256238937	0.004367385059595108	-0.01423613354563713	-0.08537116646766663	-0.11693335324525833	0.00935475155711174	-0.035607561469078064	-0.11683839559555054	0.0717131644487381	0.01374251488596201	-0.05608413368463516	0.02417098917067051	-0.03053102269768715	-0.035427577793598175	-0.019529232755303383	0.10724763572216034	
-0.022867951542139053	-0.00605686055496335	-0.006602930836379528	0.016156472265720367	0.011416583321988583	-0.08501464128494263	-0.02366829290986061	0.09534855931997299	0.06903251260519028	-0.15257887542247772	-0.05307874456048012	-0.03281693160533905	0.03507615625858307	0.008342446759343147	0.00920884683728218	-0.06305830925703049	-0.05484712868928909	-0.03111257404088974	0.008486426435410976	0.014363864436745644	0.13497386872768402	0.049282919615507126	0.03204553201794624	-0.07784262299537659	0.09138260781764984	
-0.04648187384009361	-0.046898577362298965	-0.06009187549352646	0.012547308579087257	0.04623394459486008	-0.1208924874663353	-0.07459135353565216	-0.010318699292838573	-0.08101745694875717	-0.02175552025437355	-0.015946974977850914	0.07999145984649658	-0.004328115843236446	0.18971958756446838	0.014237897470593452	-0.03943931683897972	-0.04763610661029816	-0.05905700847506523	-0.02472323551774025	0.048420604318380356	7.063999510137364e-05	0.010700847953557968	0.031888484954833984	0.008755002170801163	0.0071546402759850025	
0.026748279109597206	0.11606466770172119	0.030651526525616646	0.08355782181024551	0.03503459692001343	0.0002529644116293639	0.007301882840692997	-0.004522455390542746	-0.0012788960011675954	0.006695544347167015	-0.11562129855155945	0.00214755698107183	0.0715794712305069	-0.032538916915655136	-0.12023766338825226	-0.018236879259347916	0.030843360349535942	-0.022171281278133392	-0.014155309647321701	0.01543433777987957	0.03927332162857056	0.0004301518201828003	0.04157952219247818	-0.06486621499061584	0.08789881318807602	
-0.05252379551529884	-0.1092052087187767	-0.02709132432937622	0.013877471908926964	0.0031056057196110487	0.06702966243028641	0.04084588959813118	-0.08171048760414124	-0.03746898099780083	0.041906315833330154	0.12280847132205963	-0.027286041527986526	-0.021489180624485016	0.09314645826816559	0.11191517114639282	0.10955575108528137	0.03612278401851654	-0.0778786763548851	0.05818920582532883	0.06427408754825592	-0.0702105313539505	-0.1294049471616745	0.10876480489969254	0.12966613471508026	-0.14235788583755493	
-0.060744985938072205	-0.030007336288690567	-0.02946474216878414	0.1010584756731987	0.08725064992904663	0.11720338463783264	-0.03910582512617111	0.10495778173208237	0.076708123087883	0.10619521886110306	0.038410138338804245	-0.02821957878768444	0.008078298531472683	0.0005000163218937814	0.009886563755571842	0.017835259437561035	-0.035701025277376175	-0.016617262735962868	-0.03877247869968414	-0.06413953751325607	0.16275225579738617	-0.01892910525202751	0.03977794200181961	0.04870295152068138	0.018812526017427444	
-0.025904977694153786	0.04661029577255249	0.061489809304475784	0.04633929207921028	-0.09040069580078125	-0.06738774478435516	-0.07912483811378479	0.06962120532989502	0.07664866745471954	0.009549329988658428	0.0059097097255289555	-0.051241446286439896	-0.02677558735013008	0.039854150265455246	0.0079753827303648	0.02701568976044655	-0.06031113117933273	0.06070380657911301	-0.020810570567846298	0.05798664689064026	-0.11860232055187225	0.09032741189002991	-0.03744496777653694	0.00432337773963809	0.0037405698094516993	
-0.051417622715234756	0.054197441786527634	-0.09945111721754074	-0.01463103573769331	-0.022306937724351883	0.07022549957036972	-0.05952782183885574	-0.02367289364337921	-0.019699430093169212	0.02556426264345646	-0.01728931814432144	0.09678901731967926	-0.06367933750152588	-0.01683783158659935	0.049013081938028336	-0.07162324339151382	0.08161094784736633	-0.061888884752988815	-0.04118889942765236	-0.03974517434835434	-0.045178961008787155	-0.05741230770945549	-0.1550878882408142	0.06150856241583824	0.030520224943757057	
0.07651394605636597	0.0884648859500885	0.01020828541368246	0.030353737995028496	0.07401864230632782	0.054066915065050125	-0.051210515201091766	-0.020421884953975677	-0.16859951615333557	0.05074891448020935	-0.05117546766996384	0.10273084044456482	0.04225410893559456	0.014212016947567463	-0.03531219810247421	-0.15373967587947845	-0.03606351837515831	0.12767483294010162	-0.003073350293561816	0.0021021668799221516	-0.01990327797830105	0.026773441582918167	-0.008567573502659798	-0.10840992629528046	0.10934107005596161	
0.029309634119272232	0.03625062480568886	0.055773284286260605	0.0712793692946434	0.03637712821364403	0.07215210050344467	-0.001785716856829822	-0.04267842322587967	-0.05784865468740463	0.048835720866918564	-0.03386072441935539	0.03995031863451004	-0.003180506406351924	-0.06562436372041702	-0.13788026571273804	-0.006530106533318758	0.045348748564720154	-0.07585437595844269	-0.029909424483776093	0.0026499968953430653	-0.05973096191883087	-0.12341663986444473	-0.07060989737510681	0.02465623803436756	0.0712079182267189	
-0.0536835603415966	0.0602128691971302	0.054303448647260666	0.11907494068145752	-0.12109597772359848	0.025427166372537613	-0.04287164285778999	0.06484754383563995	0.024011818692088127	-0.14860044419765472	0.004971318878233433	-0.0057208845391869545	0.011629126034677029	-0.037060242146253586	-0.05493371933698654	-0.0036715350579470396	0.0749010369181633	-0.03775792568922043	-0.04901120066642761	0.17153827846050262	0.09285792708396912	0.10562300682067871	0.03668462857604027	-0.05667572841048241	-0.06377509236335754	
-0.03500472381711006	-0.014545830897986889	-0.09455182403326035	-0.014271893538534641	0.056582871824502945	0.033238720148801804	0.11194963753223419	0.07206422090530396	0.019628677517175674	-0.030280139297246933	-0.029456589370965958	-0.03866159915924072	0.005214028060436249	0.052603304386138916	-0.176162987947464	-0.13553576171398163	-0.05456358194351196	0.06893251091241837	0.0032304509077221155	0.014817253686487675	0.10956075042486191	-0.004631299991160631	-0.023796910420060158	-0.0006270381272770464	-0.06526020914316177	
0.06754547357559204	0.02467522956430912	0.026693593710660934	-0.07654204964637756	0.11529520153999329	0.037081990391016006	-0.11985340714454651	0.0866880863904953	-0.08436820656061172	0.09702488034963608	-0.11592067033052444	-0.14568458497524261	-0.09154874831438065	-0.08889329433441162	-0.14610707759857178	0.043285440653562546	0.025277886539697647	0.06385322660207748	0.008390242233872414	0.020368333905935287	0.05231107026338577	-0.012427696026861668	0.04634444788098335	0.09600382298231125	-0.10770178586244583	
0.07228753715753555	0.06889056414365768	-0.002213340485468507	-0.057240892201662064	0.0677117258310318	0.04323221370577812	0.06800347566604614	-0.016519850119948387	-0.05490434542298317	0.07040946930646896	0.08790016174316406	0.016758514568209648	-0.04584527015686035	0.06639758497476578	-0.09690646082162857	0.013033853843808174	0.0893511101603508	0.02165827341377735	-0.015139373019337654	0.032909661531448364	-0.04802056774497032	0.0692150667309761	-0.04133538901805878	-0.07872564345598221	-0.030675355345010757	
-0.03956994414329529	0.15093761682510376	-0.023760557174682617	-0.08718765527009964	-0.007991722784936428	0.04893758147954941	-0.08461035788059235	0.09136804193258286	-0.07934053987264633	0.015071885660290718	-0.014282094314694405	-0.000918446748983115	-0.030151491984725	0.013942934572696686	0.0010126414708793163	0.01093622948974371	0.049301233142614365	0.025524618104100227	-0.06068943440914154	0.05318614840507507	0.08434026688337326	-0.06455407291650772	0.11422719061374664	0.14003396034240723	-0.02390654757618904	
-0.04574156180024147	0.027737414464354515	-0.03713259473443031	0.07650702446699142	0.006863509304821491	-0.03960862755775452	0.07320253551006317	-0.008546988479793072	0.04444736987352371	0.0027644638903439045	0.08959434926509857	0.008567891083657742	-0.041804395616054535	0.016585245728492737	-0.05858304724097252	-0.012969492934644222	-0.06115996465086937	0.04147130623459816	0.04356833174824715	0.11201942712068558	0.020516134798526764	-0.049075838178396225	-0.008806993253529072	-0.030489163473248482	0.022326912730932236	
0.01370128896087408	-0.03949762135744095	-0.06835108995437622	0.01611354388296604	0.02556012012064457	-0.03521263226866722	0.04597622528672218	-0.07765517383813858	0.04008836671710014	-0.03781500086188316	-0.011137574911117554	0.061230938881635666	0.057242777198553085	-0.09257643669843674	-0.09125646203756332	0.024236449971795082	-0.0736515074968338	-0.10635950416326523	0.007399446330964565	-0.06321311742067337	0.0037002002354711294	0.04492412135004997	0.05617444962263107	0.0697619765996933	-0.012714934535324574	
-0.045495692640542984	-0.05511658266186714	0.06926438957452774	-0.043316926807165146	0.07577615231275558	-0.015178913250565529	-0.001678738510236144	0.037043049931526184	-0.016991766169667244	-0.07232027500867844	0.0245190616697073	-0.04655439034104347	-0.07382101565599442	0.08591747283935547	0.03251548111438751	-0.02564718946814537	-0.027415161952376366	-0.06237795576453209	0.08284788578748703	-0.14347882568836212	0.06581805646419525	0.10813099145889282	0.0326215922832489	0.07348436862230301	-0.0848882719874382	
0.07339224964380264	0.01198556087911129	-0.01572704315185547	0.021023280918598175	0.04643847420811653	-0.005042059347033501	0.06688033044338226	-0.0661216452717781	0.055770792067050934	0.012227199040353298	0.1465929001569748	-0.055566780269145966	-0.007499141152948141	-0.03317820280790329	0.01220713835209608	0.0737607404589653	-0.1455402672290802	-0.09573399275541306	-0.14314599335193634	0.054811954498291016	-0.008102845400571823	0.0651237964630127	0.09615388512611389	-0.0441758930683136	-0.04080751910805702	
0.01768209971487522	-0.012079548090696335	0.03277759253978729	0.06279188394546509	0.00015756605716887861	-0.11073800921440125	0.07006841152906418	0.04065300151705742	-0.020635120570659637	-0.008009598590433598	0.05249664932489395	0.11733215302228928	-0.11798199266195297	0.0856536254286766	0.03823186829686165	0.007955208420753479	0.016094913706183434	0.017620744183659554	0.020032549276947975	-0.0008231148240156472	0.0835292711853981	0.1057983934879303	-0.05627872794866562	-0.011851734481751919	-0.02977927029132843	
-0.029088672250509262	0.010132026858627796	-0.05081064999103546	-0.04584347456693649	0.05618521571159363	0.04413919523358345	-0.012509176507592201	-0.03108753077685833	-0.046833574771881104	-0.0693688839673996	-0.030734743922948837	-0.07432418316602707	0.045439887791872025	-0.09473167359828949	0.05784831941127777	0.033177245408296585	-0.062495484948158264	0.037471506744623184	0.048620350658893585	0.022378595545887947	-0.023746447637677193	-0.044994860887527466	0.019801465794444084	-0.022455435246229172	-0.12653250992298126	
0.04653188958764076	0.013685621321201324	0.019399650394916534	0.047197356820106506	0.043162837624549866	0.02975662797689438	-0.030351756140589714	-0.03302951529622078	0.04280577972531319	-0.007740260101854801	0.013469181954860687	-0.0424070730805397	0.07213449478149414	0.041131459176540375	-0.055814702063798904	0.15899357199668884	0.04386534169316292	0.055049363523721695	0.10749053955078125	-0.10302692651748657	-0.010090894065797329	-0.06631806492805481	-0.009177214466035366	0.07529852539300919	-0.04424611106514931	
-0.04966994747519493	0.11764927208423615	0.054380469024181366	0.026058506220579147	-0.042171888053417206	-0.030592424795031548	-0.004544788505882025	0.028578627854585648	0.021796509623527527	0.050303906202316284	-0.05557556077837944	-0.05674444139003754	-0.1346530020236969	0.021875988692045212	-0.0955331027507782	0.01728806272149086	0.10013821721076965	-0.09181332588195801	0.00963457953184843	-0.07098031789064407	0.012668676674365997	-0.08508964627981186	0.022508345544338226	-0.06145979464054108	0.0735977292060852	
-0.020238108932971954	0.02805044688284397	-0.057021405547857285	0.020138241350650787	-0.014499626122415066	-0.017211971804499626	-0.16635426878929138	-0.01926312781870365	-0.07690910249948502	0.04184391349554062	0.014498434960842133	-0.01581496186554432	-0.007334879599511623	-0.015339121222496033	-0.018263079226017	0.018659410998225212	0.08159594982862473	0.07247720658779144	0.04365195333957672	0.056187160313129425	0.22466914355754852	-0.04446150362491608	0.014870638959109783	-0.03103642724454403	-0.06220904737710953	
-0.003504787106066942	-0.009311923757195473	-0.03349945694208145	-0.1712588220834732	-0.07998116314411163	0.02217129059135914	-0.07379838824272156	-0.061418674886226654	-0.10258181393146515	0.01777285523712635	-0.2172105312347412	0.11280713230371475	0.003807907458394766	0.03723692521452904	0.006724137347191572	0.02276511862874031	-0.054344985634088516	-0.06316245347261429	-0.034679293632507324	0.030247967690229416	0.014368712902069092	-0.05685168504714966	0.0747036412358284	0.061164144426584244	0.060819029808044434	
0.043795857578516006	0.014677898958325386	-0.0022546432446688414	0.009907976724207401	0.05412905290722847	0.0039035878144204617	0.03084605559706688	0.02150358073413372	0.08800214529037476	0.15279549360275269	-0.05420269817113876	0.16250060498714447	-0.0019520040368661284	-0.0190073661506176	-0.002975874114781618	0.010535988956689835	-0.04060320928692818	0.006559083238244057	0.003232063027098775	-0.0019895725417882204	0.07180337607860565	0.05782107263803482	-0.01668272726237774	-0.06472595036029816	0.049796536564826965	
0.03916076943278313	-0.04893840476870537	0.0663415789604187	-0.0335138700902462	-0.14626754820346832	-0.0035475161857903004	0.0807071253657341	0.0370035246014595	-0.1275189220905304	-0.0010278245899826288	0.004483380354940891	0.07412451505661011	0.06268820911645889	-0.05895055830478668	-0.01027285773307085	0.047244247049093246	-0.1175161674618721	-0.014175956137478352	-0.09507505595684052	0.02451840043067932	0.04819156974554062	0.03114532306790352	0.030980592593550682	-0.058369070291519165	-0.039960525929927826	
-0.030047912150621414	0.05120482295751572	-0.015366997569799423	0.029824092984199524	0.05685706436634064	-0.03655659407377243	-0.04750696197152138	0.003678157227113843	0.030654210597276688	-0.11819139122962952	-0.06445769965648651	0.017484253272414207	-0.03812810406088829	-0.009004645980894566	-0.02483373135328293	-0.10732536762952805	0.03245231881737709	0.08776552975177765	-0.08175234496593475	-0.08725156635046005	-0.11434558033943176	-0.010636468417942524	0.06722817569971085	-0.18362443149089813	0.08986836671829224	
-0.006250797770917416	-0.015434034168720245	-0.11862925440073013	-0.01725367084145546	0.13466595113277435	0.10544092953205109	0.11243835836648941	0.0029000192880630493	0.03273941949009895	-0.04627609997987747	-0.03662543743848801	0.00011793401063187048	-0.06427768617868423	0.039542216807603836	-0.1335415244102478	0.07157499343156815	-0.08336581289768219	0.013628768734633923	0.0016294134547933936	-0.05960530787706375	-0.06515476107597351	0.0066980463452637196	-0.00846974365413189	0.06849368661642075	-0.03951790928840637	
-0.029642250388860703	0.003431658959016204	0.06720375269651413	0.019418254494667053	0.0028241255786269903	0.10254611819982529	-0.035421863198280334	0.0679054781794548	0.10746639966964722	0.014904950745403767	0.02761007472872734	0.04739091917872429	0.13138556480407715	-0.05700778216123581	-0.027448859065771103	0.03466571122407913	-0.02585274912416935	0.021237103268504143	0.010622033849358559	0.06662813574075699	-0.015900088474154472	0.009214903227984905	0.013960475102066994	0.06119300425052643	-0.04150574281811714	
-0.018447095528244972	0.024330830201506615	0.015808751806616783	-0.01049669086933136	-0.03971660137176514	-0.011401386000216007	-0.006798002868890762	-0.017485281452536583	-0.09752639383077621	-0.003943322692066431	-0.08901533484458923	-0.023737633600831032	-0.02822721004486084	-0.017588403075933456	-0.10033619403839111	0.06370862573385239	-0.025208445265889168	0.026234135031700134	0.04637653008103371	0.004126572050154209	-0.0032417650800198317	0.1157233715057373	0.0029513707850128412	-0.08043235540390015	0.03982594981789589	
-0.11257164180278778	0.1185554563999176	-0.029443584382534027	-0.16327768564224243	-0.040912628173828125	-0.040552519261837006	-0.03589906170964241	0.04336682707071304	0.019509486854076385	0.08850618451833725	-0.026550082489848137	-0.025421366095542908	0.028044432401657104	0.026898670941591263	-0.08221787959337234	-0.01933613233268261	0.06261736899614334	0.06374727189540863	0.0887220948934555	0.07063561677932739	-0.059744641184806824	0.024678243324160576	0.03136216849088669	0.03082360327243805	-0.04825809597969055	
0.019623789936304092	0.04180215671658516	0.039326686412096024	0.03634052351117134	-0.04563345015048981	-0.08882012963294983	0.10370977967977524	-0.000899527978617698	0.11357693374156952	-0.058508746325969696	0.013854855671525002	0.027837947010993958	0.08124363422393799	-0.10790195316076279	0.002214880893006921	0.04147244617342949	-0.015898864716291428	-0.09668698161840439	0.042443856596946716	-0.07552669942378998	-0.06255000829696655	-0.05107035115361214	-0.16731292009353638	0.008213303983211517	-0.03188628703355789	
-0.02469678409397602	0.09402494132518768	-0.029642783105373383	-0.003393220016732812	0.0712445005774498	0.025335002690553665	0.01384451799094677	-0.028734076768159866	-0.03226334974169731	0.019214583560824394	0.014547058381140232	-0.05811446160078049	0.030717972666025162	-0.10443249344825745	-0.0027177759911864996	0.07901326566934586	-0.031048709526658058	-0.08503861725330353	0.008360839448869228	-0.08646432310342789	0.024049706757068634	0.03999616578221321	0.004521275870501995	0.0037387493066489697	0.04782554879784584	
-0.06390243023633957	-0.01756255328655243	0.0026135488878935575	0.02287604846060276	-0.03383706137537956	-0.0584404282271862	0.011670644395053387	0.09250642359256744	0.04886624589562416	0.0345366895198822	-0.08725026249885559	0.07295074313879013	0.1179596334695816	0.008003855124115944	0.0013173065381124616	0.06711579859256744	-0.09597949683666229	8.915468788472936e-05	-0.042930249124765396	-0.010008949786424637	0.10727543383836746	-0.014765839092433453	0.09542102366685867	-0.09834092855453491	0.047726985067129135	
-0.11846248805522919	-0.12247641384601593	-0.0027241634670645	-0.011825710535049438	-0.1095377504825592	-0.010623197071254253	-0.0670517235994339	0.08840851485729218	0.05927693843841553	-0.048323072493076324	-0.07224294543266296	-0.046112798154354095	0.027449704706668854	-0.08324439823627472	-0.023929068818688393	-0.0023587970063090324	-0.000269748386926949	0.013753622770309448	-0.04096907749772072	0.16764512658119202	-0.04643429443240166	0.006822178140282631	-0.03745190426707268	-0.002682619960978627	-0.06384506821632385	
-0.055718015879392624	0.04925549030303955	-0.018315857276320457	-0.15162383019924164	0.07464230805635452	-0.007441959343850613	0.014089916832745075	0.12938357889652252	0.03161858022212982	0.11627532541751862	-0.05005854740738869	0.06386851519346237	0.04815906286239624	-0.0454198457300663	-0.11276940256357193	0.016024231910705566	-0.0768556147813797	0.05649447813630104	-0.05645391345024109	-0.08313068002462387	-0.08448914438486099	-0.11734730005264282	0.061480212956666946	0.050420548766851425	0.02106734924018383	
0.06705999374389648	-0.02897351048886776	-0.00929734855890274	-0.021609699353575706	0.06964781135320663	-0.052925098687410355	-0.021118691191077232	0.03528565168380737	0.02726549468934536	-0.06341706961393356	0.05110292509198189	0.0015216413885354996	-0.03745430335402489	0.14135892689228058	0.10750703513622284	0.06897532939910889	-0.003056821646168828	-0.015855418518185616	-0.02298787422478199	-0.04813738539814949	-0.07812496274709702	0.009041647426784039	-0.06570112705230713	-0.06579028815031052	-0.10002972930669785	
0.08286486566066742	-0.06629545241594315	-0.031653694808483124	0.07864170521497726	-0.0697924792766571	-0.045803848654031754	0.02816540189087391	-0.0037421563174575567	0.08540508151054382	-0.06383011490106583	0.0217884611338377	0.05444890260696411	-0.04491376504302025	-0.06951119750738144	0.06060773879289627	0.0753546953201294	0.027778230607509613	0.049271464347839355	-0.08274950087070465	0.08918158710002899	-0.09458249807357788	-0.032148685306310654	0.0713430717587471	-0.12350976467132568	0.05071962624788284	
0.012426100671291351	-0.001574816065840423	0.0205431766808033	-0.01474779937416315	-0.03383830562233925	0.02217903546988964	-0.00694472249597311	0.0034485571086406708	-0.041993647813797	-0.05601264163851738	0.006216565612703562	-0.01133632380515337	0.027286050841212273	-0.005169785115867853	0.045686300843954086	0.04587681591510773	0.10086894780397415	-0.04458335041999817	0.008976982906460762	-0.03567913919687271	0.024046961218118668	-0.02369389310479164	0.03622353449463844	0.0305608119815588	-0.018655680119991302	
0.08161181211471558	-0.04694399610161781	-0.05840834230184555	0.047194819897413254	0.0805012658238411	-0.062089987099170685	-0.04874261096119881	0.13229699432849884	0.016336457803845406	0.0916290432214737	0.05779598653316498	0.003985977731645107	0.0008371646981686354	-0.0005009509040974081	-0.05302892252802849	-0.011923029087483883	0.03535006567835808	0.05349217727780342	-0.04730001091957092	-0.07946668565273285	0.0881914496421814	-0.03628876432776451	0.05081719532608986	0.05204170569777489	-0.08437278866767883	
0.001395602710545063	-0.062345027923583984	0.014388884417712688	-0.06872021406888962	0.005482996813952923	-0.03591975197196007	0.025743534788489342	-0.05153268575668335	0.044343769550323486	0.08561620861291885	0.04968365654349327	-0.11653120815753937	0.01041034422814846	0.04343901574611664	0.12131872773170471	-0.07528799772262573	0.04502557963132858	0.08464743942022324	0.022980567067861557	-0.007043792866170406	0.042956430464982986	-0.044203996658325195	0.05614277720451355	0.008674092590808868	-0.06461633741855621	
-0.025567492470145226	0.0011165026808157563	-0.09714890271425247	0.02414754033088684	0.03990022838115692	0.04156481474637985	0.05179983377456665	0.0890912339091301	0.05068670213222504	-0.07398863881826401	-0.05967040732502937	-0.09085329622030258	0.018795430660247803	-0.09316454082727432	0.031224533915519714	0.023232420906424522	0.018596813082695007	-0.027865760028362274	-0.07141242176294327	-0.0013199006207287312	0.09664575010538101	-0.05759477987885475	-0.056046318262815475	-0.055149052292108536	0.0974457859992981	
-0.031060272827744484	-0.038810744881629944	0.04135091230273247	0.08868774771690369	0.04021706432104111	-0.015943456441164017	-0.055583082139492035	-0.061381250619888306	0.0464332178235054	-0.06010807305574417	-0.043793901801109314	0.08882370591163635	-0.05540216714143753	-0.0946204662322998	-0.034011200070381165	0.012460676953196526	0.014001906849443913	0.045360639691352844	-0.07416069507598877	0.06978905200958252	0.020966196432709694	0.04508376494050026	0.09814136475324631	0.018443766981363297	-0.040817804634571075	
-0.029259059578180313	0.02510291151702404	0.04990353062748909	-0.0495619960129261	-0.10026121884584427	0.15138311684131622	0.08596138656139374	-0.008532618172466755	-0.01173491682857275	-0.002017032587900758	-0.1096452847123146	0.03241496905684471	-0.06046595051884651	0.10475274920463562	-0.04312277212738991	-0.049790844321250916	-0.038234904408454895	-0.04556560516357422	-0.07616814225912094	-0.04598914459347725	-0.01064168568700552	-0.027042074128985405	-0.10282387584447861	-0.0034600505605340004	0.02960069291293621	
-0.013280660845339298	-0.0356438010931015	0.08466984331607819	-0.05013665556907654	0.06693393737077713	-0.015379437245428562	0.07106202095746994	0.06931363791227341	-0.037062425166368484	0.019611084833741188	-0.00133652298245579	0.019053785130381584	0.06593015789985657	-0.19450613856315613	0.028998196125030518	0.04701463505625725	0.010850107297301292	0.10222091525793076	0.07259174436330795	0.02655593864619732	-0.014384296722710133	0.030760997906327248	-0.0011596371186897159	0.01150574255734682	0.05654380843043327	
0.06498675048351288	0.039031703025102615	-0.03542116656899452	0.05461176857352257	0.07066785544157028	-0.02529902569949627	0.13211111724376678	0.05832979828119278	-0.02348039485514164	-0.059893202036619186	0.004761343356221914	0.05368787422776222	-0.16041357815265656	-0.0013772944221273065	0.0003737022925633937	-0.00773645332083106	-0.0901019275188446	0.02212068997323513	0.06575021147727966	-0.017873529344797134	-0.02281646803021431	-0.03420030325651169	0.0380050390958786	-0.07666037231683731	0.05564302206039429	
-0.1252351850271225	-0.037085287272930145	0.0014368731062859297	0.15230225026607513	0.00792646873742342	0.020545709878206253	-0.0021404719445854425	-0.05825437232851982	-0.019557010382413864	0.04554687812924385	-0.05509624630212784	-0.005087314173579216	0.05926952883601189	0.009372255764901638	0.050508443266153336	0.04631226882338524	-0.03204454109072685	0.03975651040673256	0.008839672431349754	0.06482196599245071	0.010566424578428268	-0.07285218685865402	0.09046368300914764	0.038317982107400894	0.04080012068152428	
-0.012574990279972553	-0.044079359620809555	0.049418721348047256	0.005776853766292334	0.059477560222148895	-0.05512205883860588	0.014767567627131939	-1.827329288062174e-05	-0.050471819937229156	0.11008875072002411	0.011857738718390465	0.05609839782118797	-0.030537370592355728	-0.17830683290958405	0.06788834184408188	-0.05128433555364609	0.001417054096236825	-0.04680268093943596	-0.006283429451286793	-0.01427612267434597	-0.10667510330677032	0.07463178783655167	-0.024185996502637863	0.08226364105939865	0.05521111562848091	
0.08143333345651627	0.0013968306593596935	0.025380348786711693	-0.05854592099785805	-0.07087793201208115	-0.03910242021083832	-0.043604813516139984	0.08557738363742828	0.027113743126392365	-0.014207112602889538	-0.03123950958251953	-0.01422608271241188	-0.016025027260184288	-0.04953792318701744	-0.0064558908343315125	-0.03135731443762779	0.03702668473124504	-0.15792055428028107	0.06221478432416916	-0.044097721576690674	0.07829976826906204	0.018663104623556137	0.018863001838326454	-0.003526967018842697	-0.016101883724331856	
-0.026623599231243134	-0.04638267308473587	-0.03805454447865486	0.04340488463640213	-0.06904715299606323	-0.10191904008388519	-0.09850270301103592	0.03630945831537247	-0.10202071070671082	-0.06628637760877609	-0.024009043350815773	0.15069569647312164	-0.0399317629635334	-0.031351469457149506	0.030123522505164146	-0.07334843277931213	0.001846730476245284	-0.15713472664356232	0.018405500799417496	-0.06031133979558945	0.04804566130042076	-0.1662231832742691	-0.08484489470720291	-0.006178306415677071	-0.016393406316637993	
-0.018409879878163338	-0.07921315729618073	0.008148674853146076	0.0820283591747284	-0.06664624065160751	0.05657072737812996	-0.05918215587735176	0.06778378784656525	0.060815002769231796	-0.0035044383257627487	0.014280741102993488	0.0389266312122345	0.022893067449331284	-0.1359969973564148	0.060766927897930145	0.10470786690711975	-0.02583359181880951	-0.05938249081373215	0.11136798560619354	0.03297560662031174	-0.005634434521198273	0.006210132502019405	0.0790775716304779	0.05691742151975632	-0.05758066102862358	
0.06942925602197647	0.07346858084201813	0.003191064577549696	0.031455617398023605	-0.011042248457670212	0.10055460035800934	0.009523747488856316	-0.009130841121077538	-0.011209630407392979	0.03582567349076271	-0.03177979588508606	0.0710296630859375	0.046872127801179886	0.06879227608442307	0.007181250490248203	0.07034322619438171	0.04438507929444313	0.0016954923048615456	0.04892151057720184	0.027473237365484238	-0.08709297329187393	0.06271731108427048	0.04193325713276863	0.03148422762751579	-0.08019117265939713	
0.06656810641288757	0.011438501067459583	0.06580306589603424	-0.0053435261361300945	0.006057077087461948	-0.10708410292863846	-0.11650583893060684	0.11804462969303131	-0.012362590990960598	0.06650765985250473	-0.03034490905702114	0.09774349629878998	0.039685748517513275	-0.04072505980730057	-0.09611479938030243	-0.0018244250677525997	0.052871834486722946	-0.09358233958482742	-0.03172888234257698	0.16885408759117126	-0.06508324295282364	-0.01884220354259014	-0.02531137317419052	0.008308137767016888	-0.022338828071951866	
-0.03704085201025009	0.007962731644511223	-0.033917464315891266	-0.022760119289159775	0.03616783395409584	-0.09679719805717468	-0.043088991194963455	0.03552071377635002	-0.046195946633815765	0.009519621729850769	-0.0017684963531792164	-0.04380248486995697	0.027780454605817795	0.06591751426458359	0.012799745425581932	0.015233253128826618	-0.14988306164741516	0.012152339331805706	0.08537743240594864	-0.03988423943519592	-0.002717012772336602	0.15141935646533966	-0.046510983258485794	0.00779771851375699	-0.053201962262392044	
-0.027820978313684464	-0.02152387425303459	-0.008477438241243362	0.008850282989442348	0.02911992371082306	0.013022726401686668	-0.008180681616067886	-0.06638792902231216	-0.052506569772958755	0.06072324514389038	0.04365222156047821	0.05119479075074196	-0.003419643733650446	0.05061108618974686	-0.06905005872249603	0.002467913320288062	-0.021685056388378143	-0.02718964032828808	-0.014960160478949547	0.08774565160274506	-0.020924102514982224	-0.01817583106458187	0.02278102934360504	0.09372426569461823	0.0736352726817131	
0.09501282870769501	0.09128358960151672	-0.05976658686995506	0.06513404846191406	-0.03576007857918739	-0.06071874499320984	0.0485544353723526	0.013366243802011013	0.0014561181887984276	0.02824566699564457	0.06666897982358932	-0.051966115832328796	0.04845589026808739	-0.009981410577893257	-0.060233376920223236	0.0338761992752552	0.033201877027750015	-0.018930230289697647	0.057990606874227524	0.012125763110816479	0.06857143342494965	-0.022969918325543404	-0.09088503569364548	0.009553635492920876	0.11761069297790527	
-0.02641524001955986	0.08013390749692917	0.13032257556915283	-0.04875825718045235	0.03075183741748333	0.04266122356057167	-0.052462197840213776	0.019589325413107872	-0.007757207378745079	-0.08654367178678513	0.008662255480885506	0.00496006989851594	-0.0068437508307397366	0.02560828998684883	0.016453832387924194	0.08547820895910263	0.02866949886083603	-0.07201182842254639	0.04125714674592018	0.017149092629551888	-0.03757623955607414	-0.07569581270217896	0.052241500467061996	0.0354018434882164	0.010456152260303497	
0.0343165248632431	0.050554998219013214	-0.01444955077022314	-0.05468539521098137	0.006555604282766581	-0.05497952923178673	-0.024047138169407845	0.057537276297807693	-0.014648856595158577	-0.026300370693206787	0.009414327330887318	0.005011382512748241	0.08328335732221603	-0.00925552099943161	-0.05802176147699356	-0.048746272921562195	-0.04171758517622948	-0.013343901373445988	0.04034969210624695	0.044517334550619125	0.023391680791974068	-0.0034584321547299623	0.025552500039339066	0.0763041228055954	-0.07560490071773529	
0.0821961835026741	-0.07524516433477402	-0.010313833132386208	-0.08502236753702164	0.032732512801885605	0.06669829785823822	0.064313143491745	-0.03951719403266907	0.03953162580728531	-0.055322591215372086	0.056616030633449554	-0.10695736110210419	-0.05215449631214142	0.07048779726028442	-0.12038902193307877	-0.09012442827224731	0.09648631513118744	-0.06229548528790474	-0.01699722744524479	-0.04439761862158775	-0.08608995378017426	0.11811445653438568	-0.03596468269824982	0.04142094776034355	0.05730506777763367	
0.052351273596286774	0.075575090944767	-0.05138515681028366	0.07451573014259338	-0.03394991531968117	-0.02170838974416256	0.03539527952671051	-0.0421166755259037	0.10058479011058807	-0.05848047509789467	-0.057579297572374344	0.07952393591403961	-0.012162992730736732	0.011246217414736748	0.057807184755802155	-0.08553479611873627	-0.030286045745015144	-0.02861679345369339	0.012160338461399078	-0.06471046060323715	0.07604900002479553	-0.031199583783745766	0.01805579662322998	-0.07120189815759659	0.1218215823173523	
-0.10306797921657562	-0.05953332409262657	0.01770015060901642	-0.10193425416946411	0.008894471451640129	0.004356997087597847	-0.024197448045015335	-0.05562448501586914	0.05919821932911873	0.040096115320920944	-0.034946996718645096	0.10035392642021179	-0.06156827509403229	0.07177435606718063	-0.07617174088954926	0.07332557439804077	-0.025646252557635307	0.034732501953840256	-0.0701131820678711	0.0030605862848460674	0.018232204020023346	-0.0034496888983994722	0.009631500579416752	-0.04911646619439125	0.01155492477118969	
0.054116975516080856	-0.015480385161936283	-0.14100824296474457	0.038896288722753525	-0.10160166025161743	0.01549240667372942	-0.010454424656927586	-0.18187975883483887	0.05510227009654045	0.017569590359926224	-0.09078560024499893	-0.012910894118249416	-0.012302134186029434	-0.09605519473552704	-0.027465686202049255	0.03698450326919556	0.0073587317019701	-0.026537960395216942	-0.020846214145421982	-0.1164683848619461	-0.10976434499025345	0.041346121579408646	-0.10465336591005325	-0.11689931154251099	-0.01263665035367012	
0.023201655596494675	0.07212606072425842	0.03311321511864662	-0.016949355602264404	-0.056961096823215485	0.029807647690176964	0.0756407082080841	-0.008245527744293213	0.14408467710018158	-0.02703053690493107	0.009394359774887562	0.05415486544370651	-0.05477553606033325	-0.04903072863817215	-0.0070938048884272575	-0.03163637965917587	-0.09472282975912094	-0.02832571230828762	0.017438191920518875	0.0526571050286293	-0.008177298121154308	-0.12513814866542816	-0.02376740239560604	0.030275000259280205	-0.016674930229783058	
0.021337447687983513	0.08275338262319565	0.09218782186508179	-0.03306881710886955	-0.21540337800979614	-0.05321506783366203	-0.12099441140890121	0.031867384910583496	0.022479476407170296	0.04465678334236145	0.02537398785352707	0.08308528363704681	0.07285310328006744	0.10396882146596909	-0.06654778867959976	-0.0009014675160869956	0.04126887023448944	0.009963467717170715	-0.007984014227986336	-0.03566442430019379	-0.06165222451090813	0.006984265521168709	-0.06809952110052109	-0.009207213297486305	0.0020844172686338425	
-0.013235949911177158	-0.02485502138733864	0.04932747036218643	0.0646008625626564	-0.13086169958114624	0.01776917651295662	-0.04313959926366806	0.029356732964515686	0.0044439202174544334	0.007412800099700689	0.10915254801511765	0.04578198492527008	0.13307861983776093	-0.06361354142427444	0.003495238022878766	-0.029796253889799118	-0.0014961694832891226	-0.026336347684264183	0.03484869375824928	0.010539031587541103	-0.06921418756246567	0.054859708994627	0.02645578235387802	0.0243443064391613	0.08613882213830948	
0.01915922947227955	0.02046291157603264	0.0010372011456638575	0.0773492157459259	-0.1199261024594307	0.03797728195786476	0.04483667388558388	-0.057567913085222244	0.01191943883895874	0.0035015058238059282	0.10337381064891815	0.07201948016881943	-0.04905001074075699	0.00774507038295269	-0.11641845852136612	-0.022237995639443398	-0.06956131011247635	0.04016777500510216	-0.03465929627418518	-0.016216842457652092	0.028347479179501534	-0.09821971505880356	0.02021600678563118	0.0018436943646520376	-0.007468585856258869	
0.01187805738300085	0.04052526876330376	-0.04485899582505226	0.008060249499976635	-0.1520805060863495	-0.0192829929292202	0.029383501037955284	0.04433637484908104	0.06793905794620514	-0.038600385189056396	-0.012290635146200657	-0.024887360632419586	-0.04455970972776413	-0.00236424314789474	0.048322442919015884	-0.0180513896048069	-0.04187827557325363	0.021354874595999718	0.0015946314670145512	0.07492869347333908	-0.06721749901771545	0.10883276909589767	-0.02239641360938549	-0.07426412403583527	-0.013821789063513279	
-0.004102191887795925	0.04252566397190094	-0.01952493004500866	0.04625998064875603	-0.12151921540498734	-0.006446542218327522	-0.15685151517391205	-0.19656157493591309	0.12499696016311646	0.10009874403476715	0.0252725500613451	0.0034596275072544813	0.0578601136803627	-0.04027903452515602	0.056764062494039536	0.06985701620578766	-0.003952660597860813	-0.051156602799892426	-0.011038740165531635	0.06650087237358093	-0.020355060696601868	-0.06814181059598923	-0.07554767280817032	-0.01200168114155531	-0.03882310912013054	
0.1567748636007309	-0.0012772503541782498	0.008420569822192192	0.014296967536211014	-0.06237013638019562	0.028670547530055046	0.028007404878735542	0.04651974141597748	-0.011901602149009705	-0.031089579686522484	-0.04697771742939949	0.03434205800294876	0.05965890362858772	0.030504275113344193	-0.011841007508337498	-0.06964629888534546	-0.024470562115311623	-0.061467189341783524	-0.06851998716592789	-0.10824663937091827	-0.0712929293513298	0.06491700559854507	-0.04644543305039406	-0.05095751956105232	0.002518587978556752	
0.18458949029445648	0.03506242483854294	-0.06020057201385498	-0.07138046622276306	0.04449914023280144	0.0375518798828125	-0.15807075798511505	-0.09725847840309143	0.012487133964896202	-0.04561948403716087	0.058538492769002914	-0.02018381841480732	0.0023080729879438877	0.06255734711885452	0.06904668360948563	-0.040140748023986816	-0.03066508285701275	0.07817678153514862	0.07602252066135406	0.04111200198531151	-0.11913769692182541	-0.16062350571155548	-0.04659601300954819	0.11280034482479095	-0.021957647055387497	
-0.12510506808757782	-0.134987935423851	-0.014753138646483421	-0.07844332605600357	-0.0011950538028031588	0.0024203076027333736	-0.07605604082345963	-0.13069278001785278	0.07284907251596451	-0.045623213052749634	0.08886995911598206	-0.06141243502497673	0.014813235029578209	-0.1077175885438919	-0.044380102306604385	0.05482719466090202	-0.11531630903482437	-0.03319224715232849	0.05578075721859932	-0.07661236822605133	0.14553134143352509	-0.020508965477347374	0.07868340611457825	-0.0909603163599968	-0.12292242795228958	
-0.054186105728149414	0.015677209943532944	-0.06667626649141312	-0.020180413499474525	-0.06538436561822891	-0.03443218395113945	-0.07871554046869278	0.026887275278568268	0.0006131288246251643	0.03891090303659439	0.04396934434771538	0.10989938676357269	0.005742447450757027	-0.18943776190280914	-0.09920870512723923	0.052830249071121216	0.02035568282008171	-0.04292253032326698	0.11149021983146667	0.014839370734989643	-0.004766130354255438	0.030962202697992325	0.012073324993252754	0.061788175255060196	0.011452318169176579	
0.00575393158942461	-0.024851582944393158	0.060152485966682434	0.04384220764040947	-0.039661020040512085	0.011082292534410954	-0.003804784966632724	0.06947579234838486	0.13010060787200928	0.00759825250133872	-0.03921804204583168	-0.11055341362953186	-0.013385686092078686	0.05307634919881821	-0.0959329605102539	0.1143328845500946	0.01059064269065857	-0.002722959266975522	-0.03501831367611885	0.030592815950512886	-0.07529468834400177	0.0093466117978096	-0.03852338343858719	-0.031825870275497437	0.003152010263875127	
-0.020010989159345627	0.045182645320892334	-0.037153322249650955	-0.047912970185279846	-0.00013861097977496684	-0.010036177933216095	-0.0460381954908371	-0.0291791670024395	0.04428638517856598	0.027769017964601517	0.11038286238908768	-0.02639523707330227	0.04830192029476166	-0.03271515667438507	0.039120063185691833	0.03799721226096153	0.06220854073762894	0.022994572296738625	0.07464256137609482	-0.06448324024677277	0.05423448979854584	0.035088084638118744	-0.02946264110505581	0.026201065629720688	0.008389750495553017	
-0.09797665476799011	0.14071224629878998	0.09524180740118027	-0.005103064235299826	0.024054309353232384	0.021542854607105255	-0.035989657044410706	-0.011658777482807636	-0.06341898441314697	0.011002223938703537	0.0351385623216629	0.045517534017562866	0.09192707389593124	0.011524210684001446	0.00683524738997221	-0.024571001529693604	-0.008810965344309807	0.0430339053273201	0.12401272356510162	-0.0202729944139719	-0.014624104835093021	0.003846445120871067	-0.031107421964406967	-0.09540248662233353	-0.026326285675168037	
