
 
-0.025817498564720154	0.017047366127371788	-0.008174016140401363	0.01141052134335041	0.004352383781224489	0.005565783940255642	0.00467721140012145	-0.005886995233595371	-0.012025161646306515	-0.011466163210570812	0.005588967353105545	0.004766223020851612	0.0013973342720419168	-0.0338449701666832	0.004811107646673918	-0.013073278591036797	-0.0005225451895967126	-0.02764926850795746	0.019380979239940643	-0.005105482414364815	-0.012681368738412857	0.005046523176133633	0.006518816575407982	-0.011194983497262001	0.047546546906232834	
0.028260240331292152	-0.01682131737470627	-0.01656612940132618	-0.015006007626652718	-0.014921637251973152	-0.015245231799781322	-7.802068284945562e-05	0.001459892955608666	0.012889375910162926	0.01811395399272442	0.0038993533235043287	-0.012084527872502804	0.06437647342681885	-0.011784639209508896	-0.01785881258547306	-0.015331551432609558	0.000785666226875037	0.0032991375774145126	0.01981307752430439	-0.005613471381366253	0.02894662134349346	0.01454748585820198	-0.0028630627784878016	0.0042876931838691235	-0.0022237710654735565	
0.035400841385126114	0.0023168111220002174	0.013494972139596939	0.004611240699887276	0.016322333365678787	0.007827560417354107	-0.024785565212368965	0.050825681537389755	0.0005035146605223417	-0.025176994502544403	0.012825499288737774	0.007120487280189991	0.016335899010300636	-0.008264182135462761	0.014776067808270454	-0.013949831016361713	0.012089598923921585	-0.02473956160247326	0.0034022608306258917	0.0010965692345052958	-0.01229826919734478	0.01277882233262062	0.018920034170150757	0.0055757686495780945	-0.025267623364925385	
-0.009662889875471592	0.0474000982940197	-0.024693215265870094	0.005928514059633017	-0.007776635233312845	0.03243676945567131	0.023093264549970627	-0.012303128838539124	0.030739061534404755	-0.02225756272673607	-0.025049200281500816	-0.01833130605518818	0.01585061475634575	-0.009280669502913952	-0.01725558564066887	0.01757720112800598	0.0014954087091609836	0.009359925054013729	-0.009924022480845451	-0.0313197523355484	0.02983752451837063	-0.0026280421297997236	-0.004883871413767338	0.021133070811629295	-0.00791818555444479	
0.031557656824588776	-0.009180737659335136	0.008897866122424603	-0.0010493589797988534	-0.036217935383319855	0.0216718427836895	-0.01515369676053524	0.00725446455180645	-0.008337946608662605	0.01878739520907402	0.02097247913479805	-0.031305428594350815	0.0052427551709115505	-0.03195953741669655	0.027859576046466827	-0.02410404197871685	-0.0024214531295001507	0.002638992154970765	0.0030445668380707502	-0.011077351868152618	0.024980416521430016	0.016386836767196655	0.03605266660451889	0.025326529517769814	-0.00450490415096283	
-0.01269091572612524	-0.006819743197411299	-4.284130409359932e-05	0.014839448034763336	-0.003167462069541216	0.01540310401469469	0.007675671484321356	-0.01655641570687294	-0.004603691399097443	0.003499154932796955	0.021593015640974045	-0.0058769104070961475	-0.049580950289964676	-0.0052788760513067245	-0.0019081775099039078	0.008378991857171059	0.008820938877761364	-0.007769488263875246	0.0033580062445253134	0.01815091259777546	0.005726216826587915	0.022985251620411873	0.013141980394721031	-0.008566020987927914	0.012790117412805557	

 
5.74901878280798e-06	-5.949744377176103e-07	3.32389589630111e-07	6.5584026742726564e-06	6.532853149110451e-06	-5.818089903186774e-07	

 
-0.008039628155529499	0.015765130519866943	0.0187227725982666	0.01785009354352951	-0.018183717504143715	-0.0016754689859226346	-0.021220559254288673	-0.05786876752972603	-0.00684723537415266	-0.008423454128205776	-0.004977880977094173	0.032695695757865906	-0.009243154898285866	0.048015423119068146	0.015783388167619705	-0.022860083729028702	0.024888820946216583	0.026647113263607025	0.026869002729654312	0.01643693819642067	-0.02879377081990242	-0.019004156813025475	0.009114409796893597	-0.029548771679401398	0.006347628775984049	
0.001890624058432877	-0.022502493113279343	0.001127863535657525	0.029902538284659386	-0.018675699830055237	0.0323169119656086	-0.028721246868371964	-0.0021126121282577515	0.030493054538965225	-0.052843425422906876	0.013847054913640022	0.022919926792383194	0.004690088331699371	0.014872203581035137	-0.026357140392065048	0.003721468849107623	0.014767789281904697	0.028550392016768456	-0.01858644187450409	0.03487781062722206	0.013446086086332798	-0.013234752230346203	-0.0035476069897413254	0.050132304430007935	0.014843964949250221	
0.0542907640337944	0.047825898975133896	-0.020041121169924736	-0.010055148042738438	0.055610813200473785	-0.012249482795596123	0.03374640271067619	0.019344573840498924	0.007494625635445118	-0.006557703483849764	-0.04134368896484375	0.0234966017305851	0.008871553465723991	0.008336127735674381	-0.02158527635037899	-0.01394391618669033	-0.011032013222575188	-0.03704587742686272	-0.010014642961323261	0.04540973901748657	-0.028502102941274643	-0.011920467019081116	-0.005664081312716007	0.013596992939710617	-0.01725352555513382	
0.04124210402369499	0.04871645197272301	0.04754193127155304	-0.0025894325226545334	-0.002915913937613368	-0.01741006225347519	-0.008173803798854351	-0.0026541249826550484	-0.016482112929224968	-0.015139421448111534	0.021128572523593903	-0.025610245764255524	-0.02384595386683941	0.04378642141819	-0.008864420466125011	0.0006781542906537652	-0.0072661940939724445	-0.009281680919229984	0.009823792614042759	0.015703827142715454	0.026248566806316376	-0.002008179435506463	0.019238978624343872	-0.004795059096068144	0.028510645031929016	
0.014612765982747078	-0.035173866897821426	-0.01518164575099945	0.0187247171998024	-0.0015283580869436264	-0.02807944267988205	0.02280254289507866	0.003906588535755873	-0.0029185477178543806	-0.03261247277259827	-0.03207724913954735	0.06545131653547287	-0.01807507686316967	0.05558164417743683	-0.049964115023612976	0.01183694414794445	-0.02217179350554943	-0.013107323087751865	0.002229527570307255	0.0012386302696540952	0.013139220885932446	-0.021743468940258026	-0.031121697276830673	-0.0032896881457418203	0.04559067636728287	
-0.012061543762683868	0.03106817416846752	0.022624747827649117	0.018983619287610054	-0.007595541421324015	-0.007306534331291914	-0.0070721423253417015	0.028951378539204597	-0.02889140695333481	-0.004479523282498121	0.0007702584262005985	-0.010469992645084858	-0.011123863980174065	0.04083241522312164	-0.001132277655415237	0.005297460593283176	-0.04033161699771881	-0.005564089398831129	-0.010873530060052872	-0.0007804603665135801	-0.0025722598657011986	-0.037036944180727005	-0.0035064471885561943	0.0275966115295887	0.033203188329935074	
0.05958554893732071	-0.0018605348886922002	0.008365442045032978	-0.03192497789859772	-0.0018700265791267157	-0.05652576684951782	0.02890903316438198	0.010210339911282063	0.03273826465010643	0.005893276073038578	-0.019995417445898056	-0.004985964857041836	-0.004156019538640976	-0.039076000452041626	0.02916582114994526	-0.0004847126838285476	0.025531776249408722	-0.024055520072579384	-0.004336858168244362	-0.04636765643954277	-0.0023745964281260967	0.0046232459135353565	-0.02388058602809906	0.025477468967437744	-0.0369977205991745	
-0.05211738497018814	0.029133889824151993	-0.002588750794529915	0.03235670551657677	-0.0009300191886723042	-0.008512367494404316	-0.008898485451936722	-0.02312931790947914	0.041162583976984024	-0.004472049418836832	0.0026340256445109844	0.04328427463769913	0.015946080908179283	-0.0013699503615498543	-0.0327707938849926	-0.010506005957722664	0.03536641225218773	-0.04542088136076927	-0.0278458371758461	-0.0367867611348629	-0.009124716743826866	-0.02745308168232441	0.03465791419148445	0.017676254734396935	0.014240151271224022	
0.006054068449884653	0.016723083332180977	0.01251379493623972	-0.006602453533560038	-0.018372196704149246	0.03260120376944542	-0.03434004262089729	-0.00502443965524435	-0.04978616163134575	0.005182887893170118	-0.02073032595217228	0.008465101011097431	-0.0055297138169407845	0.02366877719759941	-0.021666305139660835	0.021027857437729836	-0.020225293934345245	-0.0018186511006206274	-0.021907702088356018	0.01593172922730446	0.00986572727560997	0.013584126718342304	0.021614203229546547	0.002438819734379649	0.005151856690645218	
-0.005587555468082428	0.014006859622895718	0.011190730147063732	-0.04315861314535141	0.027860723435878754	0.05221555009484291	-0.0005934912478551269	0.001758755068294704	-0.012936602346599102	0.04853370785713196	0.011479676701128483	-0.06647785753011703	0.0015622605569660664	-0.07440447062253952	-0.006245700176805258	-0.049662306904792786	0.039340898394584656	0.030037110671401024	0.01701594516634941	-0.0024676171597093344	-0.0014381046639755368	0.020645927637815475	0.03352290019392967	0.014485755003988743	0.007946843281388283	
0.037877410650253296	0.0036763192620128393	0.006963537540286779	0.021885445341467857	0.00030545046320185065	0.002694628434255719	-0.011448588222265244	0.02301657572388649	-0.02121283859014511	0.03891080990433693	0.011188249103724957	0.02655637264251709	-0.020729346200823784	-0.02915802039206028	0.002905124332755804	0.010143897496163845	0.020260991528630257	-0.024598557502031326	-0.046123966574668884	0.01053911168128252	0.007029274012893438	0.025601264089345932	0.02944742515683174	0.020939093083143234	-0.00287028425373137	
-0.03858048841357231	0.005581825505942106	-0.050818294286727905	0.005395970307290554	-0.0024413971696048975	-0.00970147643238306	0.005935217719525099	0.04685116931796074	0.025395391508936882	-0.033550925552845	0.012996482662856579	-0.03490593656897545	-0.06371176242828369	0.0205476526170969	0.001392542035318911	0.04166838899254799	0.053759247064590454	0.00206374516710639	0.00415469566360116	-0.0271287988871336	-0.0007448714459314942	0.04560012370347977	-0.011639951728284359	0.02670668065547943	-0.0017779386835172772	
0.010458205826580524	-0.007510537747293711	0.002875944599509239	0.022859584540128708	0.05187894031405449	0.011823088862001896	0.018572991713881493	-0.01605343632400036	-0.03535478562116623	0.017870008945465088	0.006087228190153837	0.07522176951169968	0.0022801931481808424	-0.0010039923945441842	0.027374129742383957	-0.020201550796628	-0.01838192716240883	-0.021331332623958588	-0.022579360753297806	-0.003782213432714343	-0.034594565629959106	-0.03982073441147804	3.8233589293668047e-05	-0.014405474066734314	0.00780189735814929	
-1.6124397006933577e-05	-0.03232870623469353	-0.048363517969846725	-7.072613516356796e-05	-0.028006915003061295	0.03759642317891121	-0.018276283517479897	-0.003004356985911727	-0.028536371886730194	0.02313319221138954	0.005494802258908749	-0.010760704055428505	0.021304823458194733	-0.044429514557123184	-0.002757072215899825	0.03432028368115425	-0.03526551276445389	-0.007088015787303448	-0.007316967472434044	0.003523231716826558	0.028509551659226418	0.048788003623485565	0.049336936324834824	0.0024681915529072285	0.0007417737506330013	
-0.04510956257581711	-0.01934020034968853	0.03815256804227829	-0.01800910010933876	0.0043052807450294495	0.035898175090551376	-0.018494298681616783	0.054014213383197784	0.02573416195809841	0.027020951732993126	-0.027256691828370094	-0.01827731356024742	0.01622682996094227	-0.03431186079978943	-0.038507796823978424	-0.017378948628902435	-0.00956342089921236	0.007547405082732439	-0.029528958722949028	0.039734017103910446	0.00509611377492547	0.019889065995812416	-0.03416665270924568	0.042797934263944626	-0.06528553366661072	
0.03311340510845184	0.017415473237633705	0.010975250042974949	0.018908564001321793	0.0026047618594020605	0.0012725607957690954	0.0362875834107399	-0.019423410296440125	0.0013629778986796737	-0.07290856540203094	-0.021736880764365196	-0.013980750925838947	0.014749924652278423	0.01091629359871149	-0.004877426661550999	0.014168517664074898	-0.019876370206475258	-0.04046999663114548	0.020578533411026	-0.03203291818499565	-0.030638786032795906	-0.012510227970778942	0.04233478754758835	-0.011227562092244625	0.0009044085745699704	
0.028671134263277054	0.001104951137676835	-0.013660378754138947	-0.0005786394467577338	-0.012569159269332886	-0.0016592929605394602	-0.07295331358909607	-0.012199657037854195	0.0002691438712645322	-0.014569723978638649	-0.021049413830041885	0.044785384088754654	-0.02213742956519127	-0.034741487354040146	0.022124918177723885	-0.009256865829229355	0.004772370681166649	0.02324913814663887	0.0003636692126747221	0.057795293629169464	-0.04229414835572243	0.018649742007255554	0.05247058346867561	-0.02073696069419384	-0.026183711364865303	
0.005840084981173277	0.02220654860138893	-0.05030852556228638	-0.009394451975822449	0.011438390240073204	0.031721167266368866	0.026067571714520454	-0.029484421014785767	0.016438351944088936	-0.012292874045670033	0.026718290522694588	0.00917819980531931	0.0014237038558349013	-0.02101784013211727	0.06510606408119202	0.03500453755259514	-0.014154321514070034	0.0183479692786932	-0.026477763429284096	0.008781804703176022	-0.002745082601904869	-0.0007293183007277548	0.0015954180853441358	0.017697909846901894	-0.0022313680965453386	
0.04351171851158142	0.05038471892476082	0.016284825280308723	0.020718516781926155	-0.02272191271185875	-0.023551052436232567	-0.0273430272936821	0.035896383225917816	-0.011611179448664188	-0.0033917687833309174	0.007238898891955614	0.006933301687240601	-0.023669837042689323	-0.0647534504532814	-0.058662135154008865	0.029922332614660263	-0.007166941184550524	-0.015321907587349415	-0.004404700826853514	-0.03466250002384186	0.018263380974531174	0.037623222917318344	0.02360232174396515	-0.0276729054749012	0.047333214432001114	
-2.2579139113076963e-05	0.053204383701086044	0.03164230287075043	0.009407054632902145	0.03030024655163288	0.008803465403616428	0.011319032870233059	-0.004988005850464106	-0.037900060415267944	0.01446297112852335	0.017798131331801414	-0.005626065190881491	-0.002859260654076934	-0.010314972139894962	-0.029099196195602417	0.01523906271904707	-0.03155718743801117	-0.010833465494215488	0.006959529127925634	0.00819410476833582	-0.002208714373409748	0.04970470443367958	-0.037950605154037476	-0.001589987426996231	0.005003288853913546	
-0.030813056975603104	0.01163151953369379	-0.04067419469356537	-0.01184392161667347	-0.032912008464336395	-0.014479591511189938	-0.015046467073261738	-0.004611283540725708	0.04199744388461113	-0.01936180144548416	-0.008968518115580082	-0.08349581062793732	-0.04375799745321274	-0.02847812883555889	0.003924735821783543	-0.023293253034353256	-0.001124178757891059	0.04814755916595459	0.024265175685286522	0.034475039690732956	0.01841827854514122	0.01967397890985012	-0.010781258344650269	-0.008500847965478897	-0.011529081501066685	
-0.014573353342711926	0.02412291057407856	0.007821843028068542	0.014645962975919247	-0.023360421881079674	-0.006273138336837292	-0.005426336545497179	-0.02397485077381134	0.03683951497077942	0.035898562520742416	0.0046080974861979485	-0.010240817442536354	-0.03359926864504814	-0.009347454644739628	0.012332729995250702	0.042808111757040024	-0.006912905722856522	-0.017599886283278465	0.0018845123704522848	-0.0018941430607810616	-0.06266696006059647	-0.0017852530581876636	-0.007694213185459375	-0.022833073511719704	-0.03261562064290047	
-0.017410147935152054	0.03167830780148506	-0.02236912213265896	-0.07875902950763702	0.030713675543665886	-0.010104086250066757	-0.039427079260349274	-0.012449230067431927	-0.02841237187385559	0.0032041179947555065	0.0015925378538668156	0.030125346034765244	0.014032062143087387	0.035696983337402344	0.009569104760885239	-0.039211589843034744	-0.006565449293702841	-0.0491023063659668	0.004801358561962843	-0.014909456484019756	0.015549653209745884	-0.0025308229960501194	0.0307232104241848	0.024607932195067406	-0.0026827892288565636	
0.007896986790001392	-0.007992472499608994	0.006496054120361805	-0.01505907904356718	-0.0051445672288537025	-0.015918828547000885	0.021589767187833786	-0.006134452763944864	0.021733088418841362	0.01685299351811409	0.0059889391995966434	-0.01398754958063364	0.046128734946250916	-0.004427241161465645	0.01934489794075489	0.006675275973975658	-0.025871964171528816	0.015971560031175613	-0.009311088360846043	-0.018692800775170326	-0.008747379295527935	-0.004954965319484472	0.024266591295599937	-0.03764897584915161	-0.05156426876783371	
0.016616834327578545	-0.004859824199229479	-0.025239724665880203	0.0019401254830881953	0.008897347375750542	-0.018303392454981804	-0.037794921547174454	-0.06822457909584045	-0.009823688305914402	-0.03810034692287445	0.046368308365345	-0.011023266240954399	0.0031277562957257032	-0.0203026682138443	-0.0206585843116045	0.002123568905517459	0.019016969949007034	0.04029432684183121	0.005389773286879063	-0.0012128276284784079	0.01685311272740364	-0.0012318548979237676	0.007269410882145166	0.0036025759764015675	-0.014163268730044365	
-0.037080008536577225	0.038824234157800674	-0.04711708799004555	0.025827815756201744	-0.03179917484521866	-0.03784947842359543	-0.010786491446197033	0.017957190051674843	0.048362601548433304	0.006183855701237917	-0.030550694093108177	0.025914067402482033	-0.05390286445617676	0.03083708882331848	-0.003754768054932356	0.005653052125126123	0.0036730237770825624	0.046430718153715134	0.009679356589913368	-0.005421887617558241	-0.002327312482520938	0.014495323412120342	-0.006934331264346838	-0.03517618030309677	0.06096259504556656	
-0.009248767048120499	0.00616490701213479	-0.05225803330540657	0.04559875279664993	-0.0067353323101997375	-0.012727309949696064	-0.033170510083436966	0.030255187302827835	0.0308658666908741	0.005432292353361845	0.02541784755885601	-0.03856206312775612	0.021212495863437653	-0.03529287502169609	-0.01847076788544655	0.046255115419626236	0.023102479055523872	0.01936318166553974	-0.0003581190248951316	0.0019763645250350237	0.0018087972421199083	-0.0017968688625842333	0.0011188093340024352	0.0010637709638103843	0.023813936859369278	
0.04501893371343613	-0.0071204788982868195	0.02851025201380253	-0.009414490312337875	0.012264899909496307	-0.03595089167356491	-0.011290475726127625	-0.01718369871377945	-0.0046183206140995026	0.0076602753251791	-0.006300951354205608	-0.0315578356385231	-0.019687006250023842	0.00495933135971427	-0.06748233735561371	0.004141754470765591	0.05053858458995819	-0.005601408891379833	-0.024938922375440598	0.04141353815793991	0.01224348321557045	0.038772597908973694	0.03810315206646919	0.025129955261945724	-0.013071784749627113	
0.02525528334081173	-0.022354047745466232	0.0039939577691257	0.028395820409059525	-0.014110648073256016	-5.206073910812847e-05	0.03020760789513588	-0.05705608054995537	0.0015365093713626266	-0.021371817216277122	-0.019558364525437355	0.013298929668962955	0.007815663702785969	0.0231937225908041	0.022525375708937645	-0.02380944788455963	0.016438310965895653	-0.012075312435626984	-0.03322500362992287	-0.028930963948369026	-0.020604826509952545	-0.015697019174695015	-0.013296735472977161	0.026460029184818268	-0.03658643737435341	
0.01726159267127514	0.03799441084265709	-0.00868440791964531	-0.002873161807656288	0.009514124132692814	0.0051426151767373085	-0.025041164830327034	0.040819890797138214	0.00618444848805666	0.004512554965913296	-0.0019391687819734216	-0.014798463322222233	0.012006714940071106	-0.06160997599363327	-0.018181564286351204	0.022741423919796944	0.04113240912556648	0.02360261045396328	0.017958661541342735	-0.001459833700209856	0.03762833774089813	-0.03843522071838379	-0.001936882152222097	0.014494980685412884	0.005075687076896429	
0.01028610859066248	0.043145712465047836	0.015862686559557915	0.006943783722817898	-0.01855148933827877	-0.0017024902626872063	0.007288659457117319	-0.022266536951065063	-0.03155392408370972	-0.0003181492502335459	0.012748879380524158	-0.021717412397265434	-0.03350197151303291	0.009323781356215477	-0.029190849512815475	-0.008324693888425827	0.026422416791319847	-0.024046514183282852	-0.0314214862883091	0.010085433721542358	0.02331393212080002	0.0036261570639908314	5.3077219490660354e-05	-0.041152797639369965	0.020866677165031433	
-0.023019660264253616	0.016081662848591805	0.052333634346723557	-0.038774557411670685	-0.021045880392193794	-0.009618796408176422	-0.014590972103178501	-0.010091714560985565	-0.015997447073459625	0.0068711829371750355	0.029320549219846725	0.0007178838131949306	0.0010562681127339602	0.014268130995333195	0.0205847155302763	-0.025115560740232468	-0.01782316528260708	-0.024266181513667107	-0.014049317687749863	0.001250885776244104	-0.03895983472466469	0.01123146340250969	0.023636404424905777	-0.016228342428803444	-0.0018596801673993468	
0.01584739424288273	-0.06777800619602203	-0.03963529318571091	-0.0025107688270509243	-0.03244015574455261	-0.04812633618712425	-0.0013320770813152194	-0.042556263506412506	0.006517219822853804	-0.0009238712955266237	5.7854758779285476e-05	0.02487989515066147	0.014550575986504555	0.0072286734357476234	0.01459447667002678	0.022265899926424026	0.036141104996204376	-0.024245206266641617	0.017928695306181908	-0.002246194751933217	0.025855474174022675	-0.034824080765247345	0.019028177484869957	-0.010748445987701416	0.048501960933208466	
0.0005640231538563967	-0.026774587109684944	0.019917048513889313	0.037270378321409225	-0.004608653485774994	0.031079711392521858	0.01031961478292942	-0.033101435750722885	-0.044461000710725784	0.009360292926430702	0.013528518378734589	0.011311943642795086	0.0114612877368927	0.0089897271245718	-0.002726505510509014	0.003159712767228484	0.03649848699569702	0.03406236693263054	0.032291051000356674	0.018522130325436592	0.01962539739906788	0.007286837790161371	-0.019901348277926445	-0.00019722446450032294	-0.013087696395814419	
0.02164221554994583	-0.02607697993516922	-0.018117647618055344	0.005535490345209837	-0.010662141256034374	0.041621748358011246	-0.04123840481042862	0.009060358628630638	-0.05359693989157677	-0.03444729000329971	0.05348609760403633	-0.031492654234170914	-0.006967255845665932	0.025770151987671852	0.006169597152620554	-0.019374797120690346	-0.04475395753979683	0.003117229323834181	0.0038627549074590206	0.009672516956925392	0.03234785050153732	-0.0020626154728233814	0.032958097755908966	0.06682392209768295	0.03571604564785957	
0.003848920576274395	-0.030815841630101204	-0.01348830759525299	-0.03270457312464714	0.03938860073685646	-0.01926790550351143	0.014771583490073681	0.0363708920776844	-0.022503312677145004	0.028874855488538742	0.010060891509056091	0.002867344534024596	0.011726588010787964	0.0373295322060585	0.0014368317788466811	0.015801414847373962	0.034083280712366104	-0.02097471058368683	-0.010341293178498745	0.018883386626839638	-0.01683538593351841	-0.005117847118526697	0.0037846944760531187	0.02509995736181736	0.009860975667834282	
0.006346044130623341	0.03520580008625984	0.0068070716224610806	0.04243305325508118	0.02942740172147751	0.010832902044057846	0.004655058030039072	0.015414290130138397	0.004870300646871328	-0.06510194391012192	-0.024055413901805878	0.0434679351747036	-0.008362551219761372	0.024103470146656036	-0.024035407230257988	0.04881291836500168	-0.006403055042028427	-0.020714377984404564	-0.01968330517411232	0.034535087645053864	-0.000683404563460499	0.003123676171526313	0.026059919968247414	-0.0189060028642416	0.003985772840678692	
0.036098822951316833	0.02378033474087715	-0.006148722488433123	0.009313585236668587	0.025545964017510414	0.02800423465669155	-0.023862754926085472	-0.02556774392724037	0.020511165261268616	0.06772715598344803	0.004626499954611063	-0.009666434489190578	-0.004730936139822006	0.009246675297617912	-0.0024547043722122908	0.017343668267130852	-0.028242528438568115	-0.028416527435183525	0.015316910110414028	-0.011787057854235172	-0.016252314671874046	-0.04374362900853157	-0.02302551083266735	0.02500651776790619	-0.018296558409929276	
0.006581050809472799	-0.0042717899195849895	0.019564183428883553	0.012240617536008358	-0.01303874235600233	-0.02168988063931465	-0.009309607557952404	0.034903064370155334	0.05402320623397827	-0.032038573175668716	0.00691019743680954	-0.03153303638100624	-0.06006136164069176	0.00844187568873167	-0.031696658581495285	-0.04375242814421654	-0.013915730640292168	0.00614310335367918	0.021442648023366928	-0.060185909271240234	0.0019228107994422317	-0.012394746765494347	0.0015405250014737248	-0.027196204289793968	-0.0691395178437233	
-0.028537042438983917	-0.010835438035428524	0.029220974072813988	0.015688516199588776	0.039965011179447174	0.052858609706163406	-0.07657408714294434	0.014620104804635048	0.0008110699127428234	-0.038278426975011826	0.006253422703593969	-0.018159715458750725	-0.018789013847708702	-0.011919035576283932	-0.02511558122932911	-0.0015041233273223042	-0.0012190096313133836	-0.02152387611567974	-0.014935829676687717	-0.05732257291674614	-0.00480565195903182	0.00422346917912364	-0.01715855486690998	0.021570339798927307	-0.004838953260332346	
-0.015113301575183868	-0.009091930463910103	0.0246126726269722	0.0192005205899477	0.012151848524808884	-0.0189569890499115	0.0017242430476471782	-0.009240785613656044	0.0022896749433130026	-0.01813514530658722	-0.004385714884847403	-0.002320090075954795	0.04207756370306015	-0.01383050624281168	-0.018081655725836754	0.026403125375509262	-0.028878163546323776	-0.008464043959975243	0.010463479906320572	0.00240195170044899	-0.017477037385106087	-0.024793200194835663	-0.03752356767654419	0.02451787143945694	0.014319293200969696	
-0.04467035084962845	-0.00754582742229104	0.026642946526408195	-0.012997954152524471	-0.010533544234931469	-0.010260106064379215	-0.0066252099350094795	-0.019944140687584877	-0.046363841742277145	-0.014575936831533909	0.0006550732650794089	0.006052939221262932	-0.004637592006474733	0.01141273882240057	0.02829420007765293	-0.0005439381347969174	-0.015135638415813446	-0.005936913657933474	-0.0551961287856102	0.04062527045607567	-0.0007998551591299474	-0.00992796290665865	0.021106326952576637	-0.06339877843856812	0.023319678381085396	
0.05030978098511696	-0.0003763848217204213	-0.0009951349347829819	0.011143188923597336	0.07353701442480087	0.013511741533875465	0.007838068529963493	0.01628916710615158	0.009509901516139507	0.025981491431593895	-0.01658232882618904	-0.03681659325957298	0.009509783238172531	-0.04215290769934654	0.0153458621352911	0.013484886847436428	0.023167284205555916	0.0028873260598629713	0.0002466709411237389	0.0025003249756991863	-0.01421714574098587	-0.012908140197396278	0.00974124763160944	0.03681923821568489	-0.02380993589758873	
-0.01616019569337368	0.04645170643925667	0.030322199687361717	0.013787951320409775	-0.014005376026034355	-0.0030103223398327827	-0.04414887726306915	-0.01308956928551197	0.05427224934101105	0.017940765246748924	0.0678391307592392	-0.014956390485167503	0.004504781682044268	-0.04788140952587128	0.09916645288467407	-0.03920545428991318	0.02378946729004383	0.04899291321635246	0.03186911717057228	0.014427577145397663	-0.03477495163679123	-0.008368739858269691	-0.013720941729843616	0.011442665010690689	-0.0134399039670825	
0.0504944771528244	-0.015356424264609814	-0.018621040508151054	0.00487282732501626	0.0381559357047081	0.00846276804804802	0.009052597917616367	-0.007504594512283802	-0.005386793054640293	-0.024218861013650894	0.029153725132346153	-0.015028444118797779	-0.005409169010818005	0.0040497262962162495	0.0195936169475317	-0.0047750272788107395	0.0005483501008711755	0.004781399387866259	0.011470054276287556	0.014339330606162548	-0.0008299019536934793	0.031341370195150375	0.019557056948542595	0.0061288862489163876	0.00818449817597866	
-0.029962196946144104	-0.02995690144598484	-0.0002987515472341329	0.01942833885550499	-0.05726935714483261	0.011039100587368011	-0.03346896916627884	0.03959992527961731	-0.013163818046450615	0.006988191511482	0.01607220247387886	-0.02561461552977562	0.020368319004774094	0.0023916494101285934	-0.038926295936107635	0.006225107703357935	-0.012224789708852768	0.019798357039690018	-0.016255516558885574	-0.006547123659402132	-0.030024921521544456	0.03378036618232727	-0.04783492162823677	0.05150454863905907	-0.00018410058692097664	
-0.020824545994400978	0.023995764553546906	0.023219961673021317	-0.008845575153827667	0.0013774442486464977	0.0047197793610394	-0.03173670172691345	-0.002993629779666662	0.0035480333026498556	-0.006856930907815695	0.01355625782161951	-0.003485902678221464	0.01602003164589405	-0.019369423389434814	-0.005347087979316711	-0.03661036863923073	0.009642321616411209	-0.006040382198989391	0.01137212011963129	0.023439301177859306	0.015221867710351944	-0.005531236529350281	0.008609199896454811	0.00010763906175270677	0.04594027251005173	
0.06802360713481903	-0.010495521128177643	-0.026432665064930916	-0.02416050061583519	0.010557728819549084	0.005650135688483715	0.016638917848467827	-0.014468181878328323	0.05448314920067787	0.02375156059861183	0.0156165212392807	0.05189487338066101	-0.014830488711595535	-0.006256455555558205	0.02920820750296116	0.002081748330965638	0.020222565159201622	-0.008696537464857101	-0.02578749507665634	-0.03669722378253937	-0.0003110564430244267	0.0005088374018669128	0.013333417475223541	0.030111398547887802	-0.0001710456417640671	
-0.00922599621117115	-0.018176373094320297	-0.006120224017649889	0.03533223271369934	0.0034285590518265963	0.05680141970515251	0.009842856787145138	-0.057794202119112015	-0.014461970888078213	-0.0006403123261407018	0.00721859373152256	-0.02123199589550495	-0.0030331031884998083	-0.005866617430001497	0.03756280243396759	0.0029336786828935146	-0.01672954484820366	0.0454118549823761	-0.009727442637085915	0.028591817244887352	-0.028578437864780426	-0.037538401782512665	0.011324495077133179	-0.0002525054442230612	0.0627845823764801	
-0.017375880852341652	-0.0006625867099501193	0.0003989024262409657	0.017676180228590965	0.003131414297968149	0.04694713279604912	0.03915223851799965	-0.003927469253540039	0.012199392542243004	-0.025250637903809547	0.03331826254725456	-0.02609461173415184	0.05139221251010895	0.05836807191371918	-0.0021613040007650852	-0.00360011775046587	-0.012190522626042366	-0.0018596458248794079	-0.0037929625250399113	-0.020267536863684654	-0.01276510301977396	-0.024171294644474983	-0.01594555377960205	0.02587076649069786	-0.0038279977161437273	
0.05843888223171234	0.015900293365120888	0.031760405749082565	-0.01659025251865387	0.019201677292585373	0.019362838938832283	0.01402370911091566	0.039194848388433456	0.047899823635816574	0.01891876570880413	-0.05170319601893425	-0.00977092981338501	0.02175866812467575	0.003693614387884736	0.025731075555086136	-0.0068822759203612804	-0.05694089084863663	-0.03221683204174042	-0.008175215683877468	-0.003451755503192544	-0.03614276647567749	0.014888926409184933	-0.028749747201800346	-0.020547430962324142	-0.02227640151977539	
0.0016658284002915025	0.005091766361147165	0.0016713724471628666	0.0243038609623909	0.020128678530454636	0.003201613435521722	-0.013311479240655899	-0.030342673882842064	-0.006924699526280165	-0.02438383176922798	0.0014798971824347973	0.010319196619093418	0.03581250086426735	0.007898921146988869	0.00497557083144784	0.009637179784476757	-0.01784485951066017	0.000538462889380753	0.008705336600542068	-0.009098174050450325	0.003439051564782858	-0.006858278997242451	-0.020189471542835236	-0.02124069817364216	0.0696951150894165	
-0.039151858538389206	-0.016508998349308968	0.01980232074856758	-0.03211691975593567	0.0011721599148586392	0.02713293395936489	0.024937113747000694	-0.05494702234864235	0.05959412455558777	-0.016858333721756935	0.028270145878195763	-0.040629781782627106	0.02800711803138256	0.06084399297833443	0.03135298565030098	0.019234761595726013	0.017282551154494286	0.008817696012556553	0.012363482266664505	0.0035549330059438944	0.027251748368144035	0.004826136864721775	0.016730429604649544	0.005189784802496433	0.010878629051148891	
-0.009336210787296295	-0.023378834128379822	0.004987331107258797	0.0023889439180493355	0.011071662418544292	0.014135507866740227	0.026120197027921677	-0.001112189143896103	-0.030976394191384315	-0.026723094284534454	-0.02444251999258995	0.023978862911462784	0.02246040850877762	0.020434046164155006	-0.008338951505720615	-0.019458144903182983	-0.022081967443227768	-0.052523888647556305	0.04180556535720825	-0.011498245410621166	-0.002792597282677889	-0.044829148799180984	0.009139043278992176	0.02464018389582634	-0.033502623438835144	
-0.004229320678859949	0.00448184460401535	0.019078949466347694	0.040969185531139374	0.03227880224585533	0.02102896012365818	-0.00901177991181612	0.01732526160776615	-0.04112070053815842	0.031042782589793205	0.021702202036976814	-0.02354363352060318	-0.01127569004893303	0.06427451223134995	-0.009366138838231564	-0.02223203517496586	-0.008791065774857998	0.006765878759324551	0.02532142400741577	0.022029079496860504	-0.0009929597144946456	-0.008488633669912815	-0.0013413513079285622	0.02383289486169815	0.015500579960644245	
0.019872186705470085	-0.00438894284889102	-0.006102724000811577	-0.024083713069558144	0.014548500068485737	-0.003253575647249818	0.01517749298363924	-0.03317844122648239	-0.04631586745381355	-0.021098710596561432	0.022183548659086227	0.006586020812392235	0.0031435389537364244	-0.06281625479459763	0.036693450063467026	-0.008045713417232037	0.009326261468231678	-0.036226313561201096	0.016830869019031525	0.015404678881168365	0.028972938656806946	-0.020527349784970284	-0.00582184549421072	0.0017208419740200043	0.04389629885554314	
-0.0263983141630888	-0.049471981823444366	-0.02527575008571148	-0.015102083794772625	-0.0031532361172139645	-0.005215254612267017	-0.01661841757595539	0.003659004345536232	0.046320654451847076	-0.02181144803762436	-0.011114178225398064	-0.025519607588648796	0.00628203060477972	-0.0308988057076931	-0.003389083780348301	-0.011663920246064663	-0.042450085282325745	0.027308426797389984	0.01591484434902668	-0.05194860324263573	0.0031072001438587904	-0.041909635066986084	0.004404494073241949	-0.03283115476369858	-0.02472805790603161	
0.022626657038927078	-0.012508675456047058	0.01897509954869747	0.025672629475593567	-0.010313602164387703	0.00016237713862210512	0.030647780746221542	-0.0017653326503932476	0.015867110341787338	-0.01799197494983673	-0.006358414422720671	0.031492944806814194	0.004310954362154007	0.038120511919260025	-0.040580131113529205	-0.01780080422759056	0.02606678009033203	-0.059471048414707184	0.014991303905844688	-0.004077463410794735	-0.002279091626405716	0.027614187449216843	0.02442859672009945	0.030121969059109688	-0.023389030247926712	
-0.008800781331956387	0.011200888082385063	-0.05277540907263756	-0.011588511057198048	-0.04280296340584755	-0.025944765657186508	0.004354413133114576	0.001561358105391264	0.022886162623763084	0.01492149569094181	-0.0014351756544783711	0.03804713487625122	-0.03398098424077034	-0.03673955425620079	-0.009022424928843975	0.00109970779158175	-0.031214935705065727	0.006269747391343117	0.049852825701236725	-0.031525421887636185	-0.01167494710534811	-0.008806425146758556	-0.027334872633218765	-0.03784945607185364	0.0029439248610287905	
-0.028980180621147156	-0.026134053245186806	-0.008563966490328312	-0.005864457692950964	0.026465782895684242	0.02382029965519905	-0.030235309153795242	0.03663288801908493	0.0162004753947258	-0.009259916841983795	0.01178596168756485	-0.013324698433279991	-0.018895313143730164	-0.0015364090213552117	0.03393757715821266	0.04192187264561653	0.03666755184531212	0.004006906878203154	0.034139469265937805	-0.002809308236464858	0.014829338528215885	-0.02127077244222164	-0.002071540104225278	-0.023094693198800087	0.0028333300724625587	
0.023626860231161118	-0.03302866965532303	-0.014322605915367603	-0.04535270482301712	0.007246844936162233	0.06309244781732559	0.001735049532726407	0.022697707638144493	-0.025434572249650955	0.02328079752624035	0.020030295476317406	-0.0029169379267841578	-0.019669601693749428	0.019255580380558968	-0.0025316758546978235	-0.01752120442688465	0.014029452577233315	0.0099461879581213	-0.03309302031993866	-0.004835507366806269	-0.015048745088279247	-0.0058670612052083015	-0.034265369176864624	-0.011903339065611362	-0.044869452714920044	
0.018965035676956177	-0.006636438425630331	0.014534013345837593	-0.002689798129722476	0.05746228247880936	0.02459835633635521	-0.0878283903002739	-0.0031653193291276693	0.0005980929126963019	-0.017975956201553345	-0.014608842320740223	3.4975106245838106e-05	-0.01894356682896614	-0.006355717312544584	-0.004362369887530804	-0.013352902606129646	0.00033349066507071257	0.007815356366336346	0.01740412786602974	-0.028973348438739777	-0.03603387996554375	-0.012506145052611828	0.04791787639260292	0.009647124446928501	0.0026187561452388763	
-0.0017457487992942333	0.028970539569854736	0.005931482650339603	0.02852514758706093	-0.03583319112658501	0.032001134008169174	0.01909409649670124	-0.04946385696530342	-0.01207885704934597	-0.01319014374166727	0.06863948702812195	0.028783008456230164	-0.0011606290936470032	-0.022530417889356613	0.0008795191533863544	-0.0368037112057209	0.014768748544156551	0.05660524591803551	-0.016307305544614792	-0.039452143013477325	0.015580348670482635	-0.006510517094284296	0.04330912604928017	0.0014805307146161795	0.0005905998987145722	
-0.026839882135391235	0.01405112911015749	0.012834982946515083	-0.010944408364593983	0.05260470509529114	-0.014983001165091991	-0.022621339187026024	0.009004632942378521	-0.006436478346586227	-0.03153415396809578	-0.022039061412215233	0.0176512710750103	-0.004983645863831043	0.05207211896777153	0.040990084409713745	0.002368774963542819	0.0018273722380399704	-0.019595637917518616	0.029020199552178383	0.052198246121406555	0.008414961397647858	0.009553126059472561	0.008145175874233246	-0.011509829200804234	-0.0439177080988884	
-0.023785091936588287	0.021381350234150887	-0.012716525234282017	-0.048452187329530716	0.018480287864804268	-0.014206429943442345	-0.029963267967104912	0.007480202242732048	-0.009277175180613995	-0.018137913197278976	-0.04846823960542679	-0.06452448666095734	-0.032476477324962616	-0.013725272379815578	8.81337546161376e-05	0.0261691864579916	0.022052519023418427	0.014097343198955059	-0.006165981292724609	0.0030753181781619787	0.0322033055126667	0.028560947626829147	0.028284624218940735	0.024477800354361534	-0.014573435299098492	
-0.012908253818750381	-0.014920505695044994	0.04173121228814125	-0.03896428272128105	-0.017747167497873306	-0.018216537311673164	0.0015751788159832358	-0.039996374398469925	0.00854930467903614	-0.02359209954738617	0.015848860144615173	0.018511898815631866	0.013248052448034286	0.04287103936076164	0.014407377690076828	-0.02534414827823639	0.028502292931079865	0.06166313588619232	0.006497993133962154	-0.006065571680665016	0.018946072086691856	-0.016386058181524277	-0.00768638588488102	-0.008979608304798603	0.015422032214701176	
-0.0001863876823335886	-0.02898990921676159	-0.003990573342889547	-0.009543000720441341	0.027819545939564705	-0.010553686879575253	0.021505119279026985	-0.015666261315345764	-0.05047821253538132	-0.09145563840866089	-0.005832052323967218	-0.03894008696079254	0.018112219870090485	0.07547216862440109	0.04080614820122719	0.02730833739042282	-0.02230605110526085	0.004036185331642628	-0.018674667924642563	-0.017937112599611282	-0.013279961422085762	0.013959583826363087	0.050875309854745865	0.006055505480617285	0.008603934198617935	
0.025786254554986954	-0.043360866606235504	-0.036967936903238297	0.006163523532450199	0.06003326550126076	0.01024287473410368	-0.05451659858226776	0.026307931169867516	-0.03654457628726959	0.0031711196061223745	0.012858396396040916	-0.0037815067917108536	0.030460726469755173	0.024330804124474525	-0.0004870507982559502	-0.005737504456192255	-0.02707871049642563	0.04370656982064247	0.044317860156297684	0.060744501650333405	-0.01894054189324379	-0.01667815074324608	0.02075834386050701	-0.008818761445581913	0.028143983334302902	
0.01078782044351101	-0.003179929917678237	-0.005423170980066061	-0.013323279097676277	-3.2516360079171136e-05	-0.04998749867081642	0.013927236199378967	-0.010114850476384163	-0.07201219350099564	0.02858993038535118	-0.0105421282351017	-0.024814119562506676	0.00021286960691213608	-0.004737989045679569	-0.003477181075140834	-0.03054143115878105	0.035174403339624405	-0.006873694248497486	-0.0034629260189831257	0.018311217427253723	-0.027209436520934105	-0.011211936362087727	0.006287726107984781	0.004661684390157461	0.010125701315701008	
0.047101836651563644	-0.05529109761118889	0.005107041914016008	0.011158018372952938	-0.006319843698292971	0.01963675208389759	0.03309163451194763	-0.036653727293014526	0.0024373086635023355	0.017257194966077805	-0.046946510672569275	-0.028126129880547523	0.04632264003157616	-0.045045580714941025	0.0042233699932694435	0.01285962387919426	0.04216961935162544	-0.0005862649413757026	0.021935051307082176	-0.01974719762802124	0.01974737085402012	-0.0037980019114911556	-0.029531972482800484	0.03560866042971611	-0.03635047748684883	
0.03552152216434479	0.026181502267718315	-0.010575909167528152	0.022653553634881973	0.036414630711078644	-0.05957968533039093	-0.009904882870614529	-0.028673620894551277	0.05604065954685211	0.023062992841005325	-0.017162468284368515	-0.03449901193380356	0.047789592295885086	-0.009358533658087254	0.04579223692417145	-0.03500337898731232	0.06562598794698715	0.013339870609343052	0.009845184162259102	0.010986236855387688	0.04327743873000145	-0.0068381670862436295	-0.057503774762153625	0.013470242731273174	0.05897340551018715	
0.0053990865126252174	-0.02043713815510273	0.024589918553829193	0.02458852156996727	0.001929739722982049	0.015942033380270004	-0.011392874643206596	0.0079380813986063	-0.012033335864543915	-0.012746524065732956	0.0029565205331891775	-0.023071948438882828	-0.030346566811203957	-0.05325128510594368	-0.04130179435014725	0.021852942183613777	-0.030093658715486526	0.01692534051835537	0.010541128925979137	-0.015692221000790596	-0.039942022413015366	-0.0036892169155180454	0.003923001233488321	0.024958787485957146	0.014998559840023518	
-0.0256914384663105	-0.006989520043134689	-0.010425901971757412	0.03241909667849541	0.017654305323958397	0.02959209680557251	0.0134205287322402	-0.011950499378144741	-0.021385667845606804	0.0020654236432164907	-0.0009411111823283136	-0.02629554644227028	0.0005897075752727687	0.0008899117237888277	0.002725728088989854	0.001833538874052465	0.0067262533120810986	0.0052608647383749485	0.04773925617337227	-0.030568839982151985	0.013838816434144974	0.03701196238398552	-0.03710487112402916	-0.01220016274601221	-0.005012852605432272	
0.005787880625575781	0.03008655086159706	0.017755262553691864	-0.014243225567042828	0.03366870433092117	-0.04045012965798378	0.013436077162623405	-0.024045757949352264	0.020102323964238167	0.009932437911629677	-0.057616226375103	-0.01275812927633524	-0.007361150346696377	-0.0038226342294365168	-0.01103608775883913	0.00913582369685173	-0.052178580313920975	0.02892448380589485	0.013553299941122532	-0.014668124727904797	0.0386342816054821	-0.01037657167762518	-0.03556468337774277	-0.02485690452158451	0.025845719501376152	
-0.06011281535029411	-0.00709253316745162	-0.02029477059841156	-0.04076581448316574	0.04895215108990669	-0.03476252034306526	0.005873645190149546	-0.004594545345753431	-0.03182628005743027	0.011456850916147232	-0.026669206097722054	-0.0034884267952293158	0.008926036767661572	-0.03231469914317131	-0.0009404331794939935	0.006880644708871841	-0.028425080701708794	-0.04344988986849785	-0.005252600647509098	-0.02996664121747017	0.022273225709795952	-0.06288624554872513	-0.005701103247702122	0.06609492003917694	-0.02701837196946144	
-0.004990498535335064	-0.00011199355503777042	-0.01936960220336914	-0.010503356344997883	-0.00016347732162103057	0.028278926387429237	0.009903833270072937	-0.043487150222063065	-0.005220533814281225	0.010394095443189144	0.004594757687300444	0.06121864169836044	-0.03243740275502205	-0.01365420687943697	0.038064517080783844	0.01706733927130699	-0.03162652254104614	-0.021597102284431458	-0.0005377116613090038	0.030496763065457344	0.03134436532855034	-0.003706328570842743	-0.036156684160232544	0.023289158940315247	-0.06403958052396774	
-0.034938838332891464	0.03906666487455368	0.06180286407470703	0.017138049006462097	0.02746676467359066	-0.0007426401716656983	-0.022215336561203003	0.00718581723049283	-0.00258057564496994	-0.02072133868932724	-0.0096278116106987	-0.010022944770753384	-0.026500731706619263	0.023883836343884468	-0.038072019815444946	-0.012334151193499565	0.009427381679415703	0.013361193239688873	-0.004287333227694035	-0.012945986352860928	-0.02769014984369278	0.008164477534592152	0.03554455190896988	-0.004655463621020317	0.005072896834462881	
-0.013205811381340027	0.04610356315970421	-0.059440068900585175	-0.01993168517947197	-0.04774826765060425	-0.0015037789708003402	0.013091430068016052	0.004357706755399704	-0.03674691915512085	0.008616120554506779	0.006112759001553059	-0.018812166526913643	-0.018787305802106857	-0.044471681118011475	0.010441787540912628	0.020347420126199722	0.01915155164897442	0.05676232650876045	0.012180069461464882	0.00931501667946577	0.022774500772356987	-0.007153940852731466	0.01116553507745266	0.021090317517518997	0.02679755724966526	
-0.017332887277007103	-0.00555632496252656	0.022715674713253975	-0.02231650985777378	-0.02184884250164032	0.021705584600567818	-0.0644298568367958	-0.002565275877714157	-0.0420626737177372	0.030331598594784737	0.00619431072846055	-0.023300157859921455	-0.01795186474919319	0.04138285666704178	0.009841663762927055	0.01762278750538826	-0.002620255807414651	-0.0041502052918076515	-0.01999310962855816	0.048623524606227875	0.023914901539683342	-0.04876134917140007	0.0016146234702318907	-0.008763930760324001	0.04728170856833458	
0.052694372832775116	-0.020234184339642525	-0.010552906431257725	-0.025460902601480484	0.02102118730545044	-0.04586607217788696	-0.0070216720923781395	0.021136196330189705	-0.04660314694046974	0.018537553027272224	0.017850708216428757	0.0003357278765179217	-0.005256838630884886	-0.013864079490303993	0.029647329822182655	-0.004990754183381796	-0.014552216045558453	0.01025920920073986	-0.010230263695120811	-0.03982476145029068	-0.02336684614419937	-0.0572008453309536	0.04837445542216301	0.005053514149039984	0.0062033613212406635	
-0.0076434677466750145	-0.017771219834685326	0.008727586828172207	-0.01831050030887127	0.022247126325964928	0.029104210436344147	-0.008681799285113811	-0.01712208241224289	0.031582076102495193	0.05538344010710716	0.00022239262762013823	0.032277099788188934	-0.010861339047551155	-0.005324936471879482	-0.032152365893125534	0.0035722043830901384	-0.07839061319828033	-0.042387690395116806	0.02992904558777809	0.03679623454809189	-0.0119642848148942	0.011230364441871643	0.0032085145357996225	-0.0009852107614278793	0.010977819561958313	
0.00045916324597783387	-0.09386501461267471	0.005792716983705759	0.005140394903719425	0.023021068423986435	0.025808565318584442	0.00823904573917389	0.005021838471293449	0.015678245574235916	0.014268097467720509	-0.022937534376978874	-0.02471427246928215	-0.004471179563552141	0.040864914655685425	0.015816636383533478	0.05267014726996422	-0.020888060331344604	0.024619895964860916	-0.04203669726848602	0.02134166844189167	0.002868812996894121	-0.002059967489913106	0.000725170539226383	0.04308076947927475	-0.023656070232391357	
-0.03826422989368439	-0.012626188807189465	0.0216724444180727	0.00986722856760025	-0.0023405696265399456	-0.03122309036552906	-0.011671771295368671	0.004625434521585703	0.012664549984037876	0.07239746302366257	0.04122360050678253	0.016653859987854958	-0.03157045692205429	0.0013850497780367732	0.044488921761512756	-0.004206737969070673	0.010100556537508965	-0.005548747722059488	-0.012156866490840912	0.028866376727819443	-0.00465424545109272	-0.05527656525373459	-0.020304201170802116	0.021440835669636726	0.045914750546216965	
0.0027455626986920834	-0.030782168731093407	-0.005211345385760069	-0.05988435074687004	-0.029879199340939522	-0.03357475623488426	-0.005011561326682568	0.00045770208816975355	-0.05342242866754532	0.04310135915875435	0.01824069209396839	0.031896255910396576	-0.013594507239758968	-0.03640124201774597	0.037804655730724335	0.057830676436424255	-0.0329691506922245	0.00022487151727546006	-0.04620107263326645	0.01290462352335453	-0.031793754547834396	-0.03228270635008812	-0.015591279603540897	0.015700973570346832	0.02262377366423607	
0.01631905697286129	-0.001332202460616827	-0.02916594222187996	0.004153654910624027	-0.023996053263545036	0.04496362805366516	0.01159591507166624	-0.029257480055093765	0.03362538293004036	-0.00010001067857956514	0.017452800646424294	-0.02008783258497715	-0.014890697784721851	0.02447406016290188	0.011522707529366016	0.018627742305397987	0.012664953246712685	-0.013968155719339848	0.04959973692893982	-0.017545485869050026	0.015391264110803604	-0.004174301866441965	0.025045199319720268	0.011368921957910061	0.03603272885084152	
0.00693486025556922	-0.04753527417778969	-0.02648277021944523	-0.019284363836050034	0.03047810308635235	0.015148007310926914	-0.018247561529278755	0.05965007469058037	0.036540687084198	0.028130555525422096	-0.031223084777593613	-0.02046283148229122	-0.02052687481045723	-0.005504573229700327	0.027177846059203148	-0.005156015045940876	-0.020931333303451538	-0.08299829065799713	-0.014160998165607452	0.03527837619185448	0.0209210105240345	-0.03327653184533119	-0.00455382838845253	0.03359398618340492	-0.03636551648378372	
-0.01250368356704712	-0.01851174235343933	-0.0061934953555464745	-0.009256011806428432	-0.014546000398695469	0.018764661625027657	-0.010799512267112732	-0.054843720048666	0.011471427045762539	-0.0069728451780974865	0.015089696273207664	-0.02216411381959915	0.00509037496522069	0.051961708813905716	-0.0023810365237295628	0.033426422625780106	0.01842692121863365	-0.03856388106942177	0.013611936010420322	0.03999091684818268	-0.050694748759269714	0.021741000935435295	0.022572899237275124	-0.001479181693866849	-0.029298927634954453	
0.019732140004634857	0.0005547718610614538	-0.010850213468074799	-0.062139321118593216	0.062159668654203415	-0.05963004007935524	-0.01349937729537487	0.022891966626048088	-0.024112572893500328	-0.012893326580524445	0.04797501116991043	-0.03861509636044502	8.70614021550864e-05	-0.017152370885014534	0.007534315809607506	0.02561306394636631	0.017364777624607086	0.026179740205407143	-0.04486577585339546	0.013078593648970127	0.03764565661549568	-0.003246550913900137	-0.011407443322241306	0.001238881959579885	0.011619281955063343	
0.022166142240166664	0.009314781054854393	0.03805363550782204	-0.0032594099175184965	-0.018611034378409386	0.027333252131938934	0.021911058574914932	0.014737467281520367	0.03449467569589615	-0.02630692347884178	-0.02982962131500244	-0.027995891869068146	0.013313398696482182	0.01293773204088211	0.04742635041475296	0.004733882378786802	-0.029299918562173843	0.06674086302518845	0.022778376936912537	0.041391823440790176	0.016767196357250214	-0.03164112940430641	0.012096293270587921	0.03758819028735161	-0.04470405727624893	
0.036072541028261185	-0.016314106062054634	-0.0339675173163414	0.011624055914580822	0.024260977283120155	0.001620850758627057	-0.004511499311774969	-0.0435471385717392	0.025188185274600983	-0.011699504218995571	0.021118706092238426	0.008445341140031815	-0.017555542290210724	-0.013837683945894241	0.0014622248709201813	-0.009985918179154396	-0.0007294708047993481	-0.03142895922064781	0.030945856124162674	0.016901446506381035	-0.013986730016767979	-0.007265705149620771	0.006811544764786959	-0.0015258659841492772	0.029488004744052887	
0.03350809961557388	-0.012929064221680164	0.011129846796393394	0.014969871379435062	0.013378236442804337	-0.0075461361557245255	-0.04259977117180824	0.006510928273200989	0.04592006653547287	0.002519879722967744	0.002631434006616473	-0.03841337561607361	-0.056591667234897614	0.021388383582234383	-0.04330279678106308	0.0005660973256453872	-0.011863961815834045	0.0018804960418492556	-0.030377503484487534	0.046798285096883774	-0.005991906393319368	-0.05184165760874748	0.020263796672225	0.009639629162847996	-0.05050560459494591	
0.020523840561509132	-0.07493957132101059	0.029152214527130127	-0.015171263366937637	-0.019424833357334137	0.042607083916664124	-0.004014074336737394	0.02032230608165264	-0.03889404609799385	-0.0055037993006408215	0.025569269433617592	-0.01053586881607771	0.004934506956487894	-0.04381462559103966	-0.0466063916683197	0.0013848176458850503	0.04489266872406006	0.024455750361084938	-0.013073478825390339	-0.006978261284530163	-0.008417065255343914	0.013005386106669903	-0.0076702674850821495	-0.001382135320454836	-0.00016855690046213567	
0.0005866168648935854	0.001704828580841422	-0.039605554193258286	0.02234048955142498	-0.026609234511852264	-0.01719946227967739	-0.03540872037410736	0.01113553810864687	-0.008462198078632355	0.02781718783080578	-0.03496081382036209	0.038833703845739365	0.019343867897987366	0.020053645595908165	0.03189866989850998	0.009695354849100113	0.025019526481628418	0.005787491332739592	0.052528779953718185	0.007664316799491644	0.04032166674733162	0.0675443708896637	0.05642981454730034	0.03552363067865372	0.03624065965414047	
0.047556694597005844	-0.018827348947525024	0.04077592119574547	-0.01116940937936306	-0.008807061240077019	0.006613549776375294	0.0433511883020401	-0.015348442830145359	-0.04472208395600319	-0.023178553208708763	-0.01892966777086258	-0.030379829928278923	0.002595570869743824	0.03333292528986931	-0.05696096271276474	-0.000860559637658298	-0.008515105582773685	0.02913540229201317	0.024003686383366585	0.0004912925069220364	-0.04833296313881874	0.013581108301877975	-0.026814943179488182	-0.02139371447265148	0.014770898036658764	
0.0668947622179985	-0.037319622933864594	-0.020194198936223984	-0.009628552943468094	-0.024762483313679695	-0.019893735647201538	0.0048902458511292934	0.009874391369521618	0.004152920562773943	0.031577352434396744	0.04582388326525688	0.039043083786964417	-0.05543696880340576	0.00011442938557593152	0.0160184595733881	-0.025760143995285034	0.022499827668070793	-0.007809690665453672	7.55276923882775e-05	-0.004947390872985125	-0.022442635148763657	0.0009062841418199241	-0.04083186388015747	6.505793862743303e-05	0.012628286145627499	
-0.008781485259532928	-0.014841543510556221	0.04451092332601547	-0.04276305064558983	0.006136973854154348	0.02928764373064041	-0.012080603279173374	0.00497525604441762	-0.018987350165843964	0.013669812120497227	0.013849110342562199	0.03743356466293335	-0.019078806042671204	-0.05114487558603287	-0.004038174171000719	0.020748544484376907	0.01325219962745905	0.0058091869577765465	-0.0032128409948199987	-0.005280474200844765	0.042432766407728195	0.0222532469779253	-0.020601948723196983	0.00025881873443722725	0.027063777670264244	

 
-0.00017791629943531007	0.00026666923076845706	4.40800613432657e-05	0.0001021066855173558	9.084581688512117e-05	0.00012539565796032548	7.05564089003019e-05	-6.119767476775451e-06	-4.472683576750569e-05	-3.775518052862026e-05	-0.0001205044100061059	7.769448711769655e-05	3.188003393006511e-05	0.00026627397164702415	-2.4220276827691123e-05	0.00016322942974511534	

 
-0.009310086257755756	0.011364552192389965	-0.08125031739473343	-0.15714532136917114	0.09413879364728928	0.06788317114114761	0.0064463322050869465	0.021616438403725624	0.017162354663014412	-0.0871928483247757	0.006270234007388353	0.043380558490753174	0.09457631409168243	0.06981167942285538	0.03756237030029297	0.08113385736942291	0.012497872114181519	-0.005899893585592508	-0.012639840133488178	0.03097439929842949	-0.03358045592904091	0.0277059655636549	-0.06934481114149094	0.008856537751853466	0.02020501159131527	
-0.15514712035655975	-0.038909368216991425	0.04289262369275093	-0.08804121613502502	0.07262245565652847	-0.08738445490598679	0.03348231688141823	0.03554680570960045	-0.08401250094175339	0.03430020436644554	-0.04168238490819931	0.005193537101149559	0.04886936396360397	0.0016750134527683258	0.006707752123475075	0.08340912312269211	0.0005844478728249669	0.027058059349656105	-0.10651249438524246	0.004099296871572733	0.06915686279535294	-0.029936088249087334	0.007863806560635567	0.06257463991641998	-0.00950164720416069	
0.007652812637388706	0.04087495058774948	-0.03814539685845375	0.06972285360097885	0.0034252386540174484	-0.060369186103343964	-0.07933330535888672	-0.0071428813971579075	0.01748790219426155	0.09941313415765762	0.09338518977165222	-0.05074845999479294	0.06374267488718033	-0.03373348340392113	0.08677567541599274	0.08326996117830276	-0.03488355129957199	0.04580461233854294	0.04729938134551048	0.03855685144662857	-0.12080076336860657	-0.12125276029109955	0.011295698583126068	-0.05066659301519394	-0.1525753140449524	
-0.008448230102658272	0.16238029301166534	0.011762780137360096	0.019468853250145912	-0.026361947879195213	0.0061419205740094185	-0.0037222253158688545	0.009503948502242565	-0.029240382835268974	-0.04622197523713112	0.01281205378472805	-0.004118265584111214	0.046873483806848526	0.03737644851207733	0.00465369364246726	-0.028499377891421318	-0.0467628575861454	0.08486156165599823	-0.02226371504366398	0.030325528234243393	0.06643910706043243	0.05434378609061241	-0.07051726430654526	-0.06663583219051361	-0.02533154934644699	
-0.009988812729716301	0.04569697380065918	0.004533527884632349	0.024699741974473	-0.1063644289970398	0.060915928333997726	-0.06318589299917221	0.043823495507240295	0.051531605422496796	0.01138018723577261	0.033544450998306274	-0.07421905547380447	-0.05917840823531151	-0.06728280335664749	-0.0033864073920994997	-0.1405763179063797	-0.05149514973163605	0.023439647629857063	0.012904705479741096	0.03446126729249954	-0.03554106131196022	-0.06700094044208527	0.021511178463697433	0.061634134501218796	-0.011996224522590637	
-0.028375664725899696	0.04663931205868721	-0.01607508771121502	0.039528727531433105	0.10748917609453201	-0.05686330050230026	0.08813989907503128	0.05515675246715546	-0.0268696378916502	-0.07519473135471344	-0.013931268826127052	-0.021910350769758224	-0.08256866037845612	-0.027729276567697525	0.02537684701383114	-0.053563542664051056	0.06970876455307007	-0.08004078269004822	-0.04533190652728081	0.09719210118055344	0.035036519169807434	-0.02159936912357807	-0.0592619813978672	0.047416575253009796	0.002623140113428235	
0.09215552359819412	-0.012089219875633717	0.0054897284135222435	-0.0176974069327116	-0.013341205194592476	0.09703103452920914	0.09161028265953064	-0.05013567954301834	-0.03478126972913742	-0.07390826940536499	-0.027611587196588516	-0.009248138405382633	0.015137102454900742	-0.007543547078967094	-0.09277737885713577	0.04416083171963692	0.015993675217032433	0.05906118080019951	-0.01399478130042553	0.014710502699017525	-0.035253897309303284	0.125242218375206	-0.06727566570043564	0.04110703617334366	0.0008232184918597341	
0.09907901287078857	0.09761088341474533	-0.01027775090187788	0.04334956035017967	0.0931256115436554	0.01100167166441679	-0.058424368500709534	0.023644469678401947	-0.09048843383789062	0.016604144126176834	0.1416241079568863	-0.030483020469546318	-0.00862374622374773	0.08592218160629272	-0.003611029591411352	0.055910371243953705	-0.041216861456632614	-0.010448712855577469	0.021377192810177803	-0.09989739209413528	0.006656066980212927	-0.11434084922075272	-0.11652515828609467	0.0043481276370584965	-0.0014190672663971782	
-0.08168801665306091	0.007721220143139362	-0.10876653343439102	0.0842379480600357	0.00804118998348713	0.0776151567697525	0.08992152661085129	-0.14553605020046234	-0.041792064905166626	0.06594738364219666	-0.05215243622660637	-0.03652296960353851	0.03381212800741196	-0.01711001619696617	-0.04003194347023964	-0.024365998804569244	0.05114787817001343	0.0040527405217289925	0.048752591013908386	-0.027211293578147888	-0.019782528281211853	0.03663792833685875	-0.06018427014350891	0.04985522851347923	0.011142874136567116	
-0.028475044295191765	0.036785826086997986	-0.07078714668750763	-0.02769637666642666	0.04459952563047409	0.0005345630343072116	-0.08488239347934723	-0.0016372756799682975	0.10967765748500824	-0.0022612405009567738	0.022643517702817917	0.05102689191699028	0.012393990531563759	-0.0771963894367218	0.01434143166989088	-0.10567108541727066	-0.08090224117040634	-0.03522057831287384	0.04179709032177925	-0.007989051751792431	-0.007647634483873844	0.14195656776428223	-0.01879376545548439	0.02785910852253437	0.015246446244418621	
-0.04706370085477829	0.010572968982160091	-0.0807364284992218	0.06591295450925827	-0.012014429084956646	-0.0716094896197319	-0.021274255588650703	0.022556258365511894	0.058793459087610245	0.0964537188410759	0.004366058390587568	-0.014235815964639187	-0.08536778390407562	-0.11693625152111053	0.00935426726937294	-0.03561324253678322	-0.11683345586061478	0.07171691954135895	0.0137404203414917	-0.0560871884226799	0.024166662245988846	-0.030531782656908035	-0.0354304201900959	-0.01953411102294922	0.10724890977144241	
-0.022872790694236755	-0.006057544145733118	-0.006603557616472244	0.016157621517777443	0.01141812652349472	-0.08501406013965607	-0.023663170635700226	0.09534449130296707	0.0690297931432724	-0.15257291495800018	-0.05307368189096451	-0.032805848866701126	0.0350683219730854	0.008341054432094097	0.009214506484568119	-0.06305413693189621	-0.05484110862016678	-0.03112214431166649	0.00848578941076994	0.01436617411673069	0.13497640192508698	0.04927823320031166	0.032043199986219406	-0.07784342765808105	0.09138306975364685	
-0.04648194834589958	-0.04689637944102287	-0.0600866936147213	0.012542537413537502	0.046231359243392944	-0.12088867276906967	-0.07458528876304626	-0.010315120220184326	-0.08101750165224075	-0.02175065316259861	-0.015948457643389702	0.0799955353140831	-0.004339676816016436	0.18973197042942047	0.014238875359296799	-0.03944097086787224	-0.047637008130550385	-0.05907683074474335	-0.02471792697906494	0.048418235033750534	7.232467032736167e-05	0.010693000629544258	0.03188095614314079	0.008755466900765896	0.00715463375672698	
0.026748429983854294	0.11606472730636597	0.03065018355846405	0.08355211466550827	0.03503216803073883	0.0002539519628044218	0.007304397411644459	-0.0045141251757740974	-0.0012741254176944494	0.006704880855977535	-0.11562509834766388	0.002144427038729191	0.07157028466463089	-0.03254823014140129	-0.12022995948791504	-0.01823733188211918	0.030851108953356743	-0.022180704399943352	-0.014154242351651192	0.015438754111528397	0.039277203381061554	0.0004392503760755062	0.04156706854701042	-0.06486786156892776	0.08790011703968048	
-0.052525971084833145	-0.10920172929763794	-0.027081424370408058	0.013885595835745335	0.0031113659497350454	0.06702707707881927	0.04084246978163719	-0.08172887563705444	-0.03747541084885597	0.041905954480171204	0.12280985713005066	-0.027276402339339256	-0.02149020880460739	0.09314994513988495	0.11191865801811218	0.10956220328807831	0.03612801432609558	-0.0778859481215477	0.05818631500005722	0.0642770528793335	-0.0702088326215744	-0.12940214574337006	0.10876476019620895	0.12967389822006226	-0.14235852658748627	
-0.06074553728103638	-0.030009187757968903	-0.029472829774022102	0.1010555699467659	0.0872490182518959	0.11719731986522675	-0.03911489248275757	0.10495314002037048	0.07670612633228302	0.10618343204259872	0.038414549082517624	-0.028210021555423737	0.008093472570180893	0.0004988393047824502	0.009885207749903202	0.017840096727013588	-0.035693876445293427	-0.01660602167248726	-0.038764968514442444	-0.06413718312978745	0.16275307536125183	-0.0189304668456316	0.03977576643228531	0.048703961074352264	0.018809571862220764	
-0.025900276377797127	0.04661127179861069	0.06148910894989967	0.046340763568878174	-0.09039878100156784	-0.06738536059856415	-0.07912813127040863	0.069617860019207	0.07664280384778976	0.009551812894642353	0.005909634754061699	-0.05124048888683319	-0.026778724044561386	0.039849989116191864	0.00797498319298029	0.027013633400201797	-0.06031269207596779	0.06071021780371666	-0.020816639065742493	0.05798116698861122	-0.1186017245054245	0.09033209830522537	-0.037445489317178726	0.004325230605900288	0.003738018684089184	
-0.05141828954219818	0.05419640243053436	-0.09945432841777802	-0.014633960090577602	-0.022310521453619003	0.07022496312856674	-0.05951659381389618	-0.023664942011237144	-0.019704975187778473	0.02555924281477928	-0.017289074137806892	0.09678838402032852	-0.06368392705917358	-0.016836056485772133	0.049009811133146286	-0.07162190973758698	0.0816052183508873	-0.06188918650150299	-0.04118784889578819	-0.03975052013993263	-0.04518220201134682	-0.05740702152252197	-0.15509198606014252	0.061505988240242004	0.030519064515829086	
0.07651477307081223	0.08847340941429138	0.010216634720563889	0.03035358339548111	0.07401605695486069	0.05406666547060013	-0.05120493099093437	-0.02041955478489399	-0.16860289871692657	0.050749823451042175	-0.05118278041481972	0.10272631049156189	0.042264726012945175	0.014214998111128807	-0.035312313586473465	-0.15374243259429932	-0.0360693521797657	0.127675399184227	-0.0030764653347432613	0.002103176200762391	-0.01989893987774849	0.02677360735833645	-0.008564947172999382	-0.10840892791748047	0.109343983232975	
0.029306214302778244	0.03624618053436279	0.055772099643945694	0.07128310948610306	0.036379218101501465	0.07215353846549988	-0.0017826322000473738	-0.042677633464336395	-0.05784344673156738	0.04883994534611702	-0.033854831010103226	0.03994636982679367	-0.003182555316016078	-0.0656176507472992	-0.13787592947483063	-0.0065301330760121346	0.04534473270177841	-0.07585472613573074	-0.02990192361176014	0.002654943149536848	-0.05973399057984352	-0.12341995537281036	-0.07060988992452621	0.02465902455151081	0.07120966911315918	
-0.05368352308869362	0.06021244078874588	0.05430244281888008	0.11907565593719482	-0.12109720706939697	0.02542591094970703	-0.042869921773672104	0.06484676152467728	0.02401137724518776	-0.1485997438430786	0.004970344714820385	-0.005718058906495571	0.011626631952822208	-0.037064045667648315	-0.05493355169892311	-0.003668258897960186	0.07490026205778122	-0.037761155515909195	-0.0490105077624321	0.17153868079185486	0.09285921603441238	0.10562071949243546	0.03668620437383652	-0.05667836219072342	-0.06377524137496948	
-0.03500213101506233	-0.014547663740813732	-0.09456096589565277	-0.014281430281698704	0.0565822534263134	0.03324242681264877	0.11195226013660431	0.07207288593053818	0.019632915034890175	-0.030283354222774506	-0.029454438015818596	-0.03865870460867882	0.00521666556596756	0.05259747803211212	-0.1761619746685028	-0.13553747534751892	-0.05457208678126335	0.06893277168273926	0.0032381098717451096	0.014819176867604256	0.1095593199133873	-0.004636939615011215	-0.023796362802386284	-0.0006314610363915563	-0.06526145339012146	
0.06754661351442337	0.024675190448760986	0.026701895520091057	-0.07653117924928665	0.1153000146150589	0.03707730025053024	-0.1198609322309494	0.08669441938400269	-0.08436406403779984	0.09703324735164642	-0.11591953784227371	-0.14569497108459473	-0.09154564142227173	-0.08888761699199677	-0.14609844982624054	0.04328988865017891	0.025277139618992805	0.0638609230518341	0.008388825692236423	0.02037642151117325	0.052315689623355865	-0.012422552332282066	0.046349283307790756	0.09600553661584854	-0.10769683867692947	
0.07228444516658783	0.06888249516487122	-0.002221848117187619	-0.05724462866783142	0.06771286576986313	0.04323838651180267	0.06800848245620728	-0.016526581719517708	-0.0549093522131443	0.07041030377149582	0.08790261298418045	0.01675610989332199	-0.045844823122024536	0.06639208644628525	-0.09690506011247635	0.01302946638315916	0.08935075253248215	0.021658118814229965	-0.015143551863729954	0.03291061893105507	-0.048023100942373276	0.06920637935400009	-0.041336555033922195	-0.0787309780716896	-0.030675895512104034	
-0.03956824168562889	0.15093745291233063	-0.023762596771121025	-0.08718838542699814	-0.007990637794137001	0.04893818870186806	-0.0846157819032669	0.09136203676462173	-0.07934251427650452	0.015073860995471478	-0.014281114563345909	-0.0009162967908196151	-0.030154908075928688	0.013934364542365074	0.0010158835211768746	0.010940736159682274	0.04930143803358078	0.025522353127598763	-0.060696084052324295	0.05318566784262657	0.08434320241212845	-0.06455335021018982	0.11422845721244812	0.14003056287765503	-0.02390705794095993	
-0.045739300549030304	0.027744825929403305	-0.037122711539268494	0.07651194930076599	0.006862417329102755	-0.03961101174354553	0.07320456951856613	-0.008533419109880924	0.0444544292986393	0.0027625777292996645	0.08958364278078079	0.008569763973355293	-0.0417914055287838	0.01659267581999302	-0.058581288903951645	-0.012973044998943806	-0.061162181198596954	0.04147796332836151	0.043573714792728424	0.11202199012041092	0.020520159974694252	-0.04907473549246788	-0.008799470029771328	-0.030484000220894814	0.022329406812787056	
0.013705370016396046	-0.03948849439620972	-0.0683470144867897	0.016107212752103806	0.025560196489095688	-0.03521009534597397	0.045978013426065445	-0.07765943557024002	0.040081415325403214	-0.03781232237815857	-0.011137844063341618	0.06123281642794609	0.05724617466330528	-0.09258104115724564	-0.09125790745019913	0.024237744510173798	-0.07365186512470245	-0.10636560618877411	0.0073941959999501705	-0.06321468949317932	0.003704188158735633	0.04492786154150963	0.05617270991206169	0.06976340711116791	-0.012715199030935764	
-0.045494165271520615	-0.05512040853500366	0.06926147639751434	-0.0433141328394413	0.07577919960021973	-0.015177130699157715	-0.0016838896553963423	0.037036530673503876	-0.016987202689051628	-0.07231399416923523	0.024524277076125145	-0.04655749350786209	-0.07383062690496445	0.08591872453689575	0.03251970186829567	-0.025650354102253914	-0.027420056983828545	-0.0623808391392231	0.0828482061624527	-0.14347726106643677	0.0658157467842102	0.10813114047050476	0.032622192054986954	0.07348460704088211	-0.08488740772008896	
0.07339511066675186	0.011991835199296474	-0.01571718230843544	0.021028079092502594	0.046440619975328445	-0.005042856093496084	0.06687156856060028	-0.06611691415309906	0.05578039586544037	0.012232022359967232	0.1465947926044464	-0.0555754192173481	-0.007496634032577276	-0.03316830098628998	0.012209289707243443	0.07375972718000412	-0.14554661512374878	-0.09573715180158615	-0.14313845336437225	0.05481652170419693	-0.008103475905954838	0.06513134390115738	0.09615777432918549	-0.04416855052113533	-0.04080520197749138	
0.017681365832686424	-0.01208570972084999	0.03277793526649475	0.06279946118593216	0.0001621196133783087	-0.11073793470859528	0.07005992531776428	0.04064656049013138	-0.0206362996250391	-0.008003846742212772	0.052502527832984924	0.11732545495033264	-0.11798349022865295	0.08565748482942581	0.03824053332209587	0.007963728159666061	0.016088049858808517	0.017616031691432	0.020030776038765907	-0.0008167720516212285	0.08353106677532196	0.10579622536897659	-0.05627977102994919	-0.011851878836750984	-0.029775112867355347	
-0.029089761897921562	0.010127219371497631	-0.050816744565963745	-0.04584445059299469	0.05618727207183838	0.04414212331175804	-0.012516755610704422	-0.031086059287190437	-0.04682531580328941	-0.06936705857515335	-0.030731534585356712	-0.07432389259338379	0.04543222114443779	-0.09473587572574615	0.05785173922777176	0.03317909687757492	-0.06249820068478584	0.03747124597430229	0.04862506687641144	0.022381596267223358	-0.02375197224318981	-0.04499638453125954	0.01980351284146309	-0.0224574226886034	-0.12653270363807678	
0.04652995988726616	0.013678845018148422	0.019391650334000587	0.04719198867678642	0.04315811023116112	0.029756799340248108	-0.0303404051810503	-0.033026568591594696	0.04279760643839836	-0.007748088799417019	0.01347082294523716	-0.04240100458264351	0.07213111966848373	0.04112670198082924	-0.05581868812441826	0.1589910238981247	0.04385799169540405	0.05505259335041046	0.1074921116232872	-0.10303269326686859	-0.010093118995428085	-0.06632423400878906	-0.009185036644339561	0.07529269903898239	-0.04424883425235748	
-0.04967259243130684	0.11764571070671082	0.054373614490032196	0.02606118470430374	-0.0421721525490284	-0.030588064342737198	-0.004536875989288092	0.028576713055372238	0.021807590499520302	0.05031249299645424	-0.055568065494298935	-0.0567401647567749	-0.13465270400047302	0.02187470532953739	-0.09553386270999908	0.017279060557484627	0.1001356691122055	-0.09181942790746689	0.009631261229515076	-0.0709841176867485	0.012668600305914879	-0.08508940041065216	0.022521644830703735	-0.06145631521940231	0.07360082864761353	
-0.020236695185303688	0.028052425011992455	-0.05701371654868126	0.02013125829398632	-0.014500691555440426	-0.0172125194221735	-0.16635163128376007	-0.01926303096115589	-0.07691262662410736	0.041846565902233124	0.01449351105839014	-0.01581265777349472	-0.007318639662116766	-0.015328782610595226	-0.01826164685189724	0.018663153052330017	0.08159687370061874	0.07247699052095413	0.0436551459133625	0.05618581175804138	0.2246713638305664	-0.044469889253377914	0.014869056642055511	-0.031038960441946983	-0.0622132383286953	
-0.003504740307107568	-0.009319677017629147	-0.03350973501801491	-0.1712757647037506	-0.07998070865869522	0.022172436118125916	-0.07379742711782455	-0.061407420784235	-0.1025804802775383	0.01777392253279686	-0.21720987558364868	0.1128179058432579	0.0038250507786870003	0.03723883256316185	0.006725500803440809	0.022754263132810593	-0.054357729852199554	-0.0631742998957634	-0.034683387726545334	0.030244529247283936	0.014359639026224613	-0.05686069279909134	0.07469174265861511	0.06115785986185074	0.060815826058387756	
0.04379591345787048	0.014684081077575684	-0.002250244142487645	0.009901940822601318	0.05412641167640686	0.0039016585797071457	0.030846374109387398	0.021492714062333107	0.08799999952316284	0.15279272198677063	-0.05420442670583725	0.1625000238418579	-0.001961076632142067	-0.01900508813560009	-0.002973607275635004	0.010547484271228313	-0.04059777408838272	0.0065512703731656075	0.003235890530049801	-0.001992648933082819	0.071804478764534	0.05781174451112747	-0.016700079664587975	-0.06473081558942795	0.049790699034929276	
0.039161317050457	-0.048937734216451645	0.06634597480297089	-0.03351445868611336	-0.14626774191856384	-0.003548304084688425	0.08070649951696396	0.0370066836476326	-0.12752407789230347	-0.0010288695339113474	0.004480623174458742	0.07412686198949814	0.06269104778766632	-0.05894819274544716	-0.010268962010741234	0.04724489524960518	-0.11751209944486618	-0.014170980080962181	-0.09507537633180618	0.024520747363567352	0.0481952503323555	0.031153690069913864	0.030977318063378334	-0.058366622775793076	-0.039959706366062164	
-0.030049098655581474	0.05120522901415825	-0.015368355438113213	0.02983272820711136	0.05686028301715851	-0.03655372932553291	-0.04750186949968338	0.003668714314699173	0.03064071200788021	-0.11819679290056229	-0.06445019692182541	0.017497248947620392	-0.03812437504529953	-0.008989735506474972	-0.024831928312778473	-0.10732550173997879	0.03245881572365761	0.08777575939893723	-0.08174016326665878	-0.0872482880949974	-0.1143478974699974	-0.010645544156432152	0.06721151620149612	-0.18362851440906525	0.089861661195755	
-0.006249357480555773	-0.015433321706950665	-0.11863008141517639	-0.017258163541555405	0.13465851545333862	0.10543974488973618	0.11244084686040878	0.002895529381930828	0.03274815157055855	-0.046277664601802826	-0.036634139716625214	0.00010492318688193336	-0.06429518759250641	0.03953354060649872	-0.1335468292236328	0.07156477868556976	-0.0833733007311821	0.013598293997347355	0.0016228512395173311	-0.05960940569639206	-0.06515342742204666	0.0067047420889139175	-0.00847509317100048	0.06849190592765808	-0.03951836749911308	
-0.02964163012802601	0.003436753060668707	0.06720554828643799	0.01942061446607113	0.002827682299539447	0.10254798829555511	-0.035426437854766846	0.06789813190698624	0.10746646672487259	0.01490700338035822	0.02761874534189701	0.04740533605217934	0.131392240524292	-0.05700578913092613	-0.027443474158644676	0.034680407494306564	-0.025837771594524384	0.021252503618597984	0.01062955055385828	0.06663583219051361	-0.015907198190689087	0.009214738383889198	0.013954397290945053	0.06119278818368912	-0.0415055975317955	
-0.01844828762114048	0.024330824613571167	0.015807906165719032	-0.010492163710296154	-0.03971695899963379	-0.011400342918932438	-0.006792561616748571	-0.017479578033089638	-0.09751968085765839	-0.003938756883144379	-0.08901460468769073	-0.02373420260846615	-0.02823519892990589	-0.01758830063045025	-0.10033431649208069	0.06370417773723602	-0.025203242897987366	0.026232412084937096	0.04637431353330612	0.004132447764277458	-0.00323578342795372	0.11574050039052963	0.0029561780393123627	-0.08042656630277634	0.03982851654291153	
-0.11256985366344452	0.11854570358991623	-0.029453927651047707	-0.16328316926956177	-0.04091974347829819	-0.04054957628250122	-0.0359063446521759	0.043373048305511475	0.019504522904753685	0.08850090950727463	-0.026551881805062294	-0.025430727750062943	0.02804950624704361	0.0268955547362566	-0.08222371339797974	-0.01935585029423237	0.06259417533874512	0.06373634189367294	0.08871360868215561	0.07062778621912003	-0.05975955352187157	0.024663666263222694	0.031347814947366714	0.030812837183475494	-0.04826480522751808	
0.019619867205619812	0.041795533150434494	0.03931864723563194	0.03633373975753784	-0.045630406588315964	-0.08882249146699905	0.10371866077184677	-0.0008871970348991454	0.11357774585485458	-0.05850202590227127	0.013854185119271278	0.027856020256876945	0.0812523365020752	-0.10790357738733292	0.0022218276280909777	0.04145895689725876	-0.015900488942861557	-0.0966934785246849	0.04243453964591026	-0.07552406936883926	-0.06255219131708145	-0.05106620863080025	-0.16730996966362	0.008208828046917915	-0.031883738934993744	
-0.024698026478290558	0.09402576088905334	-0.0296444334089756	-0.0033933697268366814	0.07124458253383636	0.025339927524328232	0.013850153423845768	-0.02874099276959896	-0.03225846216082573	0.019217370077967644	0.014561841264367104	-0.05810583755373955	0.030714480206370354	-0.10442418605089188	-0.002713882364332676	0.0790228322148323	-0.03104434907436371	-0.08505180478096008	0.008362811990082264	-0.0864676907658577	0.024055974557995796	0.03999220207333565	0.0045165917836129665	0.003739254316315055	0.04782445356249809	
-0.06390278041362762	-0.017562052235007286	0.00260311015881598	0.02287299931049347	-0.033841658383607864	-0.05843782424926758	0.011682365089654922	0.09250350296497345	0.04887288808822632	0.03453153371810913	-0.08724627643823624	0.07294822484254837	0.11794927716255188	0.008014542981982231	0.0013133740285411477	0.0671108290553093	-0.09600332379341125	6.221536750672385e-05	-0.0429365336894989	-0.01001930981874466	0.10728441178798676	-0.014772648923099041	0.09541794657707214	-0.09834229201078415	0.04772194102406502	
-0.11846349388360977	-0.12247531861066818	-0.002723851939663291	-0.01182893943041563	-0.10954318940639496	-0.010622202418744564	-0.06704307347536087	0.08840562403202057	0.05928826332092285	-0.04832255467772484	-0.07224225252866745	-0.04610505700111389	0.02742743492126465	-0.08324039727449417	-0.02393210306763649	-0.002354706171900034	-0.00026546791195869446	0.013736319728195667	-0.04096093773841858	0.1676468402147293	-0.04642480984330177	0.006833460181951523	-0.03746122494339943	-0.00267715472728014	-0.06384453922510147	
-0.055717356503009796	0.04926205053925514	-0.0183121170848608	-0.1516096442937851	0.07464362680912018	-0.007442863192409277	0.01408832985907793	0.12937404215335846	0.03161431476473808	0.11627113074064255	-0.05004925653338432	0.06386888772249222	0.04814546927809715	-0.04540783911943436	-0.11276887357234955	0.016036879271268845	-0.07684772461652756	0.056495338678359985	-0.05644931271672249	-0.0831310898065567	-0.08448469638824463	-0.11734598875045776	0.06147729605436325	0.050428036600351334	0.02106621488928795	
0.06706145405769348	-0.02897210791707039	-0.009289930574595928	-0.021611705422401428	0.06964913010597229	-0.052926141768693924	-0.021126434206962585	0.03527737036347389	0.02725052461028099	-0.0634167417883873	0.05110499635338783	0.0015314201591536403	-0.0374310128390789	0.1413680613040924	0.10751160979270935	0.06898339092731476	-0.0030363062396645546	-0.015826255083084106	-0.02297157794237137	-0.04813037067651749	-0.07812292873859406	0.00903328973799944	-0.0657094195485115	-0.06579440087080002	-0.1000334620475769	
0.08287138491868973	-0.06629074364900589	-0.03164992853999138	0.07864565402269363	-0.06979011744260788	-0.045804463326931	0.028158368542790413	-0.0037459135055541992	0.08539985865354538	-0.06383661925792694	0.02178494818508625	0.054454512894153595	-0.04491704702377319	-0.06951452791690826	0.060605693608522415	0.07535209506750107	0.027776159346103668	0.049283865839242935	-0.082761250436306	0.08918290585279465	-0.09457793831825256	-0.03214403986930847	0.0713435709476471	-0.12350544333457947	0.0507221594452858	
0.012422584928572178	-0.001578003284521401	0.02053760178387165	-0.014749400317668915	-0.03383779153227806	0.02218092791736126	-0.006932894233614206	0.003458131803199649	-0.041995275765657425	-0.056011419743299484	0.006215638015419245	-0.011344810016453266	0.027279749512672424	-0.005166484974324703	0.04568411409854889	0.0458814762532711	0.100861094892025	-0.044580619782209396	0.00897393748164177	-0.03568384423851967	0.02404104731976986	-0.023689590394496918	0.03621945530176163	0.030556878075003624	-0.018652496859431267	
0.0816124901175499	-0.04692906513810158	-0.05839219689369202	0.047203827649354935	0.0805034264922142	-0.0620964877307415	-0.048742204904556274	0.13229385018348694	0.016336984932422638	0.09163403511047363	0.057786326855421066	0.003981871996074915	0.000838021223898977	-0.000496741384267807	-0.05303408205509186	-0.011922810226678848	0.03534701466560364	0.053484562784433365	-0.04730422794818878	-0.07946998625993729	0.08820255100727081	-0.03628033772110939	0.05082249268889427	0.05204690992832184	-0.08436811715364456	
0.0013920242199674249	-0.062352254986763	0.01438086200505495	-0.06871666014194489	0.005487776827067137	-0.03591515123844147	0.025745075196027756	-0.05153241753578186	0.04435234144330025	0.08561980724334717	0.04969080165028572	-0.11654233932495117	0.010411348193883896	0.043448541313409805	0.12131772935390472	-0.07529205083847046	0.04502210021018982	0.08465475589036942	0.022983159869909286	-0.007045167498290539	0.04295011982321739	-0.04420505836606026	0.05614791810512543	0.008670429699122906	-0.06461619585752487	
-0.025568334385752678	0.0011161109432578087	-0.0971488282084465	0.02414625510573387	0.039899278432130814	0.04156550392508507	0.05180291086435318	0.08908943831920624	0.05068492144346237	-0.07398508489131927	-0.05966944620013237	-0.0908520519733429	0.01878959685564041	-0.09316626936197281	0.031225042417645454	0.023236213251948357	0.01859442889690399	-0.027871334925293922	-0.07140536606311798	-0.0013228481402620673	0.09664338827133179	-0.05760010704398155	-0.05604264512658119	-0.05515145882964134	0.0974445566534996	
-0.03105606883764267	-0.03881131485104561	0.0413421131670475	0.08867787569761276	0.040210869163274765	-0.01593930833041668	-0.05557752028107643	-0.061365123838186264	0.04645003005862236	-0.060105256736278534	-0.043798115104436874	0.08881727606058121	-0.05540388450026512	-0.09462685883045197	-0.0340079665184021	0.012456442229449749	0.013990565203130245	0.04535883292555809	-0.07415266335010529	0.06978438794612885	0.020964445546269417	0.045079782605171204	0.09814052283763885	0.018433131277561188	-0.04082111269235611	
-0.029261818155646324	0.02509981207549572	0.049909066408872604	-0.04954591765999794	-0.10025398433208466	0.15137825906276703	0.08595452457666397	-0.008540026843547821	-0.011736425571143627	-0.0020183762535452843	-0.10964328795671463	0.03241485357284546	-0.06046685948967934	0.10475876182317734	-0.04312511533498764	-0.04978174343705177	-0.038227379322052	-0.045555535703897476	-0.07616963237524033	-0.04598480835556984	-0.010637393221259117	-0.027034705504775047	-0.10281641781330109	-0.003456655889749527	0.02960500307381153	
-0.013280837796628475	-0.0356527715921402	0.0846586599946022	-0.0501420684158802	0.06693072617053986	-0.015369749628007412	0.07107165455818176	0.06931427866220474	-0.037060655653476715	0.019611898809671402	-0.0013400726020336151	0.019049022346735	0.06593438237905502	-0.19450582563877106	0.02899947203695774	0.0470033660531044	0.01085097435861826	0.1022147461771965	0.07259074598550797	0.02655358426272869	-0.01438888069242239	0.030751755461096764	-0.0011632497189566493	0.011501172557473183	0.056542377918958664	
0.06498920917510986	0.039033155888319016	-0.03542087599635124	0.05461094528436661	0.07066639512777328	-0.025298146530985832	0.13210433721542358	0.058318231254816055	-0.023485559970140457	-0.05989539250731468	0.004764033015817404	0.05369523912668228	-0.1604175865650177	-0.001380597474053502	0.00037436833372339606	-0.007731955498456955	-0.0901021733880043	0.02211860939860344	0.06575065851211548	-0.01787327043712139	-0.02281593717634678	-0.034203071147203445	0.038010794669389725	-0.07666477560997009	0.055644307285547256	
-0.12523700296878815	-0.03707762807607651	0.0014552836073562503	0.1523142009973526	0.007928885519504547	0.020535416901111603	-0.002141753677278757	-0.05824271962046623	-0.019554782658815384	0.04554835334420204	-0.05511002615094185	-0.005080990493297577	0.05926893651485443	0.009374081157147884	0.05050943046808243	0.04631410166621208	-0.03203962370753288	0.039750780910253525	0.008841675706207752	0.0648215189576149	0.010580417700111866	-0.07284590601921082	0.09047167748212814	0.038322631269693375	0.040801890194416046	
-0.012567905709147453	-0.04406115785241127	0.04942769929766655	0.005776900798082352	0.0594797320663929	-0.05512315034866333	0.014767628163099289	-3.2828400435391814e-05	-0.050472576171159744	0.11009181290864944	0.011856651864945889	0.056100375950336456	-0.030538447201251984	-0.17831185460090637	0.06788700073957443	-0.051281776279211044	0.0014094605576246977	-0.046809177845716476	-0.006286810152232647	-0.014275899156928062	-0.10666574537754059	0.07463494688272476	-0.024183467030525208	0.08227039873600006	0.05521029606461525	
0.08143897354602814	0.0013933724258095026	0.0253770612180233	-0.058541662991046906	-0.07087411731481552	-0.039098892360925674	-0.04361332952976227	0.08557390421628952	0.027123743668198586	-0.014204260893166065	-0.031237810850143433	-0.014231718145310879	-0.01602674275636673	-0.04953737184405327	-0.006458616349846125	-0.031364183872938156	0.037020791321992874	-0.1579151600599289	0.06221368536353111	-0.044099025428295135	0.07829438894987106	0.01866726763546467	0.01886618323624134	-0.0035282117314636707	-0.016101451590657234	
-0.026619931682944298	-0.046377748250961304	-0.0380435585975647	0.04342116788029671	-0.0690419152379036	-0.10192267596721649	-0.09851839393377304	0.03630803897976875	-0.10201095044612885	-0.06628520041704178	-0.024008702486753464	0.15068258345127106	-0.039924561977386475	-0.0313546359539032	0.03012002445757389	-0.07334693521261215	0.0018444579327479005	-0.157126322388649	0.01840369403362274	-0.06030687317252159	0.0480450838804245	-0.16620679199695587	-0.08483609557151794	-0.0061759743839502335	-0.01639130897819996	
-0.01840919815003872	-0.07922110706567764	0.008147723972797394	0.08204197138547897	-0.06664058566093445	0.0565720833837986	-0.05919087678194046	0.06776744872331619	0.06081094592809677	-0.0035074115730822086	0.014290548861026764	0.03892597556114197	0.022896507754921913	-0.1359865516424179	0.06076795980334282	0.10471617430448532	-0.025843504816293716	-0.059380244463682175	0.11136554181575775	0.032977066934108734	-0.00563822640106082	0.006207442842423916	0.07908935844898224	0.056916773319244385	-0.05757773667573929	
0.06942905485630035	0.07345875352621078	0.003177175298333168	0.03145064413547516	-0.011044581420719624	0.10056231915950775	0.009519588202238083	-0.009118309244513512	-0.01119719073176384	0.035825908184051514	-0.031778380274772644	0.07102560997009277	0.04686783254146576	0.06878742575645447	0.007181286811828613	0.07034087181091309	0.04438432678580284	0.0017017050413414836	0.04892688989639282	0.02747425064444542	-0.08710354566574097	0.06271211057901382	0.04193461313843727	0.03147411346435547	-0.08019256591796875	
0.06656654179096222	0.01143631711602211	0.06579924374818802	-0.0053550503216683865	0.006049938965588808	-0.10708025842905045	-0.11648976802825928	0.11805479228496552	-0.012363586574792862	0.06651138514280319	-0.03034644015133381	0.09774390608072281	0.0396784283220768	-0.040721483528614044	-0.09611142426729202	-0.0018306815763935447	0.05285549908876419	-0.09358485043048859	-0.03172767162322998	0.16884316504001617	-0.06508831679821014	-0.018848242238163948	-0.025320259854197502	0.00830082967877388	-0.022341081872582436	
-0.037047434598207474	0.007964693941175938	-0.033920690417289734	-0.02276863344013691	0.03616974130272865	-0.09680186212062836	-0.043089088052511215	0.03553173318505287	-0.04619923233985901	0.009521152824163437	-0.0017674396513029933	-0.04380503296852112	0.0277834702283144	0.06592323631048203	0.012799324467778206	0.015242586843669415	-0.14988207817077637	0.012140396982431412	0.08539018779993057	-0.03988659381866455	-0.0027233590371906757	0.15141139924526215	-0.04652286693453789	0.00778932124376297	-0.053206007927656174	
-0.027820587158203125	-0.021521519869565964	-0.008474921807646751	0.008856294676661491	0.029114581644535065	0.013025610707700253	-0.008202029392123222	-0.06639691442251205	-0.05249982327222824	0.06071984022855759	0.04365295171737671	0.05120676010847092	-0.0034244235139340162	0.050600070506334305	-0.06904635578393936	0.0024597651790827513	-0.02167784608900547	-0.027188941836357117	-0.014953361824154854	0.08774902671575546	-0.020918037742376328	-0.0181724950671196	0.02278507500886917	0.09372919797897339	0.07363153249025345	
0.09501028805971146	0.0912715420126915	-0.059774789959192276	0.06513409316539764	-0.03576783463358879	-0.060714542865753174	0.048544157296419144	0.013365834951400757	0.0014552599750459194	0.028240345418453217	0.06668387353420258	-0.05196705088019371	0.04844784736633301	-0.00998276099562645	-0.06022312492132187	0.03388553485274315	0.03321543335914612	-0.01890779845416546	0.05799465626478195	0.01212887093424797	0.06856393069028854	-0.022981274873018265	-0.09088851511478424	0.009549383074045181	0.11760679632425308	
-0.026409367099404335	0.08013608306646347	0.130323126912117	-0.048756781965494156	0.030748942866921425	0.0426577553153038	-0.0524628721177578	0.01959635131061077	-0.0077675096690654755	-0.08654331415891647	0.008651255629956722	0.0049697645008563995	-0.006838672794401646	0.025597678497433662	0.01645577698945999	0.0854748860001564	0.028675392270088196	-0.07201460003852844	0.04125551879405975	0.01715453341603279	-0.0375678725540638	-0.07568367570638657	0.05224516615271568	0.03540578484535217	0.010458575561642647	
0.034316908568143845	0.050556741654872894	-0.014451504684984684	-0.05468183010816574	0.0065558007918298244	-0.05497777834534645	-0.024049237370491028	0.05753260478377342	-0.01464427262544632	-0.026303863152861595	0.00941519532352686	0.005005485378205776	0.08329026401042938	-0.009259005077183247	-0.058024559170007706	-0.048753105103969574	-0.041718292981386185	-0.013340551406145096	0.04034426063299179	0.04452015832066536	0.02339133620262146	-0.00345610361546278	0.025553151965141296	0.07630650699138641	-0.07560472190380096	
0.08219210803508759	-0.0752432718873024	-0.01030102837830782	-0.08502430468797684	0.03273353725671768	0.0666896402835846	0.06430108100175858	-0.03953220695257187	0.03952745720744133	-0.0553254559636116	0.0566144734621048	-0.10695948451757431	-0.05215616151690483	0.0704832449555397	-0.12039179354906082	-0.09011993557214737	0.09649784117937088	-0.0622977577149868	-0.017007701098918915	-0.044389672577381134	-0.08608558773994446	0.1181294173002243	-0.035949237644672394	0.04143577814102173	0.05730957165360451	
0.05235197767615318	0.07557927817106247	-0.051392216235399246	0.07450386136770248	-0.0339495874941349	-0.021698834374547005	0.035397764295339584	-0.04210083186626434	0.10058245807886124	-0.05847174674272537	-0.057571373879909515	0.07953871786594391	-0.012152505107223988	0.01124240830540657	0.057813890278339386	-0.08554151654243469	-0.030294377356767654	-0.028608381748199463	0.012161219492554665	-0.06471370905637741	0.07604430615901947	-0.031213980168104172	0.01804589293897152	-0.0712081640958786	0.12181994318962097	
-0.10306643694639206	-0.05952741950750351	0.017708012834191322	-0.10193204879760742	0.008894127793610096	0.004341690801084042	-0.024202018976211548	-0.05562174692749977	0.05919310078024864	0.04009207338094711	-0.034950654953718185	0.10034278780221939	-0.06157625466585159	0.07177016884088516	-0.07617668807506561	0.07333113998174667	-0.025651564821600914	0.03473471477627754	-0.07011503726243973	0.0030601751059293747	0.018244544044137	-0.0034381530713289976	0.0096418596804142	-0.049113474786281586	0.011555826291441917	
0.054114632308483124	-0.01547908503562212	-0.1410084068775177	0.038891956210136414	-0.10160022228956223	0.015490544028580189	-0.010450787842273712	-0.1818738877773285	0.05510590225458145	0.017572646960616112	-0.09078625589609146	-0.012918834574520588	-0.012292317114770412	-0.09605993330478668	-0.027468658983707428	0.03697890043258667	0.007352746557444334	-0.026535872370004654	-0.020845787599682808	-0.11647496372461319	-0.10976918041706085	0.04133787378668785	-0.10466254502534866	-0.1169007271528244	-0.012638911604881287	
0.02319914475083351	0.07212399691343307	0.03310070186853409	-0.01695634052157402	-0.056961361318826675	0.0298151932656765	0.07564397901296616	-0.008258774876594543	0.14408986270427704	-0.02703043632209301	0.009417450055480003	0.05415330454707146	-0.054775089025497437	-0.04902487248182297	-0.007088372949510813	-0.03162214532494545	-0.09471447020769119	-0.028311824426054955	0.01743961125612259	0.05266435444355011	-0.008184080943465233	-0.12514375150203705	-0.023769734427332878	0.030275054275989532	-0.016674313694238663	
0.021333148702979088	0.08273886889219284	0.09218820929527283	-0.03306836634874344	-0.21540972590446472	-0.05321459844708443	-0.12100597470998764	0.031874384731054306	0.022478150203824043	0.04465005174279213	0.02537877857685089	0.08307536691427231	0.07285431027412415	0.10397566109895706	-0.06654886901378632	-0.0008970764465630054	0.041277483105659485	0.009977767243981361	-0.00797849427908659	-0.03566794469952583	-0.06166314706206322	0.006974982097744942	-0.0681053102016449	-0.009212716482579708	0.0020838365890085697	
-0.013240950182080269	-0.024851389229297638	0.04932860657572746	0.0645965039730072	-0.1308615356683731	0.017759287729859352	-0.043138474225997925	0.029361508786678314	0.004430401138961315	0.007411319762468338	0.1091398298740387	0.045789945870637894	0.13308240473270416	-0.06361964344978333	0.003497095312923193	-0.029795093461871147	-0.0014884273987263441	-0.02633322961628437	0.03484764322638512	0.010543077252805233	-0.06921098381280899	0.05486132949590683	0.026452820748090744	0.024342568591237068	0.08613889664411545	
0.0191549863666296	0.020455561578273773	0.001037110690958798	0.0773368701338768	-0.119929738342762	0.03797758370637894	0.044842638075351715	-0.05757053196430206	0.011907504871487617	0.003509129397571087	0.10337185859680176	0.07204591482877731	-0.04904762655496597	0.007746660150587559	-0.11641106754541397	-0.022238504141569138	-0.06954433023929596	0.040169209241867065	-0.034655019640922546	-0.016215961426496506	0.02834288217127323	-0.09822976589202881	0.020204884931445122	0.001842482597567141	-0.007467303890734911	
0.011879914440214634	0.04053046181797981	-0.044862423092126846	0.008049088530242443	-0.15207982063293457	-0.019284512847661972	0.029390249401330948	0.04435510188341141	0.06793499737977982	-0.038594115525484085	-0.012302139773964882	-0.02488752454519272	-0.04455062001943588	-0.0023804749362170696	0.04832760617136955	-0.01806574873626232	-0.04186876490712166	0.02136068418622017	0.001589676714502275	0.07492572069168091	-0.06722220033407211	0.10883128643035889	-0.022406984120607376	-0.07426684349775314	-0.01382454764097929	
-0.004103692248463631	0.04253058135509491	-0.01951153576374054	0.04625852406024933	-0.12151462584733963	-0.006452643778175116	-0.15684491395950317	-0.19657470285892487	0.12498737126588821	0.10010287165641785	0.025259481742978096	0.003466593101620674	0.057873327285051346	-0.040285345166921616	0.05676175653934479	0.0698525458574295	-0.003955884836614132	-0.05116737633943558	-0.011045210063457489	0.06650199741125107	-0.02034551091492176	-0.06812983751296997	-0.07554405927658081	-0.011993816122412682	-0.038820043206214905	
0.15677818655967712	-0.0012682577362284064	0.008419173769652843	0.014305892400443554	-0.06236632913351059	0.02866601198911667	0.0279886182397604	0.04651569202542305	-0.011891155503690243	-0.031102526932954788	-0.04697953537106514	0.034326545894145966	0.05964284762740135	0.030493473634123802	-0.011846237815916538	-0.06964560598134995	-0.024461280554533005	-0.061471641063690186	-0.0685219094157219	-0.10823775082826614	-0.07128686457872391	0.06493241339921951	-0.04642700031399727	-0.05094738304615021	0.002519085770472884	
0.18458415567874908	0.035061173141002655	-0.06019677594304085	-0.0713798850774765	0.0444970577955246	0.037551041692495346	-0.1580718606710434	-0.09725281596183777	0.012496653012931347	-0.04562441259622574	0.058541033416986465	-0.02017541415989399	0.0023050419986248016	0.06256528198719025	0.06904208660125732	-0.04014447331428528	-0.03067157417535782	0.078171007335186	0.07601221650838852	0.04111824184656143	-0.11913444846868515	-0.16062316298484802	-0.04659423977136612	0.11280267685651779	-0.021950794383883476	
-0.1251048445701599	-0.13498905301094055	-0.01475796289741993	-0.0784437507390976	-0.0011939649702981114	0.0024236927274614573	-0.07606019824743271	-0.1306985467672348	0.07284841686487198	-0.04561419412493706	0.0888647586107254	-0.0614146813750267	0.014818219467997551	-0.10771387815475464	-0.04437445476651192	0.05483225733041763	-0.11531435698270798	-0.033186525106430054	0.055772434920072556	-0.0766109898686409	0.14552906155586243	-0.020514829084277153	0.07867693901062012	-0.09096288681030273	-0.1229218915104866	
-0.05418602377176285	0.01567162573337555	-0.0666840672492981	-0.02017773501574993	-0.06538242101669312	-0.03443565592169762	-0.07872164994478226	0.02687953971326351	0.0006203153170645237	0.03891754522919655	0.0439738929271698	0.10991250723600388	0.005743306130170822	-0.1894313544034958	-0.09920836985111237	0.05283190310001373	0.020356805995106697	-0.042934466153383255	0.11148418486118317	0.014833691529929638	-0.004766735713928938	0.03096390888094902	0.01207295898348093	0.06178930401802063	0.011447383090853691	
0.0057562049478292465	-0.024849196895956993	0.06014908477663994	0.04383533447980881	-0.0396595261991024	0.0110823018476367	-0.0038079768419265747	0.06947285681962967	0.1300971806049347	0.007597561459988356	-0.03922367841005325	-0.11055925488471985	-0.013381469994783401	0.053076472133398056	-0.09593577682971954	0.11433473229408264	0.010601447895169258	-0.0027111556846648455	-0.03501739352941513	0.030588898807764053	-0.07529547810554504	0.009344391524791718	-0.03852693364024162	-0.031831588596105576	0.003148225136101246	
-0.02001054212450981	0.04518405348062515	-0.037150971591472626	-0.047912534326314926	-0.0001396751613356173	-0.010033625178039074	-0.04603863134980202	-0.029179858043789864	0.044281404465436935	0.027771998196840286	0.11038242280483246	-0.026399368420243263	0.0483003705739975	-0.03271394595503807	0.03912195563316345	0.03799482062458992	0.06220871955156326	0.022994883358478546	0.07464635372161865	-0.06448683887720108	0.05423365905880928	0.035090699791908264	-0.029460379853844643	0.026201676577329636	0.008389792405068874	
-0.09797929972410202	0.14071068167686462	0.09524468332529068	-0.005100429989397526	0.024049285799264908	0.021540571004152298	-0.035991039127111435	-0.011664814315736294	-0.06341966241598129	0.011004013009369373	0.03513690456748009	0.04551278054714203	0.0919228121638298	0.011526564136147499	0.006843931972980499	-0.024572189897298813	-0.00880447868257761	0.04304052144289017	0.12402329593896866	-0.02027345634996891	-0.014622361399233341	0.0038500805385410786	-0.031115083023905754	-0.09541364014148712	-0.026332926005125046	
