

-0.025810306891798973	0.017054030671715736	-0.008169964887201786	0.01141011156141758	0.004347691778093576	0.00557900732383132	0.00468739727512002	-0.005882668308913708	-0.012027980759739876	-0.011475102044641972	0.00560240400955081	0.00477377325296402	0.0013968379935249686	-0.033853594213724136	0.004796507768332958	-0.013066806830465794	-0.0005238315206952393	-0.027659060433506966	0.01936442218720913	-0.005125379655510187	-0.01268793735653162	0.005031819920986891	0.006497822701931	-0.011219079606235027	0.04752349853515625	
0.028262518346309662	-0.016821803525090218	-0.016570642590522766	-0.01501356903463602	-0.014930053614079952	-0.01524090114980936	-7.718518463661894e-05	0.0014557545073330402	0.012881098315119743	0.018103981390595436	0.003904360346496105	-0.012084483169019222	0.06437049061059952	-0.011794961988925934	-0.017871031537652016	-0.015328720211982727	0.0007823299383744597	0.003289854619652033	0.019799595698714256	-0.005628273356705904	0.028944620862603188	0.014538446441292763	-0.002877200022339821	0.0042708334513008595	-0.0022399304434657097	
0.03539934381842613	0.002317011822015047	0.013496709987521172	0.004613819532096386	0.016324736177921295	0.00782751478254795	-0.024784531444311142	0.05082755535840988	0.0005063998978585005	-0.025174682959914207	0.012826241552829742	0.007121935952454805	0.01633766107261181	-0.008262029848992825	0.014777732081711292	-0.013949105516076088	0.012090344913303852	-0.024738823994994164	0.0034032431431114674	0.0010974175529554486	-0.012297969311475754	0.012778558768332005	0.018919501453638077	0.005575564224272966	-0.025267591699957848	
-0.009652167558670044	0.04740982502698898	-0.02468794398009777	0.0059271021746098995	-0.007784472778439522	0.03245525434613228	0.023107117041945457	-0.012298175133764744	0.030733363702893257	-0.02227187156677246	-0.025030482560396194	-0.018321804702281952	0.015848034992814064	-0.009294843301177025	-0.01727776601910591	0.017585808411240578	0.001492576440796256	0.00934482179582119	-0.00994887575507164	-0.03134893253445625	0.029827194288372993	-0.0026494949124753475	-0.0049141691997647285	0.021098269149661064	-0.007951508276164532	
0.031567223370075226	-0.009171909652650356	0.008900988847017288	-0.001054252847097814	-0.036230362951755524	0.021693693473935127	-0.015138031914830208	0.00725870905444026	-0.00834677740931511	0.01876731589436531	0.020996086299419403	-0.03129417821764946	0.00523896049708128	-0.03197911009192467	0.027828829362988472	-0.024092398583889008	-0.002425374463200569	0.0026185116730630398	0.0030107214115560055	-0.01111785788089037	0.02496715821325779	0.01635684259235859	0.03600994497537613	0.025277867913246155	-0.0045510753989219666	
-0.012692038901150227	-0.006822171621024609	-4.637339588953182e-05	0.014836064539849758	-0.0031694285571575165	0.015399969182908535	0.007672113832086325	-0.016559908166527748	-0.004605940077453852	0.003499020356684923	0.021589504554867744	-0.005879680626094341	-0.049582451581954956	-0.005278772674500942	-0.0019060509512200952	0.008377127349376678	0.008820834569633007	-0.007767839357256889	0.003361071925610304	0.018154991790652275	0.005728103686124086	0.02298925444483757	0.013147588819265366	-0.008560039103031158	0.012795459479093552	

 
9.382694770465605e-06	-1.0102854730575928e-06	5.658297368427156e-07	1.0774550901260227e-05	1.0488132829777896e-05	-9.444668762625952e-07	

 
-0.008060614578425884	0.01574992761015892	0.018726639449596405	0.017863675951957703	-0.018181072548031807	-0.0016825033817440271	-0.02121632732450962	-0.057855430990457535	-0.006838525179773569	-0.008423727005720139	-0.00495516462251544	0.03271967172622681	-0.009226784110069275	0.048023879528045654	0.015789296478033066	-0.022839702665805817	0.024903547018766403	0.026655348017811775	0.026879217475652695	0.016447866335511208	-0.028796600177884102	-0.019009137526154518	0.009114350192248821	-0.029536517336964607	0.006362667307257652	
0.0018785679712891579	-0.02251710370182991	0.0011102979769930243	0.029893025755882263	-0.018668368458747864	0.03228136897087097	-0.028763683512806892	-0.0021482924930751324	0.030476810410618782	-0.052842993289232254	0.013818683102726936	0.022889796644449234	0.004664508625864983	0.014852514490485191	-0.026370294392108917	0.003732916433364153	0.014779441989958286	0.028553107753396034	-0.018600178882479668	0.034862980246543884	0.013472001068294048	-0.013211756013333797	-0.003537258366122842	0.050126269459724426	0.014836162328720093	
0.05432325229048729	0.04786166921257973	-0.02002725936472416	-0.010066421702504158	0.055606503039598465	-0.012239634059369564	0.033751118928194046	0.019335845485329628	0.007483649533241987	-0.006548581179231405	-0.04137406125664711	0.023454276844859123	0.008829263038933277	0.008312219753861427	-0.021579820662736893	-0.01399373821914196	-0.011090323328971863	-0.037098854780197144	-0.010052413679659367	0.045396871864795685	-0.02851897105574608	-0.01193765364587307	-0.005684725474566221	0.013569856993854046	-0.01727323792874813	
0.041244395077228546	0.048734139651060104	0.04755161702632904	-0.0026142511051148176	-0.00294787366874516	-0.017400410026311874	-0.008169274777173996	-0.0026732461992651224	-0.01652282103896141	-0.015165193006396294	0.021139219403266907	-0.025614168494939804	-0.02387135662138462	0.043752096593379974	-0.008884998969733715	0.0006717465003021061	-0.007277348544448614	-0.009298172779381275	0.00980195589363575	0.01568068377673626	0.026242000982165337	-0.002006769645959139	0.019243771210312843	-0.00480365427210927	0.028487306088209152	
0.01458668988198042	-0.035197049379348755	-0.015189900994300842	0.018726499751210213	-0.001529394299723208	-0.02812088094651699	0.02276463247835636	0.003881005337461829	-0.002939575584605336	-0.03262869268655777	-0.032088182866573334	0.06544069945812225	-0.018093502148985863	0.055551547557115555	-0.04998541995882988	0.01185404323041439	-0.022162599489092827	-0.013118887320160866	0.002203128533437848	0.0012205452658236027	0.01315290480852127	-0.021734870970249176	-0.03112325258553028	-0.0032977433875203133	0.04558762535452843	
-0.012082785367965698	0.031044477596879005	0.02261349931359291	0.018983885645866394	-0.007595130242407322	-0.007333362940698862	-0.007101231720298529	0.028927674517035484	-0.028910765424370766	-0.004493613261729479	0.0007702400325797498	-0.010470529086887836	-0.011131353676319122	0.040817420929670334	-0.001148030161857605	0.005314480513334274	-0.04031273350119591	-0.005552200134843588	-0.010869377292692661	-0.0007848289096727967	-0.002565739443525672	-0.03702805936336517	-0.0034966827370226383	0.02760895900428295	0.03321019187569618	
0.05957011133432388	-0.0018782684346660972	0.008354268968105316	-0.03192377835512161	-0.0018597223097458482	-0.056538864970207214	0.0289146788418293	0.010232171975076199	0.03276602923870087	0.005910007748752832	-0.019972357898950577	-0.0049452753737568855	-0.00411451980471611	-0.039051853120326996	0.02916424721479416	-0.0004526592092588544	0.025564920157194138	-0.024034449830651283	-0.004335145931690931	-0.04637657478451729	-0.00236581196077168	0.004631414078176022	-0.023872792720794678	0.025483209639787674	-0.03699178993701935	
-0.05212131887674332	0.029119549319148064	-0.002615130739286542	0.0323263555765152	-0.000952763541135937	-0.008547293022274971	-0.008952285163104534	-0.023184265941381454	0.0411246232688427	-0.004483210388571024	0.002580489730462432	0.043227970600128174	0.015909802168607712	-0.0013783157337456942	-0.032759372144937515	-0.010531255044043064	0.03534970432519913	-0.04542350023984909	-0.02783624269068241	-0.03677913919091225	-0.009126554243266582	-0.0274571031332016	0.034649502485990524	0.017669817432761192	0.014236221089959145	
0.00605269568040967	0.01673080213367939	0.012533525004982948	-0.006576597224920988	-0.01835757866501808	0.032596174627542496	-0.03434288129210472	-0.005031371954828501	-0.049798768013715744	0.005168634932488203	-0.020767275243997574	0.00841350294649601	-0.005586556624621153	0.0236233938485384	-0.021689284592866898	0.020956002175807953	-0.020312882959842682	-0.0018930237274616957	-0.021945850923657417	0.0159269031137228	0.009806697256863117	0.013523080386221409	0.021575024351477623	0.002433457411825657	0.005163066554814577	
-0.0055986009538173676	0.013997944071888924	0.011188201606273651	-0.04315017908811569	0.027866028249263763	0.05222172662615776	-0.0005954615189693868	0.0017471231985837221	-0.012953306548297405	0.0485135093331337	0.011495176702737808	-0.06649532169103622	0.0015241577057167888	-0.07444462180137634	-0.006267725955694914	-0.04967162013053894	0.03929359093308449	0.029980840161442757	0.016979532316327095	-0.0024685473181307316	-0.001460427651181817	0.020604874938726425	0.03348524123430252	0.014471663162112236	0.007961137220263481	
0.037852462381124496	0.0036363410763442516	0.0069183483719825745	0.021855976432561874	0.00030174083076417446	0.002633985597640276	-0.011511476710438728	0.022970179095864296	-0.021231088787317276	0.0389142706990242	0.011147569864988327	0.02652239240705967	-0.02074717916548252	-0.029161129146814346	0.002902829088270664	0.010138778947293758	0.02024443820118904	-0.024619491770863533	-0.04614362493157387	0.010521321557462215	0.007022675126791	0.025569472461938858	0.02940981462597847	0.020915281027555466	-0.0028699631802737713	
-0.038599446415901184	0.005560385994613171	-0.05084344372153282	0.0053739422000944614	-0.002451347652822733	-0.009733778424561024	0.005898355506360531	0.046821851283311844	0.025377623736858368	-0.03355712071061134	0.012986999936401844	-0.0349217914044857	-0.06372137367725372	0.020543592050671577	0.0013895092997699976	0.041679978370666504	0.05376173555850983	0.002063269726932049	0.004149976652115583	-0.027132943272590637	-0.0007438635802827775	0.04559352621436119	-0.01164892315864563	0.026697000488638878	-0.0017774275038391352	
0.010467256419360638	-0.0074905939400196075	0.002893794560804963	0.022865502163767815	0.05186677724123001	0.01183889340609312	0.018588852137327194	-0.01605401001870632	-0.03537150099873543	0.01784694567322731	0.006095491349697113	0.07522109150886536	0.0022646558936685324	-0.0010246511083096266	0.02735845185816288	-0.020190536975860596	-0.01838662475347519	-0.021345555782318115	-0.022591877728700638	-0.003788343630731106	-0.03458156809210777	-0.039822787046432495	3.480126542854123e-05	-0.014403710141777992	0.007810252718627453	
-2.417711766611319e-05	-0.032339103519916534	-0.048361729830503464	-5.134291131980717e-05	-0.027976082637906075	0.037589602172374725	-0.018267249688506126	-0.00297719519585371	-0.028508340939879417	0.023151425644755363	0.005477512255311012	-0.010754511691629887	0.021325908601284027	-0.04441632330417633	-0.002758024726063013	0.03428658843040466	-0.03527925908565521	-0.007091788575053215	-0.007322352845221758	0.003513781353831291	0.028490416705608368	0.04877287521958351	0.049317263066768646	0.0024503644090145826	0.0007297502597793937	
-0.045112527906894684	-0.019351759925484657	0.03813496604561806	-0.018025623634457588	0.00430533941835165	0.03588384389877319	-0.018512504175305367	0.05400427430868149	0.02574094571173191	0.02704969234764576	-0.027268938720226288	-0.018274422734975815	0.01625232957303524	-0.034275587648153305	-0.038470808416604996	-0.0173949021846056	-0.009549044072628021	0.007587424013763666	-0.029488014057278633	0.039758019149303436	0.005059349816292524	0.019882405176758766	-0.03415319323539734	0.04281202331185341	-0.06528513133525848	
0.03312451019883156	0.01741441711783409	0.010962357744574547	0.01888696290552616	0.0025912465061992407	0.0012633288279175758	0.036263421177864075	-0.01944168470799923	0.0013573126634582877	-0.07289590686559677	-0.021769819781184196	-0.014017344452440739	0.014744420535862446	0.010934652760624886	-0.004849873948842287	0.014130692929029465	-0.01990492269396782	-0.04046326130628586	0.020602481439709663	-0.03201127424836159	-0.03066999651491642	-0.012522577308118343	0.04234185814857483	-0.011218072846531868	0.0009100439492613077	
0.028667747974395752	0.0011139742564409971	-0.013638385571539402	-0.0005538167315535247	-0.012552443891763687	-0.0016566147096455097	-0.07293576747179031	-0.01217553298920393	0.0002832908066920936	-0.01456906646490097	-0.021067675203084946	0.044778428971767426	-0.02213502675294876	-0.03473864495754242	0.022124573588371277	-0.009287378750741482	0.004744311794638634	0.02323368936777115	0.0003608218103181571	0.0577956847846508	-0.04231155291199684	0.018620425835251808	0.05244786664843559	-0.020747441798448563	-0.026185834780335426	
0.005842885002493858	0.02221425622701645	-0.05029648169875145	-0.009381558746099472	0.011445102281868458	0.03172752261161804	0.026077106595039368	-0.02946919947862625	0.01645161211490631	-0.012291347607970238	0.02670745737850666	0.00916489027440548	0.0014203719329088926	-0.02101336419582367	0.06510799378156662	0.034985896199941635	-0.014181516133248806	0.018328046426177025	-0.02648850530385971	0.008775835856795311	-0.0027481969445943832	-0.0007440734189003706	0.0015794921200722456	0.017682896926999092	-0.002239011228084564	
0.04353071749210358	0.050405099987983704	0.016286591067910194	0.020717155188322067	-0.022717423737049103	-0.023531753569841385	-0.027340680360794067	0.035888150334358215	-0.011606860905885696	-0.003377892542630434	0.007239083293825388	0.006925628054887056	-0.023668093606829643	-0.06473242491483688	-0.05863737687468529	0.0299206655472517	-0.007165588904172182	-0.015311225317418575	-0.00438500102609396	-0.034646518528461456	0.01827075146138668	0.037632428109645844	0.023611344397068024	-0.02766285464167595	0.047338299453258514	
-5.5618111218791455e-05	0.05318642780184746	0.031642574816942215	0.009397558867931366	0.030280115082859993	0.008795333094894886	0.011328044347465038	-0.004982044454663992	-0.03792243078351021	0.014427396468818188	0.017802074551582336	-0.005621825810521841	-0.002869121264666319	-0.010340004228055477	-0.029121823608875275	0.015229715965688229	-0.03157077729701996	-0.010849515907466412	0.00694757467135787	0.008194325491786003	-0.0022269694600254297	0.049690328538417816	-0.03795970603823662	-0.0015956591814756393	0.0050056492909789085	
-0.03081035055220127	0.011602504178881645	-0.04070853069424629	-0.011875235475599766	-0.03293484449386597	-0.014518152922391891	-0.015087222680449486	-0.004636045545339584	0.041971687227487564	-0.01938568241894245	-0.008999421261250973	-0.08351195603609085	-0.04376557469367981	-0.028506159782409668	0.0038856682367622852	-0.023305458948016167	-0.0011251933174207807	0.048136573284864426	0.024228641763329506	0.03443431481719017	0.01840350218117237	0.019662441685795784	-0.010802572593092918	-0.008534387685358524	-0.011549227871000767	
-0.014546148478984833	0.02411002479493618	0.00780519237741828	0.014631920494139194	-0.02339199185371399	-0.006287624593824148	-0.00545399310067296	-0.023973245173692703	0.03684340789914131	0.03587256371974945	0.004585532005876303	-0.010249157436192036	-0.03357907757163048	-0.00934277568012476	0.012304428033530712	0.04279855266213417	-0.006907226517796516	-0.017586931586265564	0.0018677236512303352	-0.0019295167876407504	-0.06267067790031433	-0.0017846914706751704	-0.0076961824670434	-0.022859981283545494	-0.032644953578710556	
-0.017406633123755455	0.03168787434697151	-0.02237609215080738	-0.07878778874874115	0.0306806992739439	-0.010092088021337986	-0.03943087160587311	-0.012472999282181263	-0.028444675728678703	0.0031706031877547503	0.0015862451400607824	0.030102116987109184	0.014011274091899395	0.03568486496806145	0.009556634351611137	-0.03923409804701805	-0.00658729113638401	-0.049108777195215225	0.004800952039659023	-0.01491531077772379	0.015530646778643131	-0.002541547641158104	0.030721282586455345	0.024599255993962288	-0.0026960603427141905	
0.007895441725850105	-0.007996405474841595	0.006486786529421806	-0.015065362676978111	-0.005156750790774822	-0.01591089926660061	0.021585943177342415	-0.006142870057374239	0.021730627864599228	0.016843676567077637	0.005986776668578386	-0.013999651186168194	0.04612196981906891	-0.004423818085342646	0.019345639273524284	0.006665708031505346	-0.025885244831442833	0.01596754975616932	-0.009308591485023499	-0.018693026155233383	-0.008753983303904533	-0.004965067375451326	0.0242643840610981	-0.037649668753147125	-0.0515710785984993	
0.016606438905000687	-0.00485823443159461	-0.025229983031749725	0.0019477101741358638	0.008898581378161907	-0.018309306353330612	-0.03778890147805214	-0.06821759790182114	-0.009820553474128246	-0.03810098394751549	0.04636794701218605	-0.011010861955583096	0.0031384476460516453	-0.020295865833759308	-0.02065999060869217	0.002138311043381691	0.019040685147047043	0.04030961915850639	0.0053944396786391735	-0.0012190953129902482	0.01688612811267376	-0.0012039109133183956	0.007282281294465065	0.003603417193517089	-0.014169509522616863	
-0.03707730025053024	0.03880992531776428	-0.04713120311498642	0.025828948244452477	-0.031785182654857635	-0.03785362094640732	-0.010798879899084568	0.017946787178516388	0.04835863411426544	0.006187578663229942	-0.03057120181620121	0.02589372918009758	-0.05391369014978409	0.030830085277557373	-0.003755714977160096	0.0056073423475027084	0.0036421800032258034	0.046421971172094345	0.009681087918579578	-0.0054166573099792	-0.002377894474193454	0.014468525536358356	-0.00693508330732584	-0.035165466368198395	0.06097342446446419	
-0.009235509671270847	0.006168713327497244	-0.052267350256443024	0.04558638483285904	-0.006738750264048576	-0.012714655138552189	-0.03318091109395027	0.03023567795753479	0.030856933444738388	0.005443328991532326	0.025419577956199646	-0.03857814148068428	0.02119569480419159	-0.035299383103847504	-0.01845991052687168	0.04623300954699516	0.023076370358467102	0.01934809237718582	-0.00036258238833397627	0.0019843385089188814	0.0017517608357593417	-0.0018421148415654898	0.0011026019928976893	0.0010659663239493966	0.02382446825504303	
0.04504214599728584	-0.007104995660483837	0.028500279411673546	-0.009437944740056992	0.012247968465089798	-0.035925790667533875	-0.011288320645689964	-0.017204822972416878	-0.004642849788069725	0.007648124359548092	-0.006291238125413656	-0.0315743088722229	-0.01970883272588253	0.004942578729242086	-0.06749217957258224	0.004130230750888586	0.05050063133239746	-0.0056270817294716835	-0.024949420243501663	0.041411370038986206	0.01220888365060091	0.03871867433190346	0.03807373344898224	0.025125224143266678	-0.013062023557722569	
0.02525053359568119	-0.022358417510986328	0.003992131445556879	0.02839714288711548	-0.014105912297964096	-5.3668620239477605e-05	0.030203934758901596	-0.05706581473350525	0.0015243167290464044	-0.021375207230448723	-0.019580136984586716	0.013281790539622307	0.007802198175340891	0.023184368386864662	0.02252521552145481	-0.023849070072174072	0.01640860177576542	-0.012086305767297745	-0.03322320058941841	-0.02892768383026123	-0.02063887007534504	-0.015726875513792038	-0.013305827975273132	0.02646702155470848	-0.03657788410782814	
0.017264023423194885	0.03799615800380707	-0.008687042631208897	-0.0028776740655303	0.009514558129012585	0.00514255603775382	-0.025040697306394577	0.04081672802567482	0.006179211661219597	0.004508106969296932	-0.001953737810254097	-0.01481054536998272	0.012000706978142262	-0.06160929426550865	-0.01818249188363552	0.022720227017998695	0.041108638048172	0.023592613637447357	0.017962714657187462	-0.0014574294909834862	0.037618208676576614	-0.0384543277323246	-0.0019470739644020796	0.014498641714453697	0.005082392133772373	
0.010325606912374496	0.04318685457110405	0.015894265845417976	0.006962993182241917	-0.018551765009760857	-0.0016693021170794964	0.007311694789677858	-0.022251315414905548	-0.0315474234521389	-0.00032606328022666276	0.012742273509502411	-0.021722782403230667	-0.03349929302930832	0.009326332248747349	-0.029194572940468788	-0.008332250639796257	0.02642873115837574	-0.024033507332205772	-0.031417377293109894	0.010079902596771717	0.023319942876696587	0.0036430286709219217	6.675330951111391e-05	-0.041154928505420685	0.020850613713264465	
-0.02306908555328846	0.0160463135689497	0.052316807210445404	-0.03878183290362358	-0.021043777465820312	-0.009618300013244152	-0.014577793888747692	-0.010074169375002384	-0.01598178595304489	0.006883574649691582	0.029338635504245758	0.000729162129573524	0.0010613205377012491	0.014279156923294067	0.02060183323919773	-0.025121483951807022	-0.017843175679445267	-0.024281537160277367	-0.014040757901966572	0.0012777986703440547	-0.038975901901721954	0.011214369907975197	0.023632323369383812	-0.016210904344916344	-0.0018292147433385253	
0.015797780826687813	-0.06783782690763474	-0.03969072550535202	-0.0025520839262753725	-0.03245145455002785	-0.04821012541651726	-0.0014107066672295332	-0.04261551797389984	0.006483260076493025	-0.0009276234195567667	1.6406844224547967e-05	0.02485327236354351	0.014541449956595898	0.007236067671328783	0.014612940140068531	0.022266872227191925	0.03614629805088043	-0.024234673008322716	0.01795208267867565	-0.0022169791627675295	0.02585413306951523	-0.034838270395994186	0.01901787705719471	-0.01073370035737753	0.04853544011712074	
0.0005635319394059479	-0.026798423379659653	0.01988847739994526	0.03723827749490738	-0.004633625969290733	0.031047219410538673	0.010275602340698242	-0.033135008066892624	-0.044483669102191925	0.009358352050185204	0.013501262292265892	0.011284350417554379	0.011441076174378395	0.008980116806924343	-0.0027101770974695683	0.0031647877767682076	0.036495644599199295	0.034048501402139664	0.032282985746860504	0.01854076236486435	0.019630711525678635	0.007271929644048214	-0.019933810457587242	-0.00021576802828349173	-0.013074299320578575	
0.02162146009504795	-0.026088347658514977	-0.018123876303434372	0.005530881695449352	-0.010668196715414524	0.041630953550338745	-0.04123825952410698	0.009057668969035149	-0.05359606072306633	-0.03444777801632881	0.05347995087504387	-0.03151604160666466	-0.006982193794101477	0.02577439695596695	0.006185784470289946	-0.019390149042010307	-0.04477332532405853	0.003116826293990016	0.0038828421384096146	0.009707530960440636	0.032338064163923264	-0.002068077679723501	0.03296105936169624	0.06683842092752457	0.03574459254741669	
0.0038438562769442797	-0.030821628868579865	-0.01348944753408432	-0.03270014747977257	0.03938666358590126	-0.019247673451900482	0.014786019921302795	0.03638632968068123	-0.022487156093120575	0.02888363227248192	0.010063666850328445	0.002862076973542571	0.011725038290023804	0.03733307868242264	0.0014461367391049862	0.015799017623066902	0.03407808393239975	-0.020977389067411423	-0.010341317392885685	0.01889192871749401	-0.016835892572999	-0.005114138126373291	0.0037883722689002752	0.025102661922574043	0.009868869557976723	
0.0063521345146000385	0.03523433953523636	0.006845306139439344	0.04245542734861374	0.02942887507379055	0.010866587050259113	0.00470537506043911	0.015440027229487896	0.004862832836806774	-0.06511642038822174	-0.0240152757614851	0.04348460212349892	-0.00838937982916832	0.02407017908990383	-0.024042004719376564	0.04882672056555748	-0.006424352061003447	-0.020746655762195587	-0.019683539867401123	0.03456183150410652	-0.0007077604532241821	0.00309929926879704	0.02606341429054737	-0.01887240633368492	0.004011165350675583	
0.036063581705093384	0.023729190230369568	-0.006190871819853783	0.009302220307290554	0.02555399388074875	0.027967050671577454	-0.023889247328042984	-0.025556450709700584	0.020544642582535744	0.0677497461438179	0.0046086437068879604	-0.009651478379964828	-0.004689048510044813	0.009267979301512241	-0.0024675754830241203	0.017365340143442154	-0.02820771187543869	-0.028400041162967682	0.01529252901673317	-0.011819997802376747	-0.016226498410105705	-0.04373260959982872	-0.023041505366563797	0.024983560666441917	-0.018289705738425255	
0.006566434632986784	-0.00428815046325326	0.019543562084436417	0.012226034887135029	-0.013043353334069252	-0.021739445626735687	-0.00936952605843544	0.03485163301229477	0.053994011133909225	-0.032048679888248444	0.006847964134067297	-0.03158509358763695	-0.06007303670048714	0.00845790933817625	-0.03167978674173355	-0.043800245970487595	-0.013927926309406757	0.006173777859658003	0.021473480388522148	-0.06017975136637688	0.0019234804203733802	-0.012364326044917107	0.001571464235894382	-0.027202675119042397	-0.06916757673025131	
-0.028530826792120934	-0.010833564214408398	0.02920624613761902	0.01567278988659382	0.0399627648293972	0.05285118520259857	-0.07661295682191849	0.014573074877262115	0.0007896310999058187	-0.038274168968200684	0.006224160548299551	-0.01821707747876644	-0.018814479932188988	-0.011902320198714733	-0.025096863508224487	-0.0015422332799062133	-0.001244589569978416	-0.021491490304470062	-0.01488986425101757	-0.05731676146388054	-0.00482852291315794	0.004235595464706421	-0.017115309834480286	0.02157972753047943	-0.004873695317655802	
-0.015163164585828781	-0.009129408746957779	0.02460499294102192	0.019214468076825142	0.012164756655693054	-0.018989112228155136	0.0017231995007023215	-0.009219338186085224	0.0023012293968349695	-0.01814093440771103	-0.004375467076897621	-0.0023017730563879013	0.0420796163380146	-0.013854066841304302	-0.01810547150671482	0.026433831080794334	-0.028875770047307014	-0.00848529301583767	0.010447590611875057	0.00241128564812243	-0.017485082149505615	-0.024820854887366295	-0.03753424063324928	0.02454163320362568	0.014357326552271843	
-0.04469188302755356	-0.007558814715594053	0.026639515534043312	-0.012997937388718128	-0.010531962849199772	-0.010263891890645027	-0.006619790103286505	-0.019930865615606308	-0.04635093733668327	-0.01456836611032486	0.000673537200782448	0.006059123668819666	-0.004642915446311235	0.011406299658119678	0.02828831970691681	-0.0005161008448339999	-0.015130442567169666	-0.005942674819380045	-0.055195849388837814	0.04062923789024353	-0.0008015635539777577	-0.009939230978488922	0.021109066903591156	-0.06338056921958923	0.02333752252161503	
0.05029372125864029	-0.00039198281592689455	-0.001008883467875421	0.011116347275674343	0.0735061913728714	0.013479533605277538	0.007822548970580101	0.01627357490360737	0.009480535984039307	0.025956200435757637	-0.016586599871516228	-0.03680894523859024	0.009502130560576916	-0.04217426851391792	0.01533412653952837	0.013502400368452072	0.023175066336989403	0.0028706053271889687	0.00022713853104505688	0.002498142421245575	-0.014193390496075153	-0.01290551945567131	0.009726245887577534	0.03681793436408043	-0.023788342252373695	
-0.016114534810185432	0.04649034142494202	0.03035801835358143	0.013836344704031944	-0.013960804790258408	-0.0029956165235489607	-0.04415758699178696	-0.013096724636852741	0.054281946271657944	0.017951488494873047	0.06781216710805893	-0.014987638220191002	0.004490389488637447	-0.04788781702518463	0.0991528108716011	-0.03923840448260307	0.02377542480826378	0.04899100214242935	0.03185266628861427	0.014392183162271976	-0.03479372709989548	-0.008366448804736137	-0.013720480725169182	0.011413785628974438	-0.01348997000604868	
0.050491124391555786	-0.015359574928879738	-0.018611909821629524	0.0049124229699373245	0.03820526972413063	0.008501557633280754	0.009095774032175541	-0.007447628304362297	-0.0053050098940730095	-0.024141931906342506	0.029191866517066956	-0.01500365138053894	-0.00537529680877924	0.004100782331079245	0.019634878262877464	-0.00477353623136878	0.0005373056046664715	0.00478722807019949	0.011486637406051159	0.014342199079692364	-0.0008616276318207383	0.031322453171014786	0.019559310749173164	0.006120599806308746	0.008150981739163399	
-0.029973942786455154	-0.02997499704360962	-0.0003294547786936164	0.01942584663629532	-0.05723061412572861	0.01105569489300251	-0.033465754240751266	0.03958941251039505	-0.013144235126674175	0.007037967909127474	0.016100559383630753	-0.02561737783253193	0.020357852801680565	0.0024106986820697784	-0.038899682462215424	0.0062247770838439465	-0.01224876381456852	0.01979362964630127	-0.016233820468187332	-0.006544493604451418	-0.030055493116378784	0.033759955316782	-0.04781051352620125	0.05153882876038551	-0.00019311065261717886	
-0.020794659852981567	0.024012405425310135	0.023233843967318535	-0.008822480216622353	0.0014061498222872615	0.004708541557192802	-0.031749725341796875	-0.0029980577528476715	0.003554917871952057	-0.006838055327534676	0.013538864441215992	-0.0034919821191579103	0.01601327583193779	-0.019379695877432823	-0.005350968334823847	-0.03661735728383064	0.009638603776693344	-0.006059256847947836	0.011339651420712471	0.023404669016599655	0.01521541178226471	-0.005538023542612791	0.008592034690082073	7.887785614002496e-05	0.04590399190783501	
0.06803533434867859	-0.010479133576154709	-0.02642023004591465	-0.024154530838131905	0.010571702383458614	0.0056447237730026245	0.016632886603474617	-0.014480424113571644	0.0544649213552475	0.02374405600130558	0.015610989183187485	0.05188923701643944	-0.01484426949173212	-0.006274315528571606	0.029196476563811302	0.002073153853416443	0.02021409571170807	-0.008713135495781898	-0.02580644004046917	-0.03671784698963165	-0.000321729778079316	0.0004998974036425352	0.013323849067091942	0.030103767290711403	-0.0001843916397774592	
-0.009224521927535534	-0.018193865194916725	-0.006142917554825544	0.03532441332936287	0.003430185606703162	0.056807029992341995	0.009827014990150928	-0.05781123787164688	-0.01446451060473919	-0.000635566539131105	0.007222948595881462	-0.02124207280576229	-0.003031310858204961	-0.005855241324752569	0.03756292909383774	0.0029228769708424807	-0.01673477329313755	0.045425333082675934	-0.00972069799900055	0.028572946786880493	-0.028585607185959816	-0.03752942755818367	0.011338031850755215	-0.0002597352722659707	0.06276433169841766	
-0.017375031486153603	-0.0006379420519806445	0.0004287402261979878	0.01768999546766281	0.003138203639537096	0.046923812478780746	0.03915842995047569	-0.00391457648947835	0.012204143218696117	-0.025245845317840576	0.03330494835972786	-0.02609351836144924	0.05139060690999031	0.0583699494600296	-0.002143797231838107	-0.0036036516539752483	-0.012203720398247242	-0.0018763986881822348	-0.0037847566418349743	-0.02023671753704548	-0.01278113666921854	-0.024203402921557426	-0.01597181335091591	0.02587573230266571	-0.0038105237763375044	
0.05843742936849594	0.01594528555870056	0.03181138634681702	-0.016581963747739792	0.019180554896593094	0.019379997625947	0.014081324450671673	0.0392494797706604	0.04791627079248428	0.01891615241765976	-0.051712945103645325	-0.009742626920342445	0.02178519032895565	0.0037001301534473896	0.025735434144735336	-0.006899341009557247	-0.056931864470243454	-0.032213225960731506	-0.008171800523996353	-0.003432006575167179	-0.03614698722958565	0.014884530566632748	-0.028759438544511795	-0.020534053444862366	-0.022236142307519913	
0.001616118592210114	0.005088649690151215	0.001722548739053309	0.024334443733096123	0.020123466849327087	0.0031648215372115374	-0.013303980231285095	-0.030296120792627335	-0.00690466770902276	-0.024385720491409302	0.001443257904611528	0.010323961265385151	0.035837091505527496	0.00789774302393198	0.004973523784428835	0.009614711627364159	-0.017843380570411682	0.0005272333510220051	0.008676687255501747	-0.00909390114247799	0.00344612798653543	-0.006856102962046862	-0.02022305130958557	-0.021273186430335045	0.0697178915143013	
-0.03917082026600838	-0.016503192484378815	0.019833577796816826	-0.03208759054541588	0.0011784008238464594	0.027113335207104683	0.024938521906733513	-0.05492302402853966	0.059617236256599426	-0.016847675666213036	0.028253821656107903	-0.04064169526100159	0.02801755629479885	0.060869231820106506	0.03137980028986931	0.01920490525662899	0.01725044846534729	0.008811944164335728	0.012378718703985214	0.0035732572432607412	0.027221739292144775	0.004797814879566431	0.016718123108148575	0.005180685315281153	0.010875420644879341	
-0.009340588934719563	-0.023388290777802467	0.004995988681912422	0.002408025087788701	0.0110779432579875	0.014118531718850136	0.026097925379872322	-0.0011145261814817786	-0.03096804767847061	-0.026719525456428528	-0.024450277909636497	0.023961976170539856	0.022462300956249237	0.020444683730602264	-0.008329091593623161	-0.019466625526547432	-0.02209814265370369	-0.05252593383193016	0.041804444044828415	-0.011496947146952152	-0.002801655326038599	-0.044840577989816666	0.009130152873694897	0.024619529023766518	-0.033516254276037216	
-0.004212465602904558	0.004492024425417185	0.01908177137374878	0.040962573140859604	0.03226432576775551	0.021040000021457672	-0.009012939408421516	0.017314722761511803	-0.04113604873418808	0.03103373385965824	0.02169802039861679	-0.023558933287858963	-0.011288020759820938	0.06427604705095291	-0.009348725900053978	-0.022247396409511566	-0.008804702199995518	0.006766778416931629	0.02533652074635029	0.022044651210308075	-0.0009994461433961987	-0.0084855230525136	-0.001337686670012772	0.023833371698856354	0.015494082123041153	
0.01986590027809143	-0.004384813364595175	-0.006094876676797867	-0.024073997512459755	0.01455808524042368	-0.003249548142775893	0.015189544297754765	-0.03316880762577057	-0.04631304740905762	-0.02110658586025238	0.022201383486390114	0.00660233199596405	0.0031450786627829075	-0.0628284439444542	0.03667627274990082	-0.00802528578788042	0.009332675486803055	-0.03623589128255844	0.016818830743432045	0.015406799502670765	0.028979478403925896	-0.020527899265289307	-0.005821508821099997	0.001725166104733944	0.04390553757548332	
-0.02643892914056778	-0.049498967826366425	-0.025289172306656837	-0.015102497301995754	-0.0031390402000397444	-0.0052398936823010445	-0.016625629737973213	0.0036640428006649017	0.04633501172065735	-0.021792946383357048	-0.011119154281914234	-0.025509482249617577	0.006295270286500454	-0.030888982117176056	-0.003389023942872882	-0.011647562496364117	-0.04242844134569168	0.02731853909790516	0.015908444300293922	-0.05196554958820343	0.0031345095485448837	-0.041891202330589294	0.004402989987283945	-0.03284706920385361	-0.024737706407904625	
0.02259865030646324	-0.012531767599284649	0.018962422385811806	0.025662319734692574	-0.010311726480722427	0.0001372108090436086	0.03063887357711792	-0.0017625162145122886	0.01587357372045517	-0.017978424206376076	-0.006373460404574871	0.03150197118520737	0.004326667170971632	0.03813285380601883	-0.040573958307504654	-0.017795907333493233	0.026095574721693993	-0.059452563524246216	0.014988843351602554	-0.004096355754882097	-0.002263201866298914	0.027641117572784424	0.02443782612681389	0.03010864555835724	-0.02341349795460701	
-0.008806081488728523	0.011195946484804153	-0.05277351662516594	-0.011586964130401611	-0.04280669614672661	-0.025940055027604103	0.0043584308587014675	0.0015640081837773323	0.022878162562847137	0.014906981028616428	-0.0014245377387851477	0.038049232214689255	-0.03398825600743294	-0.03675166144967079	-0.009022539481520653	0.0011048131855204701	-0.03121337667107582	0.006269928999245167	0.049856510013341904	-0.0315101332962513	-0.011677545495331287	-0.008789471350610256	-0.02731364220380783	-0.03784194216132164	0.002937971381470561	
-0.028977686539292336	-0.026133984327316284	-0.008557775057852268	-0.0058612278662621975	0.02646229788661003	0.023825552314519882	-0.030230659991502762	0.0366368293762207	0.01619563065469265	-0.009269521571695805	0.011790148913860321	-0.01332173217087984	-0.018896475434303284	-0.0015403388533741236	0.03393958508968353	0.04192175716161728	0.03667154908180237	0.004009732510894537	0.03414178639650345	-0.0028027924709022045	0.01482428703457117	-0.021261313930153847	-0.002059557707980275	-0.02309013344347477	0.002827722579240799	
0.023624610155820847	-0.033047690987586975	-0.014344296418130398	-0.04537025839090347	0.007243686821311712	0.06308741122484207	0.0017233139369636774	0.02268330380320549	-0.02544567734003067	0.0232834629714489	0.020037831738591194	-0.0029192576184868813	-0.01968073472380638	0.019251704216003418	-0.0025182811077684164	-0.017504550516605377	0.014031426049768925	0.0099441884085536	-0.03307970240712166	-0.0048081842251122	-0.015042600221931934	-0.005870934575796127	-0.034264788031578064	-0.011889097280800343	-0.04485718533396721	
0.018965857103466988	-0.0066306693479418755	0.014530369080603123	-0.002700644778087735	0.05744175612926483	0.02459149807691574	-0.08783482015132904	-0.0031752504874020815	0.0005870419554412365	-0.01799069344997406	-0.014624346978962421	2.7832456908072345e-05	-0.018950071185827255	-0.006373926997184753	-0.004389673937112093	-0.01335045974701643	0.0003496142162475735	0.007825358770787716	0.01739252731204033	-0.028993254527449608	-0.03600675240159035	-0.012468602508306503	0.047948792576789856	0.009661512449383736	0.002630577189847827	
-0.001745060202665627	0.029015693813562393	0.005998954176902771	0.028590019792318344	-0.03579407557845116	0.03200758993625641	0.019130084663629532	-0.04942599684000015	-0.01205902174115181	-0.01319904439151287	0.06864260882139206	0.02880178578197956	-0.0011481123510748148	-0.02253679744899273	0.0008539113332517445	-0.036816760897636414	0.014768028631806374	0.0565984845161438	-0.01633799821138382	-0.03949837014079094	0.015572024509310722	-0.006504494696855545	0.04330451786518097	0.0014467673609033227	0.0005448524607345462	
-0.026879429817199707	0.014052161015570164	0.012869349680840969	-0.010897358879446983	0.052650514990091324	-0.01500678900629282	-0.022608868777751923	0.009030643850564957	-0.006414651405066252	-0.031524885445833206	-0.02204880677163601	0.017668187618255615	-0.004958156496286392	0.052088662981987	0.04098563641309738	0.002357500372454524	0.0018448980990797281	-0.019562551751732826	0.029037125408649445	0.05218207836151123	0.008397139608860016	0.009569493122398853	0.00817785132676363	-0.011499245651066303	-0.043938517570495605	
-0.023798556998372078	0.02136904001235962	-0.012717455625534058	-0.04844728857278824	0.018483849242329597	-0.014234879054129124	-0.029977556318044662	0.0074783614836633205	-0.009284045547246933	-0.018150003626942635	-0.04848527908325195	-0.06452270597219467	-0.03247601166367531	-0.013743450865149498	6.381062121363357e-05	0.02618076652288437	0.022076373919844627	0.014113916084170341	-0.006165915168821812	0.0030695877503603697	0.032226260751485825	0.028595371171832085	0.028322121128439903	0.024509355425834656	-0.014555633999407291	
-0.012915181927382946	-0.014929352328181267	0.04172739014029503	-0.03897266462445259	-0.017753204330801964	-0.018231485038995743	0.0015632985159754753	-0.040004171431064606	0.008535380475223064	-0.02360468916594982	0.015838366001844406	0.01850508712232113	0.013241360895335674	0.04285908490419388	0.01439247652888298	-0.02533601224422455	0.028512928634881973	0.061676025390625	0.006509247701615095	-0.006059891544282436	0.018959736451506615	-0.016366777941584587	-0.007658877409994602	-0.008948341943323612	0.015443160198628902	
-0.0001727285998640582	-0.0289740152657032	-0.003983399830758572	-0.009545935317873955	0.027815112844109535	-0.01054204162210226	0.02150830440223217	-0.01566375605762005	-0.05047329142689705	-0.09144938737154007	-0.005846812855452299	-0.03894959017634392	0.018122131004929543	0.07549165189266205	0.040823109447956085	0.027283860370516777	-0.022303253412246704	0.004061830695718527	-0.01865057460963726	-0.017925996333360672	-0.013291994109749794	0.013975501991808414	0.050902027636766434	0.006069527007639408	0.008598561398684978	
0.025759782642126083	-0.04338366910815239	-0.03698023408651352	0.0061570764519274235	0.06002498045563698	0.010240831412374973	-0.054518744349479675	0.02629772573709488	-0.03655872121453285	0.0031575001776218414	0.012882967479526997	-0.003781557083129883	0.030436284840106964	0.024310048669576645	-0.0004916366306133568	-0.005720439832657576	-0.02709854394197464	0.04367383196949959	0.044306401163339615	0.06075812503695488	-0.018945807591080666	-0.016704000532627106	0.02073809690773487	-0.008815168403089046	0.02816537395119667	
0.010769848711788654	-0.003209237474948168	-0.005444146227091551	-0.013322568498551846	-2.04389634745894e-05	-0.05001962184906006	0.013888930901885033	-0.010141918435692787	-0.07202000170946121	0.028587933629751205	-0.010562014766037464	-0.024838794022798538	0.00018820379045791924	-0.004753557965159416	-0.003490189556032419	-0.030531518161296844	0.03516332432627678	-0.0069046542048454285	-0.0034894191194325686	0.01829725131392479	-0.027186626568436623	-0.011232869699597359	0.006243400275707245	0.004635334014892578	0.010128721594810486	
0.047108180820941925	-0.05531063303351402	0.0050807371735572815	0.011148924939334393	-0.0063119251281023026	0.019633812829852104	0.03307422250509262	-0.036672595888376236	0.0024313798639923334	0.01726025715470314	-0.04694022610783577	-0.02812194637954235	0.04631122574210167	-0.04506033658981323	0.004215394612401724	0.012894950807094574	0.04219067096710205	-0.0006061323801986873	0.021901709958910942	-0.019766220822930336	0.019795235246419907	-0.003788846079260111	-0.029573680832982063	0.035564959049224854	-0.03636579588055611	
0.035509489476680756	0.02616753801703453	-0.010595069266855717	0.022634992375969887	0.03640272468328476	-0.05956733599305153	-0.009916183538734913	-0.028703629970550537	0.05601649731397629	0.023054832592606544	-0.01715124398469925	-0.034522268921136856	0.04775489866733551	-0.009375806897878647	0.04579807445406914	-0.03500739485025406	0.06560477614402771	0.01332112867385149	0.009842046536505222	0.011001369915902615	0.043275486677885056	-0.006843728478997946	-0.057513706386089325	0.013466664589941502	0.05898361653089523	
0.005396485794335604	-0.020443575456738472	0.024578722193837166	0.024575909599661827	0.0019211230101063848	0.015950538218021393	-0.011391516774892807	0.007929649204015732	-0.012045035138726234	-0.01275098230689764	0.0029633704107254744	-0.023072073236107826	-0.030354201793670654	-0.05326134338974953	-0.04130047187209129	0.0218545850366354	-0.03009180724620819	0.016923394054174423	0.010536261834204197	-0.015686936676502228	-0.039942506700754166	-0.003685201983898878	0.003922109957784414	0.024955933913588524	0.01500250119715929	
-0.025698315352201462	-0.007006081752479076	-0.010453258641064167	0.03239700198173523	0.017646605148911476	0.029576171189546585	0.013394816778600216	-0.011975396424531937	-0.02139781415462494	0.002061406848952174	-0.0009406149038113654	-0.026298392564058304	0.0005938125541433692	0.000898997241165489	0.002735062735155225	0.0018446431495249271	0.006736817769706249	0.005274571478366852	0.04775355011224747	-0.030551694333553314	0.013839632272720337	0.0370095893740654	-0.03709941729903221	-0.012185841798782349	-0.004997501149773598	
0.0057967607863247395	0.030112335458397865	0.01778794266283512	-0.014227556996047497	0.033665165305137634	-0.04046937823295593	0.01342495996505022	-0.024056321009993553	0.02008705772459507	0.009918194264173508	-0.05764398351311684	-0.012789793312549591	-0.007398833986371756	-0.003852707566693425	-0.011053645983338356	0.00913423951715231	-0.052189141511917114	0.02890525385737419	0.01353737898170948	-0.014677793718874454	0.03865937888622284	-0.01035926304757595	-0.035565175116062164	-0.0248673465102911	0.025839198380708694	
-0.060099825263023376	-0.007067043799906969	-0.02025435119867325	-0.040727630257606506	0.04897250607609749	-0.03473625332117081	0.005921031814068556	-0.004534206818789244	-0.03178047388792038	0.01147371158003807	-0.026667194440960884	-0.0034737512469291687	0.008944965898990631	-0.0323067270219326	-0.0009460104047320783	0.006854341831058264	-0.02845383994281292	-0.04348563775420189	-0.005290306638926268	-0.030000466853380203	0.02225956879556179	-0.0629110336303711	-0.005741679109632969	0.06605377048254013	-0.027048341929912567	
-0.005007483996450901	-0.00013172718172427267	-0.01935812085866928	-0.010470490902662277	-0.0001369745295960456	0.02826567552983761	0.00989557895809412	-0.04346540570259094	-0.005192755255848169	0.010405704379081726	0.004594278521835804	0.061227165162563324	-0.03242064639925957	-0.01364633534103632	0.038064684718847275	0.017066217958927155	-0.03161745145916939	-0.021598851308226585	-0.0005561209400184453	0.030477525666356087	0.031348854303359985	-0.0036891952622681856	-0.03615933656692505	0.023267854005098343	-0.06406330317258835	
-0.034931331872940063	0.039078373461961746	0.06181325018405914	0.01714477129280567	0.027471322566270828	-0.0007645798614248633	-0.022245371714234352	0.007162285503000021	-0.0025896416045725346	-0.02072496898472309	-0.009645630605518818	-0.010055765509605408	-0.026525378227233887	0.023872997611761093	-0.038079604506492615	-0.01233213022351265	0.00942028034478426	0.01335080061107874	-0.0043038418516516685	-0.012961018830537796	-0.02766692452132702	0.008177477866411209	0.035538073629140854	-0.004673592746257782	0.005064005497843027	
-0.013201029039919376	0.04610048606991768	-0.05943918973207474	-0.01992335170507431	-0.04774122312664986	-0.0015217486070469022	0.01305728405714035	0.004327417351305485	-0.03676658123731613	0.008603791706264019	0.00610481109470129	-0.018833722919225693	-0.01880773901939392	-0.04449116066098213	0.010427165776491165	0.02035444974899292	0.019158830866217613	0.05676528066396713	0.012172764167189598	0.009308937937021255	0.022783929482102394	-0.007138993591070175	0.011174449697136879	0.021089397370815277	0.026796558871865273	
-0.017289767041802406	-0.005548437591642141	0.02269468829035759	-0.02234804630279541	-0.021872248500585556	0.02173016220331192	-0.0644439235329628	-0.002596345031633973	-0.042096029967069626	0.030308587476611137	0.006187422201037407	-0.023332208395004272	-0.017987804487347603	0.041355740278959274	0.009842432104051113	0.017607474699616432	-0.002642363077029586	-0.004172318149358034	-0.020001865923404694	0.04864297807216644	0.023919638246297836	-0.04876192659139633	0.0016050635604187846	-0.008763165213167667	0.04729827493429184	
0.052661776542663574	-0.0202136542648077	-0.010507018305361271	-0.025423580780625343	0.02103354223072529	-0.045861393213272095	-0.006989688146859407	0.021168828010559082	-0.04658040031790733	0.01853875257074833	0.017877649515867233	0.00036085015744902194	-0.005250165238976479	-0.013866753317415714	0.029629090800881386	-0.00497118616476655	-0.014544596895575523	0.010250648483633995	-0.010252985171973705	-0.03985517844557762	-0.023369647562503815	-0.057190779596567154	0.0483868233859539	0.0050428188405931	0.0061772470362484455	
-0.007696148008108139	-0.017772819846868515	0.008768348023295403	-0.01826448366045952	0.02226661890745163	0.0290483757853508	-0.008668343536555767	-0.0170633252710104	0.031641166657209396	0.055405717343091965	0.00020931666949763894	0.03232187777757645	-0.010796054266393185	-0.005274242255836725	-0.03214463219046593	0.003597100032493472	-0.07833349704742432	-0.04233851283788681	0.029946884140372276	0.03677300363779068	-0.011928316205739975	0.011275103315711021	0.0032261644955724478	-0.001010531559586525	0.010924248024821281	
0.00038118637166917324	-0.09391523897647858	0.005808816757053137	0.005192657001316547	0.023073488846421242	0.025721285492181778	0.00820857472717762	0.005053975619375706	0.015736903995275497	0.014323909766972065	-0.022990519180893898	-0.02470070868730545	-0.004426783416420221	0.04091513901948929	0.015858318656682968	0.052659280598163605	-0.020840086042881012	0.024675345048308372	-0.04199879616498947	0.021348580718040466	0.002870324067771435	-0.0020189224742352962	0.0007773833931423724	0.0431094616651535	-0.023675231263041496	
-0.03827342018485069	-0.012615353800356388	0.021706294268369675	0.009903616271913052	-0.0023235257249325514	-0.031226953491568565	-0.011671173386275768	0.004643841180950403	0.012689273804426193	0.07240398228168488	0.04121925309300423	0.016649343073368073	-0.031567104160785675	0.0013824908528476954	0.044477980583906174	-0.0042202468030154705	0.010107992216944695	-0.005537665449082851	-0.012166095897555351	0.028850983828306198	-0.0046647684648633	-0.055241722613573074	-0.020267974585294724	0.02144455723464489	0.04589599743485451	
0.0027446604799479246	-0.030790183693170547	-0.005203737411648035	-0.05987004190683365	-0.029870759695768356	-0.03356878459453583	-0.005010426975786686	0.0004634553042706102	-0.05342091992497444	0.04310045763850212	0.01824098825454712	0.03189636766910553	-0.013597731478512287	-0.036419827491045	0.037791114300489426	0.05782456323504448	-0.03296607732772827	0.00022518837067764252	-0.04621577635407448	0.012888571247458458	-0.031803857535123825	-0.032274067401885986	-0.015574716031551361	0.01571199856698513	0.02261887490749359	
0.01631336845457554	-0.0013566401321440935	-0.029180042445659637	0.00416704174131155	-0.023966483771800995	0.044948164373636246	0.011585653759539127	-0.02924477308988571	0.03365568444132805	-7.398392335744575e-05	0.0174325630068779	-0.020100099965929985	-0.014887592755258083	0.024477198719978333	0.011510873213410378	0.018600638955831528	0.012651248835027218	-0.013968396000564098	0.049595147371292114	-0.017561327666044235	0.015375638380646706	-0.004166117403656244	0.02506447210907936	0.011383958160877228	0.03603856638073921	
0.006956092081964016	-0.04750803858041763	-0.026476411148905754	-0.0193027351051569	0.030456356704235077	0.01516282930970192	-0.018244072794914246	0.05964438617229462	0.036542944610118866	0.028153417631983757	-0.031210575252771378	-0.020465053617954254	-0.020531054586172104	-0.00548929488286376	0.027216138318181038	-0.005144351627677679	-0.020944872871041298	-0.08302497118711472	-0.0141769303008914	0.03527669608592987	0.020912589505314827	-0.0333065427839756	-0.004591338336467743	0.033564820885658264	-0.03638257086277008	
-0.01252058893442154	-0.01849057711660862	-0.006165983155369759	-0.009256407618522644	-0.014574752189218998	0.018776850774884224	-0.01076353807002306	-0.05482565984129906	0.011450100690126419	-0.007014583330601454	0.015116812661290169	-0.022142549976706505	0.005088169127702713	0.051947642117738724	-0.0023818528279662132	0.033461082726716995	0.018435809761285782	-0.038570940494537354	0.013622362166643143	0.040035493671894073	-0.05066221207380295	0.021734219044446945	0.022546149790287018	-0.001487474306486547	-0.029276210814714432	
0.019696364179253578	0.0005644996417686343	-0.010804173536598682	-0.06210717931389809	0.06215734779834747	-0.05963155999779701	-0.013468715362250805	0.0229247584939003	-0.024113833904266357	-0.01291840709745884	0.048001162707805634	-0.03859148547053337	7.726238982286304e-05	-0.01719430834054947	0.007500290870666504	0.02565472200512886	0.01738642156124115	0.026157932355999947	-0.04490457847714424	0.013067993335425854	0.037685245275497437	-0.003231663489714265	-0.01143105048686266	0.001209198497235775	0.011615537106990814	
0.022167589515447617	0.009310834109783173	0.038051072508096695	-0.0032560941763222218	-0.01860344596207142	0.027328016236424446	0.021909313276410103	0.014756815508008003	0.03453145921230316	-0.02626512385904789	-0.02981976792216301	-0.027993572875857353	0.013318618759512901	0.012947981245815754	0.04743869975209236	0.004745091311633587	-0.02931179851293564	0.06671319156885147	0.022747771814465523	0.04137314483523369	0.016756616532802582	-0.03165987879037857	0.01206836849451065	0.03755884990096092	-0.04471511021256447	
0.03607247397303581	-0.016321076080203056	-0.03396676480770111	0.011632469482719898	0.02426942251622677	0.0016242929268628359	-0.004513917490839958	-0.04353700205683708	0.025210343301296234	-0.011669635772705078	0.021130811423063278	0.008445240557193756	-0.017557663843035698	-0.013840125873684883	0.0014643438626080751	-0.009980299510061741	-0.0007320957956835628	-0.03144405782222748	0.030919404700398445	0.01687733829021454	-0.014001470990478992	-0.007269429508596659	0.006805568002164364	-0.0015392256900668144	0.029477227479219437	
0.03349348530173302	-0.012907383032143116	0.011164859868586063	0.0149881886318326	0.013370362110435963	-0.007523005828261375	-0.042555954307317734	0.006540387868881226	0.04591837152838707	0.002499548252671957	0.002675504656508565	-0.03837607800960541	-0.05658099427819252	0.02137836068868637	-0.04331480339169502	0.0005996474646963179	-0.011842711828649044	0.001881125383079052	-0.030385766178369522	0.04679320007562637	-0.005970129743218422	-0.05183268338441849	0.020254991948604584	0.009624793194234371	-0.050513893365859985	
0.0204999428242445	-0.07498785108327866	0.02911422960460186	-0.015176588669419289	-0.019406748935580254	0.0425439290702343	-0.004062393680214882	0.020308492705225945	-0.038878634572029114	-0.005484988447278738	0.025524036958813667	-0.010554938577115536	0.004943628329783678	-0.04379808157682419	-0.046601302921772	0.0013754299143329263	0.04489435255527496	0.02446810156106949	-0.013061584904789925	-0.00697209220379591	-0.008418652229011059	0.013013611547648907	-0.007655842695385218	-0.0013695693342015147	-0.00016207997396122664	
0.0006022324087098241	0.0016874984139576554	-0.039639104157686234	0.022323833778500557	-0.026598025113344193	-0.017205804586410522	-0.035455282777547836	0.011087729595601559	-0.008474936708807945	0.0278380885720253	-0.03503287211060524	0.03875639662146568	0.01930478774011135	0.02006271481513977	0.031928129494190216	0.009600179269909859	0.02495189569890499	0.005774661898612976	0.05255216360092163	0.0076860892586410046	0.04026694595813751	0.06752058118581772	0.056444864720106125	0.03555162250995636	0.036256093531847	
0.04759041219949722	-0.018828976899385452	0.04073537141084671	-0.011209490709006786	-0.008815193548798561	0.006629082374274731	0.04331149160861969	-0.01541121769696474	-0.04475639760494232	-0.02316834032535553	-0.01895800791680813	-0.03044828400015831	0.0025412687100470066	0.033328644931316376	-0.05693028122186661	-0.0009184388327412307	-0.00858108140528202	0.02910768985748291	0.024021431803703308	0.0005209074588492513	-0.04838092252612114	0.01354521606117487	-0.02681545354425907	-0.02136993408203125	0.014787430875003338	
0.0668523907661438	-0.03735640272498131	-0.020213887095451355	-0.009628533385694027	-0.024751851335167885	-0.019931480288505554	0.00486891670152545	0.009865740314126015	0.004149585496634245	0.031575508415699005	0.045810338109731674	0.03902814909815788	-0.05545053258538246	0.00010677371028577909	0.01602167822420597	-0.025775521993637085	0.022477921098470688	-0.007822874002158642	8.062211418291554e-05	-0.004929175600409508	-0.02245483733713627	0.0008984619053080678	-0.04082832857966423	7.706880569458008e-05	0.012639377266168594	
-0.008800121024250984	-0.01485314592719078	0.04450352117419243	-0.04276720806956291	0.0061375657096505165	0.02925952523946762	-0.012097302824258804	0.004967846442013979	-0.018991241231560707	0.013667500577867031	0.01384415291249752	0.037426456809043884	-0.01908581517636776	-0.05114638805389404	-0.004034548997879028	0.020757369697093964	0.0132557712495327	0.00581017043441534	-0.003207558998838067	-0.005270965863019228	0.04243731498718262	0.02225840836763382	-0.020597904920578003	0.0002624447806738317	0.02706628292798996	

 
-0.0002913574280682951	0.0004367754445411265	7.220954285003245e-05	0.0001670746860327199	0.0001487899135099724	0.00020551825582515448	0.00011507370072649792	-9.970633072953206e-06	-7.307171472348273e-05	-6.227559788385406e-05	-0.00019727606559172273	0.00012734449410345405	5.1976450777146965e-05	0.0004361516039352864	-3.9566937630297616e-05	0.0002672731352504343	

 
-0.009314057417213917	0.011364428326487541	-0.08126571029424667	-0.15714874863624573	0.09414571523666382	0.0678923949599266	0.006457979325205088	0.021623395383358	0.01716363988816738	-0.08717162162065506	0.006274745799601078	0.04337776452302933	0.09457045048475266	0.06979718804359436	0.037560831755399704	0.08112864196300507	0.012501493096351624	-0.005910418927669525	-0.012618960812687874	0.03095885179936886	-0.03358745202422142	0.027700258418917656	-0.06933313608169556	0.008858121000230312	0.020201383158564568	
-0.15514340996742249	-0.038900136947631836	0.04290975630283356	-0.08804412186145782	0.072611004114151	-0.08738730847835541	0.033473994582891464	0.03555107116699219	-0.08400645852088928	0.03429698199033737	-0.041686657816171646	0.005213275086134672	0.04888780787587166	0.001675924751907587	0.006709705106914043	0.08340658247470856	0.0005844027036800981	0.027042461559176445	-0.10648750513792038	0.004095076583325863	0.06916707754135132	-0.029931971803307533	0.007868549786508083	0.06257544457912445	-0.009511313401162624	
0.007649208884686232	0.040860190987586975	-0.038159746676683426	0.06969685107469559	0.003414375940337777	-0.060356855392456055	-0.07932369410991669	-0.007106201723217964	0.017488613724708557	0.0994110032916069	0.09339285641908646	-0.05075684189796448	0.06376112252473831	-0.033745113760232925	0.08678586781024933	0.08326004445552826	-0.03490369766950607	0.045818161219358444	0.047295890748500824	0.03855633735656738	-0.1208140105009079	-0.1212778389453888	0.011271915398538113	-0.050682686269283295	-0.15257206559181213	
-0.008444839157164097	0.16238415241241455	0.011771460063755512	0.0194700937718153	-0.026371432468295097	0.006131878588348627	-0.0037207575514912605	0.009501821361482143	-0.02925056405365467	-0.046222932636737823	0.012811493128538132	-0.00410237442702055	0.046868257224559784	0.03737335652112961	0.004663823172450066	-0.028488559648394585	-0.04675833508372307	0.08482865989208221	-0.02226363494992256	0.030325615778565407	0.06644690036773682	0.054342251271009445	-0.07054014503955841	-0.06663894653320312	-0.025337297469377518	
-0.009987601079046726	0.04569864645600319	0.0045331199653446674	0.024703374132514	-0.10636378824710846	0.06091183051466942	-0.06318993121385574	0.04381858929991722	0.05153655633330345	0.011370710097253323	0.03354038670659065	-0.07421842962503433	-0.059160016477108	-0.0672847181558609	-0.003383757546544075	-0.14057758450508118	-0.05149180814623833	0.023451732471585274	0.012895152904093266	0.034473124891519547	-0.03553664684295654	-0.0669899433851242	0.02150534652173519	0.061638087034225464	-0.011997120454907417	
-0.02837773971259594	0.04664419963955879	-0.016065988689661026	0.0395280122756958	0.10749677568674088	-0.056861694902181625	0.08813777565956116	0.05513883754611015	-0.026887238025665283	-0.07520617544651031	-0.01392061822116375	-0.021880486980080605	-0.08254330605268478	-0.027707768604159355	0.02537624165415764	-0.05355982854962349	0.06971408426761627	-0.08004111796617508	-0.04533745348453522	0.09720459580421448	0.03503388911485672	-0.021608788520097733	-0.05927093327045441	0.047427814453840256	0.002618577564135194	
0.0921631008386612	-0.012078244239091873	0.005494171753525734	-0.01771037094295025	-0.013350808061659336	0.09703516960144043	0.09159161895513535	-0.05011969804763794	-0.03477809578180313	-0.07389482110738754	-0.027611374855041504	-0.009273187257349491	0.015117348171770573	-0.0075757005251944065	-0.09276493638753891	0.04414449259638786	0.01597295142710209	0.05903254821896553	-0.014005787670612335	0.01471053808927536	-0.035255759954452515	0.12524360418319702	-0.06728724390268326	0.04109109193086624	0.0008278511231765151	
0.09907583147287369	0.09761425107717514	-0.010274979285895824	0.04335075989365578	0.09312964975833893	0.01099380012601614	-0.058421894907951355	0.02363632619380951	-0.09049548208713531	0.01660775952041149	0.1416420042514801	-0.030463336035609245	-0.00860793236643076	0.08591819554567337	-0.0036023829597979784	0.05592890828847885	-0.041211385279893875	-0.010419875383377075	0.02137092873454094	-0.09989027678966522	0.006658162456005812	-0.11433368921279907	-0.1165207177400589	0.004346346016973257	-0.0014193588867783546	
-0.08168913424015045	0.007722083479166031	-0.10877198725938797	0.08423740416765213	0.008044612593948841	0.07761684060096741	0.08992446213960648	-0.14552980661392212	-0.041778624057769775	0.0659627914428711	-0.05215520039200783	-0.036528196185827255	0.03381054475903511	-0.017131952568888664	-0.04002695530653	-0.024370867758989334	0.051156286150217056	0.004065376706421375	0.04874567314982414	-0.027204174548387527	-0.019779451191425323	0.03665701299905777	-0.06018277257680893	0.04986434802412987	0.011141007766127586	
-0.028469707816839218	0.03678576275706291	-0.07080747932195663	-0.027711179107427597	0.04458650201559067	0.0005501821869984269	-0.08488520979881287	-0.0016290306812152267	0.10968387126922607	-0.002273923484608531	0.022650087252259254	0.050995394587516785	0.012403585016727448	-0.07719900459051132	0.014336246065795422	-0.10568930208683014	-0.08094283193349838	-0.03522069752216339	0.04177955538034439	-0.007988127879798412	-0.007670606020838022	0.14192606508731842	-0.018818117678165436	0.02784862369298935	0.01524243876338005	
-0.047069717198610306	0.010553854517638683	-0.08074253052473068	0.06589985638856888	-0.012012929655611515	-0.07160108536481857	-0.0212653037160635	0.022592851892113686	0.05878586322069168	0.09646458923816681	0.004360652528703213	-0.014234216883778572	-0.08535942435264587	-0.11694080382585526	0.009355750866234303	-0.035628050565719604	-0.11681988090276718	0.07172764092683792	0.013737224973738194	-0.056092362850904465	0.024153737351298332	-0.030535319820046425	-0.035437408834695816	-0.01954474486410618	0.10725255310535431	
-0.02288113906979561	-0.006056503858417273	-0.006602518260478973	0.016161708161234856	0.01142085250467062	-0.08500978350639343	-0.02364862523972988	0.09533771872520447	0.06902481615543365	-0.15255987644195557	-0.053059011697769165	-0.03277803957462311	0.03505323827266693	0.008339677937328815	0.009223959408700466	-0.06304135173559189	-0.054823584854602814	-0.031142698600888252	0.008483745157718658	0.014368381351232529	0.13498403131961823	0.04926946759223938	0.0320361852645874	-0.07784705609083176	0.09138264507055283	
-0.04648285359144211	-0.04689233377575874	-0.060077112168073654	0.012529619969427586	0.04622252285480499	-0.12088046222925186	-0.07457268983125687	-0.010311943478882313	-0.08102092146873474	-0.02174525149166584	-0.015951642766594887	0.08000273257493973	-0.004371432587504387	0.18975511193275452	0.014233157970011234	-0.03944399207830429	-0.04764246195554733	-0.05912766978144646	-0.02471194602549076	0.04840653017163277	7.64617943787016e-05	0.010671746917068958	0.03185783699154854	0.008750289678573608	0.007150840479880571	
0.0267503522336483	0.11606570333242416	0.03064766153693199	0.0835372805595398	0.03502408042550087	0.00025649217423051596	0.007311841938644648	-0.004494361579418182	-0.0012619596673175693	0.006721326150000095	-0.11563026160001755	0.0021412507630884647	0.07154617458581924	-0.032567303627729416	-0.12021603435277939	-0.018234865739941597	0.0308721624314785	-0.0222016554325819	-0.014148987829685211	0.015446145087480545	0.03928809612989426	0.0004625734582077712	0.04153816029429436	-0.06486982107162476	0.08790148794651031	
-0.05253005400300026	-0.10919291526079178	-0.027057239785790443	0.013906066305935383	0.003123154630884528	0.067024365067482	0.040837518870830536	-0.08176970481872559	-0.03748895600438118	0.04190349951386452	0.12281477451324463	-0.027252601459622383	-0.021490786224603653	0.09315946698188782	0.11192505806684494	0.10957957804203033	0.03613908588886261	-0.07790280878543854	0.058180488646030426	0.06428226083517075	-0.07020330429077148	-0.1293913871049881	0.10876628756523132	0.12969157099723816	-0.14236067235469818	
-0.06074579060077667	-0.030009562149643898	-0.029486022889614105	0.1010533794760704	0.08725105971097946	0.1171845942735672	-0.03913189098238945	0.10495026409626007	0.07670599222183228	0.10616394877433777	0.038425788283348083	-0.028185894712805748	0.008132124319672585	0.0005023368867114186	0.009889057837426662	0.017851239070296288	-0.03567403554916382	-0.01657220348715782	-0.038742437958717346	-0.06412879377603531	0.16275620460510254	-0.018931876868009567	0.03977546840906143	0.04870898276567459	0.018802933394908905	
-0.025888871401548386	0.046612970530986786	0.061486877501010895	0.04634517803788185	-0.09039405733346939	-0.0673772320151329	-0.07913702726364136	0.06960804760456085	0.07663048803806305	0.009557693265378475	0.005909767001867294	-0.05123616382479668	-0.026787998154759407	0.03983927145600319	0.007975219748914242	0.02700786665081978	-0.06031806021928787	0.060725390911102295	-0.020832955837249756	0.057967107743024826	-0.11860032379627228	0.09034466743469238	-0.03744441643357277	0.00432928279042244	0.003733667079359293	
-0.05141947790980339	0.0541936419904232	-0.09946320950984955	-0.014641528949141502	-0.022317612543702126	0.07022283971309662	-0.05948727950453758	-0.02364405430853367	-0.019720157608389854	0.025545967742800713	-0.01728954166173935	0.09678604453802109	-0.06369326263666153	-0.01683148369193077	0.04900222644209862	-0.0716167464852333	0.08159126341342926	-0.061887357383966446	-0.041184622794389725	-0.03976497799158096	-0.04519039765000343	-0.05739574134349823	-0.15510046482086182	0.06149774789810181	0.030516935512423515	
0.07651716470718384	0.08849435299634933	0.010236109606921673	0.030352046713232994	0.07400964945554733	0.05406678840517998	-0.05118896812200546	-0.020413564518094063	-0.16861304640769958	0.050751943141222	-0.051201555877923965	0.10271797329187393	0.042293742299079895	0.01422396395355463	-0.03531402722001076	-0.15375041961669922	-0.03608589619398117	0.12767507135868073	-0.0030838868115097284	0.002103906823322177	-0.01988849602639675	0.026772767305374146	-0.008559083566069603	-0.10840479284524918	0.10935132205486298	
0.02929750829935074	0.0362362302839756	0.05576959252357483	0.07129349559545517	0.03638344258069992	0.07215649634599686	-0.0017747500678524375	-0.0426749587059021	-0.057829536497592926	0.0488496758043766	-0.033839594572782516	0.03993619605898857	-0.0031885183416306973	-0.06559975445270538	-0.13786616921424866	-0.006528538651764393	0.04533502086997032	-0.07585575431585312	-0.02988314814865589	0.0026664924807846546	-0.05974157154560089	-0.12342943251132965	-0.07061173021793365	0.024664288386702538	0.07121383398771286	
-0.0536833181977272	0.06021114066243172	0.05429971218109131	0.11907678097486496	-0.12109923362731934	0.025422900915145874	-0.04286589100956917	0.06484474986791611	0.024009890854358673	-0.14859741926193237	0.0049668592400848866	-0.005711141508072615	0.011621806770563126	-0.03707330301403999	-0.05493275821208954	-0.0036599701270461082	0.07489925622940063	-0.037769924849271774	-0.0490075908601284	0.1715393364429474	0.09286293387413025	0.10561560094356537	0.036690011620521545	-0.05668438598513603	-0.06377650052309036	
-0.03499617800116539	-0.014552827924489975	-0.09458447992801666	-0.014304406940937042	0.056582316756248474	0.03325200453400612	0.11195919662714005	0.07209271192550659	0.019644377753138542	-0.03029230237007141	-0.029447808861732483	-0.0386495403945446	0.005224216729402542	0.052582189440727234	-0.17616166174411774	-0.13554176688194275	-0.0545910969376564	0.06893448531627655	0.0032601819839328527	0.014823263511061668	0.10955492407083511	-0.004652881994843483	-0.023797154426574707	-0.0006425204919651151	-0.06526663899421692	
0.06755051016807556	0.024676628410816193	0.02672254852950573	-0.07650404423475266	0.11530880630016327	0.03706473484635353	-0.11987774819135666	0.08671103417873383	-0.08435229957103729	0.09705156087875366	-0.11591801047325134	-0.14572151005268097	-0.09154243022203445	-0.08886998891830444	-0.1460791975259781	0.04330030083656311	0.025273576378822327	0.06387551128864288	0.00838672835379839	0.020395709201693535	0.052326932549476624	-0.012409447692334652	0.04635999724268913	0.09601086378097534	-0.10768377035856247	
0.07227649539709091	0.06886203587055206	-0.0022425914648920298	-0.05725149065256119	0.06771595031023026	0.04325301945209503	0.06802002340555191	-0.01654430292546749	-0.05492158979177475	0.07041369378566742	0.08791018277406693	0.016751205548644066	-0.04584367573261261	0.06637884676456451	-0.0969022735953331	0.013019733130931854	0.08935409784317017	0.021658288314938545	-0.01515362411737442	0.03291254863142967	-0.04803008958697319	0.06918470561504364	-0.04134044051170349	-0.07874356955289841	-0.03067883290350437	
-0.039564166218042374	0.15093690156936646	-0.02376783825457096	-0.0871899351477623	-0.007987994700670242	0.048940349370241165	-0.08463005721569061	0.09134554117918015	-0.0793449655175209	0.01507924310863018	-0.014279493130743504	-0.0009109281236305833	-0.030164703726768494	0.013913806527853012	0.0010246334131807089	0.010951406322419643	0.04930209740996361	0.02551465667784214	-0.06071118265390396	0.053184714168310165	0.08435141295194626	-0.0645492672920227	0.1142335906624794	0.14002305269241333	-0.023908743634819984	
-0.04573224112391472	0.027763551101088524	-0.03709802031517029	0.0765218511223793	0.0068591577000916	-0.0396156869828701	0.07321054488420486	-0.00849831197410822	0.04446953535079956	0.002755863592028618	0.08955627679824829	0.008576207794249058	-0.04175771027803421	0.01661035604774952	-0.058578167110681534	-0.012984653934836388	-0.061169639229774475	0.04149230569601059	0.0435868538916111	0.11202744394540787	0.020529495552182198	-0.04907480627298355	-0.008782053366303444	-0.03046981804072857	0.022335510700941086	
0.013714857399463654	-0.03946676850318909	-0.06833892315626144	0.016090815886855125	0.025561049580574036	-0.03520358353853226	0.04598438739776611	-0.0776718482375145	0.040064502507448196	-0.03780415654182434	-0.011138505302369595	0.06124023720622063	0.05725499615073204	-0.09259175509214401	-0.09126096218824387	0.024240100756287575	-0.07365413755178452	-0.10638172179460526	0.007379722315818071	-0.06321793794631958	0.003714197315275669	0.04493827000260353	0.05616914480924606	0.06976714730262756	-0.012714994139969349	
-0.045491885393857956	-0.055130548775196075	0.06925536692142487	-0.04330584406852722	0.07578571885824203	-0.015172675251960754	-0.0016967866104096174	0.03702053055167198	-0.016973501071333885	-0.0722987949848175	0.024539167061448097	-0.04656480625271797	-0.07385402172803879	0.08592263609170914	0.03252914547920227	-0.025656966492533684	-0.027432195842266083	-0.06238824129104614	0.08284810185432434	-0.14347495138645172	0.06581064313650131	0.1081320121884346	0.032622866332530975	0.07348397374153137	-0.08488611876964569	
0.0734018087387085	0.01200848538428545	-0.015693334862589836	0.021039672195911407	0.046443503350019455	-0.005044292192906141	0.06685208529233932	-0.06610386818647385	0.05580581724643707	0.012241486459970474	0.14660172164440155	-0.05559837445616722	-0.00748941395431757	-0.03314154967665672	0.01221212837845087	0.07375766336917877	-0.1455662101507187	-0.09574682265520096	-0.14312179386615753	0.054827731102705	-0.008104943670332432	0.06514902412891388	0.09616711735725403	-0.044150982052087784	-0.04079845920205116	
0.017678994685411453	-0.01210032869130373	0.0327785424888134	0.06282050907611847	0.00017150069470517337	-0.11073858290910721	0.07003958523273468	0.04063000902533531	-0.02063627913594246	-0.007991446182131767	0.05251672491431236	0.11730771511793137	-0.11798881739377975	0.08566957712173462	0.038260567933321	0.00798723939806223	0.016069933772087097	0.01760006509721279	0.02002767287194729	-0.0008021576213650405	0.08353722095489502	0.10579278320074081	-0.05628252029418945	-0.011850843206048012	-0.029764793813228607	
-0.029093481600284576	0.010116266086697578	-0.05083074793219566	-0.04584599286317825	0.05619177594780922	0.04414914920926094	-0.01253807544708252	-0.03108203411102295	-0.04680206999182701	-0.06936431676149368	-0.03072226792573929	-0.0743233934044838	0.04541239142417908	-0.09474696964025497	0.05785904452204704	0.03318551927804947	-0.06250245124101639	0.03747176378965378	0.048638809472322464	0.02238844521343708	-0.023765381425619125	-0.04500150308012962	0.019807737320661545	-0.02246377244591713	-0.12653499841690063	
0.04652513191103935	0.01365980226546526	0.01937064155936241	0.04717915877699852	0.04314904659986496	0.029756074771285057	-0.030313609167933464	-0.0330207422375679	0.042774755507707596	-0.007766490802168846	0.013474722392857075	-0.042382363229990005	0.07212533801794052	0.04111362621188164	-0.055826447904109955	0.15898637473583221	0.043841566890478134	0.05506439507007599	0.10749798268079758	-0.10304825752973557	-0.010098770260810852	-0.06634028255939484	-0.009204594418406487	0.07527688145637512	-0.044256992638111115	
-0.04967714846134186	0.11763744056224823	0.05435847491025925	0.0260686706751585	-0.04217427596449852	-0.03057880513370037	-0.004517263732850552	0.02857165038585663	0.02183348685503006	0.05033551901578903	-0.055548761039972305	-0.05672789737582207	-0.1346464455127716	0.021875876933336258	-0.09553367644548416	0.017255906015634537	0.10013222694396973	-0.09183158725500107	0.009624374099075794	-0.07099012285470963	0.012667279690504074	-0.08508896082639694	0.022557441145181656	-0.06144372746348381	0.07361213862895966	
-0.020234977826476097	0.028056150302290916	-0.05699014291167259	0.020118825137615204	-0.01449905801564455	-0.017212916165590286	-0.1663401871919632	-0.019260728731751442	-0.0769176036119461	0.04185866191983223	0.01448001991957426	-0.015809401869773865	-0.007276963908225298	-0.015295086428523064	-0.018254367634654045	0.018671439960598946	0.0815981775522232	0.07247798889875412	0.04366645961999893	0.056186139583587646	0.2246781587600708	-0.04449044540524483	0.014865007251501083	-0.03104529343545437	-0.06222217157483101	
-0.003502881620079279	-0.009334833361208439	-0.03353193402290344	-0.171316459774971	-0.07997702062129974	0.022171780467033386	-0.07380061596632004	-0.06138622388243675	-0.10257881879806519	0.017776193097233772	-0.21721015870571136	0.1128418892621994	0.0038641677238047123	0.037242040038108826	0.006727616768330336	0.02272713929414749	-0.054391298443078995	-0.0632093995809555	-0.03469725698232651	0.030234023928642273	0.014336877502501011	-0.056886155158281326	0.07465649396181107	0.06113753467798233	0.06080714985728264	
0.043795324862003326	0.014699077233672142	-0.0022395083215087652	0.009884756989777088	0.054117996245622635	0.003899908158928156	0.03084717132151127	0.021462200209498405	0.08799000829458237	0.15277910232543945	-0.05420788377523422	0.16249503195285797	-0.001988658681511879	-0.019007328897714615	-0.0029755185823887587	0.010575377382338047	-0.0405874103307724	0.006529700942337513	0.003238372504711151	-0.002007725415751338	0.07180806249380112	0.057788025587797165	-0.016745910048484802	-0.06475215405225754	0.04977056756615639	
0.03916189819574356	-0.04893576353788376	0.06635835021734238	-0.03351432457566261	-0.1462664157152176	-0.003549726912751794	0.08070693910121918	0.0370185524225235	-0.1275336891412735	-0.0010299012064933777	0.004474984481930733	0.07413414120674133	0.06269832700490952	-0.05893886834383011	-0.010257363319396973	0.04724821075797081	-0.11750133335590363	-0.014155510812997818	-0.09507305175065994	0.024526890367269516	0.0482049360871315	0.031175237149000168	0.030972057953476906	-0.05835876613855362	-0.03995724767446518	
-0.030050178989768028	0.051208414137363434	-0.015366962179541588	0.029860593378543854	0.056871842592954636	-0.03654398024082184	-0.04748321324586868	0.0036548704374581575	0.030611038208007812	-0.11820696294307709	-0.06443271785974503	0.017526526004076004	-0.0381157286465168	-0.008952776901423931	-0.024825669825077057	-0.1073259636759758	0.0324726477265358	0.08780251443386078	-0.08171150088310242	-0.08723946660757065	-0.11435399949550629	-0.010669738054275513	0.06716825067996979	-0.18364229798316956	0.08984362334012985	
-0.006248912774026394	-0.015439162030816078	-0.11863883584737778	-0.01727849245071411	0.1346329152584076	0.1054360494017601	0.11243938654661179	0.0028703820426017046	0.032755762338638306	-0.046291008591651917	-0.036656782031059265	6.807121826568618e-05	-0.06434512138366699	0.0394977368414402	-0.1335679292678833	0.07153862714767456	-0.08339565992355347	0.013513988815248013	0.001594930188730359	-0.059625882655382156	-0.06515035033226013	0.006718980614095926	-0.008491220884025097	0.06847996264696121	-0.039523035287857056	
-0.029636772349476814	0.003456445410847664	0.0672178789973259	0.019431687891483307	0.0028394542168825865	0.10255973786115646	-0.0354301817715168	0.06788860261440277	0.10747428238391876	0.014914087019860744	0.02764139696955681	0.047447219491004944	0.13141733407974243	-0.05699588730931282	-0.027425922453403473	0.0347176156938076	-0.02579554170370102	0.02129759080708027	0.010653977282345295	0.06665699183940887	-0.01592353545129299	0.00921846553683281	0.013941861689090729	0.06119402125477791	-0.041504066437482834	
-0.018450768664479256	0.02433118410408497	0.015806803479790688	-0.010479165241122246	-0.03971809893846512	-0.011397454887628555	-0.006778026930987835	-0.017462601885199547	-0.0975029468536377	-0.003926844336092472	-0.08901026844978333	-0.02371990866959095	-0.028247147798538208	-0.01758153922855854	-0.10032623261213303	0.0636950358748436	-0.02518654055893421	0.026234127581119537	0.04637344554066658	0.0041502718813717365	-0.0032213625963777304	0.115786112844944	0.002975588431581855	-0.08040576428174973	0.039837710559368134	
-0.11256708949804306	0.1185174435377121	-0.029485231265425682	-0.1633007824420929	-0.040940046310424805	-0.040549010038375854	-0.03593543916940689	0.043375566601753235	0.019479911774396896	0.08848347514867783	-0.026562387123703957	-0.025463424623012543	0.028045298531651497	0.02687326818704605	-0.08224410563707352	-0.019407324492931366	0.06252766400575638	0.06369172036647797	0.088680699467659	0.07060215622186661	-0.05979868397116661	0.024619510397315025	0.03129841014742851	0.030775800347328186	-0.04828594624996185	
0.019611332565546036	0.041783519089221954	0.0393010750412941	0.036321092396974564	-0.04561970755457878	-0.08883190900087357	0.10373809933662415	-0.0008558494737371802	0.11358334124088287	-0.05848369747400284	0.013850445859134197	0.02790139801800251	0.0812772661447525	-0.10790149122476578	0.002241428941488266	0.04142460599541664	-0.015905020758509636	-0.09670804440975189	0.04241519048810005	-0.07551787793636322	-0.06255996972322464	-0.0510588102042675	-0.16730201244354248	0.00820110086351633	-0.0318780317902565	
-0.02469578944146633	0.09403268992900848	-0.02964460477232933	-0.0033937394618988037	0.07124342769384384	0.025357570499181747	0.013869425281882286	-0.02875368669629097	-0.03224677965044975	0.019221728667616844	0.014601935632526875	-0.05808057636022568	0.030709587037563324	-0.10440512001514435	-0.0027074019890278578	0.07904888689517975	-0.031028328463435173	-0.08508037775754929	0.008364446461200714	-0.0864802822470665	0.024072403088212013	0.039984509348869324	0.004506852012127638	0.003737061284482479	0.04781942442059517	
-0.06390339881181717	-0.017563756555318832	0.0025726323947310448	0.022860385477542877	-0.033855658024549484	-0.05843242257833481	0.011706140823662281	0.09249070286750793	0.04888089373707771	0.03451259806752205	-0.08723651617765427	0.07293631881475449	0.11791547387838364	0.008027925156056881	0.0012962406035512686	0.06709807366132736	-0.09606480598449707	-1.1070565960835665e-05	-0.042965684086084366	-0.010052870959043503	0.10730646550655365	-0.014791983179748058	0.09540365636348724	-0.09835527092218399	0.047704633325338364	
-0.11846303194761276	-0.12247183173894882	-0.002719166921451688	-0.011839058250188828	-0.10955893993377686	-0.010617498308420181	-0.0670224204659462	0.08839669078588486	0.05931159481406212	-0.04832543060183525	-0.07223281264305115	-0.04607893154025078	0.027377907186746597	-0.08323268592357635	-0.023943614214658737	-0.0023413149174302816	-0.00025267896126024425	0.013699009083211422	-0.04094342142343521	0.16764922440052032	-0.04640031233429909	0.0068642497062683105	-0.03747829422354698	-0.0026663716416805983	-0.06384383141994476	
-0.05571293085813522	0.049276623874902725	-0.018304431810975075	-0.15157562494277954	0.07464470714330673	-0.0074401418678462505	0.014092627912759781	0.1293589025735855	0.03160449117422104	0.1162610650062561	-0.05002410709857941	0.06386922299861908	0.04811134189367294	-0.04538004472851753	-0.11276856064796448	0.01607062853872776	-0.07682474702596664	0.05650053173303604	-0.05644109100103378	-0.08313236385583878	-0.08447374403476715	-0.11733988672494888	0.06147215887904167	0.05044493451714516	0.02106202207505703	
0.06706542521715164	-0.02896280214190483	-0.009259864687919617	-0.02160659432411194	0.06965863704681396	-0.05292365327477455	-0.021135404706001282	0.03526678681373596	0.027223123237490654	-0.0634063258767128	0.05111119523644447	0.0015573694836348295	-0.03736785054206848	0.1414009928703308	0.10753016173839569	0.06900426745414734	-0.0029826967511326075	-0.01574728824198246	-0.022920742630958557	-0.0481066070497036	-0.0781162902712822	0.009015394374728203	-0.06572552770376205	-0.06580051779747009	-0.10004030168056488	
0.08288611471652985	-0.06627962738275528	-0.03164370730519295	0.07865601032972336	-0.06978274136781693	-0.04580312222242355	0.02814216911792755	-0.003755343845114112	0.0853876918554306	-0.06385094672441483	0.02177630364894867	0.0544687919318676	-0.04493148624897003	-0.06952542811632156	0.06059916689991951	0.07534477114677429	0.027767572551965714	0.04931214079260826	-0.08279087394475937	0.08918186277151108	-0.09456657618284225	-0.03213042765855789	0.07134496420621872	-0.12349668890237808	0.050728075206279755	
0.012416401877999306	-0.0015856444370001554	0.02052237093448639	-0.014757153578102589	-0.03383924439549446	0.022183258086442947	-0.006904099136590958	0.0034829641226679087	-0.042002469301223755	-0.05601201951503754	0.006212765816599131	-0.011362789198756218	0.027264783158898354	-0.005161657929420471	0.045677147805690765	0.0458960123360157	0.10084151476621628	-0.044573165476322174	0.008964701555669308	-0.035698793828487396	0.024026425555348396	-0.023679109290242195	0.03620980679988861	0.030545808374881744	-0.018646731972694397	
0.08161286264657974	-0.046896010637283325	-0.058354880660772324	0.04722202941775322	0.08050604164600372	-0.06210821494460106	-0.048734307289123535	0.13229265809059143	0.016338467597961426	0.09164604544639587	0.057761721312999725	0.003973818384110928	0.000846708775497973	-0.00048543181037530303	-0.05304570496082306	-0.011924637481570244	0.03533691167831421	0.053467996418476105	-0.04731537401676178	-0.07947801798582077	0.08822835981845856	-0.03626031428575516	0.0508367158472538	0.05206230282783508	-0.08435606956481934	
0.0013831737451255322	-0.06236932799220085	0.014362544752657413	-0.06870590895414352	0.005499602761119604	-0.035906895995140076	0.025750549510121346	-0.051530372351408005	0.044376078993082047	0.085631363093853	0.04970923811197281	-0.116566002368927	0.01041510608047247	0.04347589239478111	0.12131970375776291	-0.07529959082603455	0.04501565545797348	0.08467061817646027	0.02299478091299534	-0.007044700440019369	0.04293528571724892	-0.04420929774641991	0.056157175451517105	0.008666068315505981	-0.06461387872695923	
-0.025569655001163483	0.0011143441079184413	-0.09714929014444351	0.02414158545434475	0.039896197617053986	0.04156674072146416	0.051807962357997894	0.08908279240131378	0.05067894980311394	-0.0739775002002716	-0.059669479727745056	-0.09084852784872055	0.018777206540107727	-0.09317262470722198	0.03122633323073387	0.02324545569717884	0.01858924701809883	-0.027886195108294487	-0.07139027863740921	-0.0013288003392517567	0.09663811326026917	-0.057612333446741104	-0.05603538453578949	-0.055158864706754684	0.09744149446487427	
-0.03104710578918457	-0.03881368413567543	0.041315965354442596	0.08864889293909073	0.04019523784518242	-0.015929853543639183	-0.05556624010205269	-0.06133135035634041	0.046489279717206955	-0.06010202690958977	-0.043805837631225586	0.08880864828824997	-0.05540453642606735	-0.0946412906050682	-0.03400154411792755	0.012446383014321327	0.013964898884296417	0.04535289481282234	-0.07412827014923096	0.06977328658103943	0.020960122346878052	0.04506800323724747	0.09813641011714935	0.01840786077082157	-0.0408315435051918	
-0.029264846816658974	0.025098232552409172	0.04992702603340149	-0.049500297755002975	-0.10023478418588638	0.15136486291885376	0.08594212681055069	-0.008548968471586704	-0.011730813421308994	-0.0020165671594440937	-0.10963883996009827	0.03241289407014847	-0.06047156825661659	0.10478134453296661	-0.04312572255730629	-0.04976154863834381	-0.038208961486816406	-0.045531950891017914	-0.07616709172725677	-0.045971594750881195	-0.01062733680009842	-0.02701328881084919	-0.10279878973960876	-0.003441940061748028	0.029618429020047188	
-0.013284919783473015	-0.03568031266331673	0.08462678641080856	-0.05015726387500763	0.06692278385162354	-0.015349268913269043	0.07109235227108002	0.06930932402610779	-0.03706043213605881	0.019613415002822876	-0.0013462078059092164	0.019036956131458282	0.0659429207444191	-0.19450922310352325	0.029002001509070396	0.04697684198617935	0.01085406169295311	0.10219763219356537	0.07258638739585876	0.026547664776444435	-0.014401480555534363	0.030725399032235146	-0.0011744031216949224	0.01148747093975544	0.05653740093111992	
0.06499484926462173	0.03903649002313614	-0.035421375185251236	0.05460864305496216	0.07066342979669571	-0.025295449420809746	0.13208650052547455	0.058287907391786575	-0.02349613979458809	-0.059899233281612396	0.004767645616084337	0.05371057614684105	-0.1604338139295578	-0.0013939265627413988	0.0003755294601432979	-0.0077224248088896275	-0.09010275453329086	0.022109320387244225	0.06574901193380356	-0.01787390746176243	-0.022813251242041588	-0.0342073068022728	0.03802203759551048	-0.07667678594589233	0.055646516382694244	
-0.12523719668388367	-0.03705566003918648	0.001502497005276382	0.15234418213367462	0.007933873683214188	0.020516857504844666	-0.002138886833563447	-0.05820312723517418	-0.019543606787919998	0.045551564544439316	-0.05514207482337952	-0.005062492098659277	0.059279102832078934	0.009385966695845127	0.05051349103450775	0.04631553217768669	-0.032028719782829285	0.0397450216114521	0.008850755169987679	0.06482147425413132	0.010613313876092434	-0.07283005118370056	0.09049810469150543	0.038339316844940186	0.04080764204263687	
-0.012552302330732346	-0.044020093977451324	0.049446992576122284	0.005772451404482126	0.05948430299758911	-0.05512329936027527	0.014772442169487476	-6.699257210129872e-05	-0.050477784126996994	0.11010043323040009	0.011853110045194626	0.056106384843587875	-0.030540771782398224	-0.17832863330841064	0.06788323074579239	-0.05127626284956932	0.0013919603079557419	-0.04682792350649834	-0.006300022825598717	-0.01427490171045065	-0.10664225369691849	0.07464726269245148	-0.024178074672818184	0.08228383213281631	0.0552101656794548	
0.08144835382699966	0.0013820489402860403	0.025367939844727516	-0.05853026732802391	-0.07086401432752609	-0.039092689752578735	-0.04363538324832916	0.08556158095598221	0.027150101959705353	-0.014194331131875515	-0.03123125433921814	-0.01424474734812975	-0.01603592187166214	-0.04953427240252495	-0.006462716963142157	-0.0313803106546402	0.037004485726356506	-0.15790827572345734	0.062213581055402756	-0.044099804013967514	0.07828210294246674	0.01867508701980114	0.018870877102017403	-0.0035294205881655216	-0.016099007800221443	
-0.026611333712935448	-0.04636051878333092	-0.03801336884498596	0.04346306249499321	-0.06902941316366196	-0.10193105041980743	-0.09855125099420547	0.03630905598402023	-0.10197941213846207	-0.06627967208623886	-0.02400624006986618	0.15065144002437592	-0.03990568220615387	-0.03135118633508682	0.030113140121102333	-0.07334256172180176	0.001836742158047855	-0.15711086988449097	0.01840720884501934	-0.060294292867183685	0.048044800758361816	-0.16616709530353546	-0.08481176942586899	-0.006163015961647034	-0.016384189948439598	
-0.018408935517072678	-0.0792417824268341	0.008143673650920391	0.08207770437002182	-0.06662667542695999	0.05657309666275978	-0.05920972675085068	0.06772737205028534	0.06080632656812668	-0.00351184094324708	0.014309226535260677	0.03891995549201965	0.022897303104400635	-0.13595815002918243	0.06077353283762932	0.1047385185956955	-0.02586788684129715	-0.059383608400821686	0.11136360466480255	0.03298228979110718	-0.005646298173815012	0.006203740835189819	0.07911017537117004	0.056920669972896576	-0.05756999924778938	
0.06942564994096756	0.07343722879886627	0.0031449561938643456	0.03144126385450363	-0.011048964224755764	0.10057811439037323	0.009501603431999683	-0.009094659239053726	-0.011165314354002476	0.03582565113902092	-0.03177366405725479	0.07101922482252121	0.046854324638843536	0.06877712160348892	0.007181974593549967	0.07033775001764297	0.04438139498233795	0.0017146471654996276	0.04894478991627693	0.02747698687016964	-0.08712940663099289	0.06269680708646774	0.0419350191950798	0.0314517542719841	-0.08019635081291199	
0.06656216830015182	0.011423245072364807	0.06578093022108078	-0.005389702506363392	0.0060304198414087296	-0.1070750504732132	-0.11645674705505371	0.11807481199502945	-0.012373961508274078	0.06651376187801361	-0.03034941293299198	0.0977502092719078	0.03966311365365982	-0.04071788117289543	-0.09610429406166077	-0.0018451424548402429	0.05281522497534752	-0.09358757734298706	-0.03172780200839043	0.16881363093852997	-0.06510067731142044	-0.01886594481766224	-0.02534630335867405	0.008277724497020245	-0.022349784150719643	
-0.03706508129835129	0.007968964986503124	-0.03392808139324188	-0.022790685296058655	0.03617562726140022	-0.09681300073862076	-0.04309042543172836	0.03556087985634804	-0.04620722681283951	0.009523704648017883	-0.0017655360279604793	-0.043813373893499374	0.02778606489300728	0.06593576818704605	0.01279504969716072	0.015266564674675465	-0.14988020062446594	0.012108208611607552	0.08542172610759735	-0.03989323601126671	-0.0027376243378967047	0.15139226615428925	-0.046555861830711365	0.007766674272716045	-0.05321838706731796	
-0.027818730100989342	-0.021515091881155968	-0.00847228616476059	0.00886826403439045	0.0290991123765707	0.013033346273005009	-0.008257250301539898	-0.06642352044582367	-0.0524858757853508	0.06070960685610771	0.04365583136677742	0.051238834857940674	-0.00343854702077806	0.05056881159543991	-0.06904018670320511	0.002439456759020686	-0.021657632663846016	-0.027190394699573517	-0.014940142631530762	0.0877557247877121	-0.020904019474983215	-0.01816399395465851	0.02279454842209816	0.09374122321605682	0.07362190634012222	
0.09500385820865631	0.09124014526605606	-0.05979609489440918	0.06513239443302155	-0.03578735142946243	-0.06070181354880333	0.04852001368999481	0.01336994394659996	0.0014538938412442803	0.028229713439941406	0.06672421842813492	-0.05196860432624817	0.048429302871227264	-0.009988682344555855	-0.060197871178388596	0.03390950709581375	0.03325195983052254	-0.018849216401576996	0.05800648406147957	0.012137601152062416	0.06854531168937683	-0.023004189133644104	-0.09089209884405136	0.009542643092572689	0.11759872734546661	
-0.026394754648208618	0.0801403596997261	0.13032467663288116	-0.04875100776553154	0.030743706971406937	0.04264722019433975	-0.05246526002883911	0.019615501165390015	-0.00779004255309701	-0.08653860539197922	0.008622733876109123	0.00499527994543314	-0.006820451933890581	0.02557746320962906	0.016464892774820328	0.08546547591686249	0.02869221568107605	-0.07201815396547318	0.041257478296756744	0.017170654609799385	-0.037548087537288666	-0.07565376162528992	0.05225824937224388	0.03542200103402138	0.010468201711773872	
0.034318018704652786	0.0505613349378109	-0.0144581850618124	-0.054673876613378525	0.006554783787578344	-0.05497370660305023	-0.024056240916252136	0.05751855671405792	-0.0146345729008317	-0.02631303295493126	0.009417890571057796	0.004988859873265028	0.08330697566270828	-0.009270286187529564	-0.05803115293383598	-0.04877076670527458	-0.0417223684489727	-0.013334168121218681	0.040328267961740494	0.044526197016239166	0.023389559239149094	-0.003451118478551507	0.025552650913596153	0.0763118714094162	-0.07560526579618454	
0.08218088746070862	-0.0752413347363472	-0.010271809063851833	-0.0850326344370842	0.0327337421476841	0.06666666269302368	0.06426731497049332	-0.039574336260557175	0.03951398283243179	-0.05533397197723389	0.05660996958613396	-0.10696547478437424	-0.05216006189584732	0.07047267258167267	-0.12039762735366821	-0.09010840207338333	0.09652788192033768	-0.06230400502681732	-0.017035754397511482	-0.0443725511431694	-0.08607460558414459	0.11816837638616562	-0.03590894490480423	0.04147429019212723	0.05732189491391182	
0.05235537886619568	0.07559265941381454	-0.05140160396695137	0.07447914779186249	-0.03394310548901558	-0.021673530340194702	0.03540676459670067	-0.04205050319433212	0.10058282315731049	-0.0584440752863884	-0.0575505793094635	0.07957816123962402	-0.012116925790905952	0.011240390129387379	0.057834919542074203	-0.08555784821510315	-0.03031129576265812	-0.028579093515872955	0.012173485942184925	-0.0647173672914505	0.07603207975625992	-0.03124726377427578	0.018024342134594917	-0.07121826708316803	0.12181713432073593	
-0.10306473076343536	-0.05951787158846855	0.017722882330417633	-0.10193055123090744	0.008891274221241474	0.004299533553421497	-0.024219350889325142	-0.05562000721693039	0.059175487607717514	0.04008138179779053	-0.03496091440320015	0.1003088429570198	-0.061599526554346085	0.07175610959529877	-0.07618992775678635	0.07334423810243607	-0.025670774281024933	0.03473414108157158	-0.07012316584587097	0.003056634683161974	0.01827443391084671	-0.0034118632320314646	0.009664459154009819	-0.04910806939005852	0.01155765075236559	
0.05410865321755409	-0.015476125292479992	-0.14100860059261322	0.03888004273176193	-0.10159648954868317	0.015485483221709728	-0.0104435496032238	-0.18185929954051971	0.05511314049363136	0.01757943443953991	-0.09078892320394516	-0.012943805195391178	-0.012272324413061142	-0.09607502073049545	-0.027478531002998352	0.03696480020880699	0.00733380438759923	-0.026534464210271835	-0.02084645815193653	-0.11649270355701447	-0.10978120565414429	0.04131418094038963	-0.10469168424606323	-0.11690684407949448	-0.012646608985960484	
0.02319309674203396	0.07212311774492264	0.03307395428419113	-0.016970554366707802	-0.05696011707186699	0.029838062822818756	0.07565932720899582	-0.008281830698251724	0.14410795271396637	-0.02702566422522068	0.009480047039687634	0.05415693297982216	-0.054763104766607285	-0.04900386556982994	-0.007071516010910273	-0.031583379954099655	-0.09468507021665573	-0.028264852240681648	0.01744980365037918	0.05268615484237671	-0.008199278265237808	-0.1251484453678131	-0.02376546524465084	0.030282407999038696	-0.016669534146785736	
0.021323660388588905	0.08269991725683212	0.09218844026327133	-0.0330706425011158	-0.21542580425739288	-0.053209900856018066	-0.12103493511676788	0.031891338527202606	0.022474225610494614	0.04463215917348862	0.025393566116690636	0.08304931968450546	0.07285118103027344	0.10398862510919571	-0.06655364483594894	-0.0008845495176501572	0.041299968957901	0.010010029189288616	-0.007965515367686749	-0.03567671403288841	-0.06168811023235321	0.006954103708267212	-0.06811997294425964	-0.00922704953700304	0.0020830724388360977	
-0.013256632722914219	-0.02484646625816822	0.04932885617017746	0.06458548456430435	-0.1308603584766388	0.0177298616617918	-0.04313937947154045	0.029371922835707664	0.0043982951901853085	0.007408837787806988	0.10910354554653168	0.04580552130937576	0.133090078830719	-0.06363342702388763	0.003503522602841258	-0.029794776812195778	-0.0014744088985025883	-0.026326648890972137	0.03484692424535751	0.010554726235568523	-0.0692039504647255	0.05486222356557846	0.02644515410065651	0.024341417476534843	0.08613996207714081	
0.019145069643855095	0.02043781988322735	0.0010413379641249776	0.077309750020504	-0.11993567645549774	0.03797787427902222	0.04486100748181343	-0.05757303535938263	0.0118846595287323	0.003530730726197362	0.10336451232433319	0.07211766391992569	-0.04903731867671013	0.007758227176964283	-0.11639020591974258	-0.02224144898355007	-0.06949770450592041	0.04017985612154007	-0.03463504835963249	-0.016209563240408897	0.028331154957413673	-0.09825355559587479	0.02018529735505581	0.0018456282559782267	-0.007460815366357565	
0.011883175931870937	0.04054155573248863	-0.04486987739801407	0.008021747693419456	-0.15207679569721222	-0.019289614632725716	0.029404416680336	0.044404033571481705	0.06792723387479782	-0.03857564553618431	-0.012335274368524551	-0.02489307150244713	-0.04452938959002495	-0.002419531112536788	0.04834038391709328	-0.018105996772646904	-0.04184790700674057	0.021374449133872986	0.0015815483639016747	0.07491904497146606	-0.06723594665527344	0.10882406681776047	-0.022435743361711502	-0.07427065074443817	-0.013831435702741146	
-0.004109664354473352	0.042543113231658936	-0.019478552043437958	0.046255502849817276	-0.12150238454341888	-0.006471566390246153	-0.156831756234169	-0.19661003351211548	0.12496113032102585	0.10011202096939087	0.025223830714821815	0.0034820735454559326	0.05790729448199272	-0.04029738903045654	0.05675770714879036	0.06983819603919983	-0.003967016935348511	-0.051195014268159866	-0.011061366647481918	0.06650497764348984	-0.020321428775787354	-0.06810306012630463	-0.075536347925663	-0.011973012238740921	-0.0388125516474247	
0.1567862629890442	-0.0012484450126066804	0.008407317101955414	0.014321168884634972	-0.06236264482140541	0.028652910143136978	0.027935994789004326	0.04649809002876282	-0.011870751157402992	-0.031138351187109947	-0.04698515683412552	0.03428464010357857	0.05959843099117279	0.030460240319371223	-0.011862113140523434	-0.06964410841464996	-0.02444077841937542	-0.061490047723054886	-0.06853634119033813	-0.10822062194347382	-0.07127349823713303	0.06497041136026382	-0.04638494551181793	-0.050925113260746	0.00251896888948977	
0.18457140028476715	0.035057466477155685	-0.060185983777046204	-0.07138098031282425	0.04449405521154404	0.037549152970314026	-0.15807437896728516	-0.09723944216966629	0.012518330477178097	-0.04563501477241516	0.05854678526520729	-0.020155522972345352	0.0022994226310402155	0.06258286535739899	0.06903088837862015	-0.040155019611120224	-0.030688513070344925	0.0781559869647026	0.07598859071731567	0.041130274534225464	-0.11912520974874496	-0.1606231927871704	-0.04658914729952812	0.11281104385852814	-0.021936524659395218	
-0.12510420382022858	-0.13499298691749573	-0.014770034700632095	-0.07844316214323044	-0.0011931562330573797	0.002431022934615612	-0.07606851309537888	-0.13071393966674805	0.07284710556268692	-0.04559434950351715	0.08885253965854645	-0.06142094358801842	0.014830728992819786	-0.10770181566476822	-0.044361766427755356	0.054845668375492096	-0.11530779302120209	-0.033178310841321945	0.0557536706328392	-0.07660707086324692	0.14552269876003265	-0.020528119057416916	0.07866069674491882	-0.09096994996070862	-0.12292245030403137	
-0.054186463356018066	0.01565714366734028	-0.06670167297124863	-0.02017197012901306	-0.06537984311580658	-0.034443508833646774	-0.07873645424842834	0.02686363272368908	0.0006372019997797906	0.03893466293811798	0.04398706182837486	0.10994245857000351	0.005748770199716091	-0.18941549956798553	-0.0992051512002945	0.05283592641353607	0.020356280729174614	-0.042964231222867966	0.11146803945302963	0.014820894226431847	-0.004768745508044958	0.0309696476906538	0.01207226887345314	0.06178894266486168	0.011436483822762966	
0.005762236658483744	-0.024844076484441757	0.060140810906887054	0.04382018744945526	-0.039655815809965134	0.011082509532570839	-0.003815945703536272	0.06946607679128647	0.13008750975131989	0.007596859708428383	-0.039236899465322495	-0.11057163774967194	-0.013371412642300129	0.053075313568115234	-0.0959402546286583	0.11433877795934677	0.01062849722802639	-0.002683560596778989	-0.035013698041439056	0.03058151714503765	-0.07529779523611069	0.009337196126580238	-0.03853648155927658	-0.03184463828802109	0.003139333100989461	
-0.02000960148870945	0.04518767073750496	-0.03714603930711746	-0.047910112887620926	-0.0001434485602658242	-0.010027493350207806	-0.046040017157793045	-0.029181810095906258	0.044270291924476624	0.02777802385389805	0.11038167029619217	-0.026410168036818504	0.048297468572854996	-0.03271131217479706	0.03912653774023056	0.03798990324139595	0.06220907345414162	0.022997621446847916	0.07465272396802902	-0.06449510902166367	0.05423092842102051	0.03509806469082832	-0.029455862939357758	0.02620299905538559	0.008391016162931919	
-0.09798581898212433	0.14070606231689453	0.09525202959775925	-0.00509587861597538	0.02403675764799118	0.02153562381863594	-0.035994403064250946	-0.011677302420139313	-0.06342428922653198	0.011008037254214287	0.035132717341184616	0.04550129175186157	0.09191552549600601	0.0115340081974864	0.0068661835975945	-0.024574771523475647	-0.008789341896772385	0.04305710643529892	0.12404710054397583	-0.020270859822630882	-0.014618834480643272	0.003857714356854558	-0.031135600060224533	-0.09544210135936737	-0.026348277926445007	
